# Created at Tue Jun 01 16:01:41 GMT+02:00 2021 in Burnaby Canada 
2303134173397 -0.000763 0.005035 0.011932 
2303154009822 -0.000763 0.005035 0.011932 
2303173815731 -0.000763 0.005035 0.011932 
2303193652156 -0.000763 0.005035 0.011932 
2303213458065 -0.000763 0.005035 0.011932 
2303233263973 -0.000763 0.005035 0.011932 
2303253069881 -0.000763 0.005035 0.011932 
2303272906307 -0.000763 0.005035 0.011932 
2303292742733 -0.000763 0.005035 0.011932 
2303312548641 -0.000763 0.005035 0.011932 
2303332385067 -0.000763 0.005035 0.011932 
2303352190975 -0.000763 0.005035 0.011932 
2303372027401 -0.000763 0.005035 0.011932 
2303391833309 -0.000763 0.005035 0.011932 
2303411639217 -0.000763 0.005035 0.011932 
2303431475643 -0.000763 0.005035 0.011932 
2303451281551 -0.000763 0.005035 0.011932 
2303471087459 -0.000763 0.005035 0.011932 
2303490923885 -0.000763 0.005035 0.011932 
2303510729793 -0.000763 0.005035 0.011932 
2303530535701 -0.000763 0.005035 0.011932 
2303550372127 -0.000763 0.005035 0.011932 
2303570208553 -0.000763 0.005035 0.011932 
2303590014461 -0.000763 0.005035 0.011932 
2303609850887 -0.000763 0.005035 0.011932 
2303629656795 -0.000763 0.005035 0.011932 
2303649493221 -0.000763 0.005035 0.011932 
2303669299129 -0.000763 0.005035 0.011932 
2303689105037 -0.000763 0.005035 0.011932 
2303708941463 -0.000763 0.005035 0.011932 
2303728747371 -0.000763 0.005035 0.011932 
2303748553280 -0.000763 0.005035 0.011932 
2303768389705 -0.000763 0.005035 0.011932 
2303788195613 -0.000763 0.005035 0.011932 
2303808001522 -0.000763 0.005035 0.011932 
2303827837947 -0.000763 0.005035 0.011932 
2303847674373 -0.000763 0.005035 0.011932 
2303867480281 -0.000763 0.005035 0.011932 
2303887316707 -0.000763 0.005035 0.011932 
2303907122615 -0.000763 0.005035 0.011932 
2303926928524 -0.000763 0.005035 0.011932 
2303946764949 -0.000763 0.005035 0.011932 
2303966570858 -0.000763 0.005035 0.011932 
2303986376766 -0.000763 0.005035 0.011932 
2304006213192 -0.000763 0.005035 0.011932 
2304026019100 -0.000763 0.005035 0.011932 
2304045855526 -0.000763 0.005035 0.011932 
2304065661434 -0.000763 0.005035 0.011932 
2304085467342 -0.000763 0.005035 0.011932 
2304105303768 -0.000763 0.005035 0.011932 
2304125109676 -0.000763 0.005035 0.011932 
2304144946102 -0.000763 0.005035 0.011932 
2304164782528 -0.000763 0.005035 0.011932 
2304184588436 -0.000763 0.005035 0.011932 
2304204394344 -0.000763 0.005035 0.011932 
2304224230770 -0.000763 0.005035 0.011932 
2304244036678 -0.000763 0.005035 0.011932 
2304263842586 -0.000763 0.005035 0.011932 
2304283679012 -0.000763 0.005035 0.011932 
2304303484920 -0.000763 0.005035 0.011932 
2304323290828 -0.000763 0.005035 0.011932 
2304343127254 -0.000763 0.005035 0.011932 
2304362933162 -0.000763 0.005035 0.011932 
2304382739071 -0.000763 0.005035 0.011932 
2304402575496 -0.000763 0.005035 0.011932 
2304422411922 -0.000763 0.005035 0.011932 
2304442217830 -0.000763 0.005035 0.011932 
2304462054256 -0.000763 0.005035 0.011932 
2304481860164 -0.000763 0.005035 0.011932 
2304501666072 -0.000763 0.005035 0.011932 
2304521502498 -0.000763 0.005035 0.011932 
2304541308406 -0.000763 0.005035 0.011932 
2304561144832 -0.000763 0.005035 0.011932 
2304580950740 -0.000763 0.005035 0.011932 
2304600756649 -0.000763 0.005035 0.011932 
2304620593074 -0.000763 0.005035 0.011932 
2304640398983 -0.000763 0.005035 0.011932 
2304660204891 -0.000763 0.005035 0.011932 
2304680041317 -0.000763 0.005035 0.011932 
2304699847225 -0.000763 0.005035 0.011932 
2304719683651 -0.000763 0.005035 0.011932 
2304739520076 -0.000763 0.005035 0.011932 
2304759325985 -0.000763 0.005035 0.011932 
2304779131893 -0.000763 0.005035 0.011932 
2304798968319 -0.000763 0.005035 0.011932 
2304818774227 -0.000763 0.005035 0.011932 
2304838580135 -0.000763 0.005035 0.011932 
2304858416561 -0.000763 0.005035 0.011932 
2304878222469 -0.000763 0.005035 0.011932 
2304898028377 -0.000763 0.005035 0.011932 
2304917864803 -0.000763 0.005035 0.011932 
2304937670711 -0.000763 0.005035 0.011932 
2304957476619 -0.000763 0.005035 0.011932 
2304977313045 -0.000763 0.005035 0.011932 
2304997149471 -0.000763 0.005035 0.011932 
2305016985897 -0.000763 0.005035 0.011932 
2305036791805 -0.000763 0.005035 0.011932 
2305056597713 -0.000763 0.005035 0.011932 
2305076434139 -0.000763 0.005035 0.011932 
2305096240047 -0.000763 0.005035 0.011932 
2305116045955 -0.000763 0.005035 0.011932 
2305135882381 -0.000763 0.005035 0.011932 
2305155688289 -0.000763 0.005035 0.011932 
2305175494197 -0.000763 0.005035 0.011932 
2305195330623 -0.000763 0.005035 0.011932 
2305215136531 -0.000763 0.005035 0.011932 
2305234942440 -0.000763 0.005035 0.011932 
2305254778865 -0.000763 0.005035 0.011932 
2305274584774 -0.000763 0.005035 0.011932 
2305294421199 -0.000763 0.005035 0.011932 
2305314257625 -0.000763 0.005035 0.011932 
2305334063533 -0.000763 0.005035 0.011932 
2305353869442 -0.000763 0.005035 0.011932 
2305373705867 -0.000763 0.005035 0.011932 
2305393511776 -0.000763 0.005035 0.011932 
2305413348201 -0.000763 0.005035 0.011932 
2305433154110 -0.000763 0.005035 0.011932 
2305452960018 -0.000763 0.005035 0.011932 
2305472796444 -0.000763 0.005035 0.011932 
2305492602352 -0.000763 0.005035 0.011932 
2305512408260 -0.000763 0.005035 0.011932 
2305532244686 -0.000763 0.005035 0.011932 
2305552050594 -0.000763 0.005035 0.011932 
2305571887020 -0.000763 0.005035 0.011932 
2305591723446 -0.000763 0.005035 0.011932 
2305611529354 -0.000763 0.005035 0.011932 
2305631335262 -0.000763 0.005035 0.011932 
2305651171688 -0.000763 0.005035 0.011932 
2305670977596 -0.000763 0.005035 0.011932 
2305690783504 -0.000763 0.005035 0.011932 
2305710619930 -0.000763 0.005035 0.011932 
2305730425838 -0.000763 0.005035 0.011932 
2305750231746 -0.000763 0.005035 0.011932 
2305770068172 -0.000763 0.005035 0.011932 
2305789874080 -0.000763 0.005035 0.011932 
2305809679988 -0.000763 0.005035 0.011932 
2305829516414 -0.000763 0.005035 0.011932 
2305849352840 -0.000763 0.005035 0.011932 
2305869189266 -0.000763 0.005035 0.011932 
2305888995174 -0.000763 0.005035 0.011932 
2305908801082 -0.000763 0.005035 0.011932 
2305928637508 -0.000763 0.005035 0.011932 
2305948443416 -0.000763 0.005035 0.011932 
2305968249324 -0.000763 0.005035 0.011932 
2305988085750 -0.000763 0.005035 0.011932 
2306007891658 -0.000763 0.005035 0.011932 
2306027697567 -0.000763 0.005035 0.011932 
2306047533992 -0.000763 0.005035 0.011932 
2306067339901 -0.000763 0.005035 0.011932 
2306087145809 -0.000763 0.005035 0.011932 
2306106982235 -0.000763 0.005035 0.011932 
2306126788143 -0.000763 0.005035 0.011932 
2306146624569 -0.000763 0.005035 0.011932 
2306166460994 -0.000763 0.005035 0.011932 
2306186266903 -0.000763 0.005035 0.011932 
2306206072811 -0.000763 0.005035 0.011932 
2306225909237 -0.000763 0.005035 0.011932 
2306245715145 -0.000763 0.005035 0.011932 
2306265521053 -0.000763 0.005035 0.011932 
2306285357479 -0.000763 0.005035 0.011932 
2306305163387 -0.000763 0.005035 0.011932 
2306324969295 -0.000763 0.005035 0.011932 
2306344805721 -0.000763 0.005035 0.011932 
2306364611629 -0.000763 0.005035 0.011932 
2306384448055 -0.000763 0.005035 0.011932 
2306404253963 -0.000763 0.005035 0.011932 
2306424090389 -0.000763 0.005035 0.011932 
2306443926815 -0.000763 0.005035 0.011932 
2306463732723 -0.000763 0.005035 0.011932 
2306483538631 -0.000763 0.005035 0.011932 
2306503375057 -0.000763 0.005035 0.011932 
2306523180965 -0.000763 0.005035 0.011932 
2306542986873 -0.000763 0.005035 0.011932 
2306562823299 -0.000763 0.005035 0.011932 
2306582629207 -0.000763 0.005035 0.011932 
2306602435115 -0.000763 0.005035 0.011932 
2306622271541 -0.000763 0.005035 0.011932 
2306642077449 -0.000763 0.005035 0.011932 
2306661883358 -0.000763 0.005035 0.011932 
2306681719783 -0.000763 0.005035 0.011932 
2306701525692 -0.000763 0.005035 0.011932 
2306721362117 -0.000763 0.005035 0.011932 
2306741198543 -0.000763 0.005035 0.011932 
2306761004451 -0.000763 0.005035 0.011932 
2306780810360 -0.000763 0.005035 0.011932 
2306800646785 -0.000763 0.005035 0.011932 
2306820452694 -0.000763 0.005035 0.011932 
2306840289119 -0.000763 0.005035 0.011932 
2306860095028 -0.000763 0.005035 0.011932 
2306879900936 -0.000763 0.005035 0.011932 
2306899737362 -0.000763 0.005035 0.011932 
2306919543270 -0.000763 0.005035 0.011932 
2306939349178 -0.000763 0.005035 0.011932 
2306959185604 -0.000763 0.005035 0.011932 
2306978991512 -0.000763 0.005035 0.011932 
2306998827938 -0.000763 0.005035 0.011932 
2307018664363 -0.000763 0.005035 0.011932 
2307038470272 -0.000763 0.005035 0.011932 
2307058276180 -0.000763 0.005035 0.011932 
2307078112606 -0.000763 0.005035 0.011932 
2307097918514 -0.000763 0.005035 0.011932 
2307117724422 -0.000763 0.005035 0.011932 
2307137560848 -0.000763 0.005035 0.011932 
2307157366756 -0.000763 0.005035 0.011932 
2307177172664 -0.000763 0.005035 0.011932 
2307197009090 -0.000763 0.005035 0.011932 
2307216814998 -0.000763 0.005035 0.011932 
2307236620906 -0.000763 0.005035 0.011932 
2307256457332 -0.000763 0.005035 0.011932 
2307276263240 -0.000763 0.005035 0.011932 
2307296099666 -0.000763 0.005035 0.011932 
2307315936092 -0.000763 0.005035 0.011932 
2307335742000 -0.000763 0.005035 0.011932 
2307355578426 -0.000763 0.005035 0.011932 
2307375384334 -0.000763 0.005035 0.011932 
2307395190242 -0.000763 0.005035 0.011932 
2307415026668 -0.000763 0.005035 0.011932 
2307434832576 -0.000763 0.005035 0.011932 
2307454638485 -0.000763 0.005035 0.011932 
2307474474910 -0.000763 0.005035 0.011932 
2307494280819 -0.000763 0.005035 0.011932 
2307514086727 -0.000763 0.005035 0.011932 
2307533923153 -0.000763 0.005035 0.011932 
2307553729061 -0.000763 0.005035 0.011932 
2307573565487 -0.000763 0.005035 0.011932 
2307593401912 -0.000763 0.005035 0.011932 
2307613207821 -0.000763 0.005035 0.011932 
2307633013729 -0.000763 0.005035 0.011932 
2307652850155 -0.000763 0.005035 0.011932 
2307672656063 -0.000763 0.005035 0.011932 
2307692461971 -0.000763 0.005035 0.011932 
2307712298397 -0.000763 0.005035 0.011932 
2307732104305 -0.000763 0.005035 0.011932 
2307751910213 -0.000763 0.005035 0.011932 
2307771746639 -0.000763 0.005035 0.011932 
2307791552547 -0.000763 0.005035 0.011932 
2307811358455 -0.000763 0.005035 0.011932 
2307831194881 -0.000763 0.005035 0.011932 
2307851000789 -0.000763 0.005035 0.011932 
2307870837215 -0.000763 0.005035 0.011932 
2307890673641 -0.000763 0.005035 0.011932 
2307910479549 -0.000763 0.005035 0.011932 
2307930315975 -0.000763 0.005035 0.011932 
2307950121883 -0.000763 0.005035 0.011932 
2307969927791 -0.000763 0.005035 0.011932 
2307989764217 -0.000763 0.005035 0.011932 
2308009570125 -0.000763 0.005035 0.011932 
2308029376033 -0.000763 0.005035 0.011932 
2308049212459 -0.000763 0.005035 0.011932 
2308069018367 -0.000763 0.005035 0.011932 
2308088824276 -0.000763 0.005035 0.011932 
2308108660701 -0.000763 0.005035 0.011932 
2308128466610 -0.000763 0.005035 0.011932 
2308148303035 -0.000763 0.005035 0.011932 
2308168139461 -0.000763 0.005035 0.011932 
2308187945369 -0.000763 0.005035 0.011932 
2308207751278 -0.000763 0.005035 0.011932 
2308227587703 -0.000763 0.005035 0.011932 
2308247393612 -0.000763 0.005035 0.011932 
2308267199520 -0.000763 0.005035 0.011932 
2308287035946 -0.000763 0.005035 0.011932 
2308306841854 -0.000763 0.005035 0.011932 
2308326678280 -0.000763 0.005035 0.011932 
2308346484188 -0.000763 0.005035 0.011932 
2308366290096 -0.000763 0.005035 0.011932 
2308386126522 -0.000763 0.005035 0.011932 
2308405932430 -0.000763 0.005035 0.011932 
2308425768856 -0.000763 0.005035 0.011932 
2308445605281 -0.000763 0.005035 0.011932 
2308465411190 -0.000763 0.005035 0.011932 
2308485217098 -0.000763 0.005035 0.011932 
2308505053524 -0.000763 0.005035 0.011932 
2308524859432 -0.000763 0.005035 0.011932 
2308544664140 -0.000763 0.005035 0.011932 
2308564500566 -0.000763 0.005035 0.011932 
2308584306474 -0.000763 0.005035 0.011932 
2308604112382 -0.000763 0.005035 0.011932 
2308623948808 -0.000763 0.005035 0.011932 
2308643754716 -0.000763 0.005035 0.011932 
2308663560624 -0.000763 0.005035 0.011932 
2308683397050 -0.000763 0.005035 0.011932 
2308703202958 -0.000763 0.005035 0.011932 
2308723039384 -0.000763 0.005035 0.011932 
2308742875810 -0.000763 0.005035 0.011932 
2308762681718 -0.000763 0.005035 0.011932 
2308782518144 -0.000763 0.005035 0.011932 
2308802324052 -0.000763 0.005035 0.011932 
2308822129960 -0.000763 0.005035 0.011932 
2308841966386 -0.000763 0.005035 0.011932 
2308861772294 -0.000763 0.005035 0.011932 
2308881578203 -0.000763 0.005035 0.011932 
2308901414628 -0.000763 0.005035 0.011932 
2308921220537 -0.000763 0.005035 0.011932 
2308941026445 -0.000763 0.005035 0.011932 
2308960862871 -0.000763 0.005035 0.011932 
2308980668779 -0.000763 0.005035 0.011932 
2309000505205 -0.000763 0.005035 0.011932 
2309020341630 -0.000763 0.005035 0.011932 
2309040147538 -0.000763 0.005035 0.011932 
2309059953447 -0.000763 0.005035 0.011932 
2309079789872 -0.000763 0.005035 0.011932 
2309099595781 -0.000763 0.005035 0.011932 
2309119401689 -0.000763 0.005035 0.011932 
2309139238115 -0.000763 0.005035 0.011932 
2309159044023 -0.000763 0.005035 0.011932 
2309178849931 -0.000763 0.005035 0.011932 
2309198686357 -0.000763 0.005035 0.011932 
2309218492265 -0.000763 0.005035 0.011932 
2309238298173 -0.000763 0.005035 0.011932 
2309258134599 -0.000763 0.005035 0.011932 
2309277940507 -0.000763 0.005035 0.011932 
2309297776933 -0.000763 0.005035 0.011932 
2309317613359 -0.000763 0.005035 0.011932 
2309337419267 -0.000763 0.005035 0.011932 
2309357255693 -0.000763 0.005035 0.011932 
2309377061601 -0.000763 0.005035 0.011932 
2309396867509 -0.000763 0.005035 0.011932 
2309416703935 -0.000763 0.005035 0.011932 
2309436509843 -0.000763 0.005035 0.011932 
2309456315751 -0.000763 0.005035 0.011932 
2309476152177 -0.000763 0.005035 0.011932 
2309495958085 -0.000763 0.005035 0.011932 
2309515763994 -0.000763 0.005035 0.011932 
2309535600419 -0.000763 0.005035 0.011932 
2309555406328 -0.000763 0.005035 0.011932 
2309575242753 -0.000763 0.005035 0.011932 
2309595079179 -0.000763 0.005035 0.011932 
2309614885087 -0.000763 0.005035 0.011932 
2309634690996 -0.000763 0.005035 0.011932 
2309654527421 -0.000763 0.005035 0.011932 
2309674333330 -0.000763 0.005035 0.011932 
2309694139238 -0.000763 0.005035 0.011932 
2309713975663 -0.000763 0.005035 0.011932 
2309733781572 -0.000763 0.005035 0.011932 
2309753587480 -0.000763 0.005035 0.011932 
2309773423906 -0.000763 0.005035 0.011932 
2309793229814 -0.000763 0.005035 0.011932 
2309813035722 -0.000763 0.005035 0.011932 
2309832872148 -0.000763 0.005035 0.011932 
2309852678056 -0.000763 0.005035 0.011932 
2309872514482 -0.000763 0.005035 0.011932 
2309892350908 -0.000763 0.005035 0.011932 
2309912156816 -0.000763 0.005035 0.011932 
2309931993242 -0.000763 0.005035 0.011932 
2309951799150 -0.000763 0.005035 0.011932 
2309971605058 -0.000763 0.005035 0.011932 
2309991441484 -0.000763 0.005035 0.011932 
2310011247392 -0.000763 0.005035 0.011932 
2310031053300 -0.000763 0.005035 0.011932 
2310050889726 -0.000763 0.005035 0.011932 
2310070695634 -0.000763 0.005035 0.011932 
2310090532060 -0.000763 0.005035 0.011932 
2310110337968 -0.000763 0.005035 0.011932 
2310130143876 -0.000763 0.005035 0.011932 
2310149980302 -0.000763 0.005035 0.011932 
2310169816728 -0.000763 0.005035 0.011932 
2310189622636 -0.000763 0.005035 0.011932 
2310209428544 -0.000763 0.005035 0.011932 
2310229264970 -0.000763 0.005035 0.011932 
2310249070878 -0.000763 0.005035 0.011932 
2310268907304 -0.000763 0.005035 0.011932 
2310288713212 -0.000763 0.005035 0.011932 
2310308519121 -0.000763 0.005035 0.011932 
2310328355546 -0.000763 0.005035 0.011932 
2310348161455 -0.000763 0.005035 0.011932 
2310367967363 -0.000763 0.005035 0.011932 
2310387803788 -0.000763 0.005035 0.011932 
2310407609697 -0.000763 0.005035 0.011932 
2310427446122 -0.000763 0.005035 0.011932 
2310447282548 -0.000763 0.005035 0.011932 
2310467088456 -0.000763 0.005035 0.011932 
2310486924882 -0.000763 0.005035 0.011932 
2310506730790 -0.000763 0.005035 0.011932 
2310526536699 -0.000763 0.005035 0.011932 
2310546373124 -0.000763 0.005035 0.011932 
2310566179033 -0.000763 0.005035 0.011932 
2310585984941 -0.000763 0.005035 0.011932 
2310605821367 -0.000763 0.005035 0.011932 
2310625627275 -0.000763 0.005035 0.011932 
2310645433183 -0.000763 0.005035 0.011932 
2310665269609 -0.000763 0.005035 0.011932 
2310685075517 -0.000763 0.005035 0.011932 
2310704881425 -0.000763 0.005035 0.011932 
2310724717851 -0.000763 0.005035 0.011932 
2310744554277 -0.000763 0.005035 0.011932 
2310764360185 -0.000763 0.005035 0.011932 
2310784196611 -0.000763 0.005035 0.011932 
2310804002519 -0.000763 0.005035 0.011932 
2310823808427 -0.000763 0.005035 0.011932 
2310843644853 -0.000763 0.005035 0.011932 
2310863450761 -0.000763 0.005035 0.011932 
2310883256669 -0.000763 0.005035 0.011932 
2310903093095 -0.000763 0.005035 0.011932 
2310922899003 -0.000763 0.005035 0.011932 
2310942735429 -0.000763 0.005035 0.011932 
2310962541337 -0.000763 0.005035 0.011932 
2310982347246 -0.000763 0.005035 0.011932 
2311002183671 -0.000763 0.005035 0.011932 
2311022020097 -0.000763 0.005035 0.011932 
2311041826005 -0.000763 0.005035 0.011932 
2311061662431 -0.000763 0.005035 0.011932 
2311081468339 -0.000763 0.005035 0.011932 
