# Created at Tue Jun 01 16:01:23 GMT+02:00 2021 in Burnaby Canada 
2285191091398 -0.000717 0.004669 0.011963 
2285210897306 -0.000717 0.004669 0.011963 
2285230703214 -0.000717 0.004669 0.011963 
2285250539640 -0.000717 0.004669 0.011963 
2285270376066 -0.000717 0.004669 0.011963 
2285290181974 -0.000717 0.004669 0.011963 
2285310018400 -0.000717 0.004669 0.011963 
2285329824308 -0.000717 0.004669 0.011963 
2285349660734 -0.000717 0.004669 0.011963 
2285369466642 -0.000717 0.004669 0.011963 
2285389272550 -0.000717 0.004669 0.011963 
2285409108976 -0.000717 0.004669 0.011963 
2285428914884 -0.000717 0.004669 0.011963 
2285448720792 -0.000717 0.004669 0.011963 
2285468557218 -0.000717 0.004669 0.011963 
2285488363126 -0.000717 0.004669 0.011963 
2285508169035 -0.000717 0.004669 0.011963 
2285528005460 -0.000717 0.004669 0.011963 
2285547841886 -0.000717 0.004669 0.011963 
2285567647794 -0.000717 0.004669 0.011963 
2285587484220 -0.000717 0.004669 0.011963 
2285607290128 -0.000717 0.004669 0.011963 
2285627096037 -0.000717 0.004669 0.011963 
2285646932462 -0.000717 0.004669 0.011963 
2285666738371 -0.000717 0.004669 0.011963 
2285686544279 -0.000717 0.004669 0.011963 
2285706380705 -0.000717 0.004669 0.011963 
2285726186613 -0.000717 0.004669 0.011963 
2285745992521 -0.000717 0.004669 0.011963 
2285765828947 -0.000717 0.004669 0.011963 
2285785634855 -0.000717 0.004669 0.011963 
2285805440763 -0.000717 0.004669 0.011963 
2285825277189 -0.000717 0.004669 0.011963 
2285845113615 -0.000717 0.004669 0.011963 
2285864919523 -0.000717 0.004669 0.011963 
2285884755949 -0.000717 0.004669 0.011963 
2285904561857 -0.000717 0.004669 0.011963 
2285924367765 -0.000717 0.004669 0.011963 
2285944204191 -0.000717 0.004669 0.011963 
2285964010099 -0.000717 0.004669 0.011963 
2285983816007 -0.000717 0.004669 0.011963 
2286003652433 -0.000717 0.004669 0.011963 
2286023458341 -0.000717 0.004669 0.011963 
2286043264249 -0.000717 0.004669 0.011963 
2286063100675 -0.000717 0.004669 0.011963 
2286082906583 -0.000717 0.004669 0.011963 
2286102743009 -0.000717 0.004669 0.011963 
2286122579435 -0.000717 0.004669 0.011963 
2286142385343 -0.000717 0.004669 0.011963 
2286162221769 -0.000717 0.004669 0.011963 
2286182027677 -0.000717 0.004669 0.011963 
2286201833585 -0.000717 0.004669 0.011963 
2286221670011 -0.000717 0.004669 0.011963 
2286241475919 -0.000717 0.004669 0.011963 
2286261281828 -0.000717 0.004669 0.011963 
2286281118253 -0.000717 0.004669 0.011963 
2286300924162 -0.000717 0.004669 0.011963 
2286320730070 -0.000717 0.004669 0.011963 
2286340566496 -0.000717 0.004669 0.011963 
2286360372404 -0.000717 0.004669 0.011963 
2286380178312 -0.000717 0.004669 0.011963 
2286400014738 -0.000717 0.004669 0.011963 
2286419851164 -0.000717 0.004669 0.011963 
2286439657072 -0.000717 0.004669 0.011963 
2286459493498 -0.000717 0.004669 0.011963 
2286479299406 -0.000717 0.004669 0.011963 
2286499105314 -0.000717 0.004669 0.011963 
2286518941740 -0.000717 0.004669 0.011963 
2286538747648 -0.000717 0.004669 0.011963 
2286558553556 -0.000717 0.004669 0.011963 
2286578389982 -0.000717 0.004669 0.011963 
2286598195890 -0.000717 0.004669 0.011963 
2286618001798 -0.000717 0.004669 0.011963 
2286637838224 -0.000717 0.004669 0.011963 
2286657644132 -0.000717 0.004669 0.011963 
2286677450040 -0.000717 0.004669 0.011963 
2286697286466 -0.000717 0.004669 0.011963 
2286717122892 -0.000717 0.004669 0.011963 
2286736928800 -0.000717 0.004669 0.011963 
2286756765226 -0.000717 0.004669 0.011963 
2286776571134 -0.000717 0.004669 0.011963 
2286796377042 -0.000717 0.004669 0.011963 
2286816213468 -0.000717 0.004669 0.011963 
2286836019376 -0.000717 0.004669 0.011963 
2286855855802 -0.000717 0.004669 0.011963 
2286875661710 -0.000717 0.004669 0.011963 
2286895467619 -0.000717 0.004669 0.011963 
2286915304044 -0.000717 0.004669 0.011963 
2286935109953 -0.000717 0.004669 0.011963 
2286954915861 -0.000717 0.004669 0.011963 
2286974752287 -0.000717 0.004669 0.011963 
2286994588712 -0.000717 0.004669 0.011963 
2287014394621 -0.000717 0.004669 0.011963 
2287034231046 -0.000717 0.004669 0.011963 
2287054036955 -0.000717 0.004669 0.011963 
2287073842863 -0.000717 0.004669 0.011963 
2287093679289 -0.000717 0.004669 0.011963 
2287113485197 -0.000717 0.004669 0.011963 
2287133291105 -0.000717 0.004669 0.011963 
2287153127531 -0.000717 0.004669 0.011963 
2287172933439 -0.000717 0.004669 0.011963 
2287192739347 -0.000717 0.004669 0.011963 
2287212575773 -0.000717 0.004669 0.011963 
2287232381681 -0.000717 0.004669 0.011963 
2287252218107 -0.000717 0.004669 0.011963 
2287272054533 -0.000717 0.004669 0.011963 
2287291860441 -0.000717 0.004669 0.011963 
2287311666349 -0.000717 0.004669 0.011963 
2287331502775 -0.000717 0.004669 0.011963 
2287351308683 -0.000717 0.004669 0.011963 
2287371114591 -0.000717 0.004669 0.011963 
2287390951017 -0.000717 0.004669 0.011963 
2287410756925 -0.000717 0.004669 0.011963 
2287430562833 -0.000717 0.004669 0.011963 
2287450399259 -0.000717 0.004669 0.011963 
2287470205167 -0.000717 0.004669 0.011963 
2287490011076 -0.000717 0.004669 0.011963 
2287509847501 -0.000717 0.004669 0.011963 
2287529653410 -0.000717 0.004669 0.011963 
2287549489835 -0.000717 0.004669 0.011963 
2287569326261 -0.000717 0.004669 0.011963 
2287589132169 -0.000717 0.004669 0.011963 
2287608968595 -0.000717 0.004669 0.011963 
2287628774503 -0.000717 0.004669 0.011963 
2287648580412 -0.000717 0.004669 0.011963 
2287668416837 -0.000717 0.004669 0.011963 
2287688222746 -0.000717 0.004669 0.011963 
2287708028654 -0.000717 0.004669 0.011963 
2287727865080 -0.000717 0.004669 0.011963 
2287747670988 -0.000717 0.004669 0.011963 
2287767476896 -0.000717 0.004669 0.011963 
2287787313322 -0.000717 0.004669 0.011963 
2287807119230 -0.000717 0.004669 0.011963 
2287826955656 -0.000717 0.004669 0.011963 
2287846792081 -0.000717 0.004669 0.011963 
2287866597990 -0.000717 0.004669 0.011963 
2287886434415 -0.000717 0.004669 0.011963 
2287906240324 -0.000717 0.004669 0.011963 
2287926046232 -0.000717 0.004669 0.011963 
2287945882658 -0.000717 0.004669 0.011963 
2287965688566 -0.000717 0.004669 0.011963 
2287985494474 -0.000717 0.004669 0.011963 
2288005330900 -0.000717 0.004669 0.011963 
2288025136808 -0.000717 0.004669 0.011963 
2288044942716 -0.000717 0.004669 0.011963 
2288064779142 -0.000717 0.004669 0.011963 
2288084585050 -0.000717 0.004669 0.011963 
2288104390958 -0.000717 0.004669 0.011963 
2288124227384 -0.000717 0.004669 0.011963 
2288144063810 -0.000717 0.004669 0.011963 
2288163869718 -0.000717 0.004669 0.011963 
2288183706144 -0.000717 0.004669 0.011963 
2288203512052 -0.000717 0.004669 0.011963 
2288223317960 -0.000717 0.004669 0.011963 
2288243154386 -0.000717 0.004669 0.011963 
2288262960294 -0.000717 0.004669 0.011963 
2288282766203 -0.000717 0.004669 0.011963 
2288302602628 -0.000717 0.004669 0.011963 
2288322408537 -0.000717 0.004669 0.011963 
2288342244962 -0.000717 0.004669 0.011963 
2288362050871 -0.000717 0.004669 0.011963 
2288381856779 -0.000717 0.004669 0.011963 
2288401693205 -0.000717 0.004669 0.011963 
2288421529630 -0.000717 0.004669 0.011963 
2288441335539 -0.000717 0.004669 0.011963 
2288461171964 -0.000717 0.004669 0.011963 
2288480977873 -0.000717 0.004669 0.011963 
2288500783781 -0.000717 0.004669 0.011963 
2288520620206 -0.000717 0.004669 0.011963 
2288540430571 -0.000717 0.004669 0.011963 
2288560236479 -0.000717 0.004669 0.011963 
2288580072905 -0.000717 0.004669 0.011963 
2288599878813 -0.000717 0.004669 0.011963 
2288619684721 -0.000717 0.004669 0.011963 
2288639521147 -0.000717 0.004669 0.011963 
2288659327055 -0.000717 0.004669 0.011963 
2288679132963 -0.000717 0.004669 0.011963 
2288698969389 -0.000717 0.004669 0.011963 
2288718805815 -0.000717 0.004669 0.011963 
2288738611723 -0.000717 0.004669 0.011963 
2288758448149 -0.000717 0.004669 0.011963 
2288778254057 -0.000717 0.004669 0.011963 
2288798090483 -0.000717 0.004669 0.011963 
2288817896391 -0.000717 0.004669 0.011963 
2288837702299 -0.000717 0.004669 0.011963 
2288857538725 -0.000717 0.004669 0.011963 
2288877344633 -0.000717 0.004669 0.011963 
2288897150541 -0.000717 0.004669 0.011963 
2288916986967 -0.000717 0.004669 0.011963 
2288936792875 -0.000717 0.004669 0.011963 
2288956598784 -0.000717 0.004669 0.011963 
2288976435209 -0.000717 0.004669 0.011963 
2288996271635 -0.000717 0.004669 0.011963 
2289016077543 -0.000717 0.004669 0.011963 
2289035913969 -0.000717 0.004669 0.011963 
2289055719877 -0.000717 0.004669 0.011963 
2289075525786 -0.000717 0.004669 0.011963 
2289095362211 -0.000717 0.004669 0.011963 
2289115168120 -0.000717 0.004669 0.011963 
2289134974028 -0.000717 0.004669 0.011963 
2289154810454 -0.000717 0.004669 0.011963 
2289174616362 -0.000717 0.004669 0.011963 
2289194422270 -0.000717 0.004669 0.011963 
2289214258696 -0.000717 0.004669 0.011963 
2289234064604 -0.000717 0.004669 0.011963 
2289253901030 -0.000717 0.004669 0.011963 
2289273737455 -0.000717 0.004669 0.011963 
2289293543364 -0.000717 0.004669 0.011963 
2289313379789 -0.000717 0.004669 0.011963 
2289333185698 -0.000717 0.004669 0.011963 
2289352991606 -0.000717 0.004669 0.011963 
2289372828032 -0.000717 0.004669 0.011963 
2289392633940 -0.000717 0.004669 0.011963 
2289412439848 -0.000717 0.004669 0.011963 
2289432276274 -0.000717 0.004669 0.011963 
2289452082182 -0.000717 0.004669 0.011963 
2289471888090 -0.000717 0.004669 0.011963 
2289491724516 -0.000717 0.004669 0.011963 
2289511530424 -0.000717 0.004669 0.011963 
2289531336332 -0.000717 0.004669 0.011963 
2289551172758 -0.000717 0.004669 0.011963 
2289571009184 -0.000717 0.004669 0.011963 
2289590815092 -0.000717 0.004669 0.011963 
2289610651518 -0.000717 0.004669 0.011963 
2289630457426 -0.000717 0.004669 0.011963 
2289650293852 -0.000717 0.004669 0.011963 
2289670099760 -0.000717 0.004669 0.011963 
2289689905668 -0.000717 0.004669 0.011963 
2289709711577 -0.000717 0.004669 0.011963 
2289729548002 -0.000717 0.004669 0.011963 
2289749353911 -0.000717 0.004669 0.011963 
2289769159819 -0.000717 0.004669 0.011963 
2289788996245 -0.000717 0.004669 0.011963 
2289808802153 -0.000717 0.004669 0.011963 
2289828638579 -0.000717 0.004669 0.011963 
2289848475004 -0.000717 0.004669 0.011963 
2289868280912 -0.000717 0.004669 0.011963 
2289888117338 -0.000717 0.004669 0.011963 
2289907923246 -0.000717 0.004669 0.011963 
2289927729155 -0.000717 0.004669 0.011963 
2289947565580 -0.000717 0.004669 0.011963 
2289967371489 -0.000717 0.004669 0.011963 
2289987177397 -0.000717 0.004669 0.011963 
2290007013823 -0.000717 0.004669 0.011963 
2290026819731 -0.000717 0.004669 0.011963 
2290046656157 -0.000717 0.004669 0.011963 
2290066462065 -0.000717 0.004669 0.011963 
2290086267973 -0.000717 0.004669 0.011963 
2290106104399 -0.000717 0.004669 0.011963 
2290125940825 -0.000717 0.004669 0.011963 
2290145746733 -0.000717 0.004669 0.011963 
2290165583159 -0.000717 0.004669 0.011963 
2290185389067 -0.000717 0.004669 0.011963 
2290205194975 -0.000717 0.004669 0.011963 
2290225031401 -0.000717 0.004669 0.011963 
2290244837309 -0.000717 0.004669 0.011963 
2290264643217 -0.000717 0.004669 0.011963 
2290284479643 -0.000717 0.004669 0.011963 
2290304285551 -0.000717 0.004669 0.011963 
2290324091459 -0.000717 0.004669 0.011963 
2290343927885 -0.000717 0.004669 0.011963 
2290363733793 -0.000717 0.004669 0.011963 
2290383539702 -0.000717 0.004669 0.011963 
2290403376127 -0.000717 0.004669 0.011963 
2290423212553 -0.000717 0.004669 0.011963 
2290443048979 -0.000717 0.004669 0.011963 
2290462854887 -0.000717 0.004669 0.011963 
2290482660795 -0.000717 0.004669 0.011963 
2290502497221 -0.000717 0.004669 0.011963 
2290522303129 -0.000717 0.004669 0.011963 
2290542109037 -0.000717 0.004669 0.011963 
2290561945463 -0.000717 0.004669 0.011963 
2290581751371 -0.000717 0.004669 0.011963 
2290601557280 -0.000717 0.004669 0.011963 
2290621393705 -0.000717 0.004669 0.011963 
2290641199614 -0.000717 0.004669 0.011963 
2290661005522 -0.000717 0.004669 0.011963 
2290680841948 -0.000717 0.004669 0.011963 
2290700678373 -0.000717 0.004669 0.011963 
2290720484282 -0.000717 0.004669 0.011963 
2290740320707 -0.000717 0.004669 0.011963 
2290760126616 -0.000717 0.004669 0.011963 
2290779932524 -0.000717 0.004669 0.011963 
