# Created at Tue Jun 01 15:49:04 GMT+02:00 2021 in Burnaby Canada 
1546348581313 -0.000717 0.005264 0.012039 
1546368417739 -0.000717 0.005264 0.012039 
1546388223647 -0.000717 0.005264 0.012039 
1546408060073 -0.000717 0.005264 0.012039 
1546427865981 -0.000717 0.005264 0.012039 
1546447671889 -0.000717 0.005264 0.012039 
1546467508315 -0.000717 0.005264 0.012039 
1546487344741 -0.000717 0.005264 0.012039 
1546507150649 -0.000717 0.005264 0.012039 
1546526956557 -0.000717 0.005264 0.012039 
1546546792983 -0.000717 0.005264 0.012039 
1546566598891 -0.000717 0.005264 0.012039 
1546586404799 -0.000717 0.005264 0.012039 
1546606241225 -0.000717 0.005264 0.012039 
1546626047133 -0.000717 0.005264 0.012039 
1546645853042 -0.000717 0.005264 0.012039 
1546665689467 -0.000717 0.005264 0.012039 
1546685495376 -0.000717 0.005264 0.012039 
1546705301284 -0.000717 0.005264 0.012039 
1546725137710 -0.000717 0.005264 0.012039 
1546744974135 -0.000717 0.005264 0.012039 
1546764780043 -0.000717 0.005264 0.012039 
1546784616469 -0.000717 0.005264 0.012039 
1546804422377 -0.000717 0.005264 0.012039 
1546824228286 -0.000717 0.005264 0.012039 
1546844064711 -0.000717 0.005264 0.012039 
1546863870620 -0.000717 0.005264 0.012039 
1546883676528 -0.000717 0.005264 0.012039 
1546903512954 -0.000717 0.005264 0.012039 
1546923318862 -0.000717 0.005264 0.012039 
1546943124770 -0.000717 0.005264 0.012039 
1546962961196 -0.000717 0.005264 0.012039 
1546982767104 -0.000717 0.005264 0.012039 
1547002573012 -0.000717 0.005264 0.012039 
1547022409438 -0.000717 0.005264 0.012039 
1547042245864 -0.000717 0.005264 0.012039 
1547062051772 -0.000717 0.005264 0.012039 
1547081888198 -0.000717 0.005264 0.012039 
1547101694106 -0.000717 0.005264 0.012039 
1547121500014 -0.000717 0.005264 0.012039 
1547141336440 -0.000717 0.005264 0.012039 
1547161142348 -0.000717 0.005264 0.012039 
1547180948256 -0.000717 0.005264 0.012039 
1547200754165 -0.000717 0.005264 0.012039 
1547220590590 -0.000717 0.005264 0.012039 
1547240396499 -0.000717 0.005264 0.012039 
1547260232924 -0.000717 0.005264 0.012039 
1547280038833 -0.000717 0.005264 0.012039 
1547299844741 -0.000717 0.005264 0.012039 
1547319681167 -0.000717 0.005264 0.012039 
1547339517592 -0.000717 0.005264 0.012039 
1547359323501 -0.000717 0.005264 0.012039 
1547379159926 -0.000717 0.005264 0.012039 
1547398965835 -0.000717 0.005264 0.012039 
1547418771743 -0.000717 0.005264 0.012039 
1547438608168 -0.000717 0.005264 0.012039 
1547458414077 -0.000717 0.005264 0.012039 
1547478219985 -0.000717 0.005264 0.012039 
1547498056411 -0.000717 0.005264 0.012039 
1547517862319 -0.000717 0.005264 0.012039 
1547537668227 -0.000717 0.005264 0.012039 
1547557504653 -0.000717 0.005264 0.012039 
1547577310561 -0.000717 0.005264 0.012039 
1547597116469 -0.000717 0.005264 0.012039 
1547616952895 -0.000717 0.005264 0.012039 
1547636789321 -0.000717 0.005264 0.012039 
1547656595229 -0.000717 0.005264 0.012039 
1547676431655 -0.000717 0.005264 0.012039 
1547696237563 -0.000717 0.005264 0.012039 
1547716043471 -0.000717 0.005264 0.012039 
1547735849379 -0.000717 0.005264 0.012039 
1547755685805 -0.000717 0.005264 0.012039 
1547775491713 -0.000717 0.005264 0.012039 
1547795297622 -0.000717 0.005264 0.012039 
1547815134047 -0.000717 0.005264 0.012039 
1547834939956 -0.000717 0.005264 0.012039 
1547854776381 -0.000717 0.005264 0.012039 
1547874582290 -0.000717 0.005264 0.012039 
1547894418715 -0.000717 0.005264 0.012039 
1547914255141 -0.000717 0.005264 0.012039 
1547934061049 -0.000717 0.005264 0.012039 
1547953866958 -0.000717 0.005264 0.012039 
1547973703383 -0.000717 0.005264 0.012039 
1547993509292 -0.000717 0.005264 0.012039 
1548013315200 -0.000717 0.005264 0.012039 
1548033121108 -0.000717 0.005264 0.012039 
1548052957534 -0.000717 0.005264 0.012039 
1548072763442 -0.000717 0.005264 0.012039 
1548092569350 -0.000717 0.005264 0.012039 
1548112405776 -0.000717 0.005264 0.012039 
1548132211684 -0.000717 0.005264 0.012039 
1548152017592 -0.000717 0.005264 0.012039 
1548171854018 -0.000717 0.005264 0.012039 
1548191690444 -0.000717 0.005264 0.012039 
1548211496352 -0.000717 0.005264 0.012039 
1548231332778 -0.000717 0.005264 0.012039 
1548251138686 -0.000717 0.005264 0.012039 
1548270944594 -0.000717 0.005264 0.012039 
1548290781020 -0.000717 0.005264 0.012039 
1548310586928 -0.000717 0.005264 0.012039 
1548330392836 -0.000717 0.005264 0.012039 
1548350229262 -0.000717 0.005264 0.012039 
1548370035170 -0.000717 0.005264 0.012039 
1548389841079 -0.000717 0.005264 0.012039 
1548409677504 -0.000717 0.005264 0.012039 
1548429483413 -0.000717 0.005264 0.012039 
1548449289321 -0.000717 0.005264 0.012039 
1548469125747 -0.000717 0.005264 0.012039 
1548488946998 -0.000717 0.005264 0.012039 
1548508752907 -0.000717 0.005264 0.012039 
1548528589332 -0.000717 0.005264 0.012039 
1548548395241 -0.000717 0.005264 0.012039 
1548568201149 -0.000717 0.005264 0.012039 
1548588037575 -0.000717 0.005264 0.012039 
1548607843483 -0.000717 0.005264 0.012039 
1548627649391 -0.000717 0.005264 0.012039 
1548647485817 -0.000717 0.005264 0.012039 
1548667291725 -0.000717 0.005264 0.012039 
1548687097633 -0.000717 0.005264 0.012039 
1548706934059 -0.000717 0.005264 0.012039 
1548726739967 -0.000717 0.005264 0.012039 
1548746576393 -0.000717 0.005264 0.012039 
1548766412819 -0.000717 0.005264 0.012039 
1548786218727 -0.000717 0.005264 0.012039 
1548806024635 -0.000717 0.005264 0.012039 
1548825861061 -0.000717 0.005264 0.012039 
1548845666969 -0.000717 0.005264 0.012039 
1548865472877 -0.000717 0.005264 0.012039 
1548885309303 -0.000717 0.005264 0.012039 
1548905115211 -0.000717 0.005264 0.012039 
1548924921119 -0.000717 0.005264 0.012039 
1548944757545 -0.000717 0.005264 0.012039 
1548964563453 -0.000717 0.005264 0.012039 
1548984369362 -0.000717 0.005264 0.012039 
1549004205787 -0.000717 0.005264 0.012039 
1549024011696 -0.000717 0.005264 0.012039 
1549043848121 -0.000717 0.005264 0.012039 
1549063684547 -0.000717 0.005264 0.012039 
1549083490455 -0.000717 0.005264 0.012039 
1549103296364 -0.000717 0.005264 0.012039 
1549123132789 -0.000717 0.005264 0.012039 
1549142938698 -0.000717 0.005264 0.012039 
1549162744606 -0.000717 0.005264 0.012039 
1549182581032 -0.000717 0.005264 0.012039 
1549202386940 -0.000717 0.005264 0.012039 
1549222192848 -0.000717 0.005264 0.012039 
1549242029274 -0.000717 0.005264 0.012039 
1549261835182 -0.000717 0.005264 0.012039 
1549281641090 -0.000717 0.005264 0.012039 
1549301477516 -0.000717 0.005264 0.012039 
1549321313942 -0.000717 0.005264 0.012039 
1549341119850 -0.000717 0.005264 0.012039 
1549360956276 -0.000717 0.005264 0.012039 
1549380762184 -0.000717 0.005264 0.012039 
1549400568092 -0.000717 0.005264 0.012039 
1549420404518 -0.000717 0.005264 0.012039 
1549440210426 -0.000717 0.005264 0.012039 
1549460016334 -0.000717 0.005264 0.012039 
1549479852760 -0.000717 0.005264 0.012039 
1549499658668 -0.000717 0.005264 0.012039 
1549519464577 -0.000717 0.005264 0.012039 
1549539301002 -0.000717 0.005264 0.012039 
1549559106911 -0.000717 0.005264 0.012039 
1549578912819 -0.000717 0.005264 0.012039 
1549598749244 -0.000717 0.005264 0.012039 
1549618585670 -0.000717 0.005264 0.012039 
1549638391578 -0.000717 0.005264 0.012039 
1549658228004 -0.000717 0.005264 0.012039 
1549678033912 -0.000717 0.005264 0.012039 
1549697839821 -0.000717 0.005264 0.012039 
1549717676246 -0.000717 0.005264 0.012039 
1549737482155 -0.000717 0.005264 0.012039 
1549757288063 -0.000717 0.005264 0.012039 
1549777124489 -0.000717 0.005264 0.012039 
1549796930397 -0.000717 0.005264 0.012039 
1549816736305 -0.000717 0.005264 0.012039 
1549836572731 -0.000717 0.005264 0.012039 
1549856378639 -0.000717 0.005264 0.012039 
1549876184547 -0.000717 0.005264 0.012039 
1549896020973 -0.000717 0.005264 0.012039 
1549915857399 -0.000717 0.005264 0.012039 
1549935663307 -0.000717 0.005264 0.012039 
1549955499733 -0.000717 0.005264 0.012039 
1549975305641 -0.000717 0.005264 0.012039 
1549995111549 -0.000717 0.005264 0.012039 
1550014947975 -0.000717 0.005264 0.012039 
1550034753883 -0.000717 0.005264 0.012039 
1550054559791 -0.000717 0.005264 0.012039 
1550074396217 -0.000717 0.005264 0.012039 
1550094202125 -0.000717 0.005264 0.012039 
1550114008034 -0.000717 0.005264 0.012039 
1550133844459 -0.000717 0.005264 0.012039 
1550153650368 -0.000717 0.005264 0.012039 
1550173486793 -0.000717 0.005264 0.012039 
1550193323219 -0.000717 0.005264 0.012039 
1550213129127 -0.000717 0.005264 0.012039 
1550232935036 -0.000717 0.005264 0.012039 
1550252771461 -0.000717 0.005264 0.012039 
1550272577369 -0.000717 0.005264 0.012039 
1550292383278 -0.000717 0.005264 0.012039 
1550312219703 -0.000717 0.005264 0.012039 
1550332025612 -0.000717 0.005264 0.012039 
1550351831520 -0.000717 0.005264 0.012039 
1550371667946 -0.000717 0.005264 0.012039 
1550391473854 -0.000717 0.005264 0.012039 
1550411279762 -0.000717 0.005264 0.012039 
1550431116188 -0.000717 0.005264 0.012039 
1550450922096 -0.000717 0.005264 0.012039 
1550470758522 -0.000717 0.005264 0.012039 
1550490594948 -0.000717 0.005264 0.012039 
1550510400856 -0.000717 0.005264 0.012039 
1550530206764 -0.000717 0.005264 0.012039 
1550550043190 -0.000717 0.005264 0.012039 
1550569849098 -0.000717 0.005264 0.012039 
1550589655006 -0.000717 0.005264 0.012039 
1550609491432 -0.000717 0.005264 0.012039 
1550629297340 -0.000717 0.005264 0.012039 
1550649103248 -0.000717 0.005264 0.012039 
1550668939674 -0.000717 0.005264 0.012039 
1550688745582 -0.000717 0.005264 0.012039 
1550708551491 -0.000717 0.005264 0.012039 
1550728387916 -0.000717 0.005264 0.012039 
1550748224342 -0.000717 0.005264 0.012039 
1550768030250 -0.000717 0.005264 0.012039 
1550787866676 -0.000717 0.005264 0.012039 
1550807672584 -0.000717 0.005264 0.012039 
1550827478493 -0.000717 0.005264 0.012039 
1550847314918 -0.000717 0.005264 0.012039 
1550867120827 -0.000717 0.005264 0.012039 
1550886926735 -0.000717 0.005264 0.012039 
1550906763161 -0.000717 0.005264 0.012039 
1550926569069 -0.000717 0.005264 0.012039 
1550946374977 -0.000717 0.005264 0.012039 
1550966211403 -0.000717 0.005264 0.012039 
1550986017311 -0.000717 0.005264 0.012039 
1551005853737 -0.000717 0.005264 0.012039 
1551025659645 -0.000717 0.005264 0.012039 
1551045496071 -0.000717 0.005264 0.012039 
1551065332496 -0.000717 0.005264 0.012039 
1551085138405 -0.000717 0.005264 0.012039 
1551104944313 -0.000717 0.005264 0.012039 
1551124750221 -0.000717 0.005264 0.012039 
1551144586647 -0.000717 0.005264 0.012039 
1551164392555 -0.000717 0.005264 0.012039 
1551184228981 -0.000717 0.005264 0.012039 
1551204034889 -0.000717 0.005264 0.012039 
1551223840797 -0.000717 0.005264 0.012039 
1551243677223 -0.000717 0.005264 0.012039 
1551263483131 -0.000717 0.005264 0.012039 
1551283289039 -0.000717 0.005264 0.012039 
1551303125465 -0.000717 0.005264 0.012039 
1551322961891 -0.000717 0.005264 0.012039 
1551342767799 -0.000717 0.005264 0.012039 
1551362604225 -0.000717 0.005264 0.012039 
1551382410133 -0.000717 0.005264 0.012039 
1551402216041 -0.000717 0.005264 0.012039 
1551422052467 -0.000717 0.005264 0.012039 
1551441858375 -0.000717 0.005264 0.012039 
1551461664284 -0.000717 0.005264 0.012039 
1551481500709 -0.000717 0.005264 0.012039 
1551501306618 -0.000717 0.005264 0.012039 
1551521112526 -0.000717 0.005264 0.012039 
1551540948952 -0.000717 0.005264 0.012039 
1551560754860 -0.000717 0.005264 0.012039 
1551580560768 -0.000717 0.005264 0.012039 
1551600397194 -0.000717 0.005264 0.012039 
1551620233619 -0.000717 0.005264 0.012039 
1551640039528 -0.000717 0.005264 0.012039 
