# Created at Tue Jun 01 15:43:23 GMT+02:00 2021 in Burnaby Canada 
1205947225026 -0.000778 0.005234 0.008255 
1205967061452 -0.000778 0.005234 0.008255 
1205986897878 -0.000778 0.005234 0.008255 
1206006703786 -0.000778 0.005234 0.008255 
1206026509694 -0.000778 0.005234 0.008255 
1206046346120 -0.000778 0.005234 0.008255 
1206066152028 -0.000778 0.005234 0.008255 
1206085957936 -0.000778 0.005234 0.008255 
1206105794362 -0.000778 0.005234 0.008255 
1206125600270 -0.000778 0.005234 0.008255 
1206145406178 -0.000778 0.005234 0.008255 
1206165242604 -0.000778 0.005234 0.008255 
1206185048512 -0.000778 0.005234 0.008255 
1206204854421 -0.000778 0.005234 0.008255 
1206224690846 -0.000778 0.005234 0.008255 
1206244527272 -0.000778 0.005234 0.008255 
1206264333180 -0.000778 0.005234 0.008255 
1206284169606 -0.000778 0.005234 0.008255 
1206303975514 -0.000778 0.005234 0.008255 
1206323781423 -0.000778 0.005234 0.008255 
1206343617848 -0.000778 0.005234 0.008255 
1206363423757 -0.000778 0.005234 0.008255 
1206383229665 -0.000778 0.005234 0.008255 
1206403066091 -0.000778 0.005234 0.008255 
1206422871999 -0.000778 0.005234 0.008255 
1206442677907 -0.000778 0.005234 0.008255 
1206462514333 -0.000778 0.005234 0.008255 
1206482320241 -0.000778 0.005234 0.008255 
1206502126149 -0.000778 0.005234 0.008255 
1206521962575 -0.000778 0.005234 0.008255 
1206541799001 -0.000778 0.005234 0.008255 
1206561604909 -0.000778 0.005234 0.008255 
1206581441335 -0.000778 0.005234 0.008255 
1206601247243 -0.000778 0.005234 0.008255 
1206621053151 -0.000778 0.005234 0.008255 
1206640889577 -0.000778 0.005234 0.008255 
1206660695485 -0.000778 0.005234 0.008255 
1206680531911 -0.000778 0.005234 0.008255 
1206700337819 -0.000778 0.005234 0.008255 
1206720143727 -0.000778 0.005234 0.008255 
1206739980153 -0.000778 0.005234 0.008255 
1206759786061 -0.000778 0.005234 0.008255 
1206779591969 -0.000778 0.005234 0.008255 
1206799428395 -0.000778 0.005234 0.008255 
1206819264821 -0.000778 0.005234 0.008255 
1206839070729 -0.000778 0.005234 0.008255 
1206858907155 -0.000778 0.005234 0.008255 
1206878713063 -0.000778 0.005234 0.008255 
1206898518971 -0.000778 0.005234 0.008255 
1206918355397 -0.000778 0.005234 0.008255 
1206938161305 -0.000778 0.005234 0.008255 
1206957967214 -0.000778 0.005234 0.008255 
1206977803639 -0.000778 0.005234 0.008255 
1206997609548 -0.000778 0.005234 0.008255 
1207017415456 -0.000778 0.005234 0.008255 
1207037251882 -0.000778 0.005234 0.008255 
1207057057790 -0.000778 0.005234 0.008255 
1207076863698 -0.000778 0.005234 0.008255 
1207096700124 -0.000778 0.005234 0.008255 
1207116536550 -0.000778 0.005234 0.008255 
1207136342458 -0.000778 0.005234 0.008255 
1207156178884 -0.000778 0.005234 0.008255 
1207175984792 -0.000778 0.005234 0.008255 
1207195790700 -0.000778 0.005234 0.008255 
1207215627126 -0.000778 0.005234 0.008255 
1207235433034 -0.000778 0.005234 0.008255 
1207255238942 -0.000778 0.005234 0.008255 
1207275075368 -0.000778 0.005234 0.008255 
1207294881276 -0.000778 0.005234 0.008255 
1207314717702 -0.000778 0.005234 0.008255 
1207334523610 -0.000778 0.005234 0.008255 
1207354329518 -0.000778 0.005234 0.008255 
1207374165944 -0.000778 0.005234 0.008255 
1207394002370 -0.000778 0.005234 0.008255 
1207413808278 -0.000778 0.005234 0.008255 
1207433614186 -0.000778 0.005234 0.008255 
1207453450612 -0.000778 0.005234 0.008255 
1207473256520 -0.000778 0.005234 0.008255 
1207493092946 -0.000778 0.005234 0.008255 
1207512898854 -0.000778 0.005234 0.008255 
1207532704762 -0.000778 0.005234 0.008255 
1207552541188 -0.000778 0.005234 0.008255 
1207572347096 -0.000778 0.005234 0.008255 
1207592153005 -0.000778 0.005234 0.008255 
1207611989430 -0.000778 0.005234 0.008255 
1207631795339 -0.000778 0.005234 0.008255 
1207651601247 -0.000778 0.005234 0.008255 
1207671437673 -0.000778 0.005234 0.008255 
1207691274098 -0.000778 0.005234 0.008255 
1207711080007 -0.000778 0.005234 0.008255 
1207730916432 -0.000778 0.005234 0.008255 
1207750722341 -0.000778 0.005234 0.008255 
1207770528249 -0.000778 0.005234 0.008255 
1207790364675 -0.000778 0.005234 0.008255 
1207810170583 -0.000778 0.005234 0.008255 
1207829976491 -0.000778 0.005234 0.008255 
1207849812917 -0.000778 0.005234 0.008255 
1207869618825 -0.000778 0.005234 0.008255 
1207889424733 -0.000778 0.005234 0.008255 
1207909261159 -0.000778 0.005234 0.008255 
1207929067067 -0.000778 0.005234 0.008255 
1207948872975 -0.000778 0.005234 0.008255 
1207968709401 -0.000778 0.005234 0.008255 
1207988545827 -0.000778 0.005234 0.008255 
1208008382253 -0.000778 0.005234 0.008255 
1208028188161 -0.000778 0.005234 0.008255 
1208047994069 -0.000778 0.005234 0.008255 
1208067830495 -0.000778 0.005234 0.008255 
1208087636403 -0.000778 0.005234 0.008255 
1208107442311 -0.000778 0.005234 0.008255 
1208127278737 -0.000778 0.005234 0.008255 
1208147084645 -0.000778 0.005234 0.008255 
1208166890553 -0.000778 0.005234 0.008255 
1208186726979 -0.000778 0.005234 0.008255 
1208206532887 -0.000778 0.005234 0.008255 
1208226338796 -0.000778 0.005234 0.008255 
1208246175221 -0.000778 0.005234 0.008255 
1208266011647 -0.000778 0.005234 0.008255 
1208285817555 -0.000778 0.005234 0.008255 
1208305623464 -0.000778 0.005234 0.008255 
1208325459889 -0.000778 0.005234 0.008255 
1208345265798 -0.000778 0.005234 0.008255 
1208365102223 -0.000778 0.005234 0.008255 
1208384908132 -0.000778 0.005234 0.008255 
1208404714040 -0.000778 0.005234 0.008255 
1208424550466 -0.000778 0.005234 0.008255 
1208444356374 -0.000778 0.005234 0.008255 
1208464179517 -0.000778 0.005234 0.008255 
1208484015943 -0.000778 0.005234 0.008255 
1208503821851 -0.000778 0.005234 0.008255 
1208523627759 -0.000778 0.005234 0.008255 
1208543464185 -0.000778 0.005234 0.008255 
1208563300611 -0.000778 0.005234 0.008255 
1208583106519 -0.000778 0.005234 0.008255 
1208602942945 -0.000778 0.005234 0.008255 
1208622748853 -0.000778 0.005234 0.008255 
1208642554761 -0.000778 0.005234 0.008255 
1208662391187 -0.000778 0.005234 0.008255 
1208682197095 -0.000778 0.005234 0.008255 
1208702003003 -0.000778 0.005234 0.008255 
1208721839429 -0.000778 0.005234 0.008255 
1208741645337 -0.000778 0.005234 0.008255 
1208761451245 -0.000778 0.005234 0.008255 
1208781287671 -0.000778 0.005234 0.008255 
1208801093579 -0.000778 0.005234 0.008255 
1208820930005 -0.000778 0.005234 0.008255 
1208840766431 -0.000778 0.005234 0.008255 
1208860572339 -0.000778 0.005234 0.008255 
1208880378247 -0.000778 0.005234 0.008255 
1208900214673 -0.000778 0.005234 0.008255 
1208920020581 -0.000778 0.005234 0.008255 
1208939826490 -0.000778 0.005234 0.008255 
1208959662915 -0.000778 0.005234 0.008255 
1208979468824 -0.000778 0.005234 0.008255 
1208999274732 -0.000778 0.005234 0.008255 
1209019111158 -0.000778 0.005234 0.008255 
1209038917066 -0.000778 0.005234 0.008255 
1209058753492 -0.000778 0.005234 0.008255 
1209078559400 -0.000778 0.005234 0.008255 
1209098365308 -0.000778 0.005234 0.008255 
1209118201734 -0.000778 0.005234 0.008255 
1209138038160 -0.000778 0.005234 0.008255 
1209157844068 -0.000778 0.005234 0.008255 
1209177680494 -0.000778 0.005234 0.008255 
1209197486402 -0.000778 0.005234 0.008255 
1209217292310 -0.000778 0.005234 0.008255 
1209237128736 -0.000778 0.005234 0.008255 
1209256934644 -0.000778 0.005234 0.008255 
1209276740552 -0.000778 0.005234 0.008255 
1209296576978 -0.000778 0.005234 0.008255 
1209316382886 -0.000778 0.005234 0.008255 
1209336188794 -0.000778 0.005234 0.008255 
1209356025220 -0.000778 0.005234 0.008255 
1209375831128 -0.000778 0.005234 0.008255 
1209395667554 -0.000778 0.005234 0.008255 
1209415503980 -0.000778 0.005234 0.008255 
1209435309888 -0.000778 0.005234 0.008255 
1209455115796 -0.000778 0.005234 0.008255 
1209474952222 -0.000778 0.005234 0.008255 
1209494758130 -0.000778 0.005234 0.008255 
1209514594556 -0.000778 0.005234 0.008255 
1209534400464 -0.000778 0.005234 0.008255 
1209554206372 -0.000778 0.005234 0.008255 
1209574042798 -0.000778 0.005234 0.008255 
1209593848706 -0.000778 0.005234 0.008255 
1209613654615 -0.000778 0.005234 0.008255 
1209633491040 -0.000778 0.005234 0.008255 
1209653296949 -0.000778 0.005234 0.008255 
1209673102857 -0.000778 0.005234 0.008255 
1209692939283 -0.000778 0.005234 0.008255 
1209712775708 -0.000778 0.005234 0.008255 
1209732581617 -0.000778 0.005234 0.008255 
1209752418042 -0.000778 0.005234 0.008255 
1209772223951 -0.000778 0.005234 0.008255 
1209792029859 -0.000778 0.005234 0.008255 
1209811866285 -0.000778 0.005234 0.008255 
1209831672193 -0.000778 0.005234 0.008255 
1209851478101 -0.000778 0.005234 0.008255 
1209871314527 -0.000778 0.005234 0.008255 
1209891120435 -0.000778 0.005234 0.008255 
1209910926343 -0.000778 0.005234 0.008255 
1209930762769 -0.000778 0.005234 0.008255 
1209950568677 -0.000778 0.005234 0.008255 
1209970405103 -0.000778 0.005234 0.008255 
1209990241529 -0.000778 0.005234 0.008255 
1210010047437 -0.000778 0.005234 0.008255 
1210029883863 -0.000778 0.005234 0.008255 
1210049689771 -0.000778 0.005234 0.008255 
1210069495679 -0.000778 0.005234 0.008255 
1210089332105 -0.000778 0.005234 0.008255 
1210109138013 -0.000778 0.005234 0.008255 
1210128943921 -0.000778 0.005234 0.008255 
1210148780347 -0.000778 0.005234 0.008255 
1210168586255 -0.000778 0.005234 0.008255 
1210188392163 -0.000778 0.005234 0.008255 
1210208228589 -0.000778 0.005234 0.008255 
1210228034497 -0.000778 0.005234 0.008255 
1210247870923 -0.000778 0.005234 0.008255 
1210267707349 -0.000778 0.005234 0.008255 
1210287513257 -0.000778 0.005234 0.008255 
1210307319165 -0.000778 0.005234 0.008255 
1210327155591 -0.000656 0.005035 0.007675 
1210346961499 -0.000656 0.005035 0.007675 
1210366767408 -0.000656 0.005035 0.007675 
1210386603833 -0.000656 0.005035 0.007675 
1210406409742 -0.000656 0.005035 0.007675 
1210426215650 -0.000656 0.005035 0.007675 
1210446052076 -0.000656 0.005035 0.007675 
1210465857984 -0.000656 0.005035 0.007675 
1210485663892 -0.000656 0.005035 0.007675 
1210505500318 -0.000656 0.005035 0.007675 
1210525306226 -0.000656 0.005035 0.007675 
1210545142652 -0.000656 0.005035 0.007675 
1210564979078 -0.000656 0.005035 0.007675 
1210584784986 -0.000656 0.005035 0.007675 
1210604590894 -0.000656 0.005035 0.007675 
1210624427320 -0.000656 0.005035 0.007675 
1210644233228 -0.000656 0.005035 0.007675 
1210664069654 -0.000656 0.005035 0.007675 
1210683875562 -0.000656 0.005035 0.007675 
1210703681470 -0.000656 0.005035 0.007675 
1210723517896 -0.000656 0.005035 0.007675 
1210743323804 -0.000656 0.005035 0.007675 
1210763129712 -0.000656 0.005035 0.007675 
1210782966138 -0.000656 0.005035 0.007675 
1210802772046 -0.000656 0.005035 0.007675 
1210822608472 -0.000656 0.005035 0.007675 
1210842444898 -0.000656 0.005035 0.007675 
1210862250806 -0.000656 0.005035 0.007675 
1210882056714 -0.000656 0.005035 0.007675 
1210901893140 -0.000656 0.005035 0.007675 
1210921699048 -0.000656 0.005035 0.007675 
1210941504956 -0.000656 0.005035 0.007675 
1210961341382 -0.000656 0.005035 0.007675 
1210981147290 -0.000656 0.005035 0.007675 
1211000953199 -0.000656 0.005035 0.007675 
1211020789624 -0.000656 0.005035 0.007675 
1211040595533 -0.000656 0.005035 0.007675 
1211060401441 -0.000656 0.005035 0.007675 
1211080237867 -0.000656 0.005035 0.007675 
1211100043775 -0.000656 0.005035 0.007675 
1211119880201 -0.000656 0.005035 0.007675 
1211139716626 -0.000656 0.005035 0.007675 
1211159522535 -0.000656 0.005035 0.007675 
1211179328443 -0.000656 0.005035 0.007675 
1211199164869 -0.000656 0.005035 0.007675 
1211218970777 -0.000656 0.005035 0.007675 
1211238776685 -0.000656 0.005035 0.007675 
1211258613111 -0.000656 0.005035 0.007675 
1211278419019 -0.000656 0.005035 0.007675 
1211298255445 -0.000656 0.005035 0.007675 
1211318061353 -0.000656 0.005035 0.007675 
1211337867261 -0.000656 0.005035 0.007675 
1211357673169 -0.000656 0.005035 0.007675 
1211377509595 -0.000656 0.005035 0.007675 
1211397346021 -0.000656 0.005035 0.007675 
1211417151929 -0.000656 0.005035 0.007675 
1211436988355 -0.000656 0.005035 0.007675 
1211456794263 -0.000656 0.005035 0.007675 
1211476630689 -0.000656 0.005035 0.007675 
1211496436597 -0.000656 0.005035 0.007675 
1211516242505 -0.000656 0.005035 0.007675 
1211536078931 -0.000656 0.005035 0.007675 
1211555884839 -0.000656 0.005035 0.007675 
1211575690747 -0.000656 0.005035 0.007675 
1211595527173 -0.000656 0.005035 0.007675 
1211615333081 -0.000656 0.005035 0.007675 
1211635138990 -0.000656 0.005035 0.007675 
1211654975415 -0.000656 0.005035 0.007675 
1211674781324 -0.000656 0.005035 0.007675 
1211694617749 -0.000656 0.005035 0.007675 
1211714454175 -0.000656 0.005035 0.007675 
1211734260083 -0.000656 0.005035 0.007675 
1211754065992 -0.000656 0.005035 0.007675 
1211773902417 -0.000656 0.005035 0.007675 
1211793708326 -0.000656 0.005035 0.007675 
1211813514234 -0.000656 0.005035 0.007675 
