# Created at Tue Jun 01 16:06:11 GMT+02:00 2021 in Burnaby Canada 
2573713390465 -0.000763 0.006027 0.011948 
2573733226890 -0.000763 0.006027 0.011948 
2573753032798 -0.000763 0.006027 0.011948 
2573772838707 -0.000763 0.006027 0.011948 
2573792675132 -0.000763 0.006027 0.011948 
2573812481041 -0.000763 0.006027 0.011948 
2573832317466 -0.000763 0.006027 0.011948 
2573852123375 -0.000763 0.006027 0.011948 
2573871929283 -0.000763 0.006027 0.011948 
2573891765709 -0.000763 0.006027 0.011948 
2573911571617 -0.000763 0.006027 0.011948 
2573931377525 -0.000763 0.006027 0.011948 
2573951213951 -0.000763 0.006027 0.011948 
2573971050377 -0.000763 0.006027 0.011948 
2573990856285 -0.000763 0.006027 0.011948 
2574010692711 -0.000763 0.006027 0.011948 
2574030498619 -0.000763 0.006027 0.011948 
2574050335045 -0.000763 0.006027 0.011948 
2574070140953 -0.000763 0.006027 0.011948 
2574089946861 -0.000763 0.006027 0.011948 
2574109783287 -0.000763 0.006027 0.011948 
2574129589195 -0.000763 0.006027 0.011948 
2574149395103 -0.000763 0.006027 0.011948 
2574169231529 -0.000763 0.006027 0.011948 
2574189037437 -0.000763 0.006027 0.011948 
2574208873863 -0.000763 0.006027 0.011948 
2574228679771 -0.000763 0.006027 0.011948 
2574248516197 -0.000763 0.006027 0.011948 
2574268352623 -0.000763 0.006027 0.011948 
2574288158531 -0.000763 0.006027 0.011948 
2574307964439 -0.000763 0.006027 0.011948 
2574327800865 -0.000763 0.006027 0.011948 
2574347606773 -0.000763 0.006027 0.011948 
2574367412681 -0.000763 0.006027 0.011948 
2574387249107 -0.000763 0.006027 0.011948 
2574407055015 -0.000763 0.006027 0.011948 
2574426860923 -0.000763 0.006027 0.011948 
2574446697349 -0.000763 0.006027 0.011948 
2574466503257 -0.000763 0.006027 0.011948 
2574486339683 -0.000763 0.006027 0.011948 
2574506145591 -0.000763 0.006027 0.011948 
2574525951500 -0.000763 0.006027 0.011948 
2574545787925 -0.000763 0.006027 0.011948 
2574565624351 -0.000763 0.006027 0.011948 
2574585460777 -0.000763 0.006027 0.011948 
2574605266685 -0.000763 0.006027 0.011948 
2574625072593 -0.000763 0.006027 0.011948 
2574644909019 -0.000763 0.006027 0.011948 
2574664714927 -0.000763 0.006027 0.011948 
2574684520836 -0.000763 0.006027 0.011948 
2574704357261 -0.000763 0.006027 0.011948 
2574724163170 -0.000763 0.006027 0.011948 
2574743969078 -0.000763 0.006027 0.011948 
2574763805504 -0.000763 0.006027 0.011948 
2574783611412 -0.000763 0.006027 0.011948 
2574803447838 -0.000763 0.006027 0.011948 
2574823284263 -0.000763 0.006027 0.011948 
2574843090172 -0.000763 0.006027 0.011948 
2574862926597 -0.000763 0.006027 0.011948 
2574882732506 -0.000763 0.006027 0.011948 
2574902538414 -0.000763 0.006027 0.011948 
2574922374840 -0.000763 0.006027 0.011948 
2574942180748 -0.000763 0.006027 0.011948 
2574962017173 -0.000763 0.006027 0.011948 
2574981823082 -0.000763 0.006027 0.011948 
2575001628990 -0.000763 0.006027 0.011948 
2575021465416 -0.000763 0.006027 0.011948 
2575041271324 -0.000763 0.006027 0.011948 
2575061077232 -0.000763 0.006027 0.011948 
2575080913658 -0.000763 0.006027 0.011948 
2575100750084 -0.000763 0.006027 0.011948 
2575120555992 -0.000763 0.006027 0.011948 
2575140392418 -0.000763 0.006027 0.011948 
2575160198326 -0.000763 0.006027 0.011948 
2575180034752 -0.000763 0.006027 0.011948 
2575199840660 -0.000763 0.006027 0.011948 
2575219646568 -0.000763 0.006027 0.011948 
2575239482994 -0.000763 0.006027 0.011948 
2575259288902 -0.000763 0.006027 0.011948 
2575279094810 -0.000763 0.006027 0.011948 
2575298931236 -0.000763 0.006027 0.011948 
2575318737144 -0.000763 0.006027 0.011948 
2575338543052 -0.000763 0.006027 0.011948 
2575358379478 -0.000763 0.006027 0.011948 
2575378185386 -0.000763 0.006027 0.011948 
2575398021812 -0.000763 0.006027 0.011948 
2575417858238 -0.000763 0.006027 0.011948 
2575437664146 -0.000763 0.006027 0.011948 
2575457500572 -0.000763 0.006027 0.011948 
2575477306480 -0.000763 0.006027 0.011948 
2575497112388 -0.000763 0.006027 0.011948 
2575516948814 -0.000763 0.006027 0.011948 
2575536754722 -0.000763 0.006027 0.011948 
2575556591148 -0.000763 0.006027 0.011948 
2575576397056 -0.000763 0.006027 0.011948 
2575596202965 -0.000763 0.006027 0.011948 
2575616039390 -0.000763 0.006027 0.011948 
2575635845298 -0.000763 0.006027 0.011948 
2575655651207 -0.000763 0.006027 0.011948 
2575675487632 -0.000763 0.006027 0.011948 
2575695324058 -0.000763 0.006027 0.011948 
2575715160484 -0.000763 0.006027 0.011948 
2575734966392 -0.000763 0.006027 0.011948 
2575754772300 -0.000763 0.006027 0.011948 
2575774608726 -0.000763 0.006027 0.011948 
2575794414634 -0.000763 0.006027 0.011948 
2575814220543 -0.000763 0.006027 0.011948 
2575834056968 -0.000763 0.006027 0.011948 
2575853862877 -0.000763 0.006027 0.011948 
2575873668785 -0.000763 0.006027 0.011948 
2575893505211 -0.000763 0.006027 0.011948 
2575913311119 -0.000763 0.006027 0.011948 
2575933147545 -0.000763 0.006027 0.011948 
2575952953453 -0.000763 0.006027 0.011948 
2575972789879 -0.000763 0.006027 0.011948 
2575992626304 -0.000763 0.006027 0.011948 
2576012432213 -0.000763 0.006027 0.011948 
2576032238121 -0.000763 0.006027 0.011948 
2576052074547 -0.000763 0.006027 0.011948 
2576071880455 -0.000763 0.006027 0.011948 
2576091716881 -0.000763 0.006027 0.011948 
2576111522789 -0.000763 0.006027 0.011948 
2576131328697 -0.000763 0.006027 0.011948 
2576151165123 -0.000763 0.006027 0.011948 
2576170971031 -0.000763 0.006027 0.011948 
2576190776939 -0.000763 0.006027 0.011948 
2576210613365 -0.000763 0.006027 0.011948 
2576230419273 -0.000763 0.006027 0.011948 
2576250255699 -0.000763 0.006027 0.011948 
2576270092125 -0.000763 0.006027 0.011948 
2576289898033 -0.000763 0.006027 0.011948 
2576309734459 -0.000763 0.006027 0.011948 
2576329540367 -0.000763 0.006027 0.011948 
2576349346275 -0.000763 0.006027 0.011948 
2576369182701 -0.000763 0.006027 0.011948 
2576388988609 -0.000763 0.006027 0.011948 
2576408794517 -0.000763 0.006027 0.011948 
2576428630943 -0.000763 0.006027 0.011948 
2576448436851 -0.000763 0.006027 0.011948 
2576468273277 -0.000763 0.006027 0.011948 
2576488079185 -0.000763 0.006027 0.011948 
2576507885093 -0.000763 0.006027 0.011948 
2576527721519 -0.000763 0.006027 0.011948 
2576547557945 -0.000763 0.006027 0.011948 
2576567363853 -0.000763 0.006027 0.011948 
2576587200279 -0.000763 0.006027 0.011948 
2576607006187 -0.000763 0.006027 0.011948 
2576626842613 -0.000763 0.006027 0.011948 
2576646648521 -0.000763 0.006027 0.011948 
2576666454429 -0.000763 0.006027 0.011948 
2576686290855 -0.000763 0.006027 0.011948 
2576706096763 -0.000763 0.006027 0.011948 
2576725902672 -0.000763 0.006027 0.011948 
2576745739097 -0.000763 0.006027 0.011948 
2576765545006 -0.000763 0.006027 0.011948 
2576785381431 -0.000763 0.006027 0.011948 
2576805187340 -0.000763 0.006027 0.011948 
2576825023765 -0.000763 0.006027 0.011948 
2576844860191 -0.000763 0.006027 0.011948 
2576864666099 -0.000763 0.006027 0.011948 
2576884472007 -0.000763 0.006027 0.011948 
2576904308433 -0.000763 0.006027 0.011948 
2576924114341 -0.000763 0.006027 0.011948 
2576943920250 -0.000763 0.006027 0.011948 
2576963756675 -0.000763 0.006027 0.011948 
2576983562584 -0.000763 0.006027 0.011948 
2577003399009 -0.000763 0.006027 0.011948 
2577023204918 -0.000763 0.006027 0.011948 
2577043010826 -0.000763 0.006027 0.011948 
2577062847252 -0.000763 0.006027 0.011948 
2577082653160 -0.000763 0.006027 0.011948 
2577102459068 -0.000763 0.006027 0.011948 
2577122295494 -0.000763 0.006027 0.011948 
2577142131920 -0.000763 0.006027 0.011948 
2577161968345 -0.000763 0.006027 0.011948 
2577181774254 -0.000763 0.006027 0.011948 
2577201580162 -0.000763 0.006027 0.011948 
2577221416588 -0.000763 0.006027 0.011948 
2577241222496 -0.000763 0.006027 0.011948 
2577261028404 -0.000763 0.006027 0.011948 
2577280864830 -0.000763 0.006027 0.011948 
2577300670738 -0.000763 0.006027 0.011948 
2577320476646 -0.000763 0.006027 0.011948 
2577340313072 -0.000763 0.006027 0.011948 
2577360118980 -0.000763 0.006027 0.011948 
2577379924888 -0.000763 0.006027 0.011948 
2577399761314 -0.000763 0.006027 0.011948 
2577419597740 -0.000763 0.006027 0.011948 
2577439434166 -0.000763 0.006027 0.011948 
2577459240074 -0.000763 0.006027 0.011948 
2577479045982 -0.000763 0.006027 0.011948 
2577498882408 -0.000763 0.006027 0.011948 
2577518688316 -0.000763 0.006027 0.011948 
2577538524742 -0.000763 0.006027 0.011948 
2577558330650 -0.000763 0.006027 0.011948 
2577578136558 -0.000763 0.006027 0.011948 
2577597972984 -0.000763 0.006027 0.011948 
2577617778892 -0.000763 0.006027 0.011948 
2577637584800 -0.000763 0.006027 0.011948 
2577657421226 -0.000763 0.006027 0.011948 
2577677257652 -0.000763 0.006027 0.011948 
2577697063560 -0.000763 0.006027 0.011948 
2577716899986 -0.000763 0.006027 0.011948 
2577736705894 -0.000763 0.006027 0.011948 
2577756542320 -0.000763 0.006027 0.011948 
2577776348228 -0.000763 0.006027 0.011948 
2577796154136 -0.000763 0.006027 0.011948 
2577815990562 -0.000763 0.006027 0.011948 
2577835796470 -0.000763 0.006027 0.011948 
2577855602379 -0.000763 0.006027 0.011948 
2577875438804 -0.000763 0.006027 0.011948 
2577895244713 -0.000763 0.006027 0.011948 
2577915081138 -0.000763 0.006027 0.011948 
2577934887047 -0.000763 0.006027 0.011948 
2577954692955 -0.000763 0.006027 0.011948 
2577974529381 -0.000763 0.006027 0.011948 
2577994365806 -0.000763 0.006027 0.011948 
2578014171715 -0.000763 0.006027 0.011948 
2578034008140 -0.000763 0.006027 0.011948 
2578053814048 -0.000763 0.006027 0.011948 
2578073650474 -0.000763 0.006027 0.011948 
2578093456382 -0.000763 0.006027 0.011948 
2578113262291 -0.000763 0.006027 0.011948 
2578133098716 -0.000763 0.006027 0.011948 
2578152904625 -0.000763 0.006027 0.011948 
2578172710533 -0.000763 0.006027 0.011948 
2578192546959 -0.000763 0.006027 0.011948 
2578212352867 -0.000763 0.006027 0.011948 
2578232189293 -0.000763 0.006027 0.011948 
2578252025718 -0.000763 0.006027 0.011948 
2578271831627 -0.000763 0.006027 0.011948 
2578291668052 -0.000763 0.006027 0.011948 
2578311473961 -0.000763 0.006027 0.011948 
2578331279869 -0.000763 0.006027 0.011948 
2578351116295 -0.000763 0.006027 0.011948 
2578370922203 -0.000763 0.006027 0.011948 
2578390728111 -0.000763 0.006027 0.011948 
2578410564537 -0.000763 0.006027 0.011948 
2578430370445 -0.000763 0.006027 0.011948 
2578450206871 -0.000763 0.006027 0.011948 
2578470012779 -0.000763 0.006027 0.011948 
2578489818687 -0.000763 0.006027 0.011948 
2578509655113 -0.000763 0.006027 0.011948 
2578529461021 -0.000763 0.006027 0.011948 
2578549297447 -0.000763 0.006027 0.011948 
2578569142311 -0.000763 0.006027 0.011948 
2578588948219 -0.000763 0.006027 0.011948 
2578608784645 -0.000763 0.006027 0.011948 
2578628590553 -0.000763 0.006027 0.011948 
2578648396461 -0.000763 0.006027 0.011948 
2578668232887 -0.000763 0.006027 0.011948 
2578688038795 -0.000763 0.006027 0.011948 
2578707844703 -0.000763 0.006027 0.011948 
2578727681129 -0.000763 0.006027 0.011948 
2578747487037 -0.000763 0.006027 0.011948 
2578767323463 -0.000763 0.006027 0.011948 
2578787129371 -0.000763 0.006027 0.011948 
2578806935279 -0.000763 0.006027 0.011948 
2578826771705 -0.000763 0.006027 0.011948 
2578846608131 -0.000763 0.006027 0.011948 
2578866414039 -0.000763 0.006027 0.011948 
2578886250465 -0.000763 0.006027 0.011948 
2578906056373 -0.000763 0.006027 0.011948 
2578925862281 -0.000763 0.006027 0.011948 
2578945698707 -0.000763 0.006027 0.011948 
2578965504615 -0.000763 0.006027 0.011948 
2578985341041 -0.000763 0.006027 0.011948 
2579005146949 -0.000763 0.006027 0.011948 
2579024952858 -0.000763 0.006027 0.011948 
2579044789283 -0.000763 0.006027 0.011948 
2579064595192 -0.000763 0.006027 0.011948 
2579084401100 -0.000763 0.006027 0.011948 
2579104237526 -0.000763 0.006027 0.011948 
2579124073951 -0.000763 0.006027 0.011948 
2579143910377 -0.000763 0.006027 0.011948 
2579163716285 -0.000763 0.006027 0.011948 
2579183522194 -0.000763 0.006027 0.011948 
2579203358619 -0.000763 0.006027 0.011948 
2579223164528 -0.000763 0.006027 0.011948 
2579242970436 -0.000763 0.006027 0.011948 
2579262806861 -0.000763 0.006027 0.011948 
2579282612770 -0.000763 0.006027 0.011948 
2579302418678 -0.000763 0.006027 0.011948 
2579322255104 -0.000763 0.006027 0.011948 
2579342061012 -0.000763 0.006027 0.011948 
2579361866920 -0.000763 0.006027 0.011948 
2579381703346 -0.000763 0.006027 0.011948 
2579401539772 -0.000763 0.006027 0.011948 
2579421376197 -0.000763 0.006027 0.011948 
2579441182106 -0.000763 0.006027 0.011948 
2579460988014 -0.000763 0.006027 0.011948 
2579480824440 -0.000854 0.005493 0.012268 
2579500630348 -0.000854 0.005493 0.012268 
2579520466774 -0.000854 0.005493 0.012268 
2579540272682 -0.000854 0.005493 0.012268 
2579560078590 -0.000854 0.005493 0.012268 
2579579915016 -0.000854 0.005493 0.012268 
2579599720924 -0.000854 0.005493 0.012268 
2579619526832 -0.000854 0.005493 0.012268 
2579639363258 -0.000854 0.005493 0.012268 
2579659169166 -0.000854 0.005493 0.012268 
2579679005592 -0.000854 0.005493 0.012268 
2579698842018 -0.000854 0.005493 0.012268 
2579718647926 -0.000854 0.005493 0.012268 
2579738484352 -0.000854 0.005493 0.012268 
2579758290260 -0.000854 0.005493 0.012268 
2579778096168 -0.000854 0.005493 0.012268 
2579797932594 -0.000854 0.005493 0.012268 
2579817738502 -0.000854 0.005493 0.012268 
2579837544410 -0.000854 0.005493 0.012268 
