# Created at Tue Jun 01 16:23:17 GMT+02:00 2021 in Burnaby Canada 
3599981761420 -0.000931 0.005981 0.012451 
3600001567328 -0.000931 0.005981 0.012451 
3600021403754 -0.000931 0.005981 0.012451 
3600041240179 -0.000931 0.005981 0.012451 
3600061046088 -0.000931 0.005981 0.012451 
3600080882513 -0.000931 0.005981 0.012451 
3600100688421 -0.000931 0.005981 0.012451 
3600120524847 -0.000931 0.005981 0.012451 
3600140330755 -0.000931 0.005981 0.012451 
3600160136664 -0.000931 0.005981 0.012451 
3600179973089 -0.000931 0.005981 0.012451 
3600199778998 -0.000931 0.005981 0.012451 
3600219584906 -0.000931 0.005981 0.012451 
3600239421332 -0.000931 0.005981 0.012451 
3600259227240 -0.000931 0.005981 0.012451 
3600279063666 -0.000931 0.005981 0.012451 
3600298869574 -0.000931 0.005981 0.012451 
3600318706000 -0.000931 0.005981 0.012451 
3600338542425 -0.000931 0.005981 0.012451 
3600358348334 -0.000931 0.005981 0.012451 
3600378154242 -0.000931 0.005981 0.012451 
3600397990668 -0.000931 0.005981 0.012451 
3600417796576 -0.000931 0.005981 0.012451 
3600437633002 -0.000931 0.005981 0.012451 
3600457438910 -0.000931 0.005981 0.012451 
3600477244818 -0.000931 0.005981 0.012451 
3600497081244 -0.000931 0.005981 0.012451 
3600516887152 -0.000931 0.005981 0.012451 
3600536723578 -0.000931 0.005981 0.012451 
3600556529486 -0.000931 0.005981 0.012451 
3600576335394 -0.000931 0.005981 0.012451 
3600596171820 -0.000931 0.005981 0.012451 
3600616008246 -0.000931 0.005981 0.012451 
3600635844671 -0.000931 0.005981 0.012451 
3600655650580 -0.000931 0.005981 0.012451 
3600675456488 -0.000931 0.005981 0.012451 
3600695292914 -0.000931 0.005981 0.012451 
3600715098822 -0.000931 0.005981 0.012451 
3600734904730 -0.000931 0.005981 0.012451 
3600754741156 -0.000931 0.005981 0.012451 
3600774547064 -0.000931 0.005981 0.012451 
3600794383490 -0.000931 0.005981 0.012451 
3600814189398 -0.000931 0.005981 0.012451 
3600833995306 -0.000931 0.005981 0.012451 
3600853831732 -0.000931 0.005981 0.012451 
3600873637640 -0.000931 0.005981 0.012451 
3600893474066 -0.000931 0.005981 0.012451 
3600913310492 -0.000931 0.005981 0.012451 
3600933116400 -0.000931 0.005981 0.012451 
3600952952826 -0.000931 0.005981 0.012451 
3600972758734 -0.000931 0.005981 0.012451 
3600992564642 -0.000931 0.005981 0.012451 
3601012401068 -0.000931 0.005981 0.012451 
3601032206976 -0.000931 0.005981 0.012451 
3601052043402 -0.000931 0.005981 0.012451 
3601071849310 -0.000931 0.005981 0.012451 
3601091655218 -0.000931 0.005981 0.012451 
3601111491644 -0.000931 0.005981 0.012451 
3601131297552 -0.000931 0.005981 0.012451 
3601151103461 -0.000931 0.005981 0.012451 
3601170939886 -0.000931 0.005981 0.012451 
3601190776312 -0.000931 0.005981 0.012451 
3601210612738 -0.000931 0.005981 0.012451 
3601230418646 -0.000931 0.005981 0.012451 
3601250224554 -0.000931 0.005981 0.012451 
3601270060980 -0.000931 0.005981 0.012451 
3601289866888 -0.000931 0.005981 0.012451 
3601309703314 -0.000931 0.005981 0.012451 
3601329509222 -0.000931 0.005981 0.012451 
3601349315130 -0.000931 0.005981 0.012451 
3601369151556 -0.000931 0.005981 0.012451 
3601388957464 -0.000931 0.005981 0.012451 
3601408763373 -0.000931 0.005981 0.012451 
3601428599798 -0.000931 0.005981 0.012451 
3601448405707 -0.000931 0.005981 0.012451 
3601468242132 -0.000931 0.005981 0.012451 
3601488078558 -0.000931 0.005981 0.012451 
3601507884466 -0.000931 0.005981 0.012451 
3601527720892 -0.000931 0.005981 0.012451 
3601547526800 -0.000931 0.005981 0.012451 
3601567363226 -0.000931 0.005981 0.012451 
3601587169134 -0.000931 0.005981 0.012451 
3601606975043 -0.000931 0.005981 0.012451 
3601626811468 -0.000931 0.005981 0.012451 
3601646617377 -0.000931 0.005981 0.012451 
3601666453802 -0.000931 0.005981 0.012451 
3601686259711 -0.000931 0.005981 0.012451 
3601706065619 -0.000931 0.005981 0.012451 
3601725902045 -0.000931 0.005981 0.012451 
3601745738470 -0.000931 0.005981 0.012451 
3601765544379 -0.000931 0.005981 0.012451 
3601785380804 -0.000931 0.005981 0.012451 
3601805186713 -0.000931 0.005981 0.012451 
3601825023138 -0.000931 0.005981 0.012451 
3601844829046 -0.000931 0.005981 0.012451 
3601864634955 -0.000931 0.005981 0.012451 
3601884471380 -0.000931 0.005981 0.012451 
3601904277289 -0.000931 0.005981 0.012451 
3601924113714 -0.000931 0.005981 0.012451 
3601943919623 -0.000931 0.005981 0.012451 
3601963725531 -0.000931 0.005981 0.012451 
3601983561957 -0.000931 0.005981 0.012451 
3602003367865 -0.000931 0.005981 0.012451 
3602023173773 -0.000931 0.005981 0.012451 
3602043010199 -0.000931 0.005981 0.012451 
3602062846625 -0.000931 0.005981 0.012451 
3602082683050 -0.000931 0.005981 0.012451 
3602102488959 -0.000931 0.005981 0.012451 
3602122294867 -0.000931 0.005981 0.012451 
3602142131293 -0.000931 0.005981 0.012451 
3602161937201 -0.000931 0.005981 0.012451 
3602181773627 -0.000931 0.005981 0.012451 
3602201579535 -0.000931 0.005981 0.012451 
3602221385443 -0.000931 0.005981 0.012451 
3602241221869 -0.000931 0.005981 0.012451 
3602261027777 -0.000931 0.005981 0.012451 
3602280833685 -0.000931 0.005981 0.012451 
3602300670111 -0.000931 0.005981 0.012451 
3602320506537 -0.000931 0.005981 0.012451 
3602340342963 -0.000931 0.005981 0.012451 
3602360148871 -0.000931 0.005981 0.012451 
3602379954779 -0.000931 0.005981 0.012451 
3602399791205 -0.000931 0.005981 0.012451 
3602419597113 -0.000931 0.005981 0.012451 
3602439433539 -0.000931 0.005981 0.012451 
3602459239447 -0.000931 0.005981 0.012451 
3602479045355 -0.000931 0.005981 0.012451 
3602498881781 -0.000931 0.005981 0.012451 
3602518687689 -0.000931 0.005981 0.012451 
3602538524115 -0.000931 0.005981 0.012451 
3602558330023 -0.000931 0.005981 0.012451 
3602578135931 -0.000931 0.005981 0.012451 
3602597972357 -0.000931 0.005981 0.012451 
3602617808783 -0.000931 0.005981 0.012451 
3602637614691 -0.000931 0.005981 0.012451 
3602657451117 -0.000931 0.005981 0.012451 
3602677257025 -0.000931 0.005981 0.012451 
3602697093451 -0.000931 0.005981 0.012451 
3602716899359 -0.000931 0.005981 0.012451 
3602736705267 -0.000931 0.005981 0.012451 
3602756541693 -0.000931 0.005981 0.012451 
3602776347601 -0.000931 0.005981 0.012451 
3602796184027 -0.000931 0.005981 0.012451 
3602815989935 -0.000931 0.005981 0.012451 
3602835795843 -0.000931 0.005981 0.012451 
3602855632269 -0.000931 0.005981 0.012451 
3602875438177 -0.000931 0.005981 0.012451 
3602895274603 -0.000931 0.005981 0.012451 
3602915111029 -0.000931 0.005981 0.012451 
3602934916937 -0.000931 0.005981 0.012451 
3602954753363 -0.000931 0.005981 0.012451 
3602974559271 -0.000931 0.005981 0.012451 
3602994365179 -0.000931 0.005981 0.012451 
3603014201605 -0.000931 0.005981 0.012451 
3603034007513 -0.000931 0.005981 0.012451 
3603053843939 -0.000931 0.005981 0.012451 
3603073649847 -0.000931 0.005981 0.012451 
3603093455755 -0.000931 0.005981 0.012451 
3603113292181 -0.000931 0.005981 0.012451 
3603133098089 -0.000931 0.005981 0.012451 
3603152934515 -0.000931 0.005981 0.012451 
3603172740423 -0.000931 0.005981 0.012451 
3603192576849 -0.000931 0.005981 0.012451 
3603212413275 -0.000931 0.005981 0.012451 
3603232219183 -0.000931 0.005981 0.012451 
3603252025091 -0.000931 0.005981 0.012451 
3603271861517 -0.000931 0.005981 0.012451 
3603291667425 -0.000931 0.005981 0.012451 
3603311503851 -0.000931 0.005981 0.012451 
3603331309759 -0.000931 0.005981 0.012451 
3603351115668 -0.000931 0.005981 0.012451 
3603370952093 -0.000931 0.005981 0.012451 
3603390758002 -0.000931 0.005981 0.012451 
3603410594427 -0.000931 0.005981 0.012451 
3603430400336 -0.000931 0.005981 0.012451 
3603450206244 -0.000931 0.005981 0.012451 
3603470042670 -0.000931 0.005981 0.012451 
3603489879095 -0.000931 0.005981 0.012451 
3603509715521 -0.000931 0.005981 0.012451 
3603529521429 -0.000931 0.005981 0.012451 
3603549327338 -0.000931 0.005981 0.012451 
3603569163763 -0.000931 0.005981 0.012451 
3603588969671 -0.000931 0.005981 0.012451 
3603608775580 -0.000931 0.005981 0.012451 
3603628612005 -0.000931 0.005981 0.012451 
3603648417914 -0.000931 0.005981 0.012451 
3603668254339 -0.000931 0.005981 0.012451 
3603688060248 -0.000931 0.005981 0.012451 
3603707866156 -0.000931 0.005981 0.012451 
3603727702582 -0.000931 0.005981 0.012451 
3603747539007 -0.000931 0.005981 0.012451 
3603767375433 -0.000931 0.005981 0.012451 
3603787181341 -0.000931 0.005981 0.012451 
3603806987250 -0.000931 0.005981 0.012451 
3603826823675 -0.000931 0.005981 0.012451 
3603846629584 -0.000931 0.005981 0.012451 
3603866466009 -0.000931 0.005981 0.012451 
3603886271918 -0.000931 0.005981 0.012451 
3603906077826 -0.000931 0.005981 0.012451 
3603925914252 -0.000931 0.005981 0.012451 
3603945720160 -0.000931 0.005981 0.012451 
3603965526068 -0.000931 0.005981 0.012451 
3603985362494 -0.000931 0.005981 0.012451 
3604005168402 -0.000931 0.005981 0.012451 
3604025004828 -0.000931 0.005981 0.012451 
3604044841254 -0.000931 0.005981 0.012451 
3604064647162 -0.000931 0.005981 0.012451 
3604084483588 -0.000931 0.005981 0.012451 
3604104289496 -0.000931 0.005981 0.012451 
3604124125921 -0.000931 0.005981 0.012451 
3604143931830 -0.000931 0.005981 0.012451 
3604163737738 -0.000931 0.005981 0.012451 
3604183574164 -0.000931 0.005981 0.012451 
3604203380072 -0.000931 0.005981 0.012451 
3604223216498 -0.000931 0.005981 0.012451 
3604243022406 -0.000931 0.005981 0.012451 
3604262828314 -0.000931 0.005981 0.012451 
3604282664740 -0.000931 0.005981 0.012451 
3604302470648 -0.000931 0.005981 0.012451 
3604322307074 -0.000931 0.005981 0.012451 
3604342143500 -0.000931 0.005981 0.012451 
3604361949408 -0.000931 0.005981 0.012451 
3604381755316 -0.000717 0.005936 0.012451 
3604401591742 -0.000717 0.005936 0.012451 
3604421397650 -0.000717 0.005936 0.012451 
3604441234076 -0.000717 0.005936 0.012451 
3604461039984 -0.000717 0.005936 0.012451 
3604480876410 -0.000717 0.005936 0.012451 
3604500682318 -0.000717 0.005936 0.012451 
3604520488226 -0.000717 0.005936 0.012451 
3604540324652 -0.000717 0.005936 0.012451 
3604560130560 -0.000717 0.005936 0.012451 
3604579966986 -0.000717 0.005936 0.012451 
3604599772894 -0.000717 0.005936 0.012451 
3604619609320 -0.000717 0.005936 0.012451 
3604639445746 -0.000717 0.005936 0.012451 
3604659251654 -0.000717 0.005936 0.012451 
3604679057562 -0.000717 0.005936 0.012451 
3604698893988 -0.000717 0.005936 0.012451 
3604718699896 -0.000717 0.005936 0.012451 
3604738536322 -0.000717 0.005936 0.012451 
3604758342230 -0.000717 0.005936 0.012451 
3604778148138 -0.000717 0.005936 0.012451 
3604797984564 -0.000717 0.005936 0.012451 
3604817790472 -0.000717 0.005936 0.012451 
3604837626898 -0.000717 0.005936 0.012451 
3604857432806 -0.000717 0.005936 0.012451 
3604877238714 -0.000717 0.005936 0.012451 
3604897075140 -0.000717 0.005936 0.012451 
3604916911566 -0.000717 0.005936 0.012451 
3604936747992 -0.000717 0.005936 0.012451 
3604956553900 -0.000717 0.005936 0.012451 
3604976359808 -0.000717 0.005936 0.012451 
3604996196234 -0.000717 0.005936 0.012451 
3605016002142 -0.000717 0.005936 0.012451 
3605035808050 -0.000717 0.005936 0.012451 
3605055644476 -0.000717 0.005936 0.012451 
3605075450384 -0.000717 0.005936 0.012451 
3605095286810 -0.000717 0.005936 0.012451 
3605115092718 -0.000717 0.005936 0.012451 
3605134898627 -0.000717 0.005936 0.012451 
3605154735052 -0.000717 0.005936 0.012451 
3605174540961 -0.000717 0.005936 0.012451 
3605194377386 -0.000717 0.005936 0.012451 
3605214213812 -0.000717 0.005936 0.012451 
3605234019720 -0.000717 0.005936 0.012451 
3605253856146 -0.000717 0.005936 0.012451 
3605273662054 -0.000717 0.005936 0.012451 
3605293467963 -0.000717 0.005936 0.012451 
3605313304388 -0.000717 0.005936 0.012451 
3605333110296 -0.000717 0.005936 0.012451 
3605352946722 -0.000717 0.005936 0.012451 
3605372752630 -0.000717 0.005936 0.012451 
3605392558539 -0.000717 0.005936 0.012451 
3605412394964 -0.000717 0.005936 0.012451 
3605432200873 -0.000717 0.005936 0.012451 
3605452037298 -0.000717 0.005936 0.012451 
3605471873724 -0.000717 0.005936 0.012451 
3605491679632 -0.000717 0.005936 0.012451 
3605511516058 -0.000717 0.005936 0.012451 
3605531321966 -0.000717 0.005936 0.012451 
3605551158392 -0.000717 0.005936 0.012451 
3605570964300 -0.000717 0.005936 0.012451 
3605590770209 -0.000717 0.005936 0.012451 
3605610606634 -0.000717 0.005936 0.012451 
3605630412543 -0.000717 0.005936 0.012451 
3605650248968 -0.000717 0.005936 0.012451 
3605670054877 -0.000717 0.005936 0.012451 
3605689860785 -0.000717 0.005936 0.012451 
3605709697211 -0.000717 0.005936 0.012451 
3605729503119 -0.000717 0.005936 0.012451 
3605749309027 -0.000717 0.005936 0.012451 
3605769145453 -0.000717 0.005936 0.012451 
3605788981879 -0.000717 0.005936 0.012451 
3605808818304 -0.000717 0.005936 0.012451 
3605828624213 -0.000717 0.005936 0.012451 
3605848430121 -0.000717 0.005936 0.012451 
3605868266546 -0.000717 0.005936 0.012451 
3605888072455 -0.000717 0.005936 0.012451 
3605907908880 -0.000717 0.005936 0.012451 
3605927714789 -0.000717 0.005936 0.012451 
3605947520697 -0.000717 0.005936 0.012451 
3605967357123 -0.000717 0.005936 0.012451 
3605987163031 -0.000717 0.005936 0.012451 
3606006999457 -0.000717 0.005936 0.012451 
3606026805365 -0.000717 0.005936 0.012451 
3606046641791 -0.000717 0.005936 0.012451 
