# Created at Tue Jun 01 15:58:11 GMT+02:00 2021 in Burnaby Canada 
2093882711985 -0.000793 0.004623 0.011841 
2093902517893 -0.000793 0.004623 0.011841 
2093922354319 -0.000793 0.004623 0.011841 
2093942160227 -0.000793 0.004623 0.011841 
2093961966135 -0.000793 0.004623 0.011841 
2093981802561 -0.000793 0.004623 0.011841 
2094001608469 -0.000793 0.004623 0.011841 
2094021414378 -0.000793 0.004623 0.011841 
2094041250803 -0.000793 0.004623 0.011841 
2094061056712 -0.000793 0.004623 0.011841 
2094080862620 -0.000793 0.004623 0.011841 
2094100699045 -0.000793 0.004623 0.011841 
2094120535471 -0.000793 0.004623 0.011841 
2094140341379 -0.000793 0.004623 0.011841 
2094160177805 -0.000793 0.004623 0.011841 
2094179983713 -0.000793 0.004623 0.011841 
2094199789622 -0.000793 0.004623 0.011841 
2094219626047 -0.000793 0.004623 0.011841 
2094239431956 -0.000793 0.004623 0.011841 
2094259237864 -0.000793 0.004623 0.011841 
2094279074290 -0.000793 0.004623 0.011841 
2094298880198 -0.000793 0.004623 0.011841 
2094318686106 -0.000793 0.004623 0.011841 
2094338522532 -0.000793 0.004623 0.011841 
2094358328440 -0.000793 0.004623 0.011841 
2094378134348 -0.000793 0.004623 0.011841 
2094397970774 -0.000793 0.004623 0.011841 
2094417807200 -0.000793 0.004623 0.011841 
2094437613108 -0.000793 0.004623 0.011841 
2094457449534 -0.000793 0.004623 0.011841 
2094477255442 -0.000793 0.004623 0.011841 
2094497091868 -0.000793 0.004623 0.011841 
2094516897776 -0.000793 0.004623 0.011841 
2094536703684 -0.000793 0.004623 0.011841 
2094556540110 -0.000793 0.004623 0.011841 
2094576346018 -0.000793 0.004623 0.011841 
2094596151926 -0.000793 0.004623 0.011841 
2094615988352 -0.000793 0.004623 0.011841 
2094635794260 -0.000793 0.004623 0.011841 
2094655600169 -0.000793 0.004623 0.011841 
2094675436594 -0.000793 0.004623 0.011841 
2094695273020 -0.000793 0.004623 0.011841 
2094715078928 -0.000793 0.004623 0.011841 
2094734915354 -0.000793 0.004623 0.011841 
2094754721262 -0.000793 0.004623 0.011841 
2094774527170 -0.000793 0.004623 0.011841 
2094794363596 -0.000793 0.004623 0.011841 
2094814169504 -0.000793 0.004623 0.011841 
2094833975413 -0.000793 0.004623 0.011841 
2094853811838 -0.000793 0.004623 0.011841 
2094873617747 -0.000793 0.004623 0.011841 
2094893423655 -0.000793 0.004623 0.011841 
2094913260081 -0.000793 0.004623 0.011841 
2094933065989 -0.000793 0.004623 0.011841 
2094952871897 -0.000793 0.004623 0.011841 
2094972708323 -0.000793 0.004623 0.011841 
2094992544749 -0.000793 0.004623 0.011841 
2095012350657 -0.000793 0.004623 0.011841 
2095032187083 -0.000793 0.004623 0.011841 
2095051992991 -0.000793 0.004623 0.011841 
2095071798899 -0.000793 0.004623 0.011841 
2095091635325 -0.000793 0.004623 0.011841 
2095111441233 -0.000793 0.004623 0.011841 
2095131247141 -0.000793 0.004623 0.011841 
2095151083567 -0.000793 0.004623 0.011841 
2095170889475 -0.000793 0.004623 0.011841 
2095190695383 -0.000793 0.004623 0.011841 
2095210531809 -0.000793 0.004623 0.011841 
2095230337717 -0.000793 0.004623 0.011841 
2095250143626 -0.000793 0.004623 0.011841 
2095269980051 -0.000793 0.004623 0.011841 
2095289816477 -0.000793 0.004623 0.011841 
2095309622385 -0.000793 0.004623 0.011841 
2095329458811 -0.000793 0.004623 0.011841 
2095349264719 -0.000793 0.004623 0.011841 
2095369101145 -0.000793 0.004623 0.011841 
2095388907053 -0.000793 0.004623 0.011841 
2095408712962 -0.000793 0.004623 0.011841 
2095428518870 -0.000793 0.004623 0.011841 
2095448355295 -0.000793 0.004623 0.011841 
2095468161204 -0.000793 0.004623 0.011841 
2095487967112 -0.000793 0.004623 0.011841 
2095507803538 -0.000793 0.004623 0.011841 
2095527609446 -0.000793 0.004623 0.011841 
2095547445872 -0.000793 0.004623 0.011841 
2095567282297 -0.000793 0.004623 0.011841 
2095587088206 -0.000793 0.004623 0.011841 
2095606924631 -0.000793 0.004623 0.011841 
2095626730540 -0.000793 0.004623 0.011841 
2095646536448 -0.000793 0.004623 0.011841 
2095666372874 -0.000793 0.004623 0.011841 
2095686178782 -0.000793 0.004623 0.011841 
2095705984690 -0.000793 0.004623 0.011841 
2095725821116 -0.000793 0.004623 0.011841 
2095745627024 -0.000793 0.004623 0.011841 
2095765432932 -0.000793 0.004623 0.011841 
2095785269358 -0.000793 0.004623 0.011841 
2095805075266 -0.000793 0.004623 0.011841 
2095824881174 -0.000793 0.004623 0.011841 
2095844717600 -0.000793 0.004623 0.011841 
2095864554026 -0.000793 0.004623 0.011841 
2095884359934 -0.000793 0.004623 0.011841 
2095904196360 -0.000793 0.004623 0.011841 
2095924002268 -0.000793 0.004623 0.011841 
2095943808176 -0.000793 0.004623 0.011841 
2095963644602 -0.000793 0.004623 0.011841 
2095983450510 -0.000793 0.004623 0.011841 
2096003256419 -0.000793 0.004623 0.011841 
2096023092844 -0.000793 0.004623 0.011841 
2096042898753 -0.000793 0.004623 0.011841 
2096062735178 -0.000793 0.004623 0.011841 
2096082541087 -0.000793 0.004623 0.011841 
2096102346995 -0.000793 0.004623 0.011841 
2096122183420 -0.000793 0.004623 0.011841 
2096142019846 -0.000793 0.004623 0.011841 
2096161825754 -0.000793 0.004623 0.011841 
2096181662180 -0.000793 0.004623 0.011841 
2096201468088 -0.000793 0.004623 0.011841 
2096221273997 -0.000793 0.004623 0.011841 
2096241079905 -0.000793 0.004623 0.011841 
2096260916331 -0.000793 0.004623 0.011841 
2096280722239 -0.000793 0.004623 0.011841 
2096300528147 -0.000793 0.004623 0.011841 
2096320364573 -0.000793 0.004623 0.011841 
2096340170481 -0.000793 0.004623 0.011841 
2096360006907 -0.000793 0.004623 0.011841 
2096379812815 -0.000793 0.004623 0.011841 
2096399618723 -0.000793 0.004623 0.011841 
2096419455149 -0.000793 0.004623 0.011841 
2096439291575 -0.000793 0.004623 0.011841 
2096459097483 -0.000793 0.004623 0.011841 
2096478933909 -0.000793 0.004623 0.011841 
2096498739817 -0.000793 0.004623 0.011841 
2096518545725 -0.000793 0.004623 0.011841 
2096538382151 -0.000793 0.004623 0.011841 
2096558188059 -0.000793 0.004623 0.011841 
2096577993967 -0.000793 0.004623 0.011841 
2096597830393 -0.000793 0.004623 0.011841 
2096617636301 -0.000793 0.004623 0.011841 
2096637442210 -0.000793 0.004623 0.011841 
2096657278635 -0.000793 0.004623 0.011841 
2096677084544 -0.000793 0.004623 0.011841 
2096696920969 -0.000793 0.004623 0.011841 
2096716757395 -0.000793 0.004623 0.011841 
2096736563303 -0.000793 0.004623 0.011841 
2096756399729 -0.000793 0.004623 0.011841 
2096776205637 -0.000793 0.004623 0.011841 
2096796011545 -0.000793 0.004623 0.011841 
2096815847971 -0.000793 0.004623 0.011841 
2096835653879 -0.000793 0.004623 0.011841 
2096855459788 -0.000793 0.004623 0.011841 
2096875296213 -0.000793 0.004623 0.011841 
2096895102122 -0.000793 0.004623 0.011841 
2096914908030 -0.000793 0.004623 0.011841 
2096934744456 -0.000793 0.004623 0.011841 
2096954550364 -0.000793 0.004623 0.011841 
2096974386790 -0.000793 0.004623 0.011841 
2096994223215 -0.000793 0.004623 0.011841 
2097014029124 -0.000793 0.004623 0.011841 
2097033835032 -0.000793 0.004623 0.011841 
2097053671458 -0.000793 0.004623 0.011841 
2097073477366 -0.000793 0.004623 0.011841 
2097093283274 -0.000793 0.004623 0.011841 
2097113119700 -0.000793 0.004623 0.011841 
2097132925608 -0.000793 0.004623 0.011841 
2097152731516 -0.000793 0.004623 0.011841 
2097172567942 -0.000793 0.004623 0.011841 
2097192373850 -0.000793 0.004623 0.011841 
2097212179758 -0.000793 0.004623 0.011841 
2097232016184 -0.000793 0.004623 0.011841 
2097251822092 -0.000793 0.004623 0.011841 
2097271658518 -0.000793 0.004623 0.011841 
2097291494944 -0.000793 0.004623 0.011841 
2097311300852 -0.000793 0.004623 0.011841 
2097331137278 -0.000793 0.004623 0.011841 
2097350943186 -0.000793 0.004623 0.011841 
2097370749094 -0.000793 0.004623 0.011841 
2097390585520 -0.000793 0.004623 0.011841 
2097410391428 -0.000793 0.004623 0.011841 
2097430197337 -0.000793 0.004623 0.011841 
2097450033762 -0.000793 0.004623 0.011841 
2097469839670 -0.000793 0.004623 0.011841 
2097489645579 -0.000793 0.004623 0.011841 
2097509482004 -0.000793 0.004623 0.011841 
2097529287913 -0.000793 0.004623 0.011841 
2097549124338 -0.000793 0.004623 0.011841 
2097568960764 -0.000793 0.004623 0.011841 
2097588766672 -0.000793 0.004623 0.011841 
2097608572581 -0.000793 0.004623 0.011841 
2097628409006 -0.000793 0.004623 0.011841 
2097648214915 -0.000793 0.004623 0.011841 
2097668020823 -0.000793 0.004623 0.011841 
2097687857249 -0.000793 0.004623 0.011841 
2097707663157 -0.000793 0.004623 0.011841 
2097727499583 -0.000793 0.004623 0.011841 
2097747305491 -0.000793 0.004623 0.011841 
2097767111399 -0.000793 0.004623 0.011841 
2097786947825 -0.000793 0.004623 0.011841 
2097806753733 -0.000793 0.004623 0.011841 
2097826559641 -0.000793 0.004623 0.011841 
2097846396067 -0.000793 0.004623 0.011841 
2097866232493 -0.000793 0.004623 0.011841 
2097886038401 -0.000793 0.004623 0.011841 
2097905874827 -0.000793 0.004623 0.011841 
2097925680735 -0.000793 0.004623 0.011841 
2097945486643 -0.000793 0.004623 0.011841 
2097965323069 -0.000793 0.004623 0.011841 
2097985128977 -0.000793 0.004623 0.011841 
2098004934885 -0.000793 0.004623 0.011841 
2098024771311 -0.000793 0.004623 0.011841 
2098044577219 -0.000793 0.004623 0.011841 
2098064383128 -0.000793 0.004623 0.011841 
2098084219553 -0.000793 0.004623 0.011841 
2098104025462 -0.000793 0.004623 0.011841 
2098123861887 -0.000793 0.004623 0.011841 
2098143698313 -0.000793 0.004623 0.011841 
2098163504221 -0.000793 0.004623 0.011841 
2098183310129 -0.000793 0.004623 0.011841 
2098203146555 -0.000793 0.004623 0.011841 
2098222952463 -0.000793 0.004623 0.011841 
2098242758372 -0.000793 0.004623 0.011841 
2098262594797 -0.000793 0.004623 0.011841 
2098282400706 -0.000793 0.004623 0.011841 
2098302237131 -0.000793 0.004623 0.011841 
2098322043040 -0.000793 0.004623 0.011841 
2098341848948 -0.000793 0.004623 0.011841 
2098361685374 -0.000793 0.004623 0.011841 
2098381491282 -0.000793 0.004623 0.011841 
2098401297190 -0.000793 0.004623 0.011841 
2098421133616 -0.000793 0.004623 0.011841 
2098440970042 -0.000793 0.004623 0.011841 
2098460775950 -0.000793 0.004623 0.011841 
2098480612376 -0.000793 0.004623 0.011841 
2098500418284 -0.000793 0.004623 0.011841 
2098520224192 -0.000793 0.004623 0.011841 
2098540060927 -0.000793 0.004623 0.011841 
2098559866835 -0.000793 0.004623 0.011841 
2098579672743 -0.000793 0.004623 0.011841 
2098599509169 -0.000793 0.004623 0.011841 
2098619315077 -0.000793 0.004623 0.011841 
2098639120985 -0.000793 0.004623 0.011841 
2098658957411 -0.000793 0.004623 0.011841 
2098678763319 -0.000793 0.004623 0.011841 
2098698599745 -0.000793 0.004623 0.011841 
2098718436171 -0.000793 0.004623 0.011841 
2098738242079 -0.000793 0.004623 0.011841 
2098758078505 -0.000793 0.004623 0.011841 
2098777884413 -0.000793 0.004623 0.011841 
2098797690321 -0.000793 0.004623 0.011841 
2098817526747 -0.000793 0.004623 0.011841 
2098837332655 -0.000793 0.004623 0.011841 
2098857138563 -0.000793 0.004623 0.011841 
2098876974989 -0.000793 0.004623 0.011841 
2098896780897 -0.000793 0.004623 0.011841 
2098916586806 -0.000793 0.004623 0.011841 
2098936423231 -0.000793 0.004623 0.011841 
2098956229140 -0.000793 0.004623 0.011841 
2098976065565 -0.000793 0.004623 0.011841 
2098995901991 -0.000793 0.004623 0.011841 
2099015707899 -0.000793 0.004623 0.011841 
2099035513808 -0.000793 0.004623 0.011841 
2099055350233 -0.000793 0.004623 0.011841 
2099075156142 -0.000793 0.004623 0.011841 
2099094962050 -0.000793 0.004623 0.011841 
2099114798476 -0.000793 0.004623 0.011841 
2099134604384 -0.000793 0.004623 0.011841 
2099154440810 -0.000793 0.004623 0.011841 
2099174246718 -0.000793 0.004623 0.011841 
2099194052626 -0.000793 0.004623 0.011841 
2099213858534 -0.000793 0.004623 0.011841 
2099233694960 -0.000793 0.004623 0.011841 
2099253500868 -0.000793 0.004623 0.011841 
2099273337294 -0.000793 0.004623 0.011841 
2099293173720 -0.000793 0.004623 0.011841 
2099312979628 -0.000793 0.004623 0.011841 
2099332816054 -0.000793 0.004623 0.011841 
2099352621962 -0.000793 0.004623 0.011841 
2099372427870 -0.000793 0.004623 0.011841 
2099392264296 -0.000793 0.004623 0.011841 
2099412070204 -0.000793 0.004623 0.011841 
2099431876112 -0.000793 0.004623 0.011841 
2099451712538 -0.000793 0.004623 0.011841 
2099471518446 -0.000793 0.004623 0.011841 
2099491324354 -0.000793 0.004623 0.011841 
2099511160780 -0.000793 0.004623 0.011841 
2099530966688 -0.000793 0.004623 0.011841 
2099550803114 -0.000793 0.004623 0.011841 
2099570639540 -0.000793 0.004623 0.011841 
2099590445448 -0.000793 0.004623 0.011841 
2099610281874 -0.000793 0.004623 0.011841 
2099630087782 -0.000793 0.004623 0.011841 
2099649893690 -0.000793 0.004623 0.011841 
2099669730116 -0.000793 0.004623 0.011841 
2099689536024 -0.000793 0.004623 0.011841 
2099709341933 -0.000793 0.004623 0.011841 
2099729178358 -0.000793 0.004623 0.011841 
2099748984267 -0.000793 0.004623 0.011841 
2099768790175 -0.000793 0.004623 0.011841 
2099788626601 -0.000793 0.004623 0.011841 
2099808432509 -0.000793 0.004623 0.011841 
2099828238417 -0.000793 0.004623 0.011841 
2099848074843 -0.000793 0.004623 0.011841 
2099867911269 -0.000793 0.004623 0.011841 
2099887717177 -0.000793 0.004623 0.011841 
2099907553603 -0.000793 0.004623 0.011841 
2099927359511 -0.000793 0.004623 0.011841 
2099947165419 -0.000793 0.004623 0.011841 
2099967001845 -0.000793 0.004623 0.011841 
2099986807753 -0.000793 0.004623 0.011841 
2100006644179 -0.000793 0.004623 0.011841 
2100026450087 -0.000793 0.004623 0.011841 
2100046255995 -0.000793 0.004623 0.011841 
2100066092421 -0.000793 0.004623 0.011841 
2100085898329 -0.000793 0.004623 0.011841 
2100105704237 -0.000793 0.004623 0.011841 
2100125540663 -0.000793 0.004623 0.011841 
2100145377089 -0.000793 0.004623 0.011841 
2100165182997 -0.000793 0.004623 0.011841 
2100185019423 -0.000793 0.004623 0.011841 
2100204825331 -0.000793 0.004623 0.011841 
