# Created at Tue Jun 01 16:12:47 GMT+02:00 2021 in Burnaby Canada 
2969273161980 -0.000961 0.005157 0.011780 
2969292998406 -0.000961 0.005157 0.011780 
2969312804314 -0.000961 0.005157 0.011780 
2969332610223 -0.000961 0.005157 0.011780 
2969352446648 -0.000961 0.005157 0.011780 
2969372252557 -0.000961 0.005157 0.011780 
2969392088982 -0.000961 0.005157 0.011780 
2969411925408 -0.000961 0.005157 0.011780 
2969431731316 -0.000961 0.005157 0.011780 
2969451537225 -0.000961 0.005157 0.011780 
2969471373650 -0.000961 0.005157 0.011780 
2969491179559 -0.000961 0.005157 0.011780 
2969511015984 -0.000961 0.005157 0.011780 
2969530821893 -0.000961 0.005157 0.011780 
2969550627801 -0.000961 0.005157 0.011780 
2969570464227 -0.000961 0.005157 0.011780 
2969590270135 -0.000961 0.005157 0.011780 
2969610076043 -0.000961 0.005157 0.011780 
2969629912469 -0.000961 0.005157 0.011780 
2969649718377 -0.000961 0.005157 0.011780 
2969669524285 -0.000961 0.005157 0.011780 
2969689360711 -0.000961 0.005157 0.011780 
2969709197137 -0.000961 0.005157 0.011780 
2969729033563 -0.000961 0.005157 0.011780 
2969748839471 -0.000961 0.005157 0.011780 
2969768645379 -0.000961 0.005157 0.011780 
2969788481805 -0.000961 0.005157 0.011780 
2969808287713 -0.000961 0.005157 0.011780 
2969828093621 -0.000961 0.005157 0.011780 
2969847930047 -0.000961 0.005157 0.011780 
2969867735955 -0.000961 0.005157 0.011780 
2969887541863 -0.000961 0.005157 0.011780 
2969907378289 -0.000961 0.005157 0.011780 
2969927184197 -0.000961 0.005157 0.011780 
2969947020623 -0.000961 0.005157 0.011780 
2969966857049 -0.000961 0.005157 0.011780 
2969986662957 -0.000961 0.005157 0.011780 
2970006499383 -0.000961 0.005157 0.011780 
2970026305291 -0.000961 0.005157 0.011780 
2970046111199 -0.000961 0.005157 0.011780 
2970065947625 -0.000961 0.005157 0.011780 
2970085753533 -0.000961 0.005157 0.011780 
2970105559441 -0.000961 0.005157 0.011780 
2970125395867 -0.000961 0.005157 0.011780 
2970145201775 -0.000961 0.005157 0.011780 
2970165038201 -0.000961 0.005157 0.011780 
2970184844109 -0.000961 0.005157 0.011780 
2970204650018 -0.000961 0.005157 0.011780 
2970224486443 -0.000961 0.005157 0.011780 
2970244292352 -0.000961 0.005157 0.011780 
2970264128777 -0.000961 0.005157 0.011780 
2970283965203 -0.000961 0.005157 0.011780 
2970303771111 -0.000961 0.005157 0.011780 
2970323577020 -0.000961 0.005157 0.011780 
2970343413445 -0.000961 0.005157 0.011780 
2970363219354 -0.000961 0.005157 0.011780 
2970383025262 -0.000961 0.005157 0.011780 
2970402861688 -0.000961 0.005157 0.011780 
2970422667596 -0.000961 0.005157 0.011780 
2970442504021 -0.000961 0.005157 0.011780 
2970462309930 -0.000961 0.005157 0.011780 
2970482115838 -0.000961 0.005157 0.011780 
2970501952264 -0.000961 0.005157 0.011780 
2970521758172 -0.000961 0.005157 0.011780 
2970541594598 -0.000961 0.005157 0.011780 
2970561431023 -0.000961 0.005157 0.011780 
2970581236932 -0.000961 0.005157 0.011780 
2970601042840 -0.000961 0.005157 0.011780 
2970620879266 -0.000961 0.005157 0.011780 
2970640685174 -0.000961 0.005157 0.011780 
2970660521600 -0.000961 0.005157 0.011780 
2970680327508 -0.000961 0.005157 0.011780 
2970700133416 -0.000961 0.005157 0.011780 
2970719969842 -0.000961 0.005157 0.011780 
2970739775750 -0.000961 0.005157 0.011780 
2970759581658 -0.000961 0.005157 0.011780 
2970779418084 -0.000961 0.005157 0.011780 
2970799223992 -0.000961 0.005157 0.011780 
2970819029900 -0.000961 0.005157 0.011780 
2970838866326 -0.000961 0.005157 0.011780 
2970858702752 -0.000961 0.005157 0.011780 
2970878539178 -0.000961 0.005157 0.011780 
2970898345086 -0.000961 0.005157 0.011780 
2970918150994 -0.000961 0.005157 0.011780 
2970937987420 -0.000961 0.005157 0.011780 
2970957793328 -0.000961 0.005157 0.011780 
2970977599236 -0.000961 0.005157 0.011780 
2970997435662 -0.000961 0.005157 0.011780 
2971017241570 -0.000961 0.005157 0.011780 
2971037047479 -0.000961 0.005157 0.011780 
2971056883904 -0.000961 0.005157 0.011780 
2971076689813 -0.000961 0.005157 0.011780 
2971096495721 -0.000961 0.005157 0.011780 
2971116332146 -0.000961 0.005157 0.011780 
2971136168572 -0.000961 0.005157 0.011780 
2971156004998 -0.000961 0.005157 0.011780 
2971175810906 -0.000961 0.005157 0.011780 
2971195616814 -0.000961 0.005157 0.011780 
2971215453240 -0.000961 0.005157 0.011780 
2971235259148 -0.000961 0.005157 0.011780 
2971255065057 -0.000961 0.005157 0.011780 
2971274901482 -0.000961 0.005157 0.011780 
2971294707391 -0.000961 0.005157 0.011780 
2971314513299 -0.000961 0.005157 0.011780 
2971334349725 -0.000961 0.005157 0.011780 
2971354155633 -0.000961 0.005157 0.011780 
2971373992059 -0.000961 0.005157 0.011780 
2971393797967 -0.000961 0.005157 0.011780 
2971413634393 -0.000961 0.005157 0.011780 
2971433470818 -0.000961 0.005157 0.011780 
2971453276727 -0.000961 0.005157 0.011780 
2971473082635 -0.000961 0.005157 0.011780 
2971492919061 -0.000961 0.005157 0.011780 
2971512724969 -0.000961 0.005157 0.011780 
2971532530877 -0.000961 0.005157 0.011780 
2971552367303 -0.000961 0.005157 0.011780 
2971572173211 -0.000961 0.005157 0.011780 
2971592009637 -0.000961 0.005157 0.011780 
2971611815545 -0.000961 0.005157 0.011780 
2971631621453 -0.000961 0.005157 0.011780 
2971651457879 -0.000961 0.005157 0.011780 
2971671263787 -0.000961 0.005157 0.011780 
2971691100213 -0.000961 0.005157 0.011780 
2971710936639 -0.000961 0.005157 0.011780 
2971730742547 -0.000961 0.005157 0.011780 
2971750548455 -0.000961 0.005157 0.011780 
2971770384881 -0.000961 0.005157 0.011780 
2971790190789 -0.000961 0.005157 0.011780 
2971809996697 -0.000961 0.005157 0.011780 
2971829833123 -0.000961 0.005157 0.011780 
2971849639031 -0.000961 0.005157 0.011780 
2971869475457 -0.000961 0.005157 0.011780 
2971889281365 -0.000961 0.005157 0.011780 
2971909087273 -0.000961 0.005157 0.011780 
2971928923699 -0.000961 0.005157 0.011780 
2971948729607 -0.000961 0.005157 0.011780 
2971968566033 -0.000961 0.005157 0.011780 
2971988402459 -0.000961 0.005157 0.011780 
2972008208367 -0.000961 0.005157 0.011780 
2972028014275 -0.000961 0.005157 0.011780 
2972047850701 -0.000961 0.005157 0.011780 
2972067656609 -0.000961 0.005157 0.011780 
2972087493035 -0.000961 0.005157 0.011780 
2972107298943 -0.000961 0.005157 0.011780 
2972127104852 -0.000961 0.005157 0.011780 
2972146941277 -0.000961 0.005157 0.011780 
2972166747186 -0.000961 0.005157 0.011780 
2972186553094 -0.000961 0.005157 0.011780 
2972206389520 -0.000961 0.005157 0.011780 
2972226195428 -0.000961 0.005157 0.011780 
2972246001336 -0.000961 0.005157 0.011780 
2972265837762 -0.000961 0.005157 0.011780 
2972285674188 -0.000961 0.005157 0.011780 
2972305480096 -0.000961 0.005157 0.011780 
2972325316521 -0.000961 0.005157 0.011780 
2972345122430 -0.000961 0.005157 0.011780 
2972364958855 -0.000961 0.005157 0.011780 
2972384764764 -0.000961 0.005157 0.011780 
2972404570672 -0.000961 0.005157 0.011780 
2972424407098 -0.000961 0.005157 0.011780 
2972444213006 -0.000961 0.005157 0.011780 
2972464018914 -0.000961 0.005157 0.011780 
2972483855340 -0.000961 0.005157 0.011780 
2972503661248 -0.000961 0.005157 0.011780 
2972523497674 -0.000961 0.005157 0.011780 
2972543334100 -0.000961 0.005157 0.011780 
2972563140008 -0.000961 0.005157 0.011780 
2972582976434 -0.000961 0.005157 0.011780 
2972602782342 -0.000961 0.005157 0.011780 
2972622588250 -0.000961 0.005157 0.011780 
2972642424676 -0.000961 0.005157 0.011780 
2972662230584 -0.000961 0.005157 0.011780 
2972682036492 -0.000961 0.005157 0.011780 
2972701872918 -0.000961 0.005157 0.011780 
2972721678826 -0.000961 0.005157 0.011780 
2972741515252 -0.000961 0.005157 0.011780 
2972761321160 -0.000961 0.005157 0.011780 
2972781127068 -0.000961 0.005157 0.011780 
2972800963494 -0.000961 0.005157 0.011780 
2972820769402 -0.000961 0.005157 0.011780 
2972840605828 -0.000961 0.005157 0.011780 
2972860442254 -0.000961 0.005157 0.011780 
2972880248162 -0.000961 0.005157 0.011780 
2972900054070 -0.000961 0.005157 0.011780 
2972919890496 -0.000961 0.005157 0.011780 
2972939696404 -0.000961 0.005157 0.011780 
2972959532830 -0.000961 0.005157 0.011780 
2972979338738 -0.000961 0.005157 0.011780 
2972999144646 -0.000961 0.005157 0.011780 
2973018981072 -0.000961 0.005157 0.011780 
2973038786980 -0.000961 0.005157 0.011780 
2973058592889 -0.000961 0.005157 0.011780 
2973078429314 -0.000961 0.005157 0.011780 
2973098235223 -0.000961 0.005157 0.011780 
2973118071648 -0.000961 0.005157 0.011780 
2973137908074 -0.000961 0.005157 0.011780 
2973157713982 -0.000961 0.005157 0.011780 
2973177550408 -0.000961 0.005157 0.011780 
2973197356316 -0.000961 0.005157 0.011780 
2973217162225 -0.000961 0.005157 0.011780 
2973236998650 -0.000961 0.005157 0.011780 
2973256804559 -0.000961 0.005157 0.011780 
2973276610467 -0.000961 0.005157 0.011780 
2973296446893 -0.000961 0.005157 0.011780 
2973316252801 -0.000961 0.005157 0.011780 
2973336058709 -0.000961 0.005157 0.011780 
2973355895135 -0.000961 0.005157 0.011780 
2973375701043 -0.000961 0.005157 0.011780 
2973395506951 -0.000961 0.005157 0.011780 
2973415343377 -0.000961 0.005157 0.011780 
2973435179803 -0.000961 0.005157 0.011780 
2973455016229 -0.000961 0.005157 0.011780 
2973474822137 -0.000961 0.005157 0.011780 
2973494628045 -0.000961 0.005157 0.011780 
2973514464471 -0.000961 0.005157 0.011780 
2973534270379 -0.000961 0.005157 0.011780 
2973554076287 -0.000961 0.005157 0.011780 
2973573912713 -0.000961 0.005157 0.011780 
2973593718621 -0.000961 0.005157 0.011780 
2973613524529 -0.000961 0.005157 0.011780 
2973633360955 -0.000961 0.005157 0.011780 
2973653166863 -0.000961 0.005157 0.011780 
2973673003289 -0.000961 0.005157 0.011780 
2973692839715 -0.000961 0.005157 0.011780 
2973712645623 -0.000961 0.005157 0.011780 
2973732482049 -0.000961 0.005157 0.011780 
2973752287957 -0.000961 0.005157 0.011780 
2973772093865 -0.000961 0.005157 0.011780 
2973791930291 -0.000961 0.005157 0.011780 
2973811736199 -0.000961 0.005157 0.011780 
2973831542107 -0.000961 0.005157 0.011780 
2973851378533 -0.000961 0.005157 0.011780 
2973871184441 -0.000961 0.005157 0.011780 
2973891020867 -0.000961 0.005157 0.011780 
2973910826775 -0.000961 0.005157 0.011780 
2973930632684 -0.000961 0.005157 0.011780 
2973950469109 -0.000961 0.005157 0.011780 
2973970305535 -0.000961 0.005157 0.011780 
2973990111443 -0.000961 0.005157 0.011780 
2974009947869 -0.000961 0.005157 0.011780 
2974029753777 -0.000961 0.005157 0.011780 
2974049559686 -0.000961 0.005157 0.011780 
2974069396111 -0.000961 0.005157 0.011780 
2974089202020 -0.000961 0.005157 0.011780 
2974109007928 -0.000961 0.005157 0.011780 
2974128844354 -0.000961 0.005157 0.011780 
2974148650262 -0.000961 0.005157 0.011780 
2974168486688 -0.000961 0.005157 0.011780 
2974188292596 -0.000961 0.005157 0.011780 
2974208098504 -0.000961 0.005157 0.011780 
2974227934930 -0.000961 0.005157 0.011780 
2974247740838 -0.000961 0.005157 0.011780 
2974267577264 -0.000961 0.005157 0.011780 
2974287413689 -0.000961 0.005157 0.011780 
2974307219598 -0.000961 0.005157 0.011780 
2974327025506 -0.000961 0.005157 0.011780 
2974346861932 -0.000961 0.005157 0.011780 
2974366667840 -0.000961 0.005157 0.011780 
2974386504266 -0.000961 0.005157 0.011780 
2974406310174 -0.000961 0.005157 0.011780 
2974426116082 -0.000961 0.005157 0.011780 
2974445952508 -0.000961 0.005157 0.011780 
2974465758416 -0.000961 0.005157 0.011780 
2974485564324 -0.000961 0.005157 0.011780 
2974505400750 -0.000961 0.005157 0.011780 
2974525206658 -0.000961 0.005157 0.011780 
2974545043084 -0.000992 0.005234 0.011765 
2974564879510 -0.000992 0.005234 0.011765 
2974584685418 -0.000992 0.005234 0.011765 
2974604491326 -0.000992 0.005234 0.011765 
2974624327752 -0.000992 0.005234 0.011765 
2974644133660 -0.000992 0.005234 0.011765 
2974663970086 -0.000992 0.005234 0.011765 
2974683775994 -0.000992 0.005234 0.011765 
2974703581902 -0.000992 0.005234 0.011765 
2974723418328 -0.000992 0.005234 0.011765 
2974743224236 -0.000992 0.005234 0.011765 
2974763030145 -0.000992 0.005234 0.011765 
2974782866570 -0.000992 0.005234 0.011765 
2974802672479 -0.000992 0.005234 0.011765 
2974822478387 -0.000992 0.005234 0.011765 
2974842314813 -0.000992 0.005234 0.011765 
2974862151238 -0.000992 0.005234 0.011765 
2974881987664 -0.000992 0.005234 0.011765 
2974901793572 -0.000992 0.005234 0.011765 
2974921599480 -0.000992 0.005234 0.011765 
2974941435906 -0.000992 0.005234 0.011765 
2974961241814 -0.000992 0.005234 0.011765 
2974981047723 -0.000992 0.005234 0.011765 
2975000884148 -0.000992 0.005234 0.011765 
2975020690057 -0.000992 0.005234 0.011765 
2975040526482 -0.000992 0.005234 0.011765 
2975060332391 -0.000992 0.005234 0.011765 
2975080138299 -0.000992 0.005234 0.011765 
2975099974725 -0.000992 0.005234 0.011765 
2975119811150 -0.000992 0.005234 0.011765 
2975139617059 -0.000992 0.005234 0.011765 
2975159453484 -0.000992 0.005234 0.011765 
2975179259393 -0.000992 0.005234 0.011765 
2975199065301 -0.000992 0.005234 0.011765 
2975218901727 -0.000992 0.005234 0.011765 
2975238707635 -0.000992 0.005234 0.011765 
2975258513543 -0.000992 0.005234 0.011765 
2975278349969 -0.000992 0.005234 0.011765 
2975298155877 -0.000992 0.005234 0.011765 
2975317992303 -0.000992 0.005234 0.011765 
2975337798211 -0.000992 0.005234 0.011765 
2975357604119 -0.000992 0.005234 0.011765 
2975377440545 -0.000992 0.005234 0.011765 
2975397246453 -0.000992 0.005234 0.011765 
2975417082879 -0.000992 0.005234 0.011765 
2975436919305 -0.000992 0.005234 0.011765 
2975456725213 -0.000992 0.005234 0.011765 
2975476561639 -0.000992 0.005234 0.011765 
2975496367547 -0.000992 0.005234 0.011765 
2975516173455 -0.000992 0.005234 0.011765 
2975536009881 -0.000992 0.005234 0.011765 
2975555815789 -0.000992 0.005234 0.011765 
2975575621697 -0.000992 0.005234 0.011765 
2975595458123 -0.000992 0.005234 0.011765 
2975615264031 -0.000992 0.005234 0.011765 
2975635100457 -0.000992 0.005234 0.011765 
2975654906365 -0.000992 0.005234 0.011765 
2975674712273 -0.000992 0.005234 0.011765 
2975694548699 -0.000992 0.005234 0.011765 
2975714385125 -0.000992 0.005234 0.011765 
2975734191033 -0.000992 0.005234 0.011765 
2975754027459 -0.000992 0.005234 0.011765 
2975773833367 -0.000992 0.005234 0.011765 
2975793639275 -0.000992 0.005234 0.011765 
2975813475701 -0.000992 0.005234 0.011765 
2975833281609 -0.000992 0.005234 0.011765 
2975853087518 -0.000992 0.005234 0.011765 
2975872923943 -0.000992 0.005234 0.011765 
2975892729852 -0.000992 0.005234 0.011765 
2975912566277 -0.000992 0.005234 0.011765 
2975932372186 -0.000992 0.005234 0.011765 
2975952178094 -0.000992 0.005234 0.011765 
2975972014520 -0.000992 0.005234 0.011765 
2975991850945 -0.000992 0.005234 0.011765 
2976011656854 -0.000992 0.005234 0.011765 
2976031493279 -0.000992 0.005234 0.011765 
2976051299188 -0.000992 0.005234 0.011765 
2976071105096 -0.000992 0.005234 0.011765 
2976090941521 -0.000992 0.005234 0.011765 
2976110747430 -0.000992 0.005234 0.011765 
2976130583855 -0.000992 0.005234 0.011765 
2976150389764 -0.000992 0.005234 0.011765 
2976170195672 -0.000992 0.005234 0.011765 
2976190032098 -0.000992 0.005234 0.011765 
2976209838006 -0.000992 0.005234 0.011765 
2976229643914 -0.000992 0.005234 0.011765 
2976249480340 -0.000992 0.005234 0.011765 
2976269316766 -0.000992 0.005234 0.011765 
2976289122674 -0.000992 0.005234 0.011765 
2976308959100 -0.000992 0.005234 0.011765 
2976328765008 -0.000992 0.005234 0.011765 
2976348601434 -0.000992 0.005234 0.011765 
2976368407342 -0.000992 0.005234 0.011765 
2976388213250 -0.000992 0.005234 0.011765 
