# Created at Tue Jun 01 16:09:02 GMT+02:00 2021 in Burnaby Canada 
2744496179333 -0.000854 0.005585 0.012070 
2744516015759 -0.000854 0.005585 0.012070 
2744535821667 -0.000854 0.005585 0.012070 
2744555658093 -0.000854 0.005585 0.012070 
2744575464001 -0.000854 0.005585 0.012070 
2744595300427 -0.000854 0.005585 0.012070 
2744615106335 -0.000854 0.005585 0.012070 
2744634912244 -0.000854 0.005585 0.012070 
2744654748669 -0.000854 0.005585 0.012070 
2744674554578 -0.000854 0.005585 0.012070 
2744694360486 -0.000854 0.005585 0.012070 
2744714196912 -0.000854 0.005585 0.012070 
2744734002820 -0.000854 0.005585 0.012070 
2744753808728 -0.000854 0.005585 0.012070 
2744773645154 -0.000854 0.005585 0.012070 
2744793481580 -0.000854 0.005585 0.012070 
2744813287488 -0.000854 0.005585 0.012070 
2744833123913 -0.000854 0.005585 0.012070 
2744852929822 -0.000854 0.005585 0.012070 
2744872766247 -0.000854 0.005585 0.012070 
2744892572156 -0.000854 0.005585 0.012070 
2744912378064 -0.000854 0.005585 0.012070 
2744932214490 -0.000854 0.005585 0.012070 
2744952020398 -0.000854 0.005585 0.012070 
2744971856824 -0.000854 0.005585 0.012070 
2744991662732 -0.000854 0.005585 0.012070 
2745011468640 -0.000854 0.005585 0.012070 
2745031305066 -0.000854 0.005585 0.012070 
2745051110974 -0.000854 0.005585 0.012070 
2745070947400 -0.000854 0.005585 0.012070 
2745090783826 -0.000854 0.005585 0.012070 
2745110589734 -0.000854 0.005585 0.012070 
2745130426160 -0.000854 0.005585 0.012070 
2745150232068 -0.000854 0.005585 0.012070 
2745170037976 -0.000854 0.005585 0.012070 
2745189874402 -0.000854 0.005585 0.012070 
2745209680310 -0.000854 0.005585 0.012070 
2745229486218 -0.000854 0.005585 0.012070 
2745249322644 -0.000854 0.005585 0.012070 
2745269128552 -0.000854 0.005585 0.012070 
2745288934460 -0.000854 0.005585 0.012070 
2745308770886 -0.000854 0.005585 0.012070 
2745328576794 -0.000854 0.005585 0.012070 
2745348413220 -0.000854 0.005585 0.012070 
2745368249646 -0.000854 0.005585 0.012070 
2745388055554 -0.000854 0.005585 0.012070 
2745407891980 -0.000854 0.005585 0.012070 
2745427697888 -0.000854 0.005585 0.012070 
2745447503796 -0.000854 0.005585 0.012070 
2745467340222 -0.000854 0.005585 0.012070 
2745487146130 -0.000854 0.005585 0.012070 
2745506982556 -0.000854 0.005585 0.012070 
2745526788464 -0.000854 0.005585 0.012070 
2745546594372 -0.000854 0.005585 0.012070 
2745566430798 -0.000854 0.005585 0.012070 
2745586236706 -0.000854 0.005585 0.012070 
2745606042615 -0.000854 0.005585 0.012070 
2745625879040 -0.000854 0.005585 0.012070 
2745645715466 -0.000854 0.005585 0.012070 
2745665551892 -0.000854 0.005585 0.012070 
2745685357800 -0.000854 0.005585 0.012070 
2745705163708 -0.000854 0.005585 0.012070 
2745725000134 -0.000854 0.005585 0.012070 
2745744806042 -0.000854 0.005585 0.012070 
2745764611951 -0.000854 0.005585 0.012070 
2745784448376 -0.000854 0.005585 0.012070 
2745804254285 -0.000854 0.005585 0.012070 
2745824060193 -0.000854 0.005585 0.012070 
2745843896619 -0.000854 0.005585 0.012070 
2745863702527 -0.000854 0.005585 0.012070 
2745883538953 -0.000854 0.005585 0.012070 
2745903344861 -0.000854 0.005585 0.012070 
2745923181287 -0.000854 0.005585 0.012070 
2745943017712 -0.000854 0.005585 0.012070 
2745962823621 -0.000854 0.005585 0.012070 
2745982629529 -0.000854 0.005585 0.012070 
2746002465955 -0.000854 0.005585 0.012070 
2746022271863 -0.000854 0.005585 0.012070 
2746042108288 -0.000854 0.005585 0.012070 
2746061914197 -0.000854 0.005585 0.012070 
2746081720105 -0.000854 0.005585 0.012070 
2746101556531 -0.000854 0.005585 0.012070 
2746121362439 -0.000854 0.005585 0.012070 
2746141168347 -0.000854 0.005585 0.012070 
2746161004773 -0.000854 0.005585 0.012070 
2746180810681 -0.000854 0.005585 0.012070 
2746200616589 -0.000854 0.005585 0.012070 
2746220453015 -0.000854 0.005585 0.012070 
2746240289441 -0.000854 0.005585 0.012070 
2746260095349 -0.000854 0.005585 0.012070 
2746279931775 -0.000854 0.005585 0.012070 
2746299737683 -0.000854 0.005585 0.012070 
2746319574109 -0.000854 0.005585 0.012070 
2746339380017 -0.000854 0.005585 0.012070 
2746359185925 -0.000854 0.005585 0.012070 
2746379022351 -0.000854 0.005585 0.012070 
2746398828259 -0.000854 0.005585 0.012070 
2746418634167 -0.000854 0.005585 0.012070 
2746438470593 -0.000854 0.005585 0.012070 
2746458276501 -0.000854 0.005585 0.012070 
2746478112927 -0.000854 0.005585 0.012070 
2746497949353 -0.000854 0.005585 0.012070 
2746517785779 -0.000854 0.005585 0.012070 
2746537591687 -0.000854 0.005585 0.012070 
2746557397595 -0.000854 0.005585 0.012070 
2746577234021 -0.000854 0.005585 0.012070 
2746597039929 -0.000854 0.005585 0.012070 
2746616845837 -0.000854 0.005585 0.012070 
2746636682263 -0.000854 0.005585 0.012070 
2746656488171 -0.000854 0.005585 0.012070 
2746676294080 -0.000854 0.005585 0.012070 
2746696130505 -0.000854 0.005585 0.012070 
2746715936413 -0.000854 0.005585 0.012070 
2746735742322 -0.000854 0.005585 0.012070 
2746755578747 -0.000854 0.005585 0.012070 
2746775384656 -0.000854 0.005585 0.012070 
2746795221081 -0.000854 0.005585 0.012070 
2746815057507 -0.000854 0.005585 0.012070 
2746834863415 -0.000854 0.005585 0.012070 
2746854699841 -0.000854 0.005585 0.012070 
2746874505749 -0.000854 0.005585 0.012070 
2746894342175 -0.000854 0.005585 0.012070 
2746914148083 -0.000854 0.005585 0.012070 
2746933953992 -0.000854 0.005585 0.012070 
2746953790417 -0.000854 0.005585 0.012070 
2746973596326 -0.000854 0.005585 0.012070 
2746993402234 -0.000854 0.005585 0.012070 
2747013238660 -0.000854 0.005585 0.012070 
2747033044568 -0.000854 0.005585 0.012070 
2747052850476 -0.000854 0.005585 0.012070 
2747072686902 -0.000854 0.005585 0.012070 
2747092523328 -0.000854 0.005585 0.012070 
2747112359753 -0.000854 0.005585 0.012070 
2747132165662 -0.000854 0.005585 0.012070 
2747151971570 -0.000854 0.005585 0.012070 
2747171807996 -0.000854 0.005585 0.012070 
2747191613904 -0.000854 0.005585 0.012070 
2747211419812 -0.000854 0.005585 0.012070 
2747231256238 -0.000854 0.005585 0.012070 
2747251062146 -0.000854 0.005585 0.012070 
2747270898572 -0.000854 0.005585 0.012070 
2747290704480 -0.000854 0.005585 0.012070 
2747310510388 -0.000854 0.005585 0.012070 
2747330346814 -0.000854 0.005585 0.012070 
2747350152722 -0.000854 0.005585 0.012070 
2747369989148 -0.000854 0.005585 0.012070 
2747389825574 -0.000854 0.005585 0.012070 
2747409631482 -0.000854 0.005585 0.012070 
2747429437390 -0.000854 0.005585 0.012070 
2747449273816 -0.000854 0.005585 0.012070 
2747469079724 -0.000854 0.005585 0.012070 
2747488916150 -0.000854 0.005585 0.012070 
2747508722058 -0.000854 0.005585 0.012070 
2747528527966 -0.000854 0.005585 0.012070 
2747548364392 -0.000854 0.005585 0.012070 
2747568170300 -0.000854 0.005585 0.012070 
2747587976208 -0.000854 0.005585 0.012070 
2747607812634 -0.000854 0.005585 0.012070 
2747627618542 -0.000854 0.005585 0.012070 
2747647454968 -0.000854 0.005585 0.012070 
2747667291394 -0.000854 0.005585 0.012070 
2747687097302 -0.000854 0.005585 0.012070 
2747706933728 -0.000854 0.005585 0.012070 
2747726739636 -0.000854 0.005585 0.012070 
2747746545544 -0.000854 0.005585 0.012070 
2747766381970 -0.000854 0.005585 0.012070 
2747786187878 -0.000854 0.005585 0.012070 
2747805993787 -0.000854 0.005585 0.012070 
2747825830212 -0.000854 0.005585 0.012070 
2747845636121 -0.000854 0.005585 0.012070 
2747865472546 -0.000854 0.005585 0.012070 
2747885278455 -0.000854 0.005585 0.012070 
2747905084363 -0.000854 0.005585 0.012070 
2747924920788 -0.000854 0.005585 0.012070 
2747944757214 -0.000854 0.005585 0.012070 
2747964593640 -0.000854 0.005585 0.012070 
2747984399548 -0.000854 0.005585 0.012070 
2748004205456 -0.000854 0.005585 0.012070 
2748024041882 -0.000854 0.005585 0.012070 
2748043847790 -0.000854 0.005585 0.012070 
2748063653699 -0.000854 0.005585 0.012070 
2748083490124 -0.000854 0.005585 0.012070 
2748103296033 -0.000854 0.005585 0.012070 
2748123101941 -0.000854 0.005585 0.012070 
2748142938367 -0.000854 0.005585 0.012070 
2748162744275 -0.000854 0.005585 0.012070 
2748182580701 -0.000854 0.005585 0.012070 
2748202386609 -0.000854 0.005585 0.012070 
2748222223035 -0.000854 0.005585 0.012070 
2748242059460 -0.000854 0.005585 0.012070 
2748261865369 -0.000854 0.005585 0.012070 
2748281671277 -0.000854 0.005585 0.012070 
2748301507703 -0.000854 0.005585 0.012070 
2748321313611 -0.000854 0.005585 0.012070 
2748341150037 -0.000854 0.005585 0.012070 
2748360955945 -0.000854 0.005585 0.012070 
2748380761853 -0.000854 0.005585 0.012070 
2748400598279 -0.000854 0.005585 0.012070 
2748420404187 -0.000854 0.005585 0.012070 
2748440210095 -0.000854 0.005585 0.012070 
2748460046521 -0.000854 0.005585 0.012070 
2748479852429 -0.000854 0.005585 0.012070 
2748499688855 -0.000854 0.005585 0.012070 
2748519525281 -0.000854 0.005585 0.012070 
2748539331189 -0.000854 0.005585 0.012070 
2748559167615 -0.000854 0.005585 0.012070 
2748578970343 -0.000854 0.005585 0.012070 
2748598776251 -0.000854 0.005585 0.012070 
2748618612677 -0.000854 0.005585 0.012070 
2748638418585 -0.000854 0.005585 0.012070 
2748658224493 -0.000854 0.005585 0.012070 
2748678060919 -0.000854 0.005585 0.012070 
2748697866827 -0.000854 0.005585 0.012070 
2748717672735 -0.000854 0.005585 0.012070 
2748737509161 -0.000854 0.005585 0.012070 
2748757315069 -0.000854 0.005585 0.012070 
2748777120978 -0.000854 0.005585 0.012070 
2748796957403 -0.000854 0.005585 0.012070 
2748816793829 -0.000854 0.005585 0.012070 
2748836630255 -0.000854 0.005585 0.012070 
2748856436163 -0.000854 0.005585 0.012070 
2748876272589 -0.000854 0.005585 0.012070 
2748896078497 -0.000854 0.005585 0.012070 
2748915884405 -0.000854 0.005585 0.012070 
2748935720831 -0.000854 0.005585 0.012070 
2748955526739 -0.000854 0.005585 0.012070 
2748975332648 -0.000854 0.005585 0.012070 
2748995169073 -0.000854 0.005585 0.012070 
2749014974982 -0.000854 0.005585 0.012070 
2749034780890 -0.000854 0.005585 0.012070 
2749054617316 -0.000854 0.005585 0.012070 
2749074453741 -0.000854 0.005585 0.012070 
2749094290167 -0.000854 0.005585 0.012070 
2749114096075 -0.000854 0.005585 0.012070 
2749133901983 -0.000854 0.005585 0.012070 
2749153738409 -0.000854 0.005585 0.012070 
2749173544317 -0.000854 0.005585 0.012070 
2749193350226 -0.000854 0.005585 0.012070 
2749213186651 -0.000854 0.005585 0.012070 
2749232992560 -0.000854 0.005585 0.012070 
2749252828985 -0.000854 0.005585 0.012070 
2749272634894 -0.000854 0.005585 0.012070 
2749292440802 -0.000854 0.005585 0.012070 
2749312277228 -0.000854 0.005585 0.012070 
2749332083136 -0.000854 0.005585 0.012070 
2749351889044 -0.000854 0.005585 0.012070 
2749371725470 -0.000854 0.005585 0.012070 
2749391561896 -0.000854 0.005585 0.012070 
2749411367804 -0.000854 0.005585 0.012070 
2749431204230 -0.000854 0.005585 0.012070 
2749451010138 -0.000854 0.005585 0.012070 
2749470846564 -0.000854 0.005585 0.012070 
2749490652472 -0.000854 0.005585 0.012070 
2749510458380 -0.000854 0.005585 0.012070 
2749530294806 -0.000854 0.005585 0.012070 
2749550100714 -0.001190 0.005600 0.012070 
2749569906622 -0.001190 0.005600 0.012070 
2749589743048 -0.001190 0.005600 0.012070 
2749609548956 -0.001190 0.005600 0.012070 
2749629385382 -0.001190 0.005600 0.012070 
2749649221808 -0.001190 0.005600 0.012070 
2749669027716 -0.001190 0.005600 0.012070 
2749688864142 -0.001190 0.005600 0.012070 
2749708670050 -0.001190 0.005600 0.012070 
2749728475958 -0.001190 0.005600 0.012070 
2749748312384 -0.001190 0.005600 0.012070 
2749768118292 -0.001190 0.005600 0.012070 
2749787924200 -0.001190 0.005600 0.012070 
2749807760626 -0.001190 0.005600 0.012070 
2749827566534 -0.001190 0.005600 0.012070 
2749847402960 -0.001190 0.005600 0.012070 
2749867208868 -0.001190 0.005600 0.012070 
2749887014776 -0.001190 0.005600 0.012070 
2749906851202 -0.001190 0.005600 0.012070 
2749926657110 -0.001190 0.005600 0.012070 
2749946493536 -0.001190 0.005600 0.012070 
2749966329962 -0.001190 0.005600 0.012070 
2749986135870 -0.001190 0.005600 0.012070 
2750005972296 -0.001190 0.005600 0.012070 
2750025778204 -0.001190 0.005600 0.012070 
2750045584112 -0.001190 0.005600 0.012070 
2750065420538 -0.001190 0.005600 0.012070 
2750085226446 -0.001190 0.005600 0.012070 
2750105062872 -0.001190 0.005600 0.012070 
2750124868780 -0.001190 0.005600 0.012070 
2750144674689 -0.001190 0.005600 0.012070 
2750164511114 -0.001190 0.005600 0.012070 
2750184317023 -0.001190 0.005600 0.012070 
2750204122931 -0.001190 0.005600 0.012070 
2750223959357 -0.001190 0.005600 0.012070 
2750243795782 -0.001190 0.005600 0.012070 
2750263601691 -0.001190 0.005600 0.012070 
2750283438116 -0.001190 0.005600 0.012070 
2750303244025 -0.001190 0.005600 0.012070 
2750323080450 -0.001190 0.005600 0.012070 
2750342886358 -0.001190 0.005600 0.012070 
2750362692267 -0.001190 0.005600 0.012070 
2750382528692 -0.001190 0.005600 0.012070 
2750402334601 -0.001190 0.005600 0.012070 
2750422140509 -0.001190 0.005600 0.012070 
2750441976935 -0.001190 0.005600 0.012070 
2750461782843 -0.001190 0.005600 0.012070 
2750481619269 -0.001190 0.005600 0.012070 
2750501455694 -0.001190 0.005600 0.012070 
2750521261603 -0.001190 0.005600 0.012070 
2750541098028 -0.001190 0.005600 0.012070 
2750560903937 -0.001190 0.005600 0.012070 
2750580709845 -0.001190 0.005600 0.012070 
2750600546271 -0.001190 0.005600 0.012070 
2750620352179 -0.001190 0.005600 0.012070 
2750640188605 -0.001190 0.005600 0.012070 
2750659994513 -0.001190 0.005600 0.012070 
2750679800421 -0.001190 0.005600 0.012070 
