# Created at Tue Jun 01 16:07:21 GMT+02:00 2021 in Burnaby Canada 
2643913835710 -0.000702 0.005707 0.012756 
2643933672135 -0.000702 0.005707 0.012756 
2643953478044 -0.000702 0.005707 0.012756 
2643973283952 -0.000702 0.005707 0.012756 
2643993120378 -0.000702 0.005707 0.012756 
2644012926286 -0.000702 0.005707 0.012756 
2644032732194 -0.000702 0.005707 0.012756 
2644052568620 -0.000702 0.005707 0.012756 
2644072405046 -0.000702 0.005707 0.012756 
2644092241471 -0.000702 0.005707 0.012756 
2644112047380 -0.000702 0.005707 0.012756 
2644131853288 -0.000702 0.005707 0.012756 
2644151689714 -0.000702 0.005707 0.012756 
2644171495622 -0.000702 0.005707 0.012756 
2644191301530 -0.000702 0.005707 0.012756 
2644211137956 -0.000702 0.005707 0.012756 
2644230943864 -0.000702 0.005707 0.012756 
2644250749772 -0.000702 0.005707 0.012756 
2644270586198 -0.000702 0.005707 0.012756 
2644290392106 -0.000702 0.005707 0.012756 
2644310228532 -0.000702 0.005707 0.012756 
2644330034440 -0.000702 0.005707 0.012756 
2644349870866 -0.000702 0.005707 0.012756 
2644369707292 -0.000702 0.005707 0.012756 
2644389513200 -0.000702 0.005707 0.012756 
2644409319108 -0.000702 0.005707 0.012756 
2644429155534 -0.000702 0.005707 0.012756 
2644448961442 -0.000702 0.005707 0.012756 
2644468797868 -0.000702 0.005707 0.012756 
2644488603776 -0.000702 0.005707 0.012756 
2644508409684 -0.000702 0.005707 0.012756 
2644528246110 -0.000702 0.005707 0.012756 
2644548052018 -0.000702 0.005707 0.012756 
2644567857926 -0.000702 0.005707 0.012756 
2644587694352 -0.000702 0.005707 0.012756 
2644607500260 -0.000702 0.005707 0.012756 
2644627306169 -0.000702 0.005707 0.012756 
2644647142594 -0.000702 0.005707 0.012756 
2644666979020 -0.000702 0.005707 0.012756 
2644686815446 -0.000702 0.005707 0.012756 
2644706621354 -0.000702 0.005707 0.012756 
2644726427262 -0.000702 0.005707 0.012756 
2644746263688 -0.000702 0.005707 0.012756 
2644766069596 -0.000702 0.005707 0.012756 
2644785875505 -0.000702 0.005707 0.012756 
2644805711930 -0.000702 0.005707 0.012756 
2644825517839 -0.000702 0.005707 0.012756 
2644845354264 -0.000702 0.005707 0.012756 
2644865160173 -0.000702 0.005707 0.012756 
2644884966081 -0.000702 0.005707 0.012756 
2644904802507 -0.000702 0.005707 0.012756 
2644924638932 -0.000702 0.005707 0.012756 
2644944444840 -0.000702 0.005707 0.012756 
2644964281266 -0.000702 0.005707 0.012756 
2644984087174 -0.000702 0.005707 0.012756 
2645003893083 -0.000702 0.005707 0.012756 
2645023729508 -0.000702 0.005707 0.012756 
2645043535417 -0.000702 0.005707 0.012756 
2645063371842 -0.000702 0.005707 0.012756 
2645083177751 -0.000702 0.005707 0.012756 
2645102983659 -0.000702 0.005707 0.012756 
2645122820085 -0.000702 0.005707 0.012756 
2645142625993 -0.000702 0.005707 0.012756 
2645162431901 -0.000702 0.005707 0.012756 
2645182268327 -0.000702 0.005707 0.012756 
2645202074235 -0.000702 0.005707 0.012756 
2645221910661 -0.000702 0.005707 0.012756 
2645241747087 -0.000702 0.005707 0.012756 
2645261552995 -0.000702 0.005707 0.012756 
2645281389421 -0.000702 0.005707 0.012756 
2645301195329 -0.000702 0.005707 0.012756 
2645321001237 -0.000702 0.005707 0.012756 
2645340837663 -0.000702 0.005707 0.012756 
2645360643571 -0.000702 0.005707 0.012756 
2645380449479 -0.000702 0.005707 0.012756 
2645400285905 -0.000702 0.005707 0.012756 
2645420091813 -0.000702 0.005707 0.012756 
2645439928239 -0.000702 0.005707 0.012756 
2645459734147 -0.000702 0.005707 0.012756 
2645479540055 -0.000702 0.005707 0.012756 
2645499376481 -0.000702 0.005707 0.012756 
2645519212907 -0.000702 0.005707 0.012756 
2645539018815 -0.000702 0.005707 0.012756 
2645558855241 -0.000702 0.005707 0.012756 
2645578661149 -0.000702 0.005707 0.012756 
2645598467057 -0.000702 0.005707 0.012756 
2645618303483 -0.000702 0.005707 0.012756 
2645638109391 -0.000702 0.005707 0.012756 
2645657945817 -0.000702 0.005707 0.012756 
2645677751725 -0.000702 0.005707 0.012756 
2645697557633 -0.000702 0.005707 0.012756 
2645717394059 -0.000702 0.005707 0.012756 
2645737199967 -0.000702 0.005707 0.012756 
2645757005876 -0.000702 0.005707 0.012756 
2645776842301 -0.000702 0.005707 0.012756 
2645796678727 -0.000702 0.005707 0.012756 
2645816484635 -0.000702 0.005707 0.012756 
2645836321061 -0.000702 0.005707 0.012756 
2645856126969 -0.000702 0.005707 0.012756 
2645875963395 -0.000702 0.005707 0.012756 
2645895769303 -0.000702 0.005707 0.012756 
2645915575212 -0.000702 0.005707 0.012756 
2645935411637 -0.000702 0.005707 0.012756 
2645955217546 -0.000702 0.005707 0.012756 
2645975023454 -0.000702 0.005707 0.012756 
2645994859880 -0.000702 0.005707 0.012756 
2646014665788 -0.000702 0.005707 0.012756 
2646034502214 -0.000702 0.005707 0.012756 
2646054308122 -0.000702 0.005707 0.012756 
2646074144548 -0.000702 0.005707 0.012756 
2646093980973 -0.000702 0.005707 0.012756 
2646113786882 -0.000702 0.005707 0.012756 
2646133592790 -0.000702 0.005707 0.012756 
2646153429215 -0.000702 0.005707 0.012756 
2646173235124 -0.000702 0.005707 0.012756 
2646193071549 -0.000702 0.005707 0.012756 
2646212877458 -0.000702 0.005707 0.012756 
2646232683366 -0.000702 0.005707 0.012756 
2646252519792 -0.000702 0.005707 0.012756 
2646272325700 -0.000702 0.005707 0.012756 
2646292131608 -0.000702 0.005707 0.012756 
2646311968034 -0.000702 0.005707 0.012756 
2646331773942 -0.000702 0.005707 0.012756 
2646351610368 -0.000702 0.005707 0.012756 
2646371446794 -0.000702 0.005707 0.012756 
2646391252702 -0.000702 0.005707 0.012756 
2646411089128 -0.000702 0.005707 0.012756 
2646430895036 -0.000702 0.005707 0.012756 
2646450700944 -0.000702 0.005707 0.012756 
2646470537370 -0.000702 0.005707 0.012756 
2646490343278 -0.000702 0.005707 0.012756 
2646510149186 -0.000702 0.005707 0.012756 
2646529985612 -0.000702 0.005707 0.012756 
2646549791520 -0.000702 0.005707 0.012756 
2646569627946 -0.000702 0.005707 0.012756 
2646589433854 -0.000702 0.005707 0.012756 
2646609239762 -0.000702 0.005707 0.012756 
2646629076188 -0.000702 0.005707 0.012756 
2646648912614 -0.000702 0.005707 0.012756 
2646668718522 -0.000702 0.005707 0.012756 
2646688554948 -0.000702 0.005707 0.012756 
2646708360856 -0.000702 0.005707 0.012756 
2646728166764 -0.000702 0.005707 0.012756 
2646748003190 -0.000702 0.005707 0.012756 
2646767809098 -0.000702 0.005707 0.012756 
2646787615007 -0.000702 0.005707 0.012756 
2646807451432 -0.000702 0.005707 0.012756 
2646827257340 -0.000702 0.005707 0.012756 
2646847093766 -0.000702 0.005707 0.012756 
2646866899674 -0.000702 0.005707 0.012756 
2646886705583 -0.000702 0.005707 0.012756 
2646906542008 -0.000702 0.005707 0.012756 
2646926378434 -0.000702 0.005707 0.012756 
2646946214860 -0.000702 0.005707 0.012756 
2646966020768 -0.000702 0.005707 0.012756 
2646985826676 -0.000702 0.005707 0.012756 
2647005663102 -0.000702 0.005707 0.012756 
2647025469010 -0.000702 0.005707 0.012756 
2647045274919 -0.000702 0.005707 0.012756 
2647065111344 -0.000702 0.005707 0.012756 
2647084917253 -0.000702 0.005707 0.012756 
2647104753678 -0.000702 0.005707 0.012756 
2647124559587 -0.000702 0.005707 0.012756 
2647144365495 -0.000702 0.005707 0.012756 
2647164201921 -0.000702 0.005707 0.012756 
2647184007829 -0.000702 0.005707 0.012756 
2647203813737 -0.000702 0.005707 0.012756 
2647223650163 -0.000702 0.005707 0.012756 
2647243486589 -0.000702 0.005707 0.012756 
2647263292497 -0.000702 0.005707 0.012756 
2647283128923 -0.000702 0.005707 0.012756 
2647302934831 -0.000702 0.005707 0.012756 
2647322771257 -0.000702 0.005707 0.012756 
2647342577165 -0.000702 0.005707 0.012756 
2647362383073 -0.000702 0.005707 0.012756 
2647382219499 -0.000702 0.005707 0.012756 
2647402025407 -0.000702 0.005707 0.012756 
2647421831315 -0.000702 0.005707 0.012756 
2647441667741 -0.000702 0.005707 0.012756 
2647461473649 -0.000702 0.005707 0.012756 
2647481310075 -0.000702 0.005707 0.012756 
2647501146501 -0.000702 0.005707 0.012756 
2647520952409 -0.000702 0.005707 0.012756 
2647540788835 -0.000702 0.005707 0.012756 
2647560594743 -0.000702 0.005707 0.012756 
2647580400651 -0.000702 0.005707 0.012756 
2647600237077 -0.000702 0.005707 0.012756 
2647620042985 -0.000702 0.005707 0.012756 
2647639848893 -0.000702 0.005707 0.012756 
2647659685319 -0.000702 0.005707 0.012756 
2647679491227 -0.000702 0.005707 0.012756 
2647699297135 -0.000702 0.005707 0.012756 
2647719133561 -0.000702 0.005707 0.012756 
2647738939469 -0.000702 0.005707 0.012756 
2647758775895 -0.000702 0.005707 0.012756 
2647778612321 -0.000702 0.005707 0.012756 
2647798418229 -0.000702 0.005707 0.012756 
2647818254655 -0.000702 0.005707 0.012756 
2647838060563 -0.000702 0.005707 0.012756 
2647857866471 -0.000702 0.005707 0.012756 
2647877702897 -0.000702 0.005707 0.012756 
2647897508805 -0.000702 0.005707 0.012756 
2647917345231 -0.000702 0.005707 0.012756 
2647937151139 -0.000702 0.005707 0.012756 
2647956957048 -0.000702 0.005707 0.012756 
2647976793473 -0.000702 0.005707 0.012756 
2647996599382 -0.000702 0.005707 0.012756 
2648016405290 -0.000702 0.005707 0.012756 
2648036241715 -0.000702 0.005707 0.012756 
2648056047624 -0.000702 0.005707 0.012756 
2648075884049 -0.000702 0.005707 0.012756 
2648095720475 -0.000702 0.005707 0.012756 
2648115526383 -0.000702 0.005707 0.012756 
2648135362809 -0.000702 0.005707 0.012756 
2648155168717 -0.000702 0.005707 0.012756 
2648174974626 -0.000702 0.005707 0.012756 
2648194811051 -0.000702 0.005707 0.012756 
2648214616960 -0.000702 0.005707 0.012756 
2648234453385 -0.000702 0.005707 0.012756 
2648254259294 -0.000702 0.005707 0.012756 
2648274065202 -0.000702 0.005707 0.012756 
2648293901628 -0.000702 0.005707 0.012756 
2648313707536 -0.000702 0.005707 0.012756 
2648333513444 -0.000702 0.005707 0.012756 
2648353349870 -0.000702 0.005707 0.012756 
2648373186296 -0.000702 0.005707 0.012756 
2648393022721 -0.000702 0.005707 0.012756 
2648412828630 -0.000702 0.005707 0.012756 
2648432634538 -0.000702 0.005707 0.012756 
2648452470964 -0.000702 0.005707 0.012756 
2648472276872 -0.000702 0.005707 0.012756 
2648492082780 -0.000702 0.005707 0.012756 
2648511919206 -0.000702 0.005707 0.012756 
2648531725114 -0.000702 0.005707 0.012756 
2648551531022 -0.000702 0.005707 0.012756 
2648571380852 -0.000702 0.005707 0.012756 
2648591186760 -0.000702 0.005707 0.012756 
2648611023186 -0.000702 0.005707 0.012756 
2648630829094 -0.000702 0.005707 0.012756 
2648650665520 -0.000702 0.005707 0.012756 
2648670501946 -0.000702 0.005707 0.012756 
2648690307854 -0.000702 0.005707 0.012756 
2648710113762 -0.000702 0.005707 0.012756 
2648729950188 -0.000702 0.005707 0.012756 
2648749756096 -0.000702 0.005707 0.012756 
2648769562004 -0.000702 0.005707 0.012756 
2648789398430 -0.000702 0.005707 0.012756 
2648809204338 -0.000702 0.005707 0.012756 
2648829040764 -0.000702 0.005707 0.012756 
2648848846672 -0.000702 0.005707 0.012756 
2648868652580 -0.000702 0.005707 0.012756 
2648888489006 -0.000702 0.005707 0.012756 
2648908294914 -0.000702 0.005707 0.012756 
2648928131340 -0.000702 0.005707 0.012756 
2648947967766 -0.000702 0.005707 0.012756 
2648967773674 -0.000702 0.005707 0.012756 
2648987610100 -0.000702 0.005707 0.012756 
2649007416008 -0.000702 0.005707 0.012756 
2649027221916 -0.000702 0.005707 0.012756 
2649047058342 -0.000702 0.005707 0.012756 
2649066864250 -0.000702 0.005707 0.012756 
2649086670159 -0.000702 0.005707 0.012756 
2649106506584 -0.000702 0.005707 0.012756 
2649126312493 -0.000702 0.005707 0.012756 
2649146148918 -0.000702 0.005707 0.012756 
2649165954827 -0.000702 0.005707 0.012756 
2649185760735 -0.000702 0.005707 0.012756 
2649205597161 -0.000702 0.005707 0.012756 
2649225433586 -0.000702 0.005707 0.012756 
2649245239494 -0.000702 0.005707 0.012756 
2649265075920 -0.000702 0.005707 0.012756 
2649284881828 -0.000702 0.005707 0.012756 
2649304718254 -0.000702 0.005707 0.012756 
2649324524162 -0.000702 0.005707 0.012756 
2649344330071 -0.000702 0.005707 0.012756 
2649364166496 -0.000702 0.005707 0.012756 
2649383972405 -0.000702 0.005707 0.012756 
2649403778313 -0.000702 0.005707 0.012756 
2649423614739 -0.000702 0.005707 0.012756 
2649443420647 -0.000702 0.005707 0.012756 
2649463226555 -0.000702 0.005707 0.012756 
2649483062981 -0.000702 0.005707 0.012756 
2649502899407 -0.000702 0.005707 0.012756 
2649522735832 -0.000702 0.005707 0.012756 
2649542541741 -0.000702 0.005707 0.012756 
2649562347649 -0.000702 0.005707 0.012756 
2649582184075 -0.000702 0.005707 0.012756 
2649601989983 -0.000702 0.005707 0.012756 
2649621795891 -0.000702 0.005707 0.012756 
2649641632317 -0.000702 0.005707 0.012756 
2649661438225 -0.000702 0.005707 0.012756 
2649681274651 -0.000702 0.005707 0.012756 
2649701080559 -0.000702 0.005707 0.012756 
2649720886467 -0.000702 0.005707 0.012756 
2649740722893 -0.000702 0.005707 0.012756 
2649760528801 -0.000702 0.005707 0.012756 
2649780334709 -0.000702 0.005707 0.012756 
2649800171135 -0.000702 0.005707 0.012756 
2649820007561 -0.000702 0.005707 0.012756 
2649839843987 -0.000702 0.005707 0.012756 
2649859649895 -0.000702 0.005707 0.012756 
2649879455803 -0.000702 0.005707 0.012756 
2649899292229 -0.000702 0.005707 0.012756 
2649919098137 -0.000702 0.005707 0.012756 
2649938904045 -0.000702 0.005707 0.012756 
2649958740471 -0.000702 0.005707 0.012756 
2649978546379 -0.000702 0.005707 0.012756 
2649998382805 -0.000702 0.005707 0.012756 
2650018188713 -0.000702 0.005707 0.012756 
2650037994621 -0.000702 0.005707 0.012756 
2650057831047 -0.000702 0.005707 0.012756 
2650077667473 -0.000702 0.005707 0.012756 
2650097473381 -0.000702 0.005707 0.012756 
2650117309807 -0.000702 0.005707 0.012756 
2650137115715 -0.000702 0.005707 0.012756 
2650156921623 -0.000702 0.005707 0.012756 
2650176758049 -0.000702 0.005707 0.012756 
2650196563957 -0.000702 0.005707 0.012756 
2650216400383 -0.000702 0.005707 0.012756 
2650236206291 -0.000702 0.005707 0.012756 
2650256012200 -0.000702 0.005707 0.012756 
2650275848625 -0.000702 0.005707 0.012756 
2650295654534 -0.000702 0.005707 0.012756 
2650315460442 -0.000702 0.005707 0.012756 
2650335296868 -0.000702 0.005707 0.012756 
2650355133293 -0.000702 0.005707 0.012756 
2650374969719 -0.000702 0.005707 0.012756 
2650394775627 -0.000702 0.005707 0.012756 
2650414581536 -0.000702 0.005707 0.012756 
2650434417961 -0.000702 0.005707 0.012756 
2650454223869 -0.000702 0.005707 0.012756 
2650474029778 -0.000702 0.005707 0.012756 
2650493866203 -0.000702 0.005707 0.012756 
2650513672112 -0.000702 0.005707 0.012756 
2650533508537 -0.000702 0.005707 0.012756 
2650553314446 -0.000702 0.005707 0.012756 
2650573120354 -0.000702 0.005707 0.012756 
2650592926262 -0.000702 0.005707 0.012756 
2650612762688 -0.000702 0.005707 0.012756 
2650632568596 -0.000702 0.005707 0.012756 
2650652405022 -0.000702 0.005707 0.012756 
2650672241448 -0.000702 0.005707 0.012756 
2650692047356 -0.000702 0.005707 0.012756 
2650711883782 -0.000702 0.005707 0.012756 
2650731689690 -0.000702 0.005707 0.012756 
2650751495598 -0.000702 0.005707 0.012756 
2650771332024 -0.000702 0.005707 0.012756 
2650791137932 -0.000702 0.005707 0.012756 
2650810974358 -0.000702 0.005707 0.012756 
2650830780266 -0.000702 0.005707 0.012756 
2650850586174 -0.000702 0.005707 0.012756 
2650870422600 -0.000702 0.005707 0.012756 
2650890228508 -0.000702 0.005707 0.012756 
2650910064934 -0.000702 0.005707 0.012756 
2650929901360 -0.000702 0.005707 0.012756 
2650949707268 -0.000702 0.005707 0.012756 
2650969543694 -0.000702 0.005707 0.012756 
2650989349602 -0.000702 0.005707 0.012756 
2651009155510 -0.000702 0.005707 0.012756 
2651028991936 -0.000702 0.005707 0.012756 
2651048797844 -0.000702 0.005707 0.012756 
2651068603752 -0.000702 0.005707 0.012756 
2651088440178 -0.000702 0.005707 0.012756 
2651108246086 -0.000702 0.005707 0.012756 
2651128082512 -0.000702 0.005707 0.012756 
2651147888420 -0.000702 0.005707 0.012756 
2651167694328 -0.000702 0.005707 0.012756 
2651187530754 -0.000702 0.005707 0.012756 
2651207336662 -0.000702 0.005707 0.012756 
2651227173088 -0.000702 0.005707 0.012756 
2651247009514 -0.000702 0.005707 0.012756 
2651266815422 -0.000702 0.005707 0.012756 
