# Created at Tue Jun 01 15:59:04 GMT+02:00 2021 in Burnaby Canada 
2146243336683 -0.000793 0.004868 0.011902 
2146263142591 -0.000793 0.004868 0.011902 
2146282948499 -0.000793 0.004868 0.011902 
2146302784925 -0.000793 0.004868 0.011902 
2146322590833 -0.000793 0.004868 0.011902 
2146342396741 -0.000793 0.004868 0.011902 
2146362233167 -0.000793 0.004868 0.011902 
2146382039075 -0.000793 0.004868 0.011902 
2146401844983 -0.000793 0.004868 0.011902 
2146421681409 -0.000793 0.004868 0.011902 
2146441487317 -0.000793 0.004868 0.011902 
2146461293226 -0.000793 0.004868 0.011902 
2146481129651 -0.000793 0.004868 0.011902 
2146500966077 -0.000793 0.004868 0.011902 
2146520771985 -0.000793 0.004868 0.011902 
2146540608411 -0.000793 0.004868 0.011902 
2146560414319 -0.000793 0.004868 0.011902 
2146580220228 -0.000793 0.004868 0.011902 
2146600026136 -0.000793 0.004868 0.011902 
2146619862562 -0.000793 0.004868 0.011902 
2146639668470 -0.000793 0.004868 0.011902 
2146659474378 -0.000793 0.004868 0.011902 
2146679310804 -0.000793 0.004868 0.011902 
2146699116712 -0.000793 0.004868 0.011902 
2146718953138 -0.000793 0.004868 0.011902 
2146738759046 -0.000793 0.004868 0.011902 
2146758564954 -0.000793 0.004868 0.011902 
2146778401380 -0.000793 0.004868 0.011902 
2146798237806 -0.000793 0.004868 0.011902 
2146818043714 -0.000793 0.004868 0.011902 
2146837880140 -0.000793 0.004868 0.011902 
2146857686048 -0.000793 0.004868 0.011902 
2146877491956 -0.000793 0.004868 0.011902 
2146897328382 -0.000793 0.004868 0.011902 
2146917134290 -0.000793 0.004868 0.011902 
2146936940198 -0.000793 0.004868 0.011902 
2146956776624 -0.000793 0.004868 0.011902 
2146976582532 -0.000793 0.004868 0.011902 
2146996388440 -0.000793 0.004868 0.011902 
2147016224866 -0.000793 0.004868 0.011902 
2147036030774 -0.000793 0.004868 0.011902 
2147055867200 -0.000793 0.004868 0.011902 
2147075703626 -0.000793 0.004868 0.011902 
2147095509534 -0.000793 0.004868 0.011902 
2147115315442 -0.000793 0.004868 0.011902 
2147135151868 -0.000793 0.004868 0.011902 
2147154957776 -0.000793 0.004868 0.011902 
2147174763685 -0.000793 0.004868 0.011902 
2147194600110 -0.000793 0.004868 0.011902 
2147214406019 -0.000793 0.004868 0.011902 
2147234211927 -0.000793 0.004868 0.011902 
2147254048353 -0.000793 0.004868 0.011902 
2147273854261 -0.000793 0.004868 0.011902 
2147293660169 -0.000793 0.004868 0.011902 
2147313496595 -0.000793 0.004868 0.011902 
2147333333021 -0.000793 0.004868 0.011902 
2147353138929 -0.000793 0.004868 0.011902 
2147372975355 -0.000793 0.004868 0.011902 
2147392781263 -0.000793 0.004868 0.011902 
2147412587171 -0.000793 0.004868 0.011902 
2147432423597 -0.000793 0.004868 0.011902 
2147452229505 -0.000793 0.004868 0.011902 
2147472035413 -0.000793 0.004868 0.011902 
2147491871839 -0.000793 0.004868 0.011902 
2147511677747 -0.000793 0.004868 0.011902 
2147531483655 -0.000793 0.004868 0.011902 
2147551320081 -0.000793 0.004868 0.011902 
2147571125989 -0.000793 0.004868 0.011902 
2147590931897 -0.000793 0.004868 0.011902 
2147610768323 -0.000793 0.004868 0.011902 
2147630604749 -0.000793 0.004868 0.011902 
2147650410657 -0.000793 0.004868 0.011902 
2147670247083 -0.000793 0.004868 0.011902 
2147690052991 -0.000793 0.004868 0.011902 
2147709858899 -0.000793 0.004868 0.011902 
2147729695325 -0.000793 0.004868 0.011902 
2147749501233 -0.000793 0.004868 0.011902 
2147769307142 -0.000793 0.004868 0.011902 
2147789143567 -0.000793 0.004868 0.011902 
2147808949476 -0.000793 0.004868 0.011902 
2147828755384 -0.000793 0.004868 0.011902 
2147848591810 -0.000793 0.004868 0.011902 
2147868397718 -0.000793 0.004868 0.011902 
2147888234144 -0.000793 0.004868 0.011902 
2147908070569 -0.000793 0.004868 0.011902 
2147927876478 -0.000793 0.004868 0.011902 
2147947682386 -0.000793 0.004868 0.011902 
2147967518812 -0.000793 0.004868 0.011902 
2147987324720 -0.000793 0.004868 0.011902 
2148007130628 -0.000793 0.004868 0.011902 
2148026967054 -0.000793 0.004868 0.011902 
2148046772962 -0.000793 0.004868 0.011902 
2148066609388 -0.000793 0.004868 0.011902 
2148086415296 -0.000793 0.004868 0.011902 
2148106221204 -0.000793 0.004868 0.011902 
2148126057630 -0.000793 0.004868 0.011902 
2148145863538 -0.000793 0.004868 0.011902 
2148165669446 -0.000793 0.004868 0.011902 
2148185505872 -0.000793 0.004868 0.011902 
2148205342298 -0.000793 0.004868 0.011902 
2148225148206 -0.000793 0.004868 0.011902 
2148244984632 -0.000793 0.004868 0.011902 
2148264790540 -0.000793 0.004868 0.011902 
2148284596448 -0.000793 0.004868 0.011902 
2148304432874 -0.000793 0.004868 0.011902 
2148324238782 -0.000793 0.004868 0.011902 
2148344044690 -0.000793 0.004868 0.011902 
2148363881116 -0.000793 0.004868 0.011902 
2148383687024 -0.000793 0.004868 0.011902 
2148403492933 -0.000793 0.004868 0.011902 
2148423329358 -0.000793 0.004868 0.011902 
2148443135267 -0.000793 0.004868 0.011902 
2148462941175 -0.000793 0.004868 0.011902 
2148482777601 -0.000793 0.004868 0.011902 
2148502614026 -0.000793 0.004868 0.011902 
2148522419935 -0.000793 0.004868 0.011902 
2148542280845 -0.000793 0.004868 0.011902 
2148562086754 -0.000793 0.004868 0.011902 
2148581892662 -0.000793 0.004868 0.011902 
2148601698570 -0.000793 0.004868 0.011902 
2148621534996 -0.000793 0.004868 0.011902 
2148641340904 -0.000793 0.004868 0.011902 
2148661177330 -0.000793 0.004868 0.011902 
2148680983238 -0.000793 0.004868 0.011902 
2148700789146 -0.000793 0.004868 0.011902 
2148720625572 -0.000793 0.004868 0.011902 
2148740431480 -0.000793 0.004868 0.011902 
2148760237388 -0.000793 0.004868 0.011902 
2148780073814 -0.000793 0.004868 0.011902 
2148799910240 -0.000793 0.004868 0.011902 
2148819716148 -0.000793 0.004868 0.011902 
2148839552574 -0.000793 0.004868 0.011902 
2148859358482 -0.000793 0.004868 0.011902 
2148879164390 -0.000793 0.004868 0.011902 
2148899000816 -0.000793 0.004868 0.011902 
2148918806724 -0.000793 0.004868 0.011902 
2148938612632 -0.000793 0.004868 0.011902 
2148958449058 -0.000793 0.004868 0.011902 
2148978254966 -0.000793 0.004868 0.011902 
2148998060875 -0.000793 0.004868 0.011902 
2149017897300 -0.000793 0.004868 0.011902 
2149037703209 -0.000793 0.004868 0.011902 
2149057539634 -0.000793 0.004868 0.011902 
2149077376060 -0.000793 0.004868 0.011902 
2149097181968 -0.000793 0.004868 0.011902 
2149116987877 -0.000793 0.004868 0.011902 
2149136824302 -0.000793 0.004868 0.011902 
2149156630211 -0.000793 0.004868 0.011902 
2149176436119 -0.000793 0.004868 0.011902 
2149196272545 -0.000793 0.004868 0.011902 
2149216078453 -0.000793 0.004868 0.011902 
2149235884361 -0.000793 0.004868 0.011902 
2149255720787 -0.000793 0.004868 0.011902 
2149275526695 -0.000793 0.004868 0.011902 
2149295332603 -0.000793 0.004868 0.011902 
2149315169029 -0.000793 0.004868 0.011902 
2149335005455 -0.000793 0.004868 0.011902 
2149354811363 -0.000793 0.004868 0.011902 
2149374647789 -0.000793 0.004868 0.011902 
2149394453697 -0.000793 0.004868 0.011902 
2149414259605 -0.000793 0.004868 0.011902 
2149434096031 -0.000793 0.004868 0.011902 
2149453901939 -0.000793 0.004868 0.011902 
2149473707847 -0.000793 0.004868 0.011902 
2149493544273 -0.000793 0.004868 0.011902 
2149513350181 -0.000793 0.004868 0.011902 
2149533156090 -0.000793 0.004868 0.011902 
2149552992515 -0.000793 0.004868 0.011902 
2149572798424 -0.000793 0.004868 0.011902 
2149592604332 -0.000793 0.004868 0.011902 
2149612440757 -0.000793 0.004868 0.011902 
2149632277183 -0.000793 0.004868 0.011902 
2149652083091 -0.000793 0.004868 0.011902 
2149671919517 -0.000793 0.004868 0.011902 
2149691725425 -0.000793 0.004868 0.011902 
2149711531334 -0.000793 0.004868 0.011902 
2149731367759 -0.000793 0.004868 0.011902 
2149751173668 -0.000793 0.004868 0.011902 
2149770979576 -0.000793 0.004868 0.011902 
2149790816002 -0.000793 0.004868 0.011902 
2149810621910 -0.000793 0.004868 0.011902 
2149830427818 -0.000793 0.004868 0.011902 
2149850264244 -0.000793 0.004868 0.011902 
2149870070152 -0.000793 0.004868 0.011902 
2149889876060 -0.000793 0.004868 0.011902 
2149909712486 -0.000793 0.004868 0.011902 
2149929548912 -0.000793 0.004868 0.011902 
2149949354820 -0.000793 0.004868 0.011902 
2149969191246 -0.000793 0.004868 0.011902 
2149988997154 -0.000793 0.004868 0.011902 
2150008803062 -0.000793 0.004868 0.011902 
2150028639488 -0.000793 0.004868 0.011902 
2150048445396 -0.000793 0.004868 0.011902 
2150068251304 -0.000793 0.004868 0.011902 
2150088087730 -0.000793 0.004868 0.011902 
2150107893638 -0.000793 0.004868 0.011902 
2150127699547 -0.000793 0.004868 0.011902 
2150147535972 -0.000793 0.004868 0.011902 
2150167341881 -0.000793 0.004868 0.011902 
2150187147789 -0.000793 0.004868 0.011902 
2150206984215 -0.000793 0.004868 0.011902 
2150226820640 -0.000793 0.004868 0.011902 
2150246626549 -0.000793 0.004868 0.011902 
2150266462974 -0.000793 0.004868 0.011902 
2150286268882 -0.000793 0.004868 0.011902 
2150306074791 -0.000793 0.004868 0.011902 
2150325911216 -0.000793 0.004868 0.011902 
2150345717125 -0.000793 0.004868 0.011902 
2150365523033 -0.000793 0.004868 0.011902 
2150385359459 -0.000793 0.004868 0.011902 
2150405165367 -0.000793 0.004868 0.011902 
2150424971275 -0.000793 0.004868 0.011902 
2150444807701 -0.000793 0.004868 0.011902 
2150464613609 -0.000793 0.004868 0.011902 
2150484450035 -0.000793 0.004868 0.011902 
2150504286461 -0.000793 0.004868 0.011902 
2150524092369 -0.000793 0.004868 0.011902 
2150543898277 -0.000793 0.004868 0.011902 
2150563734703 -0.000793 0.004868 0.011902 
2150583540611 -0.000793 0.004868 0.011902 
2150603346519 -0.000793 0.004868 0.011902 
2150623182945 -0.000793 0.004868 0.011902 
2150642988853 -0.000793 0.004868 0.011902 
2150662825279 -0.000793 0.004868 0.011902 
2150682631187 -0.000793 0.004868 0.011902 
2150702437095 -0.000793 0.004868 0.011902 
2150722273521 -0.000793 0.004868 0.011902 
2150742079429 -0.000793 0.004868 0.011902 
2150761885338 -0.000793 0.004868 0.011902 
2150781721763 -0.000793 0.004868 0.011902 
2150801558189 -0.000793 0.004868 0.011902 
2150821364097 -0.000793 0.004868 0.011902 
2150841200523 -0.000793 0.004868 0.011902 
2150861006431 -0.000793 0.004868 0.011902 
2150880812340 -0.000793 0.004868 0.011902 
2150900648765 -0.000793 0.004868 0.011902 
2150920454674 -0.000793 0.004868 0.011902 
2150940260582 -0.000793 0.004868 0.011902 
2150960097007 -0.000793 0.004868 0.011902 
2150979902916 -0.000793 0.004868 0.011902 
2150999708824 -0.000793 0.004868 0.011902 
2151019545250 -0.000793 0.004868 0.011902 
2151039351158 -0.000793 0.004868 0.011902 
2151059187584 -0.000793 0.004868 0.011902 
2151079024009 -0.000793 0.004868 0.011902 
2151098829918 -0.000793 0.004868 0.011902 
2151118635826 -0.000793 0.004868 0.011902 
2151138472252 -0.000793 0.004868 0.011902 
2151158278160 -0.000793 0.004868 0.011902 
2151178084068 -0.000793 0.004868 0.011902 
2151197920494 -0.000793 0.004868 0.011902 
2151217726402 -0.000793 0.004868 0.011902 
2151237532310 -0.000793 0.004868 0.011902 
2151257368736 -0.000793 0.004868 0.011902 
2151277174644 -0.000793 0.004868 0.011902 
2151296980552 -0.000793 0.004868 0.011902 
2151316816978 -0.000793 0.004868 0.011902 
2151336622886 -0.000793 0.004868 0.011902 
2151356459312 -0.000793 0.004868 0.011902 
2151376295738 -0.000793 0.004868 0.011902 
2151396101646 -0.000793 0.004868 0.011902 
2151415907554 -0.000793 0.004868 0.011902 
2151435743980 -0.000793 0.004868 0.011902 
2151455549888 -0.000793 0.004868 0.011902 
2151475355797 -0.000793 0.004868 0.011902 
2151495192222 -0.000793 0.004868 0.011902 
2151514998131 -0.000793 0.004868 0.011902 
2151534804039 -0.000793 0.004868 0.011902 
2151554640465 -0.000793 0.004868 0.011902 
2151574446373 -0.000793 0.004868 0.011902 
2151594252281 -0.000793 0.004868 0.011902 
2151614088707 -0.000793 0.004868 0.011902 
2151633925132 -0.000793 0.004868 0.011902 
2151653731041 -0.000793 0.004868 0.011902 
2151673567466 -0.000793 0.004868 0.011902 
2151693373375 -0.000793 0.004868 0.011902 
2151713179283 -0.000793 0.004868 0.011902 
2151733015709 -0.000793 0.004868 0.011902 
2151752821617 -0.000793 0.004868 0.011902 
2151772627525 -0.000793 0.004868 0.011902 
2151792463951 -0.000793 0.004868 0.011902 
2151812269859 -0.000793 0.004868 0.011902 
2151832075767 -0.000793 0.004868 0.011902 
2151851912193 -0.000793 0.004868 0.011902 
2151871718101 -0.000793 0.004868 0.011902 
2151891524009 -0.000793 0.004868 0.011902 
2151911360435 -0.000793 0.004868 0.011902 
2151931196861 -0.000793 0.004868 0.011902 
2151951033287 -0.000793 0.004868 0.011902 
2151970839195 -0.000793 0.004868 0.011902 
2151990645103 -0.000793 0.004868 0.011902 
2152010481529 -0.000793 0.004868 0.011902 
2152030287437 -0.000793 0.004868 0.011902 
2152050093345 -0.000793 0.004868 0.011902 
2152069929771 -0.000793 0.004868 0.011902 
2152089735679 -0.000793 0.004868 0.011902 
2152109541588 -0.000793 0.004868 0.011902 
2152129378013 -0.000793 0.004868 0.011902 
2152149183922 -0.000793 0.004868 0.011902 
2152168989830 -0.000793 0.004868 0.011902 
