# Created at Tue Jun 01 16:19:40 GMT+02:00 2021 in Burnaby Canada 
3382593075877 -0.000916 0.005432 0.012024 
3382612881785 -0.000916 0.005432 0.012024 
3382632718211 -0.000916 0.005432 0.012024 
3382652524119 -0.000916 0.005432 0.012024 
3382672360545 -0.000916 0.005432 0.012024 
3382692166453 -0.000916 0.005432 0.012024 
3382711972361 -0.000916 0.005432 0.012024 
3382731808787 -0.000916 0.005432 0.012024 
3382751614695 -0.000916 0.005432 0.012024 
3382771420604 -0.000916 0.005432 0.012024 
3382791257029 -0.000916 0.005432 0.012024 
3382811062938 -0.000916 0.005432 0.012024 
3382830868846 -0.000916 0.005432 0.012024 
3382850705271 -0.000916 0.005432 0.012024 
3382870541697 -0.000916 0.005432 0.012024 
3382890378123 -0.000916 0.005432 0.012024 
3382910184031 -0.000916 0.005432 0.012024 
3382929989939 -0.000916 0.005432 0.012024 
3382949826365 -0.000916 0.005432 0.012024 
3382969632273 -0.000916 0.005432 0.012024 
3382989438182 -0.000916 0.005432 0.012024 
3383009274607 -0.000916 0.005432 0.012024 
3383029080516 -0.000916 0.005432 0.012024 
3383048886424 -0.000916 0.005432 0.012024 
3383068722850 -0.000916 0.005432 0.012024 
3383088528758 -0.000916 0.005432 0.012024 
3383108365184 -0.000916 0.005432 0.012024 
3383128171092 -0.000916 0.005432 0.012024 
3383148007518 -0.000916 0.005432 0.012024 
3383167843943 -0.000916 0.005432 0.012024 
3383187649852 -0.000916 0.005432 0.012024 
3383207455760 -0.000916 0.005432 0.012024 
3383227292186 -0.000916 0.005432 0.012024 
3383247098094 -0.000916 0.005432 0.012024 
3383266904002 -0.000916 0.005432 0.012024 
3383286740428 -0.000916 0.005432 0.012024 
3383306546336 -0.000916 0.005432 0.012024 
3383326352244 -0.000916 0.005432 0.012024 
3383346188670 -0.000916 0.005432 0.012024 
3383365994578 -0.000916 0.005432 0.012024 
3383385831004 -0.000916 0.005432 0.012024 
3383405636912 -0.000916 0.005432 0.012024 
3383425473338 -0.000916 0.005432 0.012024 
3383445309764 -0.000916 0.005432 0.012024 
3383465115672 -0.000916 0.005432 0.012024 
3383484921580 -0.000916 0.005432 0.012024 
3383504758006 -0.000916 0.005432 0.012024 
3383524563914 -0.000916 0.005432 0.012024 
3383544400340 -0.000916 0.005432 0.012024 
3383564206248 -0.000916 0.005432 0.012024 
3383584012156 -0.000916 0.005432 0.012024 
3383603848582 -0.000916 0.005432 0.012024 
3383623654490 -0.000916 0.005432 0.012024 
3383643460398 -0.000916 0.005432 0.012024 
3383663296824 -0.000916 0.005432 0.012024 
3383683102732 -0.000916 0.005432 0.012024 
3383702908641 -0.000916 0.005432 0.012024 
3383722745066 -0.000916 0.005432 0.012024 
3383742581492 -0.000916 0.005432 0.012024 
3383762417918 -0.000916 0.005432 0.012024 
3383782223826 -0.000916 0.005432 0.012024 
3383802029734 -0.000916 0.005432 0.012024 
3383821866160 -0.000916 0.005432 0.012024 
3383841672068 -0.000916 0.005432 0.012024 
3383861477977 -0.000916 0.005432 0.012024 
3383881314402 -0.000916 0.005432 0.012024 
3383901120311 -0.000916 0.005432 0.012024 
3383920926219 -0.000916 0.005432 0.012024 
3383940762645 -0.000916 0.005432 0.012024 
3383960568553 -0.000916 0.005432 0.012024 
3383980374461 -0.000916 0.005432 0.012024 
3384000210887 -0.000916 0.005432 0.012024 
3384020047313 -0.000916 0.005432 0.012024 
3384039883738 -0.000916 0.005432 0.012024 
3384059689646 -0.000916 0.005432 0.012024 
3384079495555 -0.000916 0.005432 0.012024 
3384099331980 -0.000916 0.005432 0.012024 
3384119137889 -0.000916 0.005432 0.012024 
3384138943797 -0.000916 0.005432 0.012024 
3384158780223 -0.000916 0.005432 0.012024 
3384178586131 -0.000916 0.005432 0.012024 
3384198392039 -0.000916 0.005432 0.012024 
3384218228465 -0.000916 0.005432 0.012024 
3384238034373 -0.000916 0.005432 0.012024 
3384257840281 -0.000916 0.005432 0.012024 
3384277676707 -0.000916 0.005432 0.012024 
3384297513133 -0.000916 0.005432 0.012024 
3384317349559 -0.000916 0.005432 0.012024 
3384337155467 -0.000916 0.005432 0.012024 
3384356961375 -0.000916 0.005432 0.012024 
3384376797801 -0.000916 0.005432 0.012024 
3384396603709 -0.000916 0.005432 0.012024 
3384416409617 -0.000916 0.005432 0.012024 
3384436246043 -0.000916 0.005432 0.012024 
3384456051951 -0.000916 0.005432 0.012024 
3384475888377 -0.000916 0.005432 0.012024 
3384495694285 -0.000916 0.005432 0.012024 
3384515500193 -0.000916 0.005432 0.012024 
3384535336619 -0.000916 0.005432 0.012024 
3384555142527 -0.000916 0.005432 0.012024 
3384574978953 -0.000916 0.005432 0.012024 
3384594815379 -0.000916 0.005432 0.012024 
3384614621287 -0.000916 0.005432 0.012024 
3384634427195 -0.000916 0.005432 0.012024 
3384654263621 -0.000916 0.005432 0.012024 
3384674069529 -0.000916 0.005432 0.012024 
3384693905955 -0.000916 0.005432 0.012024 
3384713711863 -0.000916 0.005432 0.012024 
3384733517771 -0.000916 0.005432 0.012024 
3384753354197 -0.000916 0.005432 0.012024 
3384773160105 -0.000916 0.005432 0.012024 
3384792966014 -0.000916 0.005432 0.012024 
3384812802439 -0.000916 0.005432 0.012024 
3384832608348 -0.000916 0.005432 0.012024 
3384852414256 -0.000916 0.005432 0.012024 
3384872250682 -0.000916 0.005432 0.012024 
3384892087107 -0.000916 0.005432 0.012024 
3384911893016 -0.000916 0.005432 0.012024 
3384931729441 -0.000916 0.005432 0.012024 
3384951535350 -0.000916 0.005432 0.012024 
3384971371775 -0.000916 0.005432 0.012024 
3384991177684 -0.000916 0.005432 0.012024 
3385010983592 -0.000916 0.005432 0.012024 
3385030820018 -0.000916 0.005432 0.012024 
3385050625926 -0.000916 0.005432 0.012024 
3385070431834 -0.000916 0.005432 0.012024 
3385090268260 -0.000916 0.005432 0.012024 
3385110074168 -0.000916 0.005432 0.012024 
3385129910594 -0.000916 0.005432 0.012024 
3385149747020 -0.000916 0.005432 0.012024 
3385169552928 -0.000916 0.005432 0.012024 
3385189389354 -0.000916 0.005432 0.012024 
3385209195262 -0.000916 0.005432 0.012024 
3385229001170 -0.000916 0.005432 0.012024 
3385248837596 -0.000916 0.005432 0.012024 
3385268643504 -0.000916 0.005432 0.012024 
3385288449412 -0.000916 0.005432 0.012024 
3385308285838 -0.000916 0.005432 0.012024 
3385328091746 -0.000916 0.005432 0.012024 
3385347928172 -0.000916 0.005432 0.012024 
3385367734080 -0.000916 0.005432 0.012024 
3385387539988 -0.000916 0.005432 0.012024 
3385407376414 -0.000916 0.005432 0.012024 
3385427182322 -0.000916 0.005432 0.012024 
3385447018748 -0.000916 0.005432 0.012024 
3385466855174 -0.000916 0.005432 0.012024 
3385486661082 -0.000916 0.005432 0.012024 
3385506466990 -0.000916 0.005432 0.012024 
3385526303416 -0.000916 0.005432 0.012024 
3385546109324 -0.000916 0.005432 0.012024 
3385565915232 -0.000916 0.005432 0.012024 
3385585751658 -0.000916 0.005432 0.012024 
3385605557566 -0.000916 0.005432 0.012024 
3385625393992 -0.000916 0.005432 0.012024 
3385645199900 -0.000916 0.005432 0.012024 
3385665005809 -0.000916 0.005432 0.012024 
3385684842234 -0.000916 0.005432 0.012024 
3385704648143 -0.000916 0.005432 0.012024 
3385724484568 -0.000916 0.005432 0.012024 
3385744320994 -0.000916 0.005432 0.012024 
3385764126902 -0.000916 0.005432 0.012024 
3385783932811 -0.000916 0.005432 0.012024 
3385803769236 -0.000916 0.005432 0.012024 
3385823575145 -0.000916 0.005432 0.012024 
3385843411570 -0.000916 0.005432 0.012024 
3385863217479 -0.000916 0.005432 0.012024 
3385883023387 -0.000916 0.005432 0.012024 
3385902859813 -0.000916 0.005432 0.012024 
3385922665721 -0.000916 0.005432 0.012024 
3385942471629 -0.000916 0.005432 0.012024 
3385962308055 -0.000916 0.005432 0.012024 
3385982113963 -0.000916 0.005432 0.012024 
3386001950389 -0.000916 0.005432 0.012024 
3386021786814 -0.000916 0.005432 0.012024 
3386041592723 -0.000916 0.005432 0.012024 
3386061429148 -0.000916 0.005432 0.012024 
3386081235057 -0.000916 0.005432 0.012024 
3386101040965 -0.000916 0.005432 0.012024 
3386120877391 -0.000916 0.005432 0.012024 
3386140683299 -0.000916 0.005432 0.012024 
3386160489207 -0.000916 0.005432 0.012024 
3386180325633 -0.000916 0.005432 0.012024 
3386200131541 -0.000916 0.005432 0.012024 
3386219937449 -0.000916 0.005432 0.012024 
3386239773875 -0.000916 0.005432 0.012024 
3386259579783 -0.000916 0.005432 0.012024 
3386279385691 -0.000916 0.005432 0.012024 
3386299222117 -0.000916 0.005432 0.012024 
3386319058543 -0.000916 0.005432 0.012024 
3386338894969 -0.000916 0.005432 0.012024 
3386358700877 -0.000916 0.005432 0.012024 
3386378506785 -0.000916 0.005432 0.012024 
3386398343211 -0.000916 0.005432 0.012024 
3386418149119 -0.000916 0.005432 0.012024 
3386437955027 -0.000916 0.005432 0.012024 
3386457791453 -0.000916 0.005432 0.012024 
3386477597361 -0.000916 0.005432 0.012024 
3386497433787 -0.000916 0.005432 0.012024 
3386517239695 -0.000916 0.005432 0.012024 
3386537045604 -0.000916 0.005432 0.012024 
3386556882029 -0.000916 0.005432 0.012024 
3386576718455 -0.000916 0.005432 0.012024 
3386596524363 -0.000916 0.005432 0.012024 
3386616360789 -0.000916 0.005432 0.012024 
3386636166697 -0.000916 0.005432 0.012024 
3386655972605 -0.000916 0.005432 0.012024 
3386675809031 -0.000916 0.005432 0.012024 
3386695614939 -0.000916 0.005432 0.012024 
3386715451365 -0.000916 0.005432 0.012024 
3386735257273 -0.000916 0.005432 0.012024 
3386755063182 -0.000916 0.005432 0.012024 
3386774899607 -0.000916 0.005432 0.012024 
3386794705516 -0.000916 0.005432 0.012024 
3386814511424 -0.000916 0.005432 0.012024 
3386834347850 -0.000916 0.005432 0.012024 
3386854153758 -0.000916 0.005432 0.012024 
3386873990184 -0.000916 0.005432 0.012024 
3386893826609 -0.000916 0.005432 0.012024 
3386913632518 -0.000916 0.005432 0.012024 
3386933468943 -0.000916 0.005432 0.012024 
3386953274852 -0.000916 0.005432 0.012024 
3386973080760 -0.000916 0.005432 0.012024 
3386992917186 -0.000916 0.005432 0.012024 
3387012723094 -0.000916 0.005432 0.012024 
3387032529002 -0.000916 0.005432 0.012024 
3387052365428 -0.000916 0.005432 0.012024 
3387072171336 -0.000916 0.005432 0.012024 
3387091977244 -0.000916 0.005432 0.012024 
3387111813670 -0.000916 0.005432 0.012024 
3387131619578 -0.000916 0.005432 0.012024 
3387151456004 -0.000916 0.005432 0.012024 
3387171292430 -0.000916 0.005432 0.012024 
3387191098338 -0.000916 0.005432 0.012024 
3387210934764 -0.000916 0.005432 0.012024 
3387230740672 -0.000916 0.005432 0.012024 
3387250546580 -0.000916 0.005432 0.012024 
3387270383006 -0.000916 0.005432 0.012024 
3387290188914 -0.001068 0.005432 0.011917 
3387309994822 -0.001068 0.005432 0.011917 
3387329831248 -0.001068 0.005432 0.011917 
3387349637156 -0.001068 0.005432 0.011917 
3387369443064 -0.001068 0.005432 0.011917 
3387389279490 -0.001068 0.005432 0.011917 
3387409085398 -0.001068 0.005432 0.011917 
3387428921824 -0.001068 0.005432 0.011917 
3387448758250 -0.001068 0.005432 0.011917 
3387468564158 -0.001068 0.005432 0.011917 
3387488400584 -0.001068 0.005432 0.011917 
3387508206492 -0.001068 0.005432 0.011917 
3387528042918 -0.001068 0.005432 0.011917 
3387547848826 -0.001068 0.005432 0.011917 
3387567654734 -0.001068 0.005432 0.011917 
3387587491160 -0.001068 0.005432 0.011917 
3387607297068 -0.001068 0.005432 0.011917 
3387627102977 -0.001068 0.005432 0.011917 
3387646939402 -0.001068 0.005432 0.011917 
3387666745311 -0.001068 0.005432 0.011917 
3387686551219 -0.001068 0.005432 0.011917 
3387706387645 -0.001068 0.005432 0.011917 
3387726224070 -0.001068 0.005432 0.011917 
3387746060496 -0.001068 0.005432 0.011917 
3387765866404 -0.001068 0.005432 0.011917 
3387785672313 -0.001068 0.005432 0.011917 
3387805508738 -0.001068 0.005432 0.011917 
3387825314646 -0.001068 0.005432 0.011917 
3387845120555 -0.001068 0.005432 0.011917 
3387864956980 -0.001068 0.005432 0.011917 
3387884762889 -0.001068 0.005432 0.011917 
3387904568797 -0.001068 0.005432 0.011917 
3387924405223 -0.001068 0.005432 0.011917 
3387944211131 -0.001068 0.005432 0.011917 
3387964047557 -0.001068 0.005432 0.011917 
3387983853465 -0.001068 0.005432 0.011917 
3388003689891 -0.001068 0.005432 0.011917 
3388023526316 -0.001068 0.005432 0.011917 
3388043332225 -0.001068 0.005432 0.011917 
3388063138133 -0.001068 0.005432 0.011917 
3388082974559 -0.001068 0.005432 0.011917 
3388102780467 -0.001068 0.005432 0.011917 
3388122616893 -0.001068 0.005432 0.011917 
3388142422801 -0.001068 0.005432 0.011917 
3388162228709 -0.001068 0.005432 0.011917 
3388182065135 -0.001068 0.005432 0.011917 
3388201871043 -0.001068 0.005432 0.011917 
3388221676951 -0.001068 0.005432 0.011917 
3388241513377 -0.001068 0.005432 0.011917 
3388261319285 -0.001068 0.005432 0.011917 
3388281125193 -0.001068 0.005432 0.011917 
3388300961619 -0.001068 0.005432 0.011917 
3388320798045 -0.001068 0.005432 0.011917 
3388340634471 -0.001068 0.005432 0.011917 
3388360440379 -0.001068 0.005432 0.011917 
3388380246287 -0.001068 0.005432 0.011917 
3388400082713 -0.001068 0.005432 0.011917 
3388419888621 -0.001068 0.005432 0.011917 
3388439694529 -0.001068 0.005432 0.011917 
3388459530955 -0.001068 0.005432 0.011917 
3388479336863 -0.001068 0.005432 0.011917 
3388499142771 -0.001068 0.005432 0.011917 
3388518979197 -0.001068 0.005432 0.011917 
3388538785105 -0.001068 0.005432 0.011917 
3388558621531 -0.001068 0.005432 0.011917 
3388578457957 -0.001068 0.005432 0.011917 
3388598263865 -0.001068 0.005432 0.011917 
3388618100291 -0.001068 0.005432 0.011917 
3388637909493 -0.001068 0.005432 0.011917 
3388657715401 -0.001068 0.005432 0.011917 
3388677551827 -0.001068 0.005432 0.011917 
3388697357735 -0.001068 0.005432 0.011917 
3388717163644 -0.001068 0.005432 0.011917 
3388737000069 -0.001068 0.005432 0.011917 
3388756805978 -0.001068 0.005432 0.011917 
3388776642403 -0.001068 0.005432 0.011917 
3388796448312 -0.001068 0.005432 0.011917 
3388816254220 -0.001068 0.005432 0.011917 
3388836090646 -0.001068 0.005432 0.011917 
3388855896554 -0.001068 0.005432 0.011917 
3388875732980 -0.001068 0.005432 0.011917 
3388895569405 -0.001068 0.005432 0.011917 
3388915375314 -0.001068 0.005432 0.011917 
3388935211739 -0.001068 0.005432 0.011917 
3388955017648 -0.001068 0.005432 0.011917 
3388974823556 -0.001068 0.005432 0.011917 
3388994659982 -0.001068 0.005432 0.011917 
3389014465890 -0.001068 0.005432 0.011917 
3389034271798 -0.001068 0.005432 0.011917 
3389054108224 -0.001068 0.005432 0.011917 
3389073914132 -0.001068 0.005432 0.011917 
3389093750558 -0.001068 0.005432 0.011917 
3389113556466 -0.001068 0.005432 0.011917 
3389133362374 -0.001068 0.005432 0.011917 
3389153198800 -0.001068 0.005432 0.011917 
3389173035226 -0.001068 0.005432 0.011917 
3389192841134 -0.001068 0.005432 0.011917 
3389212677560 -0.001068 0.005432 0.011917 
3389232483468 -0.001068 0.005432 0.011917 
3389252289376 -0.001068 0.005432 0.011917 
3389272125802 -0.001068 0.005432 0.011917 
3389291931710 -0.001068 0.005432 0.011917 
3389311768136 -0.001068 0.005432 0.011917 
3389331574044 -0.001068 0.005432 0.011917 
3389351379952 -0.001068 0.005432 0.011917 
3389371216378 -0.001068 0.005432 0.011917 
3389391022286 -0.001068 0.005432 0.011917 
3389410828194 -0.001068 0.005432 0.011917 
3389430664620 -0.001068 0.005432 0.011917 
3389450501046 -0.001068 0.005432 0.011917 
3389470306954 -0.001068 0.005432 0.011917 
3389490143380 -0.001068 0.005432 0.011917 
3389509949288 -0.001068 0.005432 0.011917 
3389529785714 -0.001068 0.005432 0.011917 
3389549591622 -0.001068 0.005432 0.011917 
3389569397530 -0.001068 0.005432 0.011917 
3389589233956 -0.001068 0.005432 0.011917 
3389609039864 -0.001068 0.005432 0.011917 
3389628845773 -0.001068 0.005432 0.011917 
3389648682198 -0.001068 0.005432 0.011917 
3389668488107 -0.001068 0.005432 0.011917 
3389688324532 -0.001068 0.005432 0.011917 
3389708130440 -0.001068 0.005432 0.011917 
3389727966866 -0.001068 0.005432 0.011917 
3389747803292 -0.001068 0.005432 0.011917 
3389767609200 -0.001068 0.005432 0.011917 
3389787415108 -0.001068 0.005432 0.011917 
3389807251534 -0.001068 0.005432 0.011917 
