# Created at Tue Jun 01 15:54:42 GMT+02:00 2021 in Burnaby Canada 
1884810426204 -0.000778 0.004593 0.011871 
1884830262630 -0.000778 0.004593 0.011871 
1884850068538 -0.000778 0.004593 0.011871 
1884869874447 -0.000778 0.004593 0.011871 
1884889710872 -0.000778 0.004593 0.011871 
1884909516781 -0.000778 0.004593 0.011871 
1884929322689 -0.000778 0.004593 0.011871 
1884949159115 -0.000778 0.004593 0.011871 
1884968995540 -0.000778 0.004593 0.011871 
1884988801449 -0.000778 0.004593 0.011871 
1885008637874 -0.000778 0.004593 0.011871 
1885028443782 -0.000778 0.004593 0.011871 
1885048249691 -0.000778 0.004593 0.011871 
1885068086116 -0.000778 0.004593 0.011871 
1885087892025 -0.000778 0.004593 0.011871 
1885107728450 -0.000778 0.004593 0.011871 
1885127534359 -0.000778 0.004593 0.011871 
1885147340267 -0.000778 0.004593 0.011871 
1885167176693 -0.000778 0.004593 0.011871 
1885186982601 -0.000778 0.004593 0.011871 
1885206788509 -0.000778 0.004593 0.011871 
1885226624935 -0.000778 0.004593 0.011871 
1885246461361 -0.000778 0.004593 0.011871 
1885266267269 -0.000778 0.004593 0.011871 
1885286103695 -0.000778 0.004593 0.011871 
1885305909603 -0.000778 0.004593 0.011871 
1885325715511 -0.000778 0.004593 0.011871 
1885345551937 -0.000778 0.004593 0.011871 
1885365357845 -0.000778 0.004593 0.011871 
1885385163753 -0.000778 0.004593 0.011871 
1885405000179 -0.000778 0.004593 0.011871 
1885424806087 -0.000778 0.004593 0.011871 
1885444611995 -0.000778 0.004593 0.011871 
1885464448421 -0.000778 0.004593 0.011871 
1885484254329 -0.000778 0.004593 0.011871 
1885504060238 -0.000778 0.004593 0.011871 
1885523896663 -0.000778 0.004593 0.011871 
1885543733089 -0.000778 0.004593 0.011871 
1885563538997 -0.000778 0.004593 0.011871 
1885583375423 -0.000778 0.004593 0.011871 
1885603181331 -0.000778 0.004593 0.011871 
1885622987240 -0.000778 0.004593 0.011871 
1885642823665 -0.000778 0.004593 0.011871 
1885662629574 -0.000778 0.004593 0.011871 
1885682435482 -0.000778 0.004593 0.011871 
1885702271907 -0.000778 0.004593 0.011871 
1885722077816 -0.000778 0.004593 0.011871 
1885741914241 -0.000778 0.004593 0.011871 
1885761720150 -0.000778 0.004593 0.011871 
1885781526058 -0.000778 0.004593 0.011871 
1885801331966 -0.000778 0.004593 0.011871 
1885821168392 -0.000778 0.004593 0.011871 
1885841004818 -0.000778 0.004593 0.011871 
1885860810726 -0.000778 0.004593 0.011871 
1885880647152 -0.000778 0.004593 0.011871 
1885900453060 -0.000778 0.004593 0.011871 
1885920258968 -0.000778 0.004593 0.011871 
1885940095394 -0.000778 0.004593 0.011871 
1885959901302 -0.000778 0.004593 0.011871 
1885979737728 -0.000778 0.004593 0.011871 
1885999543636 -0.000778 0.004593 0.011871 
1886019349544 -0.000778 0.004593 0.011871 
1886039185970 -0.000778 0.004593 0.011871 
1886058991878 -0.000778 0.004593 0.011871 
1886078797786 -0.000778 0.004593 0.011871 
1886098634212 -0.000778 0.004593 0.011871 
1886118470638 -0.000778 0.004593 0.011871 
1886138276546 -0.000778 0.004593 0.011871 
1886158112972 -0.000778 0.004593 0.011871 
1886177918880 -0.000778 0.004593 0.011871 
1886197724788 -0.000778 0.004593 0.011871 
1886217561214 -0.000778 0.004593 0.011871 
1886237367122 -0.000778 0.004593 0.011871 
1886257173031 -0.000778 0.004593 0.011871 
1886277009456 -0.000778 0.004593 0.011871 
1886296815365 -0.000778 0.004593 0.011871 
1886316621273 -0.000778 0.004593 0.011871 
1886336457699 -0.000778 0.004593 0.011871 
1886356263607 -0.000778 0.004593 0.011871 
1886376069515 -0.000778 0.004593 0.011871 
1886395905941 -0.000778 0.004593 0.011871 
1886415742366 -0.000778 0.004593 0.011871 
1886435578792 -0.000778 0.004593 0.011871 
1886455384700 -0.000778 0.004593 0.011871 
1886475190609 -0.000778 0.004593 0.011871 
1886495027034 -0.000778 0.004593 0.011871 
1886514832943 -0.000778 0.004593 0.011871 
1886534638851 -0.000778 0.004593 0.011871 
1886554475277 -0.000778 0.004593 0.011871 
1886574281185 -0.000778 0.004593 0.011871 
1886594087093 -0.000778 0.004593 0.011871 
1886613923519 -0.000778 0.004593 0.011871 
1886633729427 -0.000778 0.004593 0.011871 
1886653535335 -0.000778 0.004593 0.011871 
1886673371761 -0.000778 0.004593 0.011871 
1886693208187 -0.000778 0.004593 0.011871 
1886713014095 -0.000778 0.004593 0.011871 
1886732850521 -0.000778 0.004593 0.011871 
1886752656429 -0.000778 0.004593 0.011871 
1886772462337 -0.000778 0.004593 0.011871 
1886792298763 -0.000778 0.004593 0.011871 
1886812104671 -0.000778 0.004593 0.011871 
1886831910579 -0.000778 0.004593 0.011871 
1886851747005 -0.000778 0.004593 0.011871 
1886871552913 -0.000778 0.004593 0.011871 
1886891358822 -0.000778 0.004593 0.011871 
1886911195247 -0.000778 0.004593 0.011871 
1886931001156 -0.000778 0.004593 0.011871 
1886950837581 -0.000778 0.004593 0.011871 
1886970674007 -0.000778 0.004593 0.011871 
1886990479915 -0.000778 0.004593 0.011871 
1887010285824 -0.000778 0.004593 0.011871 
1887030122249 -0.000778 0.004593 0.011871 
1887049928157 -0.000778 0.004593 0.011871 
1887069734066 -0.000778 0.004593 0.011871 
1887089570491 -0.000778 0.004593 0.011871 
1887109376400 -0.000778 0.004593 0.011871 
1887129182308 -0.000778 0.004593 0.011871 
1887149018734 -0.000778 0.004593 0.011871 
1887168824642 -0.000778 0.004593 0.011871 
1887188661068 -0.000778 0.004593 0.011871 
1887208466976 -0.000778 0.004593 0.011871 
1887228272884 -0.000870 0.004791 0.011871 
1887248109310 -0.000870 0.004791 0.011871 
1887267945736 -0.000870 0.004791 0.011871 
1887287751644 -0.000870 0.004791 0.011871 
1887307588070 -0.000870 0.004791 0.011871 
1887327393978 -0.000870 0.004791 0.011871 
1887347199886 -0.000870 0.004791 0.011871 
1887367036312 -0.000870 0.004791 0.011871 
1887386842220 -0.000870 0.004791 0.011871 
1887406648128 -0.000870 0.004791 0.011871 
1887426484554 -0.000870 0.004791 0.011871 
1887446290462 -0.000870 0.004791 0.011871 
1887466096370 -0.000870 0.004791 0.011871 
1887485932796 -0.000870 0.004791 0.011871 
1887505738704 -0.000870 0.004791 0.011871 
1887525575130 -0.000870 0.004791 0.011871 
1887545411556 -0.000870 0.004791 0.011871 
1887565217464 -0.000870 0.004791 0.011871 
1887585023372 -0.000870 0.004791 0.011871 
1887604859798 -0.000870 0.004791 0.011871 
1887624665706 -0.000870 0.004791 0.011871 
1887644471615 -0.000870 0.004791 0.011871 
1887664308040 -0.000870 0.004791 0.011871 
1887684113949 -0.000870 0.004791 0.011871 
1887703919857 -0.000870 0.004791 0.011871 
1887723756282 -0.000870 0.004791 0.011871 
1887743562191 -0.000870 0.004791 0.011871 
1887763368099 -0.000870 0.004791 0.011871 
1887783204525 -0.000870 0.004791 0.011871 
1887803010433 -0.000870 0.004791 0.011871 
1887822846859 -0.000870 0.004791 0.011871 
1887842683284 -0.000870 0.004791 0.011871 
1887862489193 -0.000870 0.004791 0.011871 
1887882325618 -0.000870 0.004791 0.011871 
1887902131527 -0.000870 0.004791 0.011871 
1887921937435 -0.000870 0.004791 0.011871 
1887941773861 -0.000870 0.004791 0.011871 
1887961579769 -0.000870 0.004791 0.011871 
1887981385677 -0.000870 0.004791 0.011871 
1888001222103 -0.000870 0.004791 0.011871 
1888021028011 -0.000870 0.004791 0.011871 
1888040833919 -0.000870 0.004791 0.011871 
1888060670345 -0.000870 0.004791 0.011871 
1888080476253 -0.000870 0.004791 0.011871 
1888100312679 -0.000870 0.004791 0.011871 
1888120149105 -0.000870 0.004791 0.011871 
1888139955013 -0.000870 0.004791 0.011871 
1888159760921 -0.000870 0.004791 0.011871 
1888179597347 -0.000870 0.004791 0.011871 
1888199403255 -0.000870 0.004791 0.011871 
1888219209163 -0.000870 0.004791 0.011871 
1888239045589 -0.000870 0.004791 0.011871 
1888258851497 -0.000870 0.004791 0.011871 
1888278657406 -0.000870 0.004791 0.011871 
1888298493831 -0.000870 0.004791 0.011871 
1888318299740 -0.000870 0.004791 0.011871 
1888338105648 -0.000870 0.004791 0.011871 
1888357942074 -0.000870 0.004791 0.011871 
1888377747982 -0.000870 0.004791 0.011871 
1888397584407 -0.000870 0.004791 0.011871 
1888417420833 -0.000870 0.004791 0.011871 
1888437226741 -0.000870 0.004791 0.011871 
1888457032650 -0.000870 0.004791 0.011871 
1888476869075 -0.000870 0.004791 0.011871 
1888496674984 -0.000870 0.004791 0.011871 
1888516468035 -0.000870 0.004791 0.011871 
1888536304461 -0.000870 0.004791 0.011871 
1888556110369 -0.000870 0.004791 0.011871 
1888575946795 -0.000870 0.004791 0.011871 
1888595752703 -0.000870 0.004791 0.011871 
1888615558611 -0.000870 0.004791 0.011871 
1888635395037 -0.000870 0.004791 0.011871 
1888655200945 -0.000870 0.004791 0.011871 
1888675037371 -0.000870 0.004791 0.011871 
1888694873797 -0.000870 0.004791 0.011871 
1888714679705 -0.000870 0.004791 0.011871 
1888734485613 -0.000870 0.004791 0.011871 
1888754322039 -0.000870 0.004791 0.011871 
1888774127947 -0.000870 0.004791 0.011871 
1888793933855 -0.000870 0.004791 0.011871 
1888813770281 -0.000870 0.004791 0.011871 
1888833576189 -0.000870 0.004791 0.011871 
1888853382097 -0.000870 0.004791 0.011871 
1888873218523 -0.000870 0.004791 0.011871 
1888893024431 -0.000870 0.004791 0.011871 
1888912830340 -0.000870 0.004791 0.011871 
1888932666765 -0.000870 0.004791 0.011871 
1888952472674 -0.000870 0.004791 0.011871 
1888972309099 -0.000870 0.004791 0.011871 
1888992145525 -0.000870 0.004791 0.011871 
1889011951433 -0.000870 0.004791 0.011871 
1889031757342 -0.000870 0.004791 0.011871 
1889051593767 -0.000870 0.004791 0.011871 
1889071399675 -0.000870 0.004791 0.011871 
1889091205584 -0.000870 0.004791 0.011871 
1889111042009 -0.000870 0.004791 0.011871 
1889130847918 -0.000870 0.004791 0.011871 
1889150653826 -0.000870 0.004791 0.011871 
1889170490252 -0.000870 0.004791 0.011871 
1889190296160 -0.000870 0.004791 0.011871 
1889210102068 -0.000870 0.004791 0.011871 
1889229938494 -0.000870 0.004791 0.011871 
1889249774920 -0.000870 0.004791 0.011871 
1889269611345 -0.000870 0.004791 0.011871 
1889289417254 -0.000870 0.004791 0.011871 
1889309223162 -0.000870 0.004791 0.011871 
1889329029070 -0.000870 0.004791 0.011871 
1889348865496 -0.000870 0.004791 0.011871 
1889368671404 -0.000870 0.004791 0.011871 
1889388477312 -0.000870 0.004791 0.011871 
1889408313738 -0.000870 0.004791 0.011871 
1889428119646 -0.000870 0.004791 0.011871 
1889447956072 -0.000870 0.004791 0.011871 
1889467761980 -0.000870 0.004791 0.011871 
1889487567888 -0.000870 0.004791 0.011871 
1889507404314 -0.000870 0.004791 0.011871 
1889527240740 -0.000870 0.004791 0.011871 
1889547046648 -0.000870 0.004791 0.011871 
1889566883074 -0.000870 0.004791 0.011871 
1889586688982 -0.000870 0.004791 0.011871 
1889606494890 -0.000870 0.004791 0.011871 
1889626331316 -0.000870 0.004791 0.011871 
1889646137224 -0.000870 0.004791 0.011871 
1889665943133 -0.000870 0.004791 0.011871 
1889685779558 -0.000870 0.004791 0.011871 
1889705585467 -0.000870 0.004791 0.011871 
1889725391375 -0.000870 0.004791 0.011871 
1889745227800 -0.000870 0.004791 0.011871 
1889765033709 -0.000870 0.004791 0.011871 
1889784839617 -0.000870 0.004791 0.011871 
1889804676043 -0.000870 0.004791 0.011871 
1889824512468 -0.000870 0.004791 0.011871 
1889844318377 -0.000870 0.004791 0.011871 
1889864154802 -0.000870 0.004791 0.011871 
1889883960711 -0.000870 0.004791 0.011871 
1889903766619 -0.000870 0.004791 0.011871 
1889923603045 -0.000870 0.004791 0.011871 
1889943408953 -0.000870 0.004791 0.011871 
1889963214861 -0.000870 0.004791 0.011871 
1889983051287 -0.000870 0.004791 0.011871 
1890002857195 -0.000870 0.004791 0.011871 
1890022693621 -0.000870 0.004791 0.011871 
1890042499529 -0.000870 0.004791 0.011871 
1890062305437 -0.000870 0.004791 0.011871 
1890082141863 -0.000870 0.004791 0.011871 
1890101978289 -0.000870 0.004791 0.011871 
1890121784197 -0.000870 0.004791 0.011871 
1890141620623 -0.000870 0.004791 0.011871 
1890161426531 -0.000870 0.004791 0.011871 
1890181232439 -0.000870 0.004791 0.011871 
1890201068865 -0.000870 0.004791 0.011871 
1890220874773 -0.000870 0.004791 0.011871 
1890240680681 -0.000870 0.004791 0.011871 
1890260517107 -0.000870 0.004791 0.011871 
1890280323015 -0.000870 0.004791 0.011871 
1890300128924 -0.000870 0.004791 0.011871 
1890319965349 -0.000870 0.004791 0.011871 
1890339771258 -0.000870 0.004791 0.011871 
1890359577166 -0.000870 0.004791 0.011871 
1890379413592 -0.000870 0.004791 0.011871 
1890399250017 -0.000870 0.004791 0.011871 
1890419055925 -0.000870 0.004791 0.011871 
1890438892351 -0.000870 0.004791 0.011871 
1890458698259 -0.000870 0.004791 0.011871 
1890478504168 -0.000870 0.004791 0.011871 
1890498340593 -0.000870 0.004791 0.011871 
1890518146502 -0.000870 0.004791 0.011871 
1890537952410 -0.000870 0.004791 0.011871 
1890557788836 -0.000870 0.004791 0.011871 
1890577594744 -0.000870 0.004791 0.011871 
1890597400652 -0.000870 0.004791 0.011871 
1890617237078 -0.000870 0.004791 0.011871 
1890637042986 -0.000870 0.004791 0.011871 
1890656848894 -0.000870 0.004791 0.011871 
1890676685320 -0.000870 0.004791 0.011871 
1890696521746 -0.000870 0.004791 0.011871 
1890716327654 -0.000870 0.004791 0.011871 
1890736164080 -0.000870 0.004791 0.011871 
1890755969988 -0.000870 0.004791 0.011871 
1890775806414 -0.000870 0.004791 0.011871 
1890795612322 -0.000870 0.004791 0.011871 
1890815418230 -0.000870 0.004791 0.011871 
1890835254656 -0.000870 0.004791 0.011871 
1890855060564 -0.000870 0.004791 0.011871 
1890874866472 -0.000870 0.004791 0.011871 
1890894702898 -0.000870 0.004791 0.011871 
1890914508806 -0.000870 0.004791 0.011871 
1890934314715 -0.000870 0.004791 0.011871 
1890954151140 -0.000870 0.004791 0.011871 
1890973987566 -0.000870 0.004791 0.011871 
1890993793474 -0.000870 0.004791 0.011871 
1891013629900 -0.000870 0.004791 0.011871 
1891033435808 -0.000870 0.004791 0.011871 
1891053241717 -0.000870 0.004791 0.011871 
1891073078142 -0.000870 0.004791 0.011871 
1891092884050 -0.000870 0.004791 0.011871 
1891112689959 -0.000870 0.004791 0.011871 
1891132526384 -0.000870 0.004791 0.011871 
1891152332293 -0.000870 0.004791 0.011871 
1891172138201 -0.000870 0.004791 0.011871 
1891191974627 -0.000870 0.004791 0.011871 
1891211780535 -0.000870 0.004791 0.011871 
1891231586443 -0.000870 0.004791 0.011871 
1891251422869 -0.000870 0.004791 0.011871 
1891271259295 -0.000870 0.004791 0.011871 
1891291065203 -0.000870 0.004791 0.011871 
1891310901629 -0.000870 0.004791 0.011871 
1891330707537 -0.000870 0.004791 0.011871 
1891350513445 -0.000870 0.004791 0.011871 
1891370349871 -0.000870 0.004791 0.011871 
1891390155779 -0.000870 0.004791 0.011871 
1891409961687 -0.000870 0.004791 0.011871 
1891429798113 -0.000870 0.004791 0.011871 
1891449604021 -0.000870 0.004791 0.011871 
1891469409929 -0.000870 0.004791 0.011871 
1891489246355 -0.000870 0.004791 0.011871 
1891509052263 -0.000870 0.004791 0.011871 
1891528888689 -0.000870 0.004791 0.011871 
1891548725115 -0.000870 0.004791 0.011871 
1891568531023 -0.000870 0.004791 0.011871 
1891588367449 -0.000870 0.004791 0.011871 
1891608173357 -0.000870 0.004791 0.011871 
1891627979265 -0.000870 0.004791 0.011871 
1891647815691 -0.000870 0.004791 0.011871 
1891667621599 -0.000870 0.004791 0.011871 
1891687427508 -0.000870 0.004791 0.011871 
1891707263933 -0.000870 0.004791 0.011871 
1891727069842 -0.000870 0.004791 0.011871 
1891746875750 -0.000870 0.004791 0.011871 
1891766712175 -0.000870 0.004791 0.011871 
1891786518084 -0.000870 0.004791 0.011871 
1891806323992 -0.000870 0.004791 0.011871 
1891826160418 -0.000870 0.004791 0.011871 
1891845996843 -0.000870 0.004791 0.011871 
1891865802752 -0.000870 0.004791 0.011871 
1891885639177 -0.000870 0.004791 0.011871 
1891905445086 -0.000870 0.004791 0.011871 
1891925250994 -0.000870 0.004791 0.011871 
1891945087420 -0.000870 0.004791 0.011871 
1891964893328 -0.000870 0.004791 0.011871 
1891984699236 -0.000870 0.004791 0.011871 
1892004535662 -0.000870 0.004791 0.011871 
1892024341570 -0.000870 0.004791 0.011871 
1892044147478 -0.000870 0.004791 0.011871 
1892063983904 -0.000870 0.004791 0.011871 
1892083789812 -0.000870 0.004791 0.011871 
1892103626238 -0.000870 0.004791 0.011871 
1892123462664 -0.000870 0.004791 0.011871 
1892143268572 -0.000870 0.004791 0.011871 
1892163074480 -0.000870 0.004791 0.011871 
1892182910906 -0.000870 0.004791 0.011871 
1892202716814 -0.000870 0.004791 0.011871 
1892222522722 -0.000870 0.004791 0.011871 
1892242359148 -0.000870 0.004791 0.011871 
1892262165056 -0.000870 0.004791 0.011871 
1892281970965 -0.000870 0.004791 0.011871 
1892301807390 -0.000870 0.004791 0.011871 
1892321613299 -0.000870 0.004791 0.011871 
1892341419207 -0.000870 0.004791 0.011871 
1892361255633 -0.000870 0.004791 0.011871 
1892381061541 -0.000870 0.004791 0.011871 
1892400897967 -0.000870 0.004791 0.011871 
1892420734392 -0.000870 0.004791 0.011871 
1892440540300 -0.000870 0.004791 0.011871 
1892460376726 -0.000870 0.004791 0.011871 
1892480182634 -0.000870 0.004791 0.011871 
1892499988543 -0.000870 0.004791 0.011871 
1892519824968 -0.000870 0.004791 0.011871 
1892539630877 -0.000870 0.004791 0.011871 
1892559436785 -0.000870 0.004791 0.011871 
1892579273211 -0.000870 0.004791 0.011871 
1892599079119 -0.000870 0.004791 0.011871 
1892618885027 -0.000870 0.004791 0.011871 
1892638721453 -0.000870 0.004791 0.011871 
1892658527361 -0.000870 0.004791 0.011871 
1892678363787 -0.000870 0.004791 0.011871 
1892698200213 -0.000870 0.004791 0.011871 
