# Created at Tue Jun 01 16:14:14 GMT+02:00 2021 in Burnaby Canada 
3056259201381 -0.000748 0.005341 0.012314 
3056279037807 -0.000748 0.005341 0.012314 
3056298843715 -0.000748 0.005341 0.012314 
3056318649623 -0.000748 0.005341 0.012314 
3056338486049 -0.000748 0.005341 0.012314 
3056358291957 -0.000748 0.005341 0.012314 
3056378128383 -0.000748 0.005341 0.012314 
3056397964809 -0.000748 0.005341 0.012314 
3056417770717 -0.000748 0.005341 0.012314 
3056437576625 -0.000748 0.005341 0.012314 
3056457413051 -0.000748 0.005341 0.012314 
3056477218959 -0.000748 0.005341 0.012314 
3056497055385 -0.000748 0.005341 0.012314 
3056516861293 -0.000748 0.005341 0.012314 
3056536667202 -0.000748 0.005341 0.012314 
3056556503627 -0.000748 0.005341 0.012314 
3056576309536 -0.000748 0.005341 0.012314 
3056596145961 -0.000748 0.005341 0.012314 
3056615951870 -0.000748 0.005341 0.012314 
3056635757778 -0.000748 0.005341 0.012314 
3056655594204 -0.000748 0.005341 0.012314 
3056675430629 -0.000748 0.005341 0.012314 
3056695236538 -0.000748 0.005341 0.012314 
3056715072963 -0.000748 0.005341 0.012314 
3056734878872 -0.000748 0.005341 0.012314 
3056754684780 -0.000748 0.005341 0.012314 
3056774521205 -0.000748 0.005341 0.012314 
3056794327114 -0.000748 0.005341 0.012314 
3056814163539 -0.000748 0.005341 0.012314 
3056833969448 -0.000748 0.005341 0.012314 
3056853775356 -0.000748 0.005341 0.012314 
3056873611782 -0.000748 0.005341 0.012314 
3056893417690 -0.000748 0.005341 0.012314 
3056913223598 -0.000748 0.005341 0.012314 
3056933060024 -0.000748 0.005341 0.012314 
3056952896450 -0.000748 0.005341 0.012314 
3056972702358 -0.000748 0.005341 0.012314 
3056992538784 -0.000748 0.005341 0.012314 
3057012344692 -0.000748 0.005341 0.012314 
3057032181118 -0.000748 0.005341 0.012314 
3057051987026 -0.000748 0.005341 0.012314 
3057071792934 -0.000748 0.005341 0.012314 
3057091629360 -0.000748 0.005341 0.012314 
3057111435268 -0.000748 0.005341 0.012314 
3057131241176 -0.000748 0.005341 0.012314 
3057151077602 -0.000748 0.005341 0.012314 
3057170883510 -0.000748 0.005341 0.012314 
3057190719936 -0.000748 0.005341 0.012314 
3057210525844 -0.000748 0.005341 0.012314 
3057230331752 -0.000748 0.005341 0.012314 
3057250168178 -0.000748 0.005341 0.012314 
3057270004604 -0.000748 0.005341 0.012314 
3057289810512 -0.000748 0.005341 0.012314 
3057309646938 -0.000748 0.005341 0.012314 
3057329452846 -0.000748 0.005341 0.012314 
3057349258754 -0.000748 0.005341 0.012314 
3057369095180 -0.000748 0.005341 0.012314 
3057388901088 -0.000748 0.005341 0.012314 
3057408706997 -0.000748 0.005341 0.012314 
3057428543422 -0.000748 0.005341 0.012314 
3057448349330 -0.000748 0.005341 0.012314 
3057468155239 -0.000748 0.005341 0.012314 
3057487991664 -0.000748 0.005341 0.012314 
3057507797573 -0.000748 0.005341 0.012314 
3057527633998 -0.000748 0.005341 0.012314 
3057547470424 -0.000748 0.005341 0.012314 
3057567276332 -0.000748 0.005341 0.012314 
3057587112758 -0.000748 0.005341 0.012314 
3057606918666 -0.000748 0.005341 0.012314 
3057626755092 -0.000748 0.005341 0.012314 
3057646561000 -0.000748 0.005341 0.012314 
3057666366909 -0.000748 0.005341 0.012314 
3057686203334 -0.000748 0.005341 0.012314 
3057706009243 -0.000748 0.005341 0.012314 
3057725815151 -0.000748 0.005341 0.012314 
3057745651577 -0.000748 0.005341 0.012314 
3057765457485 -0.000748 0.005341 0.012314 
3057785293911 -0.000748 0.005341 0.012314 
3057805099819 -0.000748 0.005341 0.012314 
3057824936245 -0.000748 0.005341 0.012314 
3057844772670 -0.000748 0.005341 0.012314 
3057864578579 -0.000748 0.005341 0.012314 
3057884384487 -0.000748 0.005341 0.012314 
3057904220913 -0.000748 0.005341 0.012314 
3057924026821 -0.000748 0.005341 0.012314 
3057943832729 -0.000748 0.005341 0.012314 
3057963669155 -0.000748 0.005341 0.012314 
3057983475063 -0.000748 0.005341 0.012314 
3058003311489 -0.000748 0.005341 0.012314 
3058023117397 -0.000748 0.005341 0.012314 
3058042923305 -0.000748 0.005341 0.012314 
3058062759731 -0.000748 0.005341 0.012314 
3058082565639 -0.000748 0.005341 0.012314 
3058102402065 -0.000748 0.005341 0.012314 
3058122238491 -0.000748 0.005341 0.012314 
3058142044399 -0.000748 0.005341 0.012314 
3058161850307 -0.000748 0.005341 0.012314 
3058181686733 -0.000748 0.005341 0.012314 
3058201492641 -0.000748 0.005341 0.012314 
3058221329067 -0.000748 0.005341 0.012314 
3058241134975 -0.000748 0.005341 0.012314 
3058260940883 -0.000748 0.005341 0.012314 
3058280777309 -0.000748 0.005341 0.012314 
3058300583217 -0.000748 0.005341 0.012314 
3058320389125 -0.000748 0.005341 0.012314 
3058340225551 -0.000748 0.005341 0.012314 
3058360031459 -0.000748 0.005341 0.012314 
3058379867885 -0.000748 0.005341 0.012314 
3058399704311 -0.000748 0.005341 0.012314 
3058419510219 -0.000748 0.005341 0.012314 
3058439346645 -0.000748 0.005341 0.012314 
3058459152553 -0.000748 0.005341 0.012314 
3058478958461 -0.000748 0.005341 0.012314 
3058498794887 -0.000748 0.005341 0.012314 
3058518600795 -0.000748 0.005341 0.012314 
3058538437221 -0.000748 0.005341 0.012314 
3058558243129 -0.000748 0.005341 0.012314 
3058578049038 -0.000748 0.005341 0.012314 
3058597888319 -0.000748 0.005341 0.012314 
3058617694228 -0.000748 0.005341 0.012314 
3058637500136 -0.000748 0.005341 0.012314 
3058657336561 -0.000748 0.005341 0.012314 
3058677172987 -0.000748 0.005341 0.012314 
3058696978895 -0.000748 0.005341 0.012314 
3058716815321 -0.000748 0.005341 0.012314 
3058736621229 -0.000748 0.005341 0.012314 
3058756457655 -0.000748 0.005341 0.012314 
3058776263563 -0.000748 0.005341 0.012314 
3058796069472 -0.000748 0.005341 0.012314 
3058815905897 -0.000748 0.005341 0.012314 
3058835711806 -0.000748 0.005341 0.012314 
3058855517714 -0.000748 0.005341 0.012314 
3058875354140 -0.000748 0.005341 0.012314 
3058895160048 -0.000748 0.005341 0.012314 
3058914996474 -0.000748 0.005341 0.012314 
3058934802382 -0.000748 0.005341 0.012314 
3058954638808 -0.000748 0.005341 0.012314 
3058974475233 -0.000748 0.005341 0.012314 
3058994281142 -0.000748 0.005341 0.012314 
3059014087050 -0.000748 0.005341 0.012314 
3059033923476 -0.000748 0.005341 0.012314 
3059053729384 -0.000748 0.005341 0.012314 
3059073535292 -0.000748 0.005341 0.012314 
3059093371718 -0.000748 0.005341 0.012314 
3059113177626 -0.000748 0.005341 0.012314 
3059133014052 -0.000748 0.005341 0.012314 
3059152819960 -0.000748 0.005341 0.012314 
3059172625868 -0.000748 0.005341 0.012314 
3059192462294 -0.000748 0.005341 0.012314 
3059212268202 -0.000748 0.005341 0.012314 
3059232074110 -0.000748 0.005341 0.012314 
3059251910536 -0.000748 0.005341 0.012314 
3059271746962 -0.000748 0.005341 0.012314 
3059291583388 -0.000748 0.005341 0.012314 
3059311389296 -0.000748 0.005341 0.012314 
3059331195204 -0.000748 0.005341 0.012314 
3059351031630 -0.000748 0.005341 0.012314 
3059370837538 -0.000748 0.005341 0.012314 
3059390643446 -0.000748 0.005341 0.012314 
3059410479872 -0.000748 0.005341 0.012314 
3059430285780 -0.000748 0.005341 0.012314 
3059450091688 -0.000748 0.005341 0.012314 
3059469928114 -0.000748 0.005341 0.012314 
3059489734022 -0.000748 0.005341 0.012314 
3059509570448 -0.000748 0.005341 0.012314 
3059529406874 -0.000748 0.005341 0.012314 
3059549212782 -0.000748 0.005341 0.012314 
3059569049208 -0.000748 0.005341 0.012314 
3059588855116 -0.000748 0.005341 0.012314 
3059608661024 -0.000748 0.005341 0.012314 
3059628497450 -0.000748 0.005341 0.012314 
3059648303358 -0.000748 0.005341 0.012314 
3059668139784 -0.000748 0.005341 0.012314 
3059687945692 -0.000748 0.005341 0.012314 
3059707751601 -0.000748 0.005341 0.012314 
3059727588026 -0.000748 0.005341 0.012314 
3059747393935 -0.000748 0.005341 0.012314 
3059767199843 -0.000748 0.005341 0.012314 
3059787036269 -0.000748 0.005341 0.012314 
3059806842177 -0.000748 0.005341 0.012314 
3059826678603 -0.000748 0.005341 0.012314 
3059846515028 -0.000748 0.005341 0.012314 
3059866320936 -0.000748 0.005341 0.012314 
3059886157362 -0.000748 0.005341 0.012314 
3059905963270 -0.000748 0.005341 0.012314 
3059925769179 -0.000748 0.005341 0.012314 
3059945605604 -0.000748 0.005341 0.012314 
3059965411513 -0.000748 0.005341 0.012314 
3059985247938 -0.000748 0.005341 0.012314 
3060005053847 -0.000748 0.005341 0.012314 
3060024859755 -0.000748 0.005341 0.012314 
3060044696181 -0.000748 0.005341 0.012314 
3060064502089 -0.000748 0.005341 0.012314 
3060084307997 -0.000748 0.005341 0.012314 
3060104144423 -0.000748 0.005341 0.012314 
3060123980849 -0.000687 0.005417 0.011963 
3060143786757 -0.000687 0.005417 0.011963 
3060163623183 -0.000687 0.005417 0.011963 
3060183429091 -0.000687 0.005417 0.011963 
3060203265517 -0.000687 0.005417 0.011963 
3060223071425 -0.000687 0.005417 0.011963 
3060242877333 -0.000687 0.005417 0.011963 
3060262713759 -0.000687 0.005417 0.011963 
3060282519667 -0.000687 0.005417 0.011963 
3060302325575 -0.000687 0.005417 0.011963 
3060322162001 -0.000687 0.005417 0.011963 
3060341967909 -0.000687 0.005417 0.011963 
3060361804335 -0.000687 0.005417 0.011963 
3060381640761 -0.000687 0.005417 0.011963 
3060401446669 -0.000687 0.005417 0.011963 
3060421283095 -0.000687 0.005417 0.011963 
3060441089003 -0.000687 0.005417 0.011963 
3060460894911 -0.000687 0.005417 0.011963 
3060480731337 -0.000687 0.005417 0.011963 
3060500537245 -0.000687 0.005417 0.011963 
3060520343153 -0.000687 0.005417 0.011963 
3060540179579 -0.000687 0.005417 0.011963 
3060559985487 -0.000687 0.005417 0.011963 
3060579821913 -0.000687 0.005417 0.011963 
3060599627821 -0.000687 0.005417 0.011963 
3060619433729 -0.000687 0.005417 0.011963 
3060639270155 -0.000687 0.005417 0.011963 
3060659076063 -0.000687 0.005417 0.011963 
3060678912489 -0.000687 0.005417 0.011963 
3060698748915 -0.000687 0.005417 0.011963 
3060718554823 -0.000687 0.005417 0.011963 
3060738360731 -0.000687 0.005417 0.011963 
3060758197157 -0.000687 0.005417 0.011963 
3060778003065 -0.000687 0.005417 0.011963 
3060797839491 -0.000687 0.005417 0.011963 
3060817645399 -0.000687 0.005417 0.011963 
3060837451308 -0.000687 0.005417 0.011963 
3060857287733 -0.000687 0.005417 0.011963 
3060877093642 -0.000687 0.005417 0.011963 
3060896930067 -0.000687 0.005417 0.011963 
3060916735976 -0.000687 0.005417 0.011963 
3060936541884 -0.000687 0.005417 0.011963 
3060956378310 -0.000687 0.005417 0.011963 
3060976214735 -0.000687 0.005417 0.011963 
3060996020644 -0.000687 0.005417 0.011963 
3061015857069 -0.000687 0.005417 0.011963 
3061035662978 -0.000687 0.005417 0.011963 
3061055499403 -0.000687 0.005417 0.011963 
3061075305311 -0.000687 0.005417 0.011963 
3061095111220 -0.000687 0.005417 0.011963 
3061114947645 -0.000687 0.005417 0.011963 
3061134753554 -0.000687 0.005417 0.011963 
3061154559462 -0.000687 0.005417 0.011963 
3061174395888 -0.000687 0.005417 0.011963 
3061194201796 -0.000687 0.005417 0.011963 
3061214038222 -0.000687 0.005417 0.011963 
3061233844130 -0.000687 0.005417 0.011963 
3061253680556 -0.000687 0.005417 0.011963 
3061273516981 -0.000687 0.005417 0.011963 
3061293322890 -0.000687 0.005417 0.011963 
3061313128798 -0.000687 0.005417 0.011963 
3061332965224 -0.000687 0.005417 0.011963 
3061352771132 -0.000687 0.005417 0.011963 
3061372577040 -0.000687 0.005417 0.011963 
3061392413466 -0.000687 0.005417 0.011963 
3061412219374 -0.000687 0.005417 0.011963 
3061432025282 -0.000687 0.005417 0.011963 
3061451861708 -0.000687 0.005417 0.011963 
3061471667616 -0.000687 0.005417 0.011963 
3061491504042 -0.000687 0.005417 0.011963 
3061511309950 -0.000687 0.005417 0.011963 
3061531146376 -0.000687 0.005417 0.011963 
3061550982802 -0.000687 0.005417 0.011963 
3061570788710 -0.000687 0.005417 0.011963 
3061590625136 -0.000687 0.005417 0.011963 
3061610431044 -0.000687 0.005417 0.011963 
3061630236952 -0.000687 0.005417 0.011963 
3061650073378 -0.000687 0.005417 0.011963 
3061669879286 -0.000687 0.005417 0.011963 
3061689715712 -0.000687 0.005417 0.011963 
3061709521620 -0.000687 0.005417 0.011963 
3061729327528 -0.000687 0.005417 0.011963 
3061749163954 -0.000687 0.005417 0.011963 
3061768969862 -0.000687 0.005417 0.011963 
3061788775770 -0.000687 0.005417 0.011963 
3061808612196 -0.000687 0.005417 0.011963 
3061828448622 -0.000687 0.005417 0.011963 
3061848254530 -0.000687 0.005417 0.011963 
3061868090956 -0.000687 0.005417 0.011963 
3061887896864 -0.000687 0.005417 0.011963 
3061907733290 -0.000687 0.005417 0.011963 
3061927539198 -0.000687 0.005417 0.011963 
3061947345106 -0.000687 0.005417 0.011963 
3061967181532 -0.000687 0.005417 0.011963 
3061986987440 -0.000687 0.005417 0.011963 
3062006793349 -0.000687 0.005417 0.011963 
3062026629774 -0.000687 0.005417 0.011963 
3062046435683 -0.000687 0.005417 0.011963 
3062066272108 -0.000687 0.005417 0.011963 
