# Created at Tue Jun 01 15:57:48 GMT+02:00 2021 in Burnaby Canada 
2070437562248 -0.000809 0.004501 0.011902 
2070457368156 -0.000809 0.004501 0.011902 
2070477204582 -0.000809 0.004501 0.011902 
2070497010490 -0.000809 0.004501 0.011902 
2070516816398 -0.000809 0.004501 0.011902 
2070536652824 -0.000809 0.004501 0.011902 
2070556458732 -0.000809 0.004501 0.011902 
2070576264640 -0.000809 0.004501 0.011902 
2070596101066 -0.000809 0.004501 0.011902 
2070615906974 -0.000809 0.004501 0.011902 
2070635712883 -0.000809 0.004501 0.011902 
2070655549308 -0.000809 0.004501 0.011902 
2070675385734 -0.000809 0.004501 0.011902 
2070695191642 -0.000809 0.004501 0.011902 
2070715028068 -0.000809 0.004501 0.011902 
2070734833976 -0.000809 0.004501 0.011902 
2070754639885 -0.000809 0.004501 0.011902 
2070774476310 -0.000809 0.004501 0.011902 
2070794282219 -0.000809 0.004501 0.011902 
2070814088127 -0.000809 0.004501 0.011902 
2070833924553 -0.000809 0.004501 0.011902 
2070853730461 -0.000809 0.004501 0.011902 
2070873536369 -0.000809 0.004501 0.011902 
2070893372795 -0.000809 0.004501 0.011902 
2070913178703 -0.000809 0.004501 0.011902 
2070932984611 -0.000809 0.004501 0.011902 
2070952821037 -0.000809 0.004501 0.011902 
2070972657463 -0.000809 0.004501 0.011902 
2070992493888 -0.000809 0.004501 0.011902 
2071012299797 -0.000809 0.004501 0.011902 
2071032105705 -0.000809 0.004501 0.011902 
2071051942131 -0.000809 0.004501 0.011902 
2071071748039 -0.000809 0.004501 0.011902 
2071091553947 -0.000809 0.004501 0.011902 
2071111359855 -0.000809 0.004501 0.011902 
2071131196281 -0.000809 0.004501 0.011902 
2071151002189 -0.000809 0.004501 0.011902 
2071170838615 -0.000809 0.004501 0.011902 
2071190644523 -0.000809 0.004501 0.011902 
2071210450431 -0.000809 0.004501 0.011902 
2071230286857 -0.000809 0.004501 0.011902 
2071250123283 -0.000809 0.004501 0.011902 
2071269929191 -0.000809 0.004501 0.011902 
2071289765617 -0.000809 0.004501 0.011902 
2071309571525 -0.000809 0.004501 0.011902 
2071329377433 -0.000809 0.004501 0.011902 
2071349213859 -0.000809 0.004501 0.011902 
2071369019767 -0.000809 0.004501 0.011902 
2071388825676 -0.000809 0.004501 0.011902 
2071408662101 -0.000809 0.004501 0.011902 
2071428468010 -0.000809 0.004501 0.011902 
2071448273918 -0.000809 0.004501 0.011902 
2071468110344 -0.000809 0.004501 0.011902 
2071487916252 -0.000809 0.004501 0.011902 
2071507752678 -0.000809 0.004501 0.011902 
2071527589103 -0.000809 0.004501 0.011902 
2071547395012 -0.000809 0.004501 0.011902 
2071567200920 -0.000809 0.004501 0.011902 
2071587006828 -0.000809 0.004501 0.011902 
2071606843254 -0.000809 0.004501 0.011902 
2071626649162 -0.000809 0.004501 0.011902 
2071646455070 -0.000809 0.004501 0.011902 
2071666291496 -0.000809 0.004501 0.011902 
2071686097404 -0.000809 0.004501 0.011902 
2071705933830 -0.000809 0.004501 0.011902 
2071725739738 -0.000809 0.004501 0.011902 
2071745545646 -0.000809 0.004501 0.011902 
2071765382072 -0.000809 0.004501 0.011902 
2071785187980 -0.000809 0.004501 0.011902 
2071805024406 -0.000809 0.004501 0.011902 
2071824860832 -0.000809 0.004501 0.011902 
2071844666740 -0.000809 0.004501 0.011902 
2071864472648 -0.000809 0.004501 0.011902 
2071884309074 -0.000809 0.004501 0.011902 
2071904114982 -0.000809 0.004501 0.011902 
2071923920890 -0.000809 0.004501 0.011902 
2071943757316 -0.000809 0.004501 0.011902 
2071963563224 -0.000809 0.004501 0.011902 
2071983369133 -0.000809 0.004501 0.011902 
2072003205558 -0.000809 0.004501 0.011902 
2072023011467 -0.000809 0.004501 0.011902 
2072042817375 -0.000809 0.004501 0.011902 
2072062653801 -0.000809 0.004501 0.011902 
2072082490226 -0.000809 0.004501 0.011902 
2072102296135 -0.000809 0.004501 0.011902 
2072122132560 -0.000809 0.004501 0.011902 
2072141938469 -0.000809 0.004501 0.011902 
2072161744377 -0.000809 0.004501 0.011902 
2072181580803 -0.000809 0.004501 0.011902 
2072201386711 -0.000809 0.004501 0.011902 
2072221192619 -0.000809 0.004501 0.011902 
2072241029045 -0.000809 0.004501 0.011902 
2072260834953 -0.000809 0.004501 0.011902 
2072280640861 -0.000809 0.004501 0.011902 
2072300477287 -0.000809 0.004501 0.011902 
2072320283195 -0.000809 0.004501 0.011902 
2072340089103 -0.000809 0.004501 0.011902 
2072359925529 -0.000809 0.004501 0.011902 
2072379761955 -0.000809 0.004501 0.011902 
2072399567863 -0.000809 0.004501 0.011902 
2072419404289 -0.000809 0.004501 0.011902 
2072439210197 -0.000809 0.004501 0.011902 
2072459016105 -0.000809 0.004501 0.011902 
2072478852531 -0.000809 0.004501 0.011902 
2072498658439 -0.000809 0.004501 0.011902 
2072518494865 -0.000809 0.004501 0.011902 
2072538300773 -0.000809 0.004501 0.011902 
2072558106681 -0.000809 0.004501 0.011902 
2072577912590 -0.000809 0.004501 0.011902 
2072597749015 -0.000809 0.004501 0.011902 
2072617554924 -0.000809 0.004501 0.011902 
2072637360832 -0.000809 0.004501 0.011902 
2072657197258 -0.000809 0.004501 0.011902 
2072677033683 -0.000809 0.004501 0.011902 
2072696870109 -0.000809 0.004501 0.011902 
2072716676017 -0.000809 0.004501 0.011902 
2072736481926 -0.000809 0.004501 0.011902 
2072756318351 -0.000809 0.004501 0.011902 
2072776124260 -0.000809 0.004501 0.011902 
2072795930168 -0.000809 0.004501 0.011902 
2072815766594 -0.000809 0.004501 0.011902 
2072835572502 -0.000809 0.004501 0.011902 
2072855378410 -0.000809 0.004501 0.011902 
2072875214836 -0.000809 0.004501 0.011902 
2072895020744 -0.000809 0.004501 0.011902 
2072914826652 -0.000809 0.004501 0.011902 
2072934663078 -0.000809 0.004501 0.011902 
2072954499504 -0.000809 0.004501 0.011902 
2072974305412 -0.000809 0.004501 0.011902 
2072994141838 -0.000809 0.004501 0.011902 
2073013947746 -0.000809 0.004501 0.011902 
2073033753654 -0.000809 0.004501 0.011902 
2073053590080 -0.000809 0.004501 0.011902 
2073073395988 -0.000809 0.004501 0.011902 
2073093201896 -0.000809 0.004501 0.011902 
2073113038322 -0.000809 0.004501 0.011902 
2073132844230 -0.000809 0.004501 0.011902 
2073152650138 -0.000809 0.004501 0.011902 
2073172486564 -0.000809 0.004501 0.011902 
2073192292472 -0.000809 0.004501 0.011902 
2073212098381 -0.000809 0.004501 0.011902 
2073231934806 -0.000809 0.004501 0.011902 
2073251771232 -0.000809 0.004501 0.011902 
2073271577140 -0.000809 0.004501 0.011902 
2073291413566 -0.000809 0.004501 0.011902 
2073311219474 -0.000809 0.004501 0.011902 
2073331025383 -0.000809 0.004501 0.011902 
2073350861808 -0.000809 0.004501 0.011902 
2073370667717 -0.000809 0.004501 0.011902 
2073390473625 -0.000809 0.004501 0.011902 
2073410310051 -0.000809 0.004501 0.011902 
2073430115959 -0.000809 0.004501 0.011902 
2073449921867 -0.000809 0.004501 0.011902 
2073469758293 -0.000809 0.004501 0.011902 
2073489564201 -0.000809 0.004501 0.011902 
2073509400627 -0.000809 0.004501 0.011902 
2073529237053 -0.000809 0.004501 0.011902 
2073549042961 -0.000809 0.004501 0.011902 
2073568848869 -0.000809 0.004501 0.011902 
2073588685295 -0.000809 0.004501 0.011902 
2073608491203 -0.000809 0.004501 0.011902 
2073628297111 -0.000809 0.004501 0.011902 
2073648133537 -0.000809 0.004501 0.011902 
2073667939445 -0.000809 0.004501 0.011902 
2073687745353 -0.000809 0.004501 0.011902 
2073707581779 -0.000809 0.004501 0.011902 
2073727387687 -0.000809 0.004501 0.011902 
2073747193595 -0.000809 0.004501 0.011902 
2073767030021 -0.000809 0.004501 0.011902 
2073786835929 -0.000809 0.004501 0.011902 
2073806672355 -0.000809 0.004501 0.011902 
2073826508781 -0.000809 0.004501 0.011902 
2073846314689 -0.000809 0.004501 0.011902 
2073866151115 -0.000809 0.004501 0.011902 
2073885957023 -0.000809 0.004501 0.011902 
2073905762931 -0.000809 0.004501 0.011902 
2073925599357 -0.000809 0.004501 0.011902 
2073945405265 -0.000809 0.004501 0.011902 
2073965211174 -0.000809 0.004501 0.011902 
2073985047599 -0.000809 0.004501 0.011902 
2074004853508 -0.000809 0.004501 0.011902 
2074024659416 -0.000809 0.004501 0.011902 
2074044495842 -0.000809 0.004501 0.011902 
2074064301750 -0.000809 0.004501 0.011902 
2074084138176 -0.000809 0.004501 0.011902 
2074103974601 -0.000809 0.004501 0.011902 
2074123780510 -0.000809 0.004501 0.011902 
2074143586418 -0.000809 0.004501 0.011902 
2074163422844 -0.000809 0.004501 0.011902 
2074183228752 -0.000809 0.004501 0.011902 
2074203034660 -0.000809 0.004501 0.011902 
2074222871086 -0.000809 0.004501 0.011902 
2074242676994 -0.000809 0.004501 0.011902 
2074262482902 -0.000809 0.004501 0.011902 
2074282319328 -0.000809 0.004501 0.011902 
2074302125236 -0.000809 0.004501 0.011902 
2074321931144 -0.000809 0.004501 0.011902 
2074341767570 -0.000809 0.004501 0.011902 
2074361573478 -0.000809 0.004501 0.011902 
2074381409904 -0.000809 0.004501 0.011902 
2074401246330 -0.000809 0.004501 0.011902 
2074421052238 -0.000809 0.004501 0.011902 
2074440858146 -0.000809 0.004501 0.011902 
2074460694572 -0.000809 0.004501 0.011902 
2074480500480 -0.000809 0.004501 0.011902 
2074500306388 -0.000809 0.004501 0.011902 
2074520142814 -0.000809 0.004501 0.011902 
2074539948722 -0.000809 0.004501 0.011902 
2074559754631 -0.000809 0.004501 0.011902 
2074579591056 -0.000809 0.004501 0.011902 
2074599396965 -0.000809 0.004501 0.011902 
2074619202873 -0.000809 0.004501 0.011902 
2074639039299 -0.000809 0.004501 0.011902 
2074658875724 -0.000809 0.004501 0.011902 
2074678681633 -0.000809 0.004501 0.011902 
2074698518058 -0.000809 0.004501 0.011902 
2074718323967 -0.000809 0.004501 0.011902 
2074738129875 -0.000809 0.004501 0.011902 
2074757966301 -0.000809 0.004501 0.011902 
2074777772209 -0.000809 0.004501 0.011902 
2074797578117 -0.000809 0.004501 0.011902 
2074817414543 -0.000809 0.004501 0.011902 
2074837220451 -0.000809 0.004501 0.011902 
2074857026359 -0.000809 0.004501 0.011902 
2074876862785 -0.000809 0.004501 0.011902 
2074896668693 -0.000809 0.004501 0.011902 
2074916474601 -0.000809 0.004501 0.011902 
2074936311027 -0.000809 0.004501 0.011902 
2074956147453 -0.000809 0.004501 0.011902 
2074975983879 -0.000809 0.004501 0.011902 
2074995789787 -0.000809 0.004501 0.011902 
2075015595695 -0.000809 0.004501 0.011902 
2075035432121 -0.000809 0.004501 0.011902 
2075055238029 -0.000809 0.004501 0.011902 
2075075043937 -0.000809 0.004501 0.011902 
2075094880363 -0.000809 0.004501 0.011902 
2075114686271 -0.000809 0.004501 0.011902 
2075134492179 -0.000809 0.004501 0.011902 
2075154328605 -0.000809 0.004501 0.011902 
2075174134513 -0.000809 0.004501 0.011902 
2075193940422 -0.000809 0.004501 0.011902 
2075213776847 -0.000809 0.004501 0.011902 
2075233613273 -0.000809 0.004501 0.011902 
2075253419181 -0.000809 0.004501 0.011902 
2075273255607 -0.000809 0.004501 0.011902 
2075293061515 -0.000809 0.004501 0.011902 
2075312867424 -0.000809 0.004501 0.011902 
2075332703849 -0.000809 0.004501 0.011902 
2075352509758 -0.000809 0.004501 0.011902 
2075372315666 -0.000809 0.004501 0.011902 
2075392152092 -0.000809 0.004501 0.011902 
2075411958000 -0.000809 0.004501 0.011902 
2075431763908 -0.000809 0.004501 0.011902 
2075451600334 -0.000809 0.004501 0.011902 
2075471406242 -0.000809 0.004501 0.011902 
2075491212150 -0.000809 0.004501 0.011902 
2075511048576 -0.000809 0.004501 0.011902 
2075530885002 -0.000809 0.004501 0.011902 
2075550690910 -0.000809 0.004501 0.011902 
2075570527336 -0.000809 0.004501 0.011902 
2075590333244 -0.000809 0.004501 0.011902 
2075610139152 -0.000809 0.004501 0.011902 
2075629975578 -0.000809 0.004501 0.011902 
2075649781486 -0.000809 0.004501 0.011902 
2075669587394 -0.000809 0.004501 0.011902 
2075689423820 -0.000809 0.004501 0.011902 
2075709229728 -0.000809 0.004501 0.011902 
2075729035637 -0.000809 0.004501 0.011902 
2075748872062 -0.000809 0.004501 0.011902 
2075768677970 -0.000809 0.004501 0.011902 
2075788483879 -0.000809 0.004501 0.011902 
2075808320304 -0.000809 0.004501 0.011902 
2075828156730 -0.000809 0.004501 0.011902 
2075847962638 -0.000809 0.004501 0.011902 
2075867799064 -0.000809 0.004501 0.011902 
2075887604972 -0.000809 0.004501 0.011902 
2075907410881 -0.000809 0.004501 0.011902 
2075927247306 -0.000809 0.004501 0.011902 
2075947053215 -0.000809 0.004501 0.011902 
2075966859123 -0.000809 0.004501 0.011902 
2075986695549 -0.000809 0.004501 0.011902 
2076006501457 -0.000809 0.004501 0.011902 
2076026307365 -0.000809 0.004501 0.011902 
2076046143791 -0.000809 0.004501 0.011902 
2076065949699 -0.000809 0.004501 0.011902 
2076085786125 -0.000809 0.004501 0.011902 
2076105622551 -0.000809 0.004501 0.011902 
2076125428459 -0.000809 0.004501 0.011902 
2076145264885 -0.000809 0.004501 0.011902 
2076165070793 -0.000809 0.004501 0.011902 
2076184876701 -0.000809 0.004501 0.011902 
2076204713127 -0.000809 0.004501 0.011902 
2076224519035 -0.000809 0.004501 0.011902 
2076244324943 -0.000809 0.004501 0.011902 
2076264161369 -0.000809 0.004501 0.011902 
2076283967277 -0.000809 0.004501 0.011902 
2076303773185 -0.000809 0.004501 0.011902 
2076323609611 -0.000809 0.004501 0.011902 
2076343415519 -0.000809 0.004501 0.011902 
2076363221428 -0.000809 0.004501 0.011902 
2076383057853 -0.000809 0.004501 0.011902 
2076402894279 -0.000809 0.004501 0.011902 
2076422700187 -0.000809 0.004501 0.011902 
2076442536613 -0.000809 0.004501 0.011902 
2076462342521 -0.000809 0.004501 0.011902 
2076482148429 -0.000809 0.004501 0.011902 
2076501984855 -0.000809 0.004501 0.011902 
2076521790763 -0.000809 0.004501 0.011902 
2076541596672 -0.000809 0.004501 0.011902 
2076561433097 -0.000809 0.004501 0.011902 
2076581239006 -0.000809 0.004501 0.011902 
2076601044914 -0.000809 0.004501 0.011902 
2076620881340 -0.000809 0.004501 0.011902 
2076640687248 -0.000809 0.004501 0.011902 
2076660523674 -0.000809 0.004501 0.011902 
2076680360099 -0.000809 0.004501 0.011902 
2076700166008 -0.000809 0.004501 0.011902 
2076719971916 -0.000809 0.004501 0.011902 
2076739808342 -0.000809 0.004501 0.011902 
2076759614250 -0.000809 0.004501 0.011902 
2076779420158 -0.000809 0.004501 0.011902 
2076799256584 -0.000809 0.004501 0.011902 
2076819062492 -0.000809 0.004501 0.011902 
2076838868400 -0.000809 0.004501 0.011902 
2076858704826 -0.000809 0.004501 0.011902 
2076878510734 -0.000809 0.004501 0.011902 
2076898347160 -0.000809 0.004501 0.011902 
2076918153068 -0.000809 0.004501 0.011902 
2076937958976 -0.000809 0.004501 0.011902 
2076957795402 -0.000809 0.004501 0.011902 
2076977631828 -0.000809 0.004501 0.011902 
2076997437736 -0.000809 0.004501 0.011902 
2077017274162 -0.000809 0.004501 0.011902 
2077037080070 -0.000809 0.004501 0.011902 
2077056885978 -0.000809 0.004501 0.011902 
2077076722404 -0.000809 0.004501 0.011902 
2077096528312 -0.000809 0.004501 0.011902 
2077116334220 -0.000809 0.004501 0.011902 
2077136170646 -0.000809 0.004501 0.011902 
2077155976554 -0.000809 0.004501 0.011902 
2077175782463 -0.000809 0.004501 0.011902 
2077195618888 -0.000809 0.004501 0.011902 
2077215424797 -0.000809 0.004501 0.011902 
2077235261222 -0.000809 0.004501 0.011902 
2077255097648 -0.000809 0.004501 0.011902 
2077274903556 -0.000809 0.004501 0.011902 
2077294709465 -0.000809 0.004501 0.011902 
2077314545890 -0.000809 0.004501 0.011902 
2077334351799 -0.000809 0.004501 0.011902 
2077354157707 -0.000809 0.004501 0.011902 
2077373994133 -0.000809 0.004501 0.011902 
2077393800041 -0.000809 0.004501 0.011902 
2077413605949 -0.000809 0.004501 0.011902 
2077433442375 -0.000809 0.004501 0.011902 
2077453248283 -0.000809 0.004501 0.011902 
2077473054191 -0.000809 0.004501 0.011902 
2077492890617 -0.000809 0.004501 0.011902 
2077512696525 -0.000809 0.004501 0.011902 
2077532532951 -0.000809 0.004501 0.011902 
2077552369377 -0.000809 0.004501 0.011902 
2077572175285 -0.000809 0.004501 0.011902 
2077591981193 -0.000809 0.004501 0.011902 
2077611817619 -0.000809 0.004501 0.011902 
2077631623527 -0.000809 0.004501 0.011902 
2077651429435 -0.000809 0.004501 0.011902 
2077671265861 -0.000809 0.004501 0.011902 
2077691071769 -0.000809 0.004501 0.011902 
2077710877678 -0.000809 0.004501 0.011902 
2077730714103 -0.000809 0.004501 0.011902 
2077750520012 -0.000809 0.004501 0.011902 
2077770325920 -0.000809 0.004501 0.011902 
2077790162345 -0.000809 0.004501 0.011902 
2077809998771 -0.000809 0.004501 0.011902 
2077829835197 -0.000809 0.004501 0.011902 
2077849641105 -0.000809 0.004501 0.011902 
2077869447013 -0.000809 0.004501 0.011902 
2077889283439 -0.000809 0.004501 0.011902 
2077909089347 -0.000809 0.004501 0.011902 
2077928895256 -0.000809 0.004501 0.011902 
2077948731681 -0.000809 0.004501 0.011902 
2077968537590 -0.000809 0.004501 0.011902 
2077988343498 -0.000809 0.004501 0.011902 
2078008179924 -0.000809 0.004501 0.011902 
2078027985832 -0.000809 0.004501 0.011902 
2078047791740 -0.000809 0.004501 0.011902 
2078067628166 -0.000809 0.004501 0.011902 
2078087464592 -0.000809 0.004501 0.011902 
2078107270500 -0.000809 0.004501 0.011902 
2078127106926 -0.000809 0.004501 0.011902 
2078146912834 -0.000809 0.004501 0.011902 
2078166718742 -0.000809 0.004501 0.011902 
2078186555168 -0.000809 0.004501 0.011902 
2078206361076 -0.000809 0.004501 0.011902 
2078226166984 -0.000809 0.004501 0.011902 
2078246003410 -0.000809 0.004501 0.011902 
