# Created at Tue Jun 01 15:43:45 GMT+02:00 2021 in Burnaby Canada 
1227172892631 -0.000885 0.005203 0.011368 
1227192698539 -0.000885 0.005203 0.011368 
1227212534965 -0.000885 0.005203 0.011368 
1227232340873 -0.000885 0.005203 0.011368 
1227252146781 -0.000885 0.005203 0.011368 
1227271983207 -0.000885 0.005203 0.011368 
1227291789115 -0.000885 0.005203 0.011368 
1227311625541 -0.000885 0.005203 0.011368 
1227331431449 -0.000885 0.005203 0.011368 
1227351237357 -0.000885 0.005203 0.011368 
1227371073783 -0.000885 0.005203 0.011368 
1227390879691 -0.000885 0.005203 0.011368 
1227410685600 -0.000885 0.005203 0.011368 
1227430522025 -0.000885 0.005203 0.011368 
1227450358451 -0.000885 0.005203 0.011368 
1227470164359 -0.000885 0.005203 0.011368 
1227490000785 -0.000885 0.005203 0.011368 
1227509806693 -0.000885 0.005203 0.011368 
1227529612601 -0.000885 0.005203 0.011368 
1227549449027 -0.000885 0.005203 0.011368 
1227569254935 -0.000885 0.005203 0.011368 
1227589060844 -0.000885 0.005203 0.011368 
1227608897269 -0.000885 0.005203 0.011368 
1227628703178 -0.000885 0.005203 0.011368 
1227648509086 -0.000885 0.005203 0.011368 
1227668345512 -0.000885 0.005203 0.011368 
1227688151420 -0.000885 0.005203 0.011368 
1227707987846 -0.000885 0.005203 0.011368 
1227727824271 -0.000885 0.005203 0.011368 
1227747630180 -0.000885 0.005203 0.011368 
1227767466605 -0.000885 0.005203 0.011368 
1227787272514 -0.000885 0.005203 0.011368 
1227807078422 -0.000885 0.005203 0.011368 
1227826914848 -0.000885 0.005203 0.011368 
1227846720756 -0.000885 0.005203 0.011368 
1227866526664 -0.000885 0.005203 0.011368 
1227886363090 -0.000885 0.005203 0.011368 
1227906168998 -0.000885 0.005203 0.011368 
1227925974906 -0.000885 0.005203 0.011368 
1227945811332 -0.000885 0.005203 0.011368 
1227965617240 -0.000885 0.005203 0.011368 
1227985423148 -0.000885 0.005203 0.011368 
1228005259574 -0.000885 0.005203 0.011368 
1228025096000 -0.000885 0.005203 0.011368 
1228044901908 -0.000885 0.005203 0.011368 
1228064738334 -0.000885 0.005203 0.011368 
1228084544242 -0.000885 0.005203 0.011368 
1228104350150 -0.000885 0.005203 0.011368 
1228124186576 -0.000885 0.005203 0.011368 
1228143992484 -0.000885 0.005203 0.011368 
1228163798392 -0.000885 0.005203 0.011368 
1228183634818 -0.000885 0.005203 0.011368 
1228203440726 -0.000885 0.005203 0.011368 
1228223246635 -0.000885 0.005203 0.011368 
1228243083060 -0.000885 0.005203 0.011368 
1228262888969 -0.000885 0.005203 0.011368 
1228282725394 -0.000885 0.005203 0.011368 
1228302561820 -0.000885 0.005203 0.011368 
1228322367728 -0.000885 0.005203 0.011368 
1228342204154 -0.000885 0.005203 0.011368 
1228362010062 -0.000885 0.005203 0.011368 
1228381815971 -0.000885 0.005203 0.011368 
1228401652396 -0.000885 0.005203 0.011368 
1228421458305 -0.000885 0.005203 0.011368 
1228441264213 -0.000885 0.005203 0.011368 
1228461086896 -0.000885 0.005203 0.011368 
1228480892804 -0.000885 0.005203 0.011368 
1228500698712 -0.000885 0.005203 0.011368 
1228520535138 -0.000885 0.005203 0.011368 
1228540341046 -0.000885 0.005203 0.011368 
1228560177472 -0.000885 0.005203 0.011368 
1228580013898 -0.000885 0.005203 0.011368 
1228599819806 -0.000885 0.005203 0.011368 
1228619625714 -0.000885 0.005203 0.011368 
1228639462140 -0.000885 0.005203 0.011368 
1228659268048 -0.000885 0.005203 0.011368 
1228679073956 -0.000885 0.005203 0.011368 
1228698910382 -0.000885 0.005203 0.011368 
1228718716290 -0.000885 0.005203 0.011368 
1228738522198 -0.000885 0.005203 0.011368 
1228758358624 -0.000885 0.005203 0.011368 
1228778164532 -0.000885 0.005203 0.011368 
1228797970440 -0.000885 0.005203 0.011368 
1228817806866 -0.000885 0.005203 0.011368 
1228837612774 -0.000885 0.005203 0.011368 
1228857449200 -0.000885 0.005203 0.011368 
1228877285626 -0.000885 0.005203 0.011368 
1228897091534 -0.000885 0.005203 0.011368 
1228916927960 -0.000885 0.005203 0.011368 
1228936733868 -0.000885 0.005203 0.011368 
1228956539776 -0.000885 0.005203 0.011368 
1228976376202 -0.000885 0.005203 0.011368 
1228996182110 -0.000885 0.005203 0.011368 
1229015988019 -0.000885 0.005203 0.011368 
1229035824444 -0.000885 0.005203 0.011368 
1229055630353 -0.000885 0.005203 0.011368 
1229075436261 -0.000885 0.005203 0.011368 
1229095272687 -0.000885 0.005203 0.011368 
1229115078595 -0.000885 0.005203 0.011368 
1229134915021 -0.000885 0.005203 0.011368 
1229154751446 -0.000885 0.005203 0.011368 
1229174557355 -0.000885 0.005203 0.011368 
1229194363263 -0.000885 0.005203 0.011368 
1229214199689 -0.000885 0.005203 0.011368 
1229234005597 -0.000885 0.005203 0.011368 
1229253811505 -0.000885 0.005203 0.011368 
1229273647931 -0.000885 0.005203 0.011368 
1229293453839 -0.000885 0.005203 0.011368 
1229313290265 -0.000885 0.005203 0.011368 
1229333096173 -0.000885 0.005203 0.011368 
1229352902081 -0.000885 0.005203 0.011368 
1229372738507 -0.000885 0.005203 0.011368 
1229392544415 -0.000885 0.005203 0.011368 
1229412350323 -0.000885 0.005203 0.011368 
1229432186749 -0.000885 0.005203 0.011368 
1229452023175 -0.000885 0.005203 0.011368 
1229471829083 -0.000885 0.005203 0.011368 
1229491665509 -0.000885 0.005203 0.011368 
1229511471417 -0.000885 0.005203 0.011368 
1229531277325 -0.000885 0.005203 0.011368 
1229551113751 -0.000885 0.005203 0.011368 
1229570919659 -0.000885 0.005203 0.011368 
1229590725567 -0.000885 0.005203 0.011368 
1229610561993 -0.000885 0.005203 0.011368 
1229630367901 -0.000885 0.005203 0.011368 
1229650173810 -0.000885 0.005203 0.011368 
1229670010235 -0.000885 0.005203 0.011368 
1229689816144 -0.000885 0.005203 0.011368 
1229709652569 -0.000885 0.005203 0.011368 
1229729488995 -0.000885 0.005203 0.011368 
1229749294903 -0.000885 0.005203 0.011368 
1229769100812 -0.000885 0.005203 0.011368 
1229788937237 -0.000885 0.005203 0.011368 
1229808743146 -0.000885 0.005203 0.011368 
1229828549054 -0.000885 0.005203 0.011368 
1229848385480 -0.000885 0.005203 0.011368 
1229868191388 -0.000885 0.005203 0.011368 
1229888027814 -0.000885 0.005203 0.011368 
1229907833722 -0.000885 0.005203 0.011368 
1229927639630 -0.000885 0.005203 0.011368 
1229947476056 -0.000885 0.005203 0.011368 
1229967281964 -0.000885 0.005203 0.011368 
1229987087872 -0.000885 0.005203 0.011368 
1230006924298 -0.000885 0.005203 0.011368 
1230026760724 -0.000885 0.005203 0.011368 
1230046566632 -0.000885 0.005203 0.011368 
1230066403058 -0.000885 0.005203 0.011368 
1230086208966 -0.000885 0.005203 0.011368 
1230106014874 -0.000885 0.005203 0.011368 
1230125851300 -0.000885 0.005203 0.011368 
1230145657208 -0.000885 0.005203 0.011368 
1230165463116 -0.000885 0.005203 0.011368 
1230185299542 -0.000885 0.005203 0.011368 
1230205105450 -0.000885 0.005203 0.011368 
1230224911358 -0.000885 0.005203 0.011368 
1230244747784 -0.000885 0.005203 0.011368 
1230264553692 -0.000885 0.005203 0.011368 
1230284390118 -0.000885 0.005203 0.011368 
1230304226544 -0.000885 0.005203 0.011368 
1230324032452 -0.000885 0.005203 0.011368 
1230343868878 -0.000885 0.005203 0.011368 
1230363674786 -0.000885 0.005203 0.011368 
1230383480694 -0.000885 0.005203 0.011368 
1230403286603 -0.000885 0.005203 0.011368 
1230423123028 -0.000885 0.005203 0.011368 
1230442928937 -0.000885 0.005203 0.011368 
1230462765362 -0.000885 0.005203 0.011368 
1230482571271 -0.000885 0.005203 0.011368 
1230502377179 -0.000885 0.005203 0.011368 
1230522213605 -0.000885 0.005203 0.011368 
1230542019513 -0.000885 0.005203 0.011368 
1230561825421 -0.000885 0.005203 0.011368 
1230581661847 -0.000885 0.005203 0.011368 
1230601498273 -0.000885 0.005203 0.011368 
1230621304181 -0.000885 0.005203 0.011368 
1230641140607 -0.000885 0.005203 0.011368 
1230660946515 -0.000885 0.005203 0.011368 
1230680752423 -0.000885 0.005203 0.011368 
1230700588849 -0.000885 0.005203 0.011368 
1230720394757 -0.000885 0.005203 0.011368 
1230740200665 -0.000885 0.005203 0.011368 
1230760037091 -0.000885 0.005203 0.011368 
1230779842999 -0.000885 0.005203 0.011368 
1230799679425 -0.000885 0.005203 0.011368 
1230819485333 -0.000885 0.005203 0.011368 
1230839291241 -0.000885 0.005203 0.011368 
1230859127667 -0.000885 0.005203 0.011368 
1230878964093 -0.000885 0.005203 0.011368 
1230898770001 -0.000885 0.005203 0.011368 
1230918606427 -0.000885 0.005203 0.011368 
1230938412335 -0.000885 0.005203 0.011368 
1230958218243 -0.000885 0.005203 0.011368 
1230978054669 -0.000885 0.005203 0.011368 
1230997860577 -0.000885 0.005203 0.011368 
1231017666485 -0.000885 0.005203 0.011368 
1231037502911 -0.000885 0.005203 0.011368 
1231057308819 -0.000885 0.005203 0.011368 
1231077114728 -0.000885 0.005203 0.011368 
1231096951153 -0.000885 0.005203 0.011368 
1231116757062 -0.000885 0.005203 0.011368 
1231136593487 -0.000885 0.005203 0.011368 
1231156429913 -0.000885 0.005203 0.011368 
1231176235821 -0.000885 0.005203 0.011368 
1231196041730 -0.000885 0.005203 0.011368 
1231215878155 -0.000885 0.005203 0.011368 
1231235684064 -0.000885 0.005203 0.011368 
1231255489972 -0.000885 0.005203 0.011368 
1231275326398 -0.000885 0.005203 0.011368 
1231295132306 -0.000885 0.005203 0.011368 
1231314968732 -0.000885 0.005203 0.011368 
1231334774640 -0.000885 0.005203 0.011368 
1231354580548 -0.000885 0.005203 0.011368 
1231374416974 -0.000885 0.005203 0.011368 
1231394222882 -0.000885 0.005203 0.011368 
1231414028790 -0.000885 0.005203 0.011368 
1231433865216 -0.000885 0.005203 0.011368 
1231453701642 -0.000885 0.005203 0.011368 
1231473507550 -0.000885 0.005203 0.011368 
1231493343976 -0.000885 0.005203 0.011368 
1231513149884 -0.000885 0.005203 0.011368 
1231532955792 -0.000885 0.005203 0.011368 
1231552792218 -0.000885 0.005203 0.011368 
1231572598126 -0.000885 0.005203 0.011368 
1231592404034 -0.000885 0.005203 0.011368 
1231612240460 -0.000885 0.005203 0.011368 
1231632046368 -0.000885 0.005203 0.011368 
1231651852276 -0.000885 0.005203 0.011368 
1231671688702 -0.000885 0.005203 0.011368 
1231691494610 -0.000885 0.005203 0.011368 
1231711331036 -0.000885 0.005203 0.011368 
1231731167462 -0.000885 0.005203 0.011368 
1231750973370 -0.000885 0.005203 0.011368 
1231770809796 -0.000885 0.005203 0.011368 
1231790615704 -0.000885 0.005203 0.011368 
1231810421612 -0.000885 0.005203 0.011368 
1231830258038 -0.000885 0.005203 0.011368 
1231850063946 -0.000885 0.005203 0.011368 
1231869869855 -0.000885 0.005203 0.011368 
1231889706280 -0.000885 0.005203 0.011368 
1231909512189 -0.000885 0.005203 0.011368 
1231929318097 -0.000885 0.005203 0.011368 
1231949154523 -0.000885 0.005203 0.011368 
1231968960431 -0.000885 0.005203 0.011368 
1231988766339 -0.000885 0.005203 0.011368 
1232008602765 -0.000885 0.005203 0.011368 
1232028439190 -0.000885 0.005203 0.011368 
1232048245099 -0.000885 0.005203 0.011368 
1232068081524 -0.000885 0.005203 0.011368 
1232087887433 -0.000885 0.005203 0.011368 
1232107693341 -0.000885 0.005203 0.011368 
1232127529767 -0.000885 0.005203 0.011368 
1232147335675 -0.000885 0.005203 0.011368 
1232167141583 -0.000885 0.005203 0.011368 
1232186978009 -0.000885 0.005203 0.011368 
1232206783917 -0.000885 0.005203 0.011368 
1232226620343 -0.000885 0.005203 0.011368 
1232246426251 -0.000885 0.005203 0.011368 
1232266232159 -0.000885 0.005203 0.011368 
1232286068585 -0.000885 0.005203 0.011368 
1232305905011 -0.000885 0.005203 0.011368 
1232325710919 -0.000885 0.005203 0.011368 
1232345547345 -0.000885 0.005203 0.011368 
1232365353253 -0.000885 0.005203 0.011368 
1232385159161 -0.000885 0.005203 0.011368 
1232404995587 -0.000885 0.005203 0.011368 
1232424801495 -0.000885 0.005203 0.011368 
1232444607403 -0.000885 0.005203 0.011368 
1232464443829 -0.000885 0.005203 0.011368 
1232484249737 -0.000885 0.005203 0.011368 
1232504055646 -0.000885 0.005203 0.011368 
1232523892071 -0.000885 0.005203 0.011368 
1232543697980 -0.000885 0.005203 0.011368 
1232563503888 -0.000885 0.005203 0.011368 
1232583340314 -0.000885 0.005203 0.011368 
1232603176739 -0.000885 0.005203 0.011368 
1232622982648 -0.000885 0.005203 0.011368 
1232642819073 -0.000885 0.005203 0.011368 
1232662624982 -0.000885 0.005203 0.011368 
1232682430890 -0.000885 0.005203 0.011368 
1232702267315 -0.000885 0.005203 0.011368 
1232722073224 -0.000885 0.005203 0.011368 
1232741909649 -0.000885 0.005203 0.011368 
1232761715558 -0.000885 0.005203 0.011368 
1232781521466 -0.000885 0.005203 0.011368 
1232801357892 -0.000885 0.005203 0.011368 
1232821163800 -0.000885 0.005203 0.011368 
1232840969708 -0.000885 0.005203 0.011368 
1232860806134 -0.000885 0.005203 0.011368 
1232880642560 -0.000885 0.005203 0.011368 
1232900448468 -0.000885 0.005203 0.011368 
1232920284894 -0.000885 0.005203 0.011368 
1232940090802 -0.000885 0.005203 0.011368 
