# Created at Tue Jun 01 16:19:11 GMT+02:00 2021 in Burnaby Canada 
3353839967582 -0.001007 0.005463 0.012344 
3353859804007 -0.001007 0.005463 0.012344 
3353879609916 -0.001007 0.005463 0.012344 
3353899446341 -0.001007 0.005463 0.012344 
3353919252250 -0.001007 0.005463 0.012344 
3353939058158 -0.001007 0.005463 0.012344 
3353958894584 -0.001007 0.005463 0.012344 
3353978731009 -0.001007 0.005463 0.012344 
3353998536918 -0.001007 0.005463 0.012344 
3354018373343 -0.001007 0.005463 0.012344 
3354038179251 -0.001007 0.005463 0.012344 
3354057985160 -0.001007 0.005463 0.012344 
3354077821585 -0.001007 0.005463 0.012344 
3354097627494 -0.001007 0.005463 0.012344 
3354117433402 -0.001007 0.005463 0.012344 
3354137269828 -0.001007 0.005463 0.012344 
3354157075736 -0.001007 0.005463 0.012344 
3354176912162 -0.001007 0.005463 0.012344 
3354196718070 -0.001007 0.005463 0.012344 
3354216523978 -0.001007 0.005463 0.012344 
3354236360404 -0.001007 0.005463 0.012344 
3354256196830 -0.001007 0.005463 0.012344 
3354276002738 -0.001007 0.005463 0.012344 
3354295839164 -0.001007 0.005463 0.012344 
3354315645072 -0.001007 0.005463 0.012344 
3354335481498 -0.001007 0.005463 0.012344 
3354355287406 -0.001007 0.005463 0.012344 
3354375093314 -0.001007 0.005463 0.012344 
3354394929740 -0.001007 0.005463 0.012344 
3354414735648 -0.001007 0.005463 0.012344 
3354434541556 -0.001007 0.005463 0.012344 
3354454377982 -0.001007 0.005463 0.012344 
3354474183890 -0.001007 0.005463 0.012344 
3354493989798 -0.001007 0.005463 0.012344 
3354513826224 -0.001007 0.005463 0.012344 
3354533662650 -0.001007 0.005463 0.012344 
3354553468558 -0.001007 0.005463 0.012344 
3354573304984 -0.001007 0.005463 0.012344 
3354593110892 -0.001007 0.005463 0.012344 
3354612947318 -0.001007 0.005463 0.012344 
3354632753226 -0.001007 0.005463 0.012344 
3354652559134 -0.001007 0.005463 0.012344 
3354672395560 -0.001007 0.005463 0.012344 
3354692201468 -0.001007 0.005463 0.012344 
3354712007376 -0.001007 0.005463 0.012344 
3354731843802 -0.001007 0.005463 0.012344 
3354751649710 -0.001007 0.005463 0.012344 
3354771455619 -0.001007 0.005463 0.012344 
3354791292044 -0.001007 0.005463 0.012344 
3354811097953 -0.001007 0.005463 0.012344 
3354830934378 -0.001007 0.005463 0.012344 
3354850770804 -0.001007 0.005463 0.012344 
3354870576712 -0.001007 0.005463 0.012344 
3354890413138 -0.001007 0.005463 0.012344 
3354910219046 -0.001007 0.005463 0.012344 
3354930024955 -0.001007 0.005463 0.012344 
3354949861380 -0.001007 0.005463 0.012344 
3354969667289 -0.001007 0.005463 0.012344 
3354989473197 -0.001007 0.005463 0.012344 
3355009309623 -0.001007 0.005463 0.012344 
3355029115531 -0.001007 0.005463 0.012344 
3355048951957 -0.001007 0.005463 0.012344 
3355068757865 -0.001007 0.005463 0.012344 
3355088563773 -0.001007 0.005463 0.012344 
3355108400199 -0.001007 0.005463 0.012344 
3355128236625 -0.001007 0.005463 0.012344 
3355148042533 -0.001007 0.005463 0.012344 
3355167878959 -0.001007 0.005463 0.012344 
3355187684867 -0.001007 0.005463 0.012344 
3355207490775 -0.001007 0.005463 0.012344 
3355227327201 -0.001007 0.005463 0.012344 
3355247133109 -0.001007 0.005463 0.012344 
3355266939017 -0.001007 0.005463 0.012344 
3355286775443 -0.001007 0.005463 0.012344 
3355306581351 -0.001007 0.005463 0.012344 
3355326417777 -0.001007 0.005463 0.012344 
3355346223685 -0.001007 0.005463 0.012344 
3355366029593 -0.001007 0.005463 0.012344 
3355385866019 -0.001007 0.005463 0.012344 
3355405702445 -0.001007 0.005463 0.012344 
3355425508353 -0.001007 0.005463 0.012344 
3355445344779 -0.001007 0.005463 0.012344 
3355465150687 -0.001007 0.005463 0.012344 
3355484956595 -0.001007 0.005463 0.012344 
3355504793021 -0.001007 0.005463 0.012344 
3355524598929 -0.001007 0.005463 0.012344 
3355544435355 -0.001007 0.005463 0.012344 
3355564241263 -0.001007 0.005463 0.012344 
3355584047171 -0.001007 0.005463 0.012344 
3355603883597 -0.001007 0.005463 0.012344 
3355623689505 -0.001007 0.005463 0.012344 
3355643495414 -0.001007 0.005463 0.012344 
3355663331839 -0.001007 0.005463 0.012344 
3355683168265 -0.001007 0.005463 0.012344 
3355703004691 -0.001007 0.005463 0.012344 
3355722810599 -0.001007 0.005463 0.012344 
3355742616507 -0.001007 0.005463 0.012344 
3355762452933 -0.001007 0.005463 0.012344 
3355782258841 -0.001007 0.005463 0.012344 
3355802064750 -0.001007 0.005463 0.012344 
3355821901175 -0.001007 0.005463 0.012344 
3355841707084 -0.001007 0.005463 0.012344 
3355861512992 -0.001007 0.005463 0.012344 
3355881349418 -0.001007 0.005463 0.012344 
3355901155326 -0.001007 0.005463 0.012344 
3355920991751 -0.001007 0.005463 0.012344 
3355940797660 -0.001007 0.005463 0.012344 
3355960634085 -0.001007 0.005463 0.012344 
3355980470511 -0.001007 0.005463 0.012344 
3356000276419 -0.001007 0.005463 0.012344 
3356020082328 -0.001007 0.005463 0.012344 
3356039918753 -0.001007 0.005463 0.012344 
3356059724662 -0.001007 0.005463 0.012344 
3356079530570 -0.001007 0.005463 0.012344 
3356099366996 -0.001007 0.005463 0.012344 
3356119172904 -0.001007 0.005463 0.012344 
3356139009330 -0.001007 0.005463 0.012344 
3356158815238 -0.001007 0.005463 0.012344 
3356178621146 -0.001007 0.005463 0.012344 
3356198457572 -0.001007 0.005463 0.012344 
3356218263480 -0.001007 0.005463 0.012344 
3356238069388 -0.001007 0.005463 0.012344 
3356257905814 -0.001007 0.005463 0.012344 
3356277742240 -0.001007 0.005463 0.012344 
3356297548148 -0.001007 0.005463 0.012344 
3356317384574 -0.001007 0.005463 0.012344 
3356337190482 -0.001007 0.005463 0.012344 
3356357026908 -0.001007 0.005463 0.012344 
3356376832816 -0.001007 0.005463 0.012344 
3356396638724 -0.001007 0.005463 0.012344 
3356416475150 -0.001007 0.005463 0.012344 
3356436281058 -0.001007 0.005463 0.012344 
3356456086966 -0.001007 0.005463 0.012344 
3356475923392 -0.001007 0.005463 0.012344 
3356495729300 -0.001007 0.005463 0.012344 
3356515535209 -0.001007 0.005463 0.012344 
3356535371634 -0.001007 0.005463 0.012344 
3356555208060 -0.001007 0.005463 0.012344 
3356575044486 -0.001007 0.005463 0.012344 
3356594850394 -0.001007 0.005463 0.012344 
3356614656302 -0.001007 0.005463 0.012344 
3356634492728 -0.001007 0.005463 0.012344 
3356654298636 -0.001007 0.005463 0.012344 
3356674104544 -0.001007 0.005463 0.012344 
3356693940970 -0.001007 0.005463 0.012344 
3356713746878 -0.001007 0.005463 0.012344 
3356733583304 -0.001007 0.005463 0.012344 
3356753389212 -0.001007 0.005463 0.012344 
3356773195121 -0.001007 0.005463 0.012344 
3356793031546 -0.001007 0.005463 0.012344 
3356812837455 -0.001007 0.005463 0.012344 
3356832673880 -0.001007 0.005463 0.012344 
3356852510306 -0.001007 0.005463 0.012344 
3356872316214 -0.001007 0.005463 0.012344 
3356892122123 -0.001007 0.005463 0.012344 
3356911958548 -0.001007 0.005463 0.012344 
3356931764457 -0.001007 0.005463 0.012344 
3356951570365 -0.001007 0.005463 0.012344 
3356971406791 -0.001007 0.005463 0.012344 
3356991212699 -0.001007 0.005463 0.012344 
3357011049125 -0.001007 0.005463 0.012344 
3357030855033 -0.001007 0.005463 0.012344 
3357050660941 -0.001007 0.005463 0.012344 
3357070497367 -0.001007 0.005463 0.012344 
3357090303275 -0.001007 0.005463 0.012344 
3357110139701 -0.001007 0.005463 0.012344 
3357129976126 -0.001007 0.005463 0.012344 
3357149782035 -0.001007 0.005463 0.012344 
3357169618460 -0.001007 0.005463 0.012344 
3357189424369 -0.001007 0.005463 0.012344 
3357209230277 -0.001007 0.005463 0.012344 
3357229066703 -0.001007 0.005463 0.012344 
3357248872611 -0.001007 0.005463 0.012344 
3357268678519 -0.001007 0.005463 0.012344 
3357288514945 -0.001007 0.005463 0.012344 
3357308320853 -0.001007 0.005463 0.012344 
3357328157279 -0.001007 0.005463 0.012344 
3357347963187 -0.001007 0.005463 0.012344 
3357367769095 -0.001007 0.005463 0.012344 
3357387605521 -0.001007 0.005463 0.012344 
3357407441947 -0.001007 0.005463 0.012344 
3357427247855 -0.001007 0.005463 0.012344 
3357447084281 -0.001007 0.005463 0.012344 
3357466890189 -0.001007 0.005463 0.012344 
3357486696097 -0.001007 0.005463 0.012344 
3357506532523 -0.001007 0.005463 0.012344 
3357526338431 -0.001007 0.005463 0.012344 
3357546174857 -0.001007 0.005463 0.012344 
3357565980765 -0.001007 0.005463 0.012344 
3357585786673 -0.001007 0.005463 0.012344 
3357605623099 -0.001007 0.005463 0.012344 
3357625429007 -0.001007 0.005463 0.012344 
3357645234916 -0.001007 0.005463 0.012344 
3357665071341 -0.001007 0.005463 0.012344 
3357684907767 -0.001007 0.005463 0.012344 
3357704744193 -0.001007 0.005463 0.012344 
3357724550101 -0.001007 0.005463 0.012344 
3357744356009 -0.001007 0.005463 0.012344 
3357764192435 -0.001007 0.005463 0.012344 
3357783998343 -0.001007 0.005463 0.012344 
3357803804251 -0.001007 0.005463 0.012344 
3357823640677 -0.001007 0.005463 0.012344 
3357843446585 -0.001007 0.005463 0.012344 
3357863252494 -0.001007 0.005463 0.012344 
3357883088919 -0.001007 0.005463 0.012344 
3357902894828 -0.001007 0.005463 0.012344 
3357922731253 -0.001007 0.005463 0.012344 
3357942537162 -0.001007 0.005463 0.012344 
3357962373587 -0.001007 0.005463 0.012344 
3357982210013 -0.001007 0.005463 0.012344 
3358002015921 -0.001007 0.005463 0.012344 
3358021821830 -0.001007 0.005463 0.012344 
3358041658255 -0.001007 0.005463 0.012344 
3358061464164 -0.001007 0.005463 0.012344 
3358081300589 -0.001007 0.005463 0.012344 
3358101106498 -0.001007 0.005463 0.012344 
3358120912406 -0.001007 0.005463 0.012344 
3358140748832 -0.001007 0.005463 0.012344 
3358160554740 -0.001007 0.005463 0.012344 
3358180360648 -0.001007 0.005463 0.012344 
3358200197074 -0.001007 0.005463 0.012344 
3358220002982 -0.001007 0.005463 0.012344 
3358239808890 -0.001007 0.005463 0.012344 
3358259645316 -0.001007 0.005463 0.012344 
3358279481742 -0.001007 0.005463 0.012344 
3358299318168 -0.001007 0.005463 0.012344 
3358319124076 -0.001007 0.005463 0.012344 
3358338929984 -0.001007 0.005463 0.012344 
3358358766410 -0.001007 0.005463 0.012344 
3358378572318 -0.001007 0.005463 0.012344 
3358398378226 -0.001007 0.005463 0.012344 
3358418214652 -0.001007 0.005463 0.012344 
3358438020560 -0.001007 0.005463 0.012344 
3358457856986 -0.001007 0.005463 0.012344 
3358477662894 -0.001007 0.005463 0.012344 
3358497468802 -0.001007 0.005463 0.012344 
3358517305228 -0.001007 0.005463 0.012344 
3358537141654 -0.001007 0.005463 0.012344 
3358556947562 -0.001007 0.005463 0.012344 
3358576783988 -0.001007 0.005463 0.012344 
3358596589896 -0.001007 0.005463 0.012344 
3358616395804 -0.001007 0.005463 0.012344 
3358636255227 -0.001007 0.005463 0.012344 
3358656061135 -0.001007 0.005463 0.012344 
3358675897561 -0.001007 0.005463 0.012344 
3358695703469 -0.001007 0.005463 0.012344 
3358715509377 -0.001007 0.005463 0.012344 
3358735345803 -0.001007 0.005463 0.012344 
3358755151711 -0.001007 0.005463 0.012344 
3358774957620 -0.001007 0.005463 0.012344 
3358794794045 -0.001007 0.005463 0.012344 
3358814599954 -0.001007 0.005463 0.012344 
3358834436379 -0.001007 0.005463 0.012344 
3358854272805 -0.001007 0.005463 0.012344 
3358874078713 -0.001007 0.005463 0.012344 
3358893915139 -0.001007 0.005463 0.012344 
3358913721047 -0.001007 0.005463 0.012344 
3358933526956 -0.001007 0.005463 0.012344 
3358953363381 -0.001007 0.005463 0.012344 
3358973169290 -0.001007 0.005463 0.012344 
3358992975198 -0.001007 0.005463 0.012344 
3359012811623 -0.001007 0.005463 0.012344 
3359032617532 -0.001007 0.005463 0.012344 
3359052423440 -0.001007 0.005463 0.012344 
3359072259866 -0.001007 0.005463 0.012344 
3359092065774 -0.001007 0.005463 0.012344 
3359111902200 -0.001007 0.005463 0.012344 
3359131738625 -0.001007 0.005463 0.012344 
3359151544534 -0.001007 0.005463 0.012344 
3359171380959 -0.001007 0.005463 0.012344 
3359191186868 -0.001007 0.005463 0.012344 
3359210992776 -0.001007 0.005463 0.012344 
3359230829202 -0.001007 0.005463 0.012344 
3359250635110 -0.001007 0.005463 0.012344 
3359270471536 -0.001007 0.005463 0.012344 
3359290277444 -0.001007 0.005463 0.012344 
3359310083352 -0.001007 0.005463 0.012344 
3359329919778 -0.001007 0.005463 0.012344 
3359349725686 -0.001007 0.005463 0.012344 
3359369531594 -0.001007 0.005463 0.012344 
3359389368020 -0.001007 0.005463 0.012344 
3359409204446 -0.001007 0.005463 0.012344 
3359429010354 -0.001007 0.005463 0.012344 
3359448846780 -0.001007 0.005463 0.012344 
3359468652688 -0.001007 0.005463 0.012344 
3359488489114 -0.001007 0.005463 0.012344 
3359508295022 -0.001007 0.005463 0.012344 
3359528100930 -0.001007 0.005463 0.012344 
3359547937356 -0.001007 0.005463 0.012344 
3359567743264 -0.001007 0.005463 0.012344 
3359587549172 -0.001007 0.005463 0.012344 
3359607385598 -0.001007 0.005463 0.012344 
3359627191506 -0.001007 0.005463 0.012344 
3359647027932 -0.001007 0.005463 0.012344 
3359666833840 -0.001007 0.005463 0.012344 
3359686670266 -0.001007 0.005463 0.012344 
3359706506692 -0.001007 0.005463 0.012344 
3359726312600 -0.001007 0.005463 0.012344 
3359746118508 -0.001007 0.005463 0.012344 
3359765954934 -0.001007 0.005463 0.012344 
3359785760842 -0.001007 0.005463 0.012344 
3359805566750 -0.001007 0.005463 0.012344 
3359825403176 -0.001007 0.005463 0.012344 
3359845209084 -0.001007 0.005463 0.012344 
3359865045510 -0.001007 0.005463 0.012344 
3359884851418 -0.001007 0.005463 0.012344 
3359904657327 -0.001007 0.005463 0.012344 
3359924493752 -0.001007 0.005463 0.012344 
