# Created at Tue Jun 01 16:19:50 GMT+02:00 2021 in Burnaby Canada 
3392958484254 -0.001068 0.005432 0.011917 
3392978320680 -0.001068 0.005432 0.011917 
3392998126588 -0.001068 0.005432 0.011917 
3393017932497 -0.001068 0.005432 0.011917 
3393037768922 -0.001068 0.005432 0.011917 
3393057574831 -0.001068 0.005432 0.011917 
3393077380739 -0.001068 0.005432 0.011917 
3393097217165 -0.001068 0.005432 0.011917 
3393117023073 -0.001068 0.005432 0.011917 
3393136859499 -0.001068 0.005432 0.011917 
3393156695924 -0.001068 0.005432 0.011917 
3393176501833 -0.001068 0.005432 0.011917 
3393196338258 -0.001068 0.005432 0.011917 
3393216144167 -0.001068 0.005432 0.011917 
3393235950075 -0.001068 0.005432 0.011917 
3393255786501 -0.001068 0.005432 0.011917 
3393275592409 -0.001068 0.005432 0.011917 
3393295398317 -0.001068 0.005432 0.011917 
3393315234743 -0.001068 0.005432 0.011917 
3393335040651 -0.001068 0.005432 0.011917 
3393354877077 -0.001068 0.005432 0.011917 
3393374682985 -0.001068 0.005432 0.011917 
3393394488893 -0.001068 0.005432 0.011917 
3393414325319 -0.001068 0.005432 0.011917 
3393434131227 -0.001068 0.005432 0.011917 
3393453967653 -0.001068 0.005432 0.011917 
3393473804079 -0.001068 0.005432 0.011917 
3393493609987 -0.001068 0.005432 0.011917 
3393513446413 -0.001068 0.005432 0.011917 
3393533252321 -0.001068 0.005432 0.011917 
3393553058229 -0.001068 0.005432 0.011917 
3393572894655 -0.001068 0.005432 0.011917 
3393592700563 -0.001068 0.005432 0.011917 
3393612506471 -0.001068 0.005432 0.011917 
3393632342897 -0.001068 0.005432 0.011917 
3393652148805 -0.001068 0.005432 0.011917 
3393671985231 -0.001068 0.005432 0.011917 
3393691791139 -0.001068 0.005432 0.011917 
3393711597047 -0.001068 0.005432 0.011917 
3393731433473 -0.001068 0.005432 0.011917 
3393751269899 -0.001068 0.005432 0.011917 
3393771106325 -0.001068 0.005432 0.011917 
3393790912233 -0.001068 0.005432 0.011917 
3393810718141 -0.001068 0.005432 0.011917 
3393830554567 -0.001068 0.005432 0.011917 
3393850360475 -0.001068 0.005432 0.011917 
3393870166383 -0.001068 0.005432 0.011917 
3393890002809 -0.001068 0.005432 0.011917 
3393909808717 -0.001068 0.005432 0.011917 
3393929614626 -0.001068 0.005432 0.011917 
3393949451051 -0.001068 0.005432 0.011917 
3393969256960 -0.001068 0.005432 0.011917 
3393989093385 -0.001068 0.005432 0.011917 
3394008899293 -0.001068 0.005432 0.011917 
3394028735719 -0.001068 0.005432 0.011917 
3394048572145 -0.001068 0.005432 0.011917 
3394068378053 -0.001068 0.005432 0.011917 
3394088183961 -0.001068 0.005432 0.011917 
3394108020387 -0.001068 0.005432 0.011917 
3394127826295 -0.001068 0.005432 0.011917 
3394147662721 -0.001068 0.005432 0.011917 
3394167468629 -0.001068 0.005432 0.011917 
3394187274538 -0.001068 0.005432 0.011917 
3394207110963 -0.001068 0.005432 0.011917 
3394226916872 -0.001068 0.005432 0.011917 
3394246722780 -0.001068 0.005432 0.011917 
3394266559206 -0.001068 0.005432 0.011917 
3394286365114 -0.001068 0.005432 0.011917 
3394306201540 -0.001068 0.005432 0.011917 
3394326037965 -0.001068 0.005432 0.011917 
3394345843874 -0.001068 0.005432 0.011917 
3394365680299 -0.001068 0.005432 0.011917 
3394385486208 -0.001068 0.005432 0.011917 
3394405292116 -0.001068 0.005432 0.011917 
3394425128542 -0.001068 0.005432 0.011917 
3394444934450 -0.001068 0.005432 0.011917 
3394464740358 -0.001068 0.005432 0.011917 
3394484576784 -0.001068 0.005432 0.011917 
3394504382692 -0.001068 0.005432 0.011917 
3394524219118 -0.001068 0.005432 0.011917 
3394544025026 -0.001068 0.005432 0.011917 
3394563830934 -0.001068 0.005432 0.011917 
3394583667360 -0.001068 0.005432 0.011917 
3394603503786 -0.001068 0.005432 0.011917 
3394623309694 -0.001068 0.005432 0.011917 
3394643146120 -0.001068 0.005432 0.011917 
3394662952028 -0.001068 0.005432 0.011917 
3394682788454 -0.001068 0.005432 0.011917 
3394702594362 -0.001068 0.005432 0.011917 
3394722400270 -0.001068 0.005432 0.011917 
3394742236696 -0.001068 0.005432 0.011917 
3394762042604 -0.001068 0.005432 0.011917 
3394781848512 -0.001068 0.005432 0.011917 
3394801684938 -0.001068 0.005432 0.011917 
3394821490846 -0.001068 0.005432 0.011917 
3394841327272 -0.001068 0.005432 0.011917 
3394861133180 -0.001068 0.005432 0.011917 
3394880969606 -0.001068 0.005432 0.011917 
3394900806032 -0.001068 0.005432 0.011917 
3394920611940 -0.001068 0.005432 0.011917 
3394940417848 -0.001068 0.005432 0.011917 
3394960254274 -0.001068 0.005432 0.011917 
3394980060182 -0.001068 0.005432 0.011917 
3394999896608 -0.001068 0.005432 0.011917 
3395019702516 -0.001068 0.005432 0.011917 
3395039508424 -0.001068 0.005432 0.011917 
3395059344850 -0.001068 0.005432 0.011917 
3395079150758 -0.001068 0.005432 0.011917 
3395098956667 -0.001068 0.005432 0.011917 
3395118793092 -0.001068 0.005432 0.011917 
3395138599001 -0.001068 0.005432 0.011917 
3395158435426 -0.001068 0.005432 0.011917 
3395178271852 -0.001068 0.005432 0.011917 
3395198077760 -0.001068 0.005432 0.011917 
3395217883668 -0.001068 0.005432 0.011917 
3395237720094 -0.001068 0.005432 0.011917 
3395257526002 -0.001068 0.005432 0.011917 
3395277362428 -0.001068 0.005432 0.011917 
3395297168336 -0.001068 0.005432 0.011917 
3395316974245 -0.001068 0.005432 0.011917 
3395336810670 -0.001068 0.005432 0.011917 
3395356616579 -0.001068 0.005432 0.011917 
3395376453004 -0.001068 0.005432 0.011917 
3395396258913 -0.001068 0.005432 0.011917 
3395416064821 -0.001068 0.005432 0.011917 
3395435901247 -0.001068 0.005432 0.011917 
3395455737672 -0.001068 0.005432 0.011917 
3395475543581 -0.001068 0.005432 0.011917 
3395495380006 -0.001068 0.005432 0.011917 
3395515185915 -0.001068 0.005432 0.011917 
3395535022340 -0.001068 0.005432 0.011917 
3395554828249 -0.001068 0.005432 0.011917 
3395574634157 -0.001068 0.005432 0.011917 
3395594470583 -0.001068 0.005432 0.011917 
3395614276491 -0.001068 0.005432 0.011917 
3395634082399 -0.001068 0.005432 0.011917 
3395653918825 -0.001068 0.005432 0.011917 
3395673724733 -0.001068 0.005432 0.011917 
3395693561159 -0.001068 0.005432 0.011917 
3395713367067 -0.001068 0.005432 0.011917 
3395733203493 -0.001068 0.005432 0.011917 
3395753039918 -0.001068 0.005432 0.011917 
3395772845827 -0.001068 0.005432 0.011917 
3395792651735 -0.001068 0.005432 0.011917 
3395812488161 -0.001068 0.005432 0.011917 
3395832294069 -0.001068 0.005432 0.011917 
3395852099977 -0.001068 0.005432 0.011917 
3395871936403 -0.001068 0.005432 0.011917 
3395891742311 -0.001068 0.005432 0.011917 
3395911578737 -0.001068 0.005432 0.011917 
3395931384645 -0.001068 0.005432 0.011917 
3395951190553 -0.001068 0.005432 0.011917 
3395971026979 -0.001068 0.005432 0.011917 
3395990832887 -0.001068 0.005432 0.011917 
3396010638795 -0.001068 0.005432 0.011917 
3396030475221 -0.001068 0.005432 0.011917 
3396050311647 -0.001068 0.005432 0.011917 
3396070148073 -0.001068 0.005432 0.011917 
3396089953981 -0.001068 0.005432 0.011917 
3396109759889 -0.001068 0.005432 0.011917 
3396129596315 -0.001068 0.005432 0.011917 
3396149402223 -0.001068 0.005432 0.011917 
3396169208131 -0.001068 0.005432 0.011917 
3396189044557 -0.001068 0.005432 0.011917 
3396208850465 -0.001068 0.005432 0.011917 
3396228656374 -0.001068 0.005432 0.011917 
3396248492799 -0.001068 0.005432 0.011917 
3396268298708 -0.001068 0.005432 0.011917 
3396288135133 -0.001068 0.005432 0.011917 
3396307971559 -0.001068 0.005432 0.011917 
3396327777467 -0.001068 0.005432 0.011917 
3396347613893 -0.001068 0.005432 0.011917 
3396367419801 -0.001068 0.005432 0.011917 
3396387225710 -0.001068 0.005432 0.011917 
3396407062135 -0.001068 0.005432 0.011917 
3396426868043 -0.001068 0.005432 0.011917 
3396446704469 -0.001068 0.005432 0.011917 
3396466510377 -0.001068 0.005432 0.011917 
3396486316286 -0.001068 0.005432 0.011917 
3396506152711 -0.001068 0.005432 0.011917 
3396525958620 -0.001068 0.005432 0.011917 
3396545764528 -0.001068 0.005432 0.011917 
3396565600954 -0.001068 0.005432 0.011917 
3396585406862 -0.001068 0.005432 0.011917 
3396605243288 -0.001068 0.005432 0.011917 
3396625079713 -0.001068 0.005432 0.011917 
3396644885622 -0.001068 0.005432 0.011917 
3396664722047 -0.001068 0.005432 0.011917 
3396684527956 -0.001068 0.005432 0.011917 
3396704333864 -0.001068 0.005432 0.011917 
3396724170290 -0.001068 0.005432 0.011917 
3396743976198 -0.001068 0.005432 0.011917 
3396763812624 -0.001068 0.005432 0.011917 
3396783618532 -0.001068 0.005432 0.011917 
3396803424440 -0.001068 0.005432 0.011917 
3396823260866 -0.001068 0.005432 0.011917 
3396843066774 -0.001068 0.005432 0.011917 
3396862872682 -0.001068 0.005432 0.011917 
3396882709108 -0.001068 0.005432 0.011917 
3396902545534 -0.001068 0.005432 0.011917 
3396922381960 -0.001068 0.005432 0.011917 
3396942187868 -0.001068 0.005432 0.011917 
3396961993776 -0.001068 0.005432 0.011917 
3396981830202 -0.001068 0.005432 0.011917 
3397001636110 -0.001068 0.005432 0.011917 
3397021442018 -0.001068 0.005432 0.011917 
3397041278444 -0.001068 0.005432 0.011917 
3397061084352 -0.001068 0.005432 0.011917 
3397080920778 -0.001068 0.005432 0.011917 
3397100726686 -0.001068 0.005432 0.011917 
3397120532594 -0.001068 0.005432 0.011917 
3397140369020 -0.001068 0.005432 0.011917 
3397160205446 -0.001068 0.005432 0.011917 
3397180011354 -0.001068 0.005432 0.011917 
3397199847780 -0.001068 0.005432 0.011917 
3397219653688 -0.001068 0.005432 0.011917 
3397239459596 -0.001068 0.005432 0.011917 
3397259296022 -0.001068 0.005432 0.011917 
3397279101930 -0.001068 0.005432 0.011917 
3397298938356 -0.001068 0.005432 0.011917 
3397318744264 -0.001068 0.005432 0.011917 
3397338550172 -0.001068 0.005432 0.011917 
3397358386598 -0.001068 0.005432 0.011917 
3397378192506 -0.001068 0.005432 0.011917 
3397397998415 -0.001068 0.005432 0.011917 
3397417834840 -0.001068 0.005432 0.011917 
3397437640749 -0.001068 0.005432 0.011917 
3397457477174 -0.001068 0.005432 0.011917 
3397477313600 -0.001068 0.005432 0.011917 
3397497119508 -0.001068 0.005432 0.011917 
3397516955934 -0.001068 0.005432 0.011917 
3397536761842 -0.001068 0.005432 0.011917 
3397556567751 -0.001068 0.005432 0.011917 
3397576404176 -0.001068 0.005432 0.011917 
3397596210085 -0.001068 0.005432 0.011917 
3397616046510 -0.001068 0.005432 0.011917 
3397635852418 -0.001068 0.005432 0.011917 
3397655658327 -0.001068 0.005432 0.011917 
3397675494752 -0.001068 0.005432 0.011917 
3397695300661 -0.001068 0.005432 0.011917 
3397715106569 -0.001068 0.005432 0.011917 
3397734942995 -0.001068 0.005432 0.011917 
3397754779420 -0.001068 0.005432 0.011917 
3397774615846 -0.001068 0.005432 0.011917 
3397794421754 -0.001068 0.005432 0.011917 
3397814227663 -0.001068 0.005432 0.011917 
3397834064088 -0.001068 0.005432 0.011917 
3397853869997 -0.001068 0.005432 0.011917 
3397873675905 -0.001068 0.005432 0.011917 
3397893512331 -0.001068 0.005432 0.011917 
3397913318239 -0.001068 0.005432 0.011917 
3397933154665 -0.001068 0.005432 0.011917 
3397952960573 -0.001068 0.005432 0.011917 
3397972766481 -0.001068 0.005432 0.011917 
3397992602907 -0.001068 0.005432 0.011917 
3398012408815 -0.001068 0.005432 0.011917 
3398032245241 -0.001068 0.005432 0.011917 
3398052081667 -0.001068 0.005432 0.011917 
3398071887575 -0.001068 0.005432 0.011917 
3398091724001 -0.001068 0.005432 0.011917 
3398111529909 -0.001068 0.005432 0.011917 
3398131335817 -0.001068 0.005432 0.011917 
3398151141725 -0.001068 0.005432 0.011917 
3398170978151 -0.001068 0.005432 0.011917 
3398190784059 -0.001068 0.005432 0.011917 
3398210620485 -0.001068 0.005432 0.011917 
3398230426393 -0.001068 0.005432 0.011917 
3398250232301 -0.001068 0.005432 0.011917 
3398270068727 -0.001068 0.005432 0.011917 
3398289874635 -0.001068 0.005432 0.011917 
3398309711061 -0.001068 0.005432 0.011917 
3398329547487 -0.000809 0.005646 0.012024 
3398349353395 -0.000809 0.005646 0.012024 
3398369189821 -0.000809 0.005646 0.012024 
3398388995729 -0.000809 0.005646 0.012024 
3398408801637 -0.000809 0.005646 0.012024 
3398428638063 -0.000809 0.005646 0.012024 
3398448443971 -0.000809 0.005646 0.012024 
3398468280397 -0.000809 0.005646 0.012024 
3398488086305 -0.000809 0.005646 0.012024 
3398507892213 -0.000809 0.005646 0.012024 
3398527728639 -0.000809 0.005646 0.012024 
3398547534547 -0.000809 0.005646 0.012024 
3398567340456 -0.000809 0.005646 0.012024 
3398587176881 -0.000809 0.005646 0.012024 
3398607013307 -0.000809 0.005646 0.012024 
3398626842174 -0.000809 0.005646 0.012024 
3398646648082 -0.000809 0.005646 0.012024 
3398666453990 -0.000809 0.005646 0.012024 
3398686290416 -0.000809 0.005646 0.012024 
3398706096324 -0.000809 0.005646 0.012024 
3398725902233 -0.000809 0.005646 0.012024 
3398745738658 -0.000809 0.005646 0.012024 
3398765544567 -0.000809 0.005646 0.012024 
3398785350475 -0.000809 0.005646 0.012024 
3398805186901 -0.000809 0.005646 0.012024 
3398824992809 -0.000809 0.005646 0.012024 
3398844829234 -0.000809 0.005646 0.012024 
3398864635143 -0.000809 0.005646 0.012024 
3398884471568 -0.000809 0.005646 0.012024 
3398904307994 -0.000809 0.005646 0.012024 
3398924113902 -0.000809 0.005646 0.012024 
3398943919811 -0.000809 0.005646 0.012024 
3398963756236 -0.000809 0.005646 0.012024 
3398983562145 -0.000809 0.005646 0.012024 
3399003398570 -0.000809 0.005646 0.012024 
3399023204479 -0.000809 0.005646 0.012024 
3399043010387 -0.000809 0.005646 0.012024 
3399062846813 -0.000809 0.005646 0.012024 
3399082652721 -0.000809 0.005646 0.012024 
3399102458629 -0.000809 0.005646 0.012024 
3399122295055 -0.000809 0.005646 0.012024 
3399142100963 -0.000809 0.005646 0.012024 
3399161906871 -0.000809 0.005646 0.012024 
3399181743297 -0.000809 0.005646 0.012024 
3399201579723 -0.000809 0.005646 0.012024 
3399221416149 -0.000809 0.005646 0.012024 
3399241222057 -0.000809 0.005646 0.012024 
3399261027965 -0.000809 0.005646 0.012024 
3399280864391 -0.000809 0.005646 0.012024 
3399300670299 -0.000809 0.005646 0.012024 
3399320506725 -0.000809 0.005646 0.012024 
3399340312633 -0.000809 0.005646 0.012024 
3399360118541 -0.000809 0.005646 0.012024 
3399379954967 -0.000809 0.005646 0.012024 
3399399760875 -0.000809 0.005646 0.012024 
3399419566783 -0.000809 0.005646 0.012024 
3399439403209 -0.000809 0.005646 0.012024 
3399459239635 -0.000809 0.005646 0.012024 
3399479045543 -0.000809 0.005646 0.012024 
3399498881969 -0.000809 0.005646 0.012024 
3399518687877 -0.000809 0.005646 0.012024 
3399538524303 -0.000809 0.005646 0.012024 
3399558330211 -0.000809 0.005646 0.012024 
3399578136119 -0.000809 0.005646 0.012024 
3399597972545 -0.000809 0.005646 0.012024 
3399617778453 -0.000809 0.005646 0.012024 
3399637584361 -0.000809 0.005646 0.012024 
3399657420787 -0.000809 0.005646 0.012024 
3399677226695 -0.000809 0.005646 0.012024 
3399697063121 -0.000809 0.005646 0.012024 
3399716869029 -0.000809 0.005646 0.012024 
3399736705455 -0.000809 0.005646 0.012024 
3399756541881 -0.000809 0.005646 0.012024 
3399776347789 -0.000809 0.005646 0.012024 
3399796153697 -0.000809 0.005646 0.012024 
3399815990123 -0.000809 0.005646 0.012024 
3399835796031 -0.000809 0.005646 0.012024 
3399855632457 -0.000809 0.005646 0.012024 
3399875438365 -0.000809 0.005646 0.012024 
3399895244274 -0.000809 0.005646 0.012024 
3399915080699 -0.000809 0.005646 0.012024 
3399934886608 -0.000809 0.005646 0.012024 
3399954692516 -0.000809 0.005646 0.012024 
3399974528942 -0.000809 0.005646 0.012024 
3399994334850 -0.000809 0.005646 0.012024 
3400014171276 -0.000809 0.005646 0.012024 
3400034007701 -0.000809 0.005646 0.012024 
3400053813609 -0.000809 0.005646 0.012024 
3400073650035 -0.000809 0.005646 0.012024 
3400093455943 -0.000809 0.005646 0.012024 
3400113261852 -0.000809 0.005646 0.012024 
3400133098277 -0.000809 0.005646 0.012024 
3400152904186 -0.000809 0.005646 0.012024 
3400172710094 -0.000809 0.005646 0.012024 
3400192546520 -0.000809 0.005646 0.012024 
3400212352428 -0.000809 0.005646 0.012024 
