# Created at Tue Jun 01 15:56:31 GMT+02:00 2021 in Burnaby Canada 
1993363774535 -0.000839 0.004745 0.011887 
1993383580443 -0.000839 0.004745 0.011887 
1993403416869 -0.000839 0.004745 0.011887 
1993423253295 -0.000839 0.004745 0.011887 
1993443059203 -0.000839 0.004745 0.011887 
1993462865111 -0.000839 0.004745 0.011887 
1993482701537 -0.000839 0.004745 0.011887 
1993502507445 -0.000839 0.004745 0.011887 
1993522313353 -0.000839 0.004745 0.011887 
1993542149779 -0.000839 0.004745 0.011887 
1993561955687 -0.000839 0.004745 0.011887 
1993581761595 -0.000839 0.004745 0.011887 
1993601598021 -0.000839 0.004745 0.011887 
1993621403929 -0.000839 0.004745 0.011887 
1993641209838 -0.000839 0.004745 0.011887 
1993661046263 -0.000839 0.004745 0.011887 
1993680882689 -0.000839 0.004745 0.011887 
1993700688597 -0.000839 0.004745 0.011887 
1993720525023 -0.000839 0.004745 0.011887 
1993740330931 -0.000839 0.004745 0.011887 
1993760167357 -0.000839 0.004745 0.011887 
1993779973265 -0.000839 0.004745 0.011887 
1993799779174 -0.000839 0.004745 0.011887 
1993819615599 -0.000839 0.004745 0.011887 
1993839421508 -0.000839 0.004745 0.011887 
1993859227416 -0.000839 0.004745 0.011887 
1993879063842 -0.000839 0.004745 0.011887 
1993898869750 -0.000839 0.004745 0.011887 
1993918675658 -0.000839 0.004745 0.011887 
1993938512084 -0.000839 0.004745 0.011887 
1993958317992 -0.000839 0.004745 0.011887 
1993978154418 -0.000839 0.004745 0.011887 
1993997990844 -0.000839 0.004745 0.011887 
1994017796752 -0.000839 0.004745 0.011887 
1994037602660 -0.000839 0.004745 0.011887 
1994057439086 -0.000839 0.004745 0.011887 
1994077244994 -0.000839 0.004745 0.011887 
1994097050902 -0.000839 0.004745 0.011887 
1994116887328 -0.000839 0.004745 0.011887 
1994136693236 -0.000839 0.004745 0.011887 
1994156499144 -0.000839 0.004745 0.011887 
1994176335570 -0.000839 0.004745 0.011887 
1994196141478 -0.000839 0.004745 0.011887 
1994215977904 -0.000839 0.004745 0.011887 
1994235783812 -0.000839 0.004745 0.011887 
1994255620238 -0.000839 0.004745 0.011887 
1994275456664 -0.000839 0.004745 0.011887 
1994295262572 -0.000839 0.004745 0.011887 
1994315068480 -0.000839 0.004745 0.011887 
1994334904906 -0.000839 0.004745 0.011887 
1994354710814 -0.000839 0.004745 0.011887 
1994374516722 -0.000839 0.004745 0.011887 
1994394353148 -0.000839 0.004745 0.011887 
1994414159056 -0.000839 0.004745 0.011887 
1994433964965 -0.000839 0.004745 0.011887 
1994453801390 -0.000839 0.004745 0.011887 
1994473607299 -0.000839 0.004745 0.011887 
1994493413207 -0.000839 0.004745 0.011887 
1994513249633 -0.000839 0.004745 0.011887 
1994533055541 -0.000839 0.004745 0.011887 
1994552891967 -0.000839 0.004745 0.011887 
1994572728392 -0.000839 0.004745 0.011887 
1994592534301 -0.000839 0.004745 0.011887 
1994612340209 -0.000839 0.004745 0.011887 
1994632176635 -0.000839 0.004745 0.011887 
1994651982543 -0.000839 0.004745 0.011887 
1994671788451 -0.000839 0.004745 0.011887 
1994691624877 -0.000839 0.004745 0.011887 
1994711430785 -0.000839 0.004745 0.011887 
1994731236693 -0.000839 0.004745 0.011887 
1994751073119 -0.000839 0.004745 0.011887 
1994770879027 -0.000839 0.004745 0.011887 
1994790715453 -0.000839 0.004745 0.011887 
1994810521361 -0.000839 0.004745 0.011887 
1994830357787 -0.000839 0.004745 0.011887 
1994850194213 -0.000839 0.004745 0.011887 
1994870000121 -0.000839 0.004745 0.011887 
1994889806029 -0.000839 0.004745 0.011887 
1994909642455 -0.000839 0.004745 0.011887 
1994929448363 -0.000839 0.004745 0.011887 
1994949254271 -0.000839 0.004745 0.011887 
1994969090697 -0.000839 0.004745 0.011887 
1994988896605 -0.000839 0.004745 0.011887 
1995008702513 -0.000839 0.004745 0.011887 
1995028538939 -0.000839 0.004745 0.011887 
1995048344847 -0.000839 0.004745 0.011887 
1995068150756 -0.000839 0.004745 0.011887 
1995087987181 -0.000839 0.004745 0.011887 
1995107793090 -0.000839 0.004745 0.011887 
1995127629515 -0.000839 0.004745 0.011887 
1995147465941 -0.000839 0.004745 0.011887 
1995167271849 -0.000839 0.004745 0.011887 
1995187077758 -0.000839 0.004745 0.011887 
1995206914183 -0.000839 0.004745 0.011887 
1995226720092 -0.000839 0.004745 0.011887 
1995246556517 -0.000839 0.004745 0.011887 
1995266362426 -0.000839 0.004745 0.011887 
1995286168334 -0.000839 0.004745 0.011887 
1995306004760 -0.000839 0.004745 0.011887 
1995325810668 -0.000839 0.004745 0.011887 
1995345616576 -0.000839 0.004745 0.011887 
1995365453002 -0.000839 0.004745 0.011887 
1995385258910 -0.000839 0.004745 0.011887 
1995405095336 -0.000839 0.004745 0.011887 
1995424931761 -0.000839 0.004745 0.011887 
1995444737670 -0.000839 0.004745 0.011887 
1995464543578 -0.000839 0.004745 0.011887 
1995484380004 -0.000839 0.004745 0.011887 
1995504185912 -0.000839 0.004745 0.011887 
1995523991820 -0.000839 0.004745 0.011887 
1995543828246 -0.000839 0.004745 0.011887 
1995563634154 -0.000839 0.004745 0.011887 
1995583440062 -0.000839 0.004745 0.011887 
1995603276488 -0.000839 0.004745 0.011887 
1995623082396 -0.000839 0.004745 0.011887 
1995642888304 -0.000839 0.004745 0.011887 
1995662724730 -0.000839 0.004745 0.011887 
1995682561156 -0.000839 0.004745 0.011887 
1995702367064 -0.000839 0.004745 0.011887 
1995722203490 -0.000839 0.004745 0.011887 
1995742009398 -0.000839 0.004745 0.011887 
1995761845824 -0.000839 0.004745 0.011887 
1995781651732 -0.000839 0.004745 0.011887 
1995801457640 -0.000839 0.004745 0.011887 
1995821294066 -0.000839 0.004745 0.011887 
1995841099974 -0.000839 0.004745 0.011887 
1995860905883 -0.000839 0.004745 0.011887 
1995880742308 -0.000839 0.004745 0.011887 
1995900548217 -0.000839 0.004745 0.011887 
1995920354125 -0.000839 0.004745 0.011887 
1995940190551 -0.000839 0.004745 0.011887 
1995959996459 -0.000839 0.004745 0.011887 
1995979832885 -0.000839 0.004745 0.011887 
1995999669310 -0.000839 0.004745 0.011887 
1996019475219 -0.000839 0.004745 0.011887 
1996039281127 -0.000839 0.004745 0.011887 
1996059117553 -0.000839 0.004745 0.011887 
1996078923461 -0.000839 0.004745 0.011887 
1996098729369 -0.000839 0.004745 0.011887 
1996118565795 -0.000839 0.004745 0.011887 
1996138371703 -0.000839 0.004745 0.011887 
1996158177611 -0.000839 0.004745 0.011887 
1996178014037 -0.000839 0.004745 0.011887 
1996197819945 -0.000839 0.004745 0.011887 
1996217656371 -0.000839 0.004745 0.011887 
1996237462279 -0.000839 0.004745 0.011887 
1996257298705 -0.000839 0.004745 0.011887 
1996277135131 -0.000839 0.004745 0.011887 
1996296941039 -0.000839 0.004745 0.011887 
1996316746947 -0.000839 0.004745 0.011887 
1996336583373 -0.000748 0.004822 0.011795 
1996356389281 -0.000748 0.004822 0.011795 
1996376195189 -0.000748 0.004822 0.011795 
1996396031615 -0.000748 0.004822 0.011795 
1996415837523 -0.000748 0.004822 0.011795 
1996435643431 -0.000748 0.004822 0.011795 
1996455479857 -0.000748 0.004822 0.011795 
1996475285765 -0.000748 0.004822 0.011795 
1996495091674 -0.000748 0.004822 0.011795 
1996514928099 -0.000748 0.004822 0.011795 
1996534734008 -0.000748 0.004822 0.011795 
1996554570433 -0.000748 0.004822 0.011795 
1996574406859 -0.000748 0.004822 0.011795 
1996594212767 -0.000748 0.004822 0.011795 
1996614018676 -0.000748 0.004822 0.011795 
1996633855101 -0.000748 0.004822 0.011795 
1996653661010 -0.000748 0.004822 0.011795 
1996673466918 -0.000748 0.004822 0.011795 
1996693303344 -0.000748 0.004822 0.011795 
1996713109252 -0.000748 0.004822 0.011795 
1996732945678 -0.000748 0.004822 0.011795 
1996752751586 -0.000748 0.004822 0.011795 
1996772557494 -0.000748 0.004822 0.011795 
1996792393920 -0.000748 0.004822 0.011795 
1996812199828 -0.000748 0.004822 0.011795 
1996832036254 -0.000748 0.004822 0.011795 
1996851872679 -0.000748 0.004822 0.011795 
1996871678588 -0.000748 0.004822 0.011795 
1996891484496 -0.000748 0.004822 0.011795 
1996911320922 -0.000748 0.004822 0.011795 
1996931126830 -0.000748 0.004822 0.011795 
1996950932738 -0.000748 0.004822 0.011795 
1996970769164 -0.000748 0.004822 0.011795 
1996990575072 -0.000748 0.004822 0.011795 
1997010380980 -0.000748 0.004822 0.011795 
1997030217406 -0.000748 0.004822 0.011795 
1997050023314 -0.000748 0.004822 0.011795 
1997069829222 -0.000748 0.004822 0.011795 
1997089665648 -0.000748 0.004822 0.011795 
1997109471556 -0.000748 0.004822 0.011795 
1997129307982 -0.000748 0.004822 0.011795 
1997149144408 -0.000748 0.004822 0.011795 
1997168950316 -0.000748 0.004822 0.011795 
1997188786742 -0.000748 0.004822 0.011795 
1997208592650 -0.000748 0.004822 0.011795 
1997228398558 -0.000748 0.004822 0.011795 
1997248234984 -0.000748 0.004822 0.011795 
1997268040892 -0.000748 0.004822 0.011795 
1997287846801 -0.000748 0.004822 0.011795 
1997307683226 -0.000748 0.004822 0.011795 
1997327489135 -0.000748 0.004822 0.011795 
1997347295043 -0.000748 0.004822 0.011795 
1997367131469 -0.000748 0.004822 0.011795 
1997386937377 -0.000748 0.004822 0.011795 
1997406773803 -0.000748 0.004822 0.011795 
1997426610228 -0.000748 0.004822 0.011795 
1997446416136 -0.000748 0.004822 0.011795 
1997466222045 -0.000748 0.004822 0.011795 
1997486058470 -0.000748 0.004822 0.011795 
1997505864379 -0.000748 0.004822 0.011795 
1997525670287 -0.000748 0.004822 0.011795 
1997545506713 -0.000748 0.004822 0.011795 
1997565312621 -0.000748 0.004822 0.011795 
1997585118529 -0.000748 0.004822 0.011795 
1997604954955 -0.000748 0.004822 0.011795 
1997624760863 -0.000748 0.004822 0.011795 
1997644566771 -0.000748 0.004822 0.011795 
1997664403197 -0.000748 0.004822 0.011795 
1997684239623 -0.000748 0.004822 0.011795 
1997704076049 -0.000748 0.004822 0.011795 
1997723881957 -0.000748 0.004822 0.011795 
1997743687865 -0.000748 0.004822 0.011795 
1997763524291 -0.000748 0.004822 0.011795 
1997783330199 -0.000748 0.004822 0.011795 
1997803136107 -0.000748 0.004822 0.011795 
1997822972533 -0.000748 0.004822 0.011795 
1997842778441 -0.000748 0.004822 0.011795 
1997862584349 -0.000748 0.004822 0.011795 
1997882420775 -0.000748 0.004822 0.011795 
1997902226683 -0.000748 0.004822 0.011795 
1997922032592 -0.000748 0.004822 0.011795 
1997941869017 -0.000748 0.004822 0.011795 
1997961674926 -0.000748 0.004822 0.011795 
1997981511351 -0.000748 0.004822 0.011795 
1998001347777 -0.000748 0.004822 0.011795 
1998021153685 -0.000748 0.004822 0.011795 
1998040959594 -0.000748 0.004822 0.011795 
1998060796019 -0.000748 0.004822 0.011795 
1998080601928 -0.000748 0.004822 0.011795 
1998100438353 -0.000748 0.004822 0.011795 
1998120244261 -0.000748 0.004822 0.011795 
1998140050170 -0.000748 0.004822 0.011795 
1998159856078 -0.000748 0.004822 0.011795 
1998179692504 -0.000748 0.004822 0.011795 
1998199498412 -0.000748 0.004822 0.011795 
1998219304320 -0.000748 0.004822 0.011795 
1998239140746 -0.000748 0.004822 0.011795 
1998258977172 -0.000748 0.004822 0.011795 
1998278783080 -0.000748 0.004822 0.011795 
1998298619506 -0.000748 0.004822 0.011795 
1998318425414 -0.000748 0.004822 0.011795 
1998338261840 -0.000748 0.004822 0.011795 
1998358067748 -0.000748 0.004822 0.011795 
1998377873656 -0.000748 0.004822 0.011795 
1998397710082 -0.000748 0.004822 0.011795 
1998417515990 -0.000748 0.004822 0.011795 
1998437321898 -0.000748 0.004822 0.011795 
1998457158324 -0.000748 0.004822 0.011795 
1998476964232 -0.000748 0.004822 0.011795 
1998496770140 -0.000748 0.004822 0.011795 
1998516606566 -0.000748 0.004822 0.011795 
1998536422236 -0.000748 0.004822 0.011795 
1998556258662 -0.000748 0.004822 0.011795 
1998576095088 -0.000748 0.004822 0.011795 
1998595900996 -0.000748 0.004822 0.011795 
1998615706904 -0.000748 0.004822 0.011795 
1998635543330 -0.000748 0.004822 0.011795 
1998655349238 -0.000748 0.004822 0.011795 
1998675155147 -0.000748 0.004822 0.011795 
1998694991572 -0.000748 0.004822 0.011795 
1998714797481 -0.000748 0.004822 0.011795 
1998734633906 -0.000748 0.004822 0.011795 
1998754439815 -0.000748 0.004822 0.011795 
1998774245723 -0.000748 0.004822 0.011795 
1998794082148 -0.000748 0.004822 0.011795 
1998813888057 -0.000748 0.004822 0.011795 
1998833724482 -0.000748 0.004822 0.011795 
1998853560908 -0.000748 0.004822 0.011795 
1998873366816 -0.000748 0.004822 0.011795 
1998893172725 -0.000748 0.004822 0.011795 
1998913009150 -0.000748 0.004822 0.011795 
1998932815059 -0.000748 0.004822 0.011795 
1998952620967 -0.000748 0.004822 0.011795 
1998972457393 -0.000748 0.004822 0.011795 
1998992263301 -0.000748 0.004822 0.011795 
1999012069209 -0.000748 0.004822 0.011795 
1999031905635 -0.000748 0.004822 0.011795 
1999051711543 -0.000748 0.004822 0.011795 
1999071517451 -0.000748 0.004822 0.011795 
1999091353877 -0.000748 0.004822 0.011795 
1999111159785 -0.000748 0.004822 0.011795 
1999130996211 -0.000748 0.004822 0.011795 
1999150832637 -0.000748 0.004822 0.011795 
1999170638545 -0.000748 0.004822 0.011795 
1999190474971 -0.000748 0.004822 0.011795 
1999210280879 -0.000748 0.004822 0.011795 
1999230086787 -0.000748 0.004822 0.011795 
1999249923213 -0.000748 0.004822 0.011795 
1999269729121 -0.000748 0.004822 0.011795 
1999289535029 -0.000748 0.004822 0.011795 
1999309371455 -0.000748 0.004822 0.011795 
1999329177363 -0.000748 0.004822 0.011795 
1999348983272 -0.000748 0.004822 0.011795 
