# Created at Tue Jun 01 15:51:31 GMT+02:00 2021 in Burnaby Canada 
1693514578969 -0.000809 0.004623 0.011810 
1693534415395 -0.000809 0.004623 0.011810 
1693554251821 -0.000809 0.004623 0.011810 
1693574057729 -0.000809 0.004623 0.011810 
1693593863637 -0.000809 0.004623 0.011810 
1693613700063 -0.000809 0.004623 0.011810 
1693633505971 -0.000809 0.004623 0.011810 
1693653311879 -0.000809 0.004623 0.011810 
1693673148305 -0.000687 0.004684 0.011856 
1693692954213 -0.000687 0.004684 0.011856 
1693712760121 -0.000687 0.004684 0.011856 
1693732596547 -0.000687 0.004684 0.011856 
1693752402455 -0.000687 0.004684 0.011856 
1693772208364 -0.000687 0.004684 0.011856 
1693792044789 -0.000687 0.004684 0.011856 
1693811881215 -0.000687 0.004684 0.011856 
1693831687123 -0.000687 0.004684 0.011856 
1693851523549 -0.000687 0.004684 0.011856 
1693871329457 -0.000687 0.004684 0.011856 
1693891135366 -0.000687 0.004684 0.011856 
1693910971791 -0.000687 0.004684 0.011856 
1693930777699 -0.000687 0.004684 0.011856 
1693950583608 -0.000687 0.004684 0.011856 
1693970420033 -0.000687 0.004684 0.011856 
1693990225942 -0.000687 0.004684 0.011856 
1694010062367 -0.000687 0.004684 0.011856 
1694029868276 -0.000687 0.004684 0.011856 
1694049674184 -0.000687 0.004684 0.011856 
1694069510610 -0.000687 0.004684 0.011856 
1694089316518 -0.000687 0.004684 0.011856 
1694109152944 -0.000687 0.004684 0.011856 
1694128958852 -0.000687 0.004684 0.011856 
1694148795278 -0.000687 0.004684 0.011856 
1694168601186 -0.000687 0.004684 0.011856 
1694188407094 -0.000687 0.004684 0.011856 
1694208243520 -0.000687 0.004684 0.011856 
1694228049428 -0.000687 0.004684 0.011856 
1694247885854 -0.000687 0.004684 0.011856 
1694267691762 -0.000687 0.004684 0.011856 
1694287497670 -0.000687 0.004684 0.011856 
1694307334096 -0.000687 0.004684 0.011856 
1694327140004 -0.000687 0.004684 0.011856 
1694346945912 -0.000687 0.004684 0.011856 
1694366782338 -0.000687 0.004684 0.011856 
1694386618764 -0.000687 0.004684 0.011856 
1694406424672 -0.000687 0.004684 0.011856 
1694426261098 -0.000687 0.004684 0.011856 
1694446067006 -0.000687 0.004684 0.011856 
1694465872914 -0.000687 0.004684 0.011856 
1694485709340 -0.000687 0.004684 0.011856 
1694505515248 -0.000687 0.004684 0.011856 
1694525321157 -0.000687 0.004684 0.011856 
1694545157582 -0.000687 0.004684 0.011856 
1694564963491 -0.000687 0.004684 0.011856 
1694584769399 -0.000687 0.004684 0.011856 
1694604605824 -0.000687 0.004684 0.011856 
1694624411733 -0.000687 0.004684 0.011856 
1694644217641 -0.000687 0.004684 0.011856 
1694664054067 -0.000687 0.004684 0.011856 
1694683890492 -0.000687 0.004684 0.011856 
1694703696401 -0.000687 0.004684 0.011856 
1694723532826 -0.000687 0.004684 0.011856 
1694743338735 -0.000687 0.004684 0.011856 
1694763144643 -0.000687 0.004684 0.011856 
1694782981069 -0.000687 0.004684 0.011856 
1694802786977 -0.000687 0.004684 0.011856 
1694822592885 -0.000687 0.004684 0.011856 
1694842429311 -0.000687 0.004684 0.011856 
1694862235219 -0.000687 0.004684 0.011856 
1694882041127 -0.000687 0.004684 0.011856 
1694901877553 -0.000687 0.004684 0.011856 
1694921683461 -0.000687 0.004684 0.011856 
1694941489369 -0.000687 0.004684 0.011856 
1694961325795 -0.000687 0.004684 0.011856 
1694981162221 -0.000687 0.004684 0.011856 
1695000998647 -0.000687 0.004684 0.011856 
1695020804555 -0.000687 0.004684 0.011856 
1695040610463 -0.000687 0.004684 0.011856 
1695060446889 -0.000687 0.004684 0.011856 
1695080252797 -0.000687 0.004684 0.011856 
1695100058705 -0.000687 0.004684 0.011856 
1695119895131 -0.000687 0.004684 0.011856 
1695139701039 -0.000687 0.004684 0.011856 
1695159506948 -0.000687 0.004684 0.011856 
1695179343373 -0.000687 0.004684 0.011856 
1695199149282 -0.000687 0.004684 0.011856 
1695218955190 -0.000687 0.004684 0.011856 
1695238791616 -0.000687 0.004684 0.011856 
1695258628041 -0.000687 0.004684 0.011856 
1695278433949 -0.000687 0.004684 0.011856 
1695298270375 -0.000687 0.004684 0.011856 
1695318076283 -0.000687 0.004684 0.011856 
1695337882192 -0.000687 0.004684 0.011856 
1695357718617 -0.000687 0.004684 0.011856 
1695377524526 -0.000687 0.004684 0.011856 
1695397330434 -0.000687 0.004684 0.011856 
1695417166860 -0.000687 0.004684 0.011856 
1695436972768 -0.000687 0.004684 0.011856 
1695456778676 -0.000687 0.004684 0.011856 
1695476615102 -0.000687 0.004684 0.011856 
1695496421010 -0.000687 0.004684 0.011856 
1695516226918 -0.000687 0.004684 0.011856 
1695536063344 -0.000687 0.004684 0.011856 
1695555899770 -0.000687 0.004684 0.011856 
1695575736196 -0.000687 0.004684 0.011856 
1695595542104 -0.000687 0.004684 0.011856 
1695615348012 -0.000687 0.004684 0.011856 
1695635184438 -0.000687 0.004684 0.011856 
1695654990346 -0.000687 0.004684 0.011856 
1695674796254 -0.000687 0.004684 0.011856 
1695694632680 -0.000687 0.004684 0.011856 
1695714438588 -0.000687 0.004684 0.011856 
1695734244496 -0.000687 0.004684 0.011856 
1695754080922 -0.000687 0.004684 0.011856 
1695773886830 -0.000687 0.004684 0.011856 
1695793692739 -0.000687 0.004684 0.011856 
1695813529164 -0.000687 0.004684 0.011856 
1695833365590 -0.000687 0.004684 0.011856 
1695853171498 -0.000687 0.004684 0.011856 
1695873007924 -0.000687 0.004684 0.011856 
1695892813832 -0.000687 0.004684 0.011856 
1695912619741 -0.000687 0.004684 0.011856 
1695932456166 -0.000687 0.004684 0.011856 
1695952262074 -0.000687 0.004684 0.011856 
1695972067983 -0.000687 0.004684 0.011856 
1695991904408 -0.000687 0.004684 0.011856 
1696011710317 -0.000687 0.004684 0.011856 
1696031516225 -0.000687 0.004684 0.011856 
1696051352651 -0.000687 0.004684 0.011856 
1696071158559 -0.000687 0.004684 0.011856 
1696090964467 -0.000687 0.004684 0.011856 
1696110800893 -0.000687 0.004684 0.011856 
1696130637319 -0.000687 0.004684 0.011856 
1696150443227 -0.000687 0.004684 0.011856 
1696170279653 -0.000687 0.004684 0.011856 
1696190085561 -0.000687 0.004684 0.011856 
1696209891469 -0.000687 0.004684 0.011856 
1696229727895 -0.000687 0.004684 0.011856 
1696249533803 -0.000687 0.004684 0.011856 
1696269339711 -0.000687 0.004684 0.011856 
1696289176137 -0.000687 0.004684 0.011856 
1696308982045 -0.000687 0.004684 0.011856 
1696328787953 -0.000687 0.004684 0.011856 
1696348624379 -0.000687 0.004684 0.011856 
1696368430287 -0.000687 0.004684 0.011856 
1696388266713 -0.000687 0.004684 0.011856 
1696408103139 -0.000687 0.004684 0.011856 
1696427909047 -0.000687 0.004684 0.011856 
1696447745473 -0.000687 0.004684 0.011856 
1696467551381 -0.000687 0.004684 0.011856 
1696487357289 -0.000687 0.004684 0.011856 
1696507193715 -0.000687 0.004684 0.011856 
1696526999623 -0.000687 0.004684 0.011856 
1696546805532 -0.000687 0.004684 0.011856 
1696566641957 -0.000687 0.004684 0.011856 
1696586447866 -0.000687 0.004684 0.011856 
1696606253774 -0.000687 0.004684 0.011856 
1696626090199 -0.000687 0.004684 0.011856 
1696645896108 -0.000687 0.004684 0.011856 
1696665702016 -0.000687 0.004684 0.011856 
1696685538442 -0.000687 0.004684 0.011856 
1696705374867 -0.000687 0.004684 0.011856 
1696725180776 -0.000687 0.004684 0.011856 
1696745017201 -0.000687 0.004684 0.011856 
1696764823110 -0.000687 0.004684 0.011856 
1696784629018 -0.000687 0.004684 0.011856 
1696804465444 -0.000687 0.004684 0.011856 
1696824271352 -0.000687 0.004684 0.011856 
1696844077260 -0.000687 0.004684 0.011856 
1696863913686 -0.000687 0.004684 0.011856 
1696883719594 -0.000687 0.004684 0.011856 
1696903525502 -0.000687 0.004684 0.011856 
1696923361928 -0.000687 0.004684 0.011856 
1696943167836 -0.000687 0.004684 0.011856 
1696963004262 -0.000687 0.004684 0.011856 
1696982840688 -0.000687 0.004684 0.011856 
1697002646596 -0.000687 0.004684 0.011856 
1697022452504 -0.000687 0.004684 0.011856 
1697042288930 -0.000687 0.004684 0.011856 
1697062094838 -0.000687 0.004684 0.011856 
1697081900746 -0.000687 0.004684 0.011856 
1697101737172 -0.000687 0.004684 0.011856 
1697121543080 -0.000687 0.004684 0.011856 
1697141348989 -0.000687 0.004684 0.011856 
1697161185414 -0.000687 0.004684 0.011856 
1697180991323 -0.000687 0.004684 0.011856 
1697200797231 -0.000687 0.004684 0.011856 
1697220633657 -0.000687 0.004684 0.011856 
1697240439565 -0.000687 0.004684 0.011856 
1697260275991 -0.000687 0.004684 0.011856 
1697280112416 -0.000687 0.004684 0.011856 
1697299918324 -0.000687 0.004684 0.011856 
1697319754750 -0.000687 0.004684 0.011856 
1697339560658 -0.000687 0.004684 0.011856 
1697359366567 -0.000687 0.004684 0.011856 
1697379202992 -0.000687 0.004684 0.011856 
1697399008901 -0.000687 0.004684 0.011856 
1697418814809 -0.000687 0.004684 0.011856 
1697438651235 -0.000687 0.004684 0.011856 
1697458457143 -0.000687 0.004684 0.011856 
1697478263051 -0.000687 0.004684 0.011856 
1697498099477 -0.000687 0.004684 0.011856 
1697517905385 -0.000687 0.004684 0.011856 
1697537741811 -0.000687 0.004684 0.011856 
1697557578237 -0.000687 0.004684 0.011856 
1697577384145 -0.000687 0.004684 0.011856 
1697597190053 -0.000687 0.004684 0.011856 
1697617026479 -0.000687 0.004684 0.011856 
1697636832387 -0.000687 0.004684 0.011856 
1697656638295 -0.000687 0.004684 0.011856 
1697676474721 -0.000687 0.004684 0.011856 
1697696280629 -0.000687 0.004684 0.011856 
1697716086537 -0.000687 0.004684 0.011856 
1697735922963 -0.000687 0.004684 0.011856 
1697755728871 -0.000687 0.004684 0.011856 
1697775534780 -0.000687 0.004684 0.011856 
1697795371205 -0.000687 0.004684 0.011856 
1697815177114 -0.000687 0.004684 0.011856 
1697835013539 -0.000687 0.004684 0.011856 
1697854849965 -0.000687 0.004684 0.011856 
1697874655873 -0.000687 0.004684 0.011856 
1697894461782 -0.000687 0.004684 0.011856 
1697914298207 -0.000687 0.004684 0.011856 
1697934104116 -0.000687 0.004684 0.011856 
1697953910024 -0.000687 0.004684 0.011856 
1697973746449 -0.000687 0.004684 0.011856 
1697993552358 -0.000687 0.004684 0.011856 
1698013358266 -0.000687 0.004684 0.011856 
1698033194692 -0.000687 0.004684 0.011856 
1698053000600 -0.000687 0.004684 0.011856 
1698072806508 -0.000687 0.004684 0.011856 
1698092642934 -0.000687 0.004684 0.011856 
1698112479360 -0.000687 0.004684 0.011856 
1698132285268 -0.000687 0.004684 0.011856 
1698152121694 -0.000687 0.004684 0.011856 
1698171927602 -0.000687 0.004684 0.011856 
1698191764028 -0.000687 0.004684 0.011856 
1698211569936 -0.000687 0.004684 0.011856 
1698231375844 -0.000687 0.004684 0.011856 
1698251212270 -0.000687 0.004684 0.011856 
1698271018178 -0.000687 0.004684 0.011856 
1698290824086 -0.000687 0.004684 0.011856 
1698310660512 -0.000687 0.004684 0.011856 
1698330466420 -0.000687 0.004684 0.011856 
1698350272328 -0.000687 0.004684 0.011856 
1698370108754 -0.000687 0.004684 0.011856 
1698389945180 -0.000687 0.004684 0.011856 
1698409751088 -0.000687 0.004684 0.011856 
1698429587514 -0.000687 0.004684 0.011856 
1698449393422 -0.000687 0.004684 0.011856 
1698469199330 -0.000687 0.004684 0.011856 
1698489035756 -0.000687 0.004684 0.011856 
1698508843587 -0.000687 0.004684 0.011856 
1698528649496 -0.000687 0.004684 0.011856 
1698548485921 -0.000687 0.004684 0.011856 
1698568291830 -0.000687 0.004684 0.011856 
1698588097738 -0.000687 0.004684 0.011856 
1698607934164 -0.000687 0.004684 0.011856 
1698627740072 -0.000687 0.004684 0.011856 
1698647545980 -0.000687 0.004684 0.011856 
1698667382406 -0.000687 0.004684 0.011856 
1698687218831 -0.000687 0.004684 0.011856 
1698707024740 -0.000687 0.004684 0.011856 
1698726861165 -0.000687 0.004684 0.011856 
1698746667074 -0.000687 0.004684 0.011856 
1698766472982 -0.000687 0.004684 0.011856 
1698786309408 -0.000687 0.004684 0.011856 
1698806115316 -0.000687 0.004684 0.011856 
1698825921224 -0.000687 0.004684 0.011856 
1698845757650 -0.000687 0.004684 0.011856 
1698865563558 -0.000687 0.004684 0.011856 
1698885369466 -0.000687 0.004684 0.011856 
1698905205892 -0.000687 0.004684 0.011856 
1698925011800 -0.000687 0.004684 0.011856 
1698944817708 -0.000687 0.004684 0.011856 
1698964654134 -0.000687 0.004684 0.011856 
1698984490560 -0.000687 0.004684 0.011856 
1699004326986 -0.000687 0.004684 0.011856 
1699024132894 -0.000687 0.004684 0.011856 
1699043938802 -0.000687 0.004684 0.011856 
1699063744710 -0.000687 0.004684 0.011856 
1699083581136 -0.000687 0.004684 0.011856 
1699103387044 -0.000687 0.004684 0.011856 
1699123192953 -0.000687 0.004684 0.011856 
1699143029378 -0.000687 0.004684 0.011856 
1699162835287 -0.000687 0.004684 0.011856 
1699182671712 -0.000687 0.004684 0.011856 
1699202477621 -0.000687 0.004684 0.011856 
1699222283529 -0.000687 0.004684 0.011856 
1699242119955 -0.000687 0.004684 0.011856 
1699261956380 -0.000687 0.004684 0.011856 
1699281762289 -0.000687 0.004684 0.011856 
1699301598714 -0.000687 0.004684 0.011856 
1699321404622 -0.000687 0.004684 0.011856 
1699341210531 -0.000687 0.004684 0.011856 
1699361046956 -0.000687 0.004684 0.011856 
1699380852865 -0.000687 0.004684 0.011856 
1699400658773 -0.000687 0.004684 0.011856 
1699420495199 -0.000687 0.004684 0.011856 
1699440301107 -0.000687 0.004684 0.011856 
1699460107015 -0.000687 0.004684 0.011856 
1699479943441 -0.000687 0.004684 0.011856 
1699499749349 -0.000687 0.004684 0.011856 
1699519555257 -0.000687 0.004684 0.011856 
1699539391683 -0.000687 0.004684 0.011856 
1699559228109 -0.000687 0.004684 0.011856 
1699579034017 -0.000687 0.004684 0.011856 
1699598870443 -0.000687 0.004684 0.011856 
1699618676351 -0.000687 0.004684 0.011856 
