# Created at Tue Jun 01 15:55:24 GMT+02:00 2021 in Burnaby Canada 
1926409406327 -0.000870 0.004791 0.011871 
1926429212235 -0.000870 0.004791 0.011871 
1926449048661 -0.000870 0.004791 0.011871 
1926468885087 -0.000870 0.004791 0.011871 
1926488690995 -0.000870 0.004791 0.011871 
1926508527421 -0.000870 0.004791 0.011871 
1926528333329 -0.000870 0.004791 0.011871 
1926548139237 -0.000870 0.004791 0.011871 
1926567975663 -0.000870 0.004791 0.011871 
1926587781571 -0.000870 0.004791 0.011871 
1926607587480 -0.000870 0.004791 0.011871 
1926627423905 -0.000870 0.004791 0.011871 
1926647229814 -0.000870 0.004791 0.011871 
1926667066239 -0.000870 0.004791 0.011871 
1926686872148 -0.000870 0.004791 0.011871 
1926706678056 -0.000870 0.004791 0.011871 
1926726514482 -0.000870 0.004791 0.011871 
1926746350907 -0.000870 0.004791 0.011871 
1926766156816 -0.000870 0.004791 0.011871 
1926785962724 -0.000870 0.004791 0.011871 
1926805799149 -0.000870 0.004791 0.011871 
1926825605058 -0.000870 0.004791 0.011871 
1926845410966 -0.000870 0.004791 0.011871 
1926865247392 -0.000870 0.004791 0.011871 
1926885053300 -0.000870 0.004791 0.011871 
1926904889726 -0.000870 0.004791 0.011871 
1926924695634 -0.000870 0.004791 0.011871 
1926944501542 -0.000870 0.004791 0.011871 
1926964337968 -0.000870 0.004791 0.011871 
1926984143876 -0.000870 0.004791 0.011871 
1927003949784 -0.000870 0.004791 0.011871 
1927023786210 -0.000870 0.004791 0.011871 
1927043622636 -0.000870 0.004791 0.011871 
1927063428544 -0.000870 0.004791 0.011871 
1927083264970 -0.000870 0.004791 0.011871 
1927103070878 -0.000870 0.004791 0.011871 
1927122876786 -0.000870 0.004791 0.011871 
1927142713212 -0.000870 0.004791 0.011871 
1927162519120 -0.000870 0.004791 0.011871 
1927182325028 -0.000870 0.004791 0.011871 
1927202161454 -0.000870 0.004791 0.011871 
1927221967362 -0.000870 0.004791 0.011871 
1927241773271 -0.000870 0.004791 0.011871 
1927261609696 -0.000870 0.004791 0.011871 
1927281415605 -0.000870 0.004791 0.011871 
1927301252030 -0.000870 0.004791 0.011871 
1927321088456 -0.000870 0.004791 0.011871 
1927340894364 -0.000870 0.004791 0.011871 
1927360700273 -0.000870 0.004791 0.011871 
1927380536698 -0.000870 0.004791 0.011871 
1927400342607 -0.000870 0.004791 0.011871 
1927420148515 -0.000870 0.004791 0.011871 
1927439984941 -0.000870 0.004791 0.011871 
1927459790849 -0.000870 0.004791 0.011871 
1927479596757 -0.000870 0.004791 0.011871 
1927499433183 -0.000870 0.004791 0.011871 
1927519239091 -0.000870 0.004791 0.011871 
1927539044999 -0.000870 0.004791 0.011871 
1927558881425 -0.000870 0.004791 0.011871 
1927578687333 -0.000870 0.004791 0.011871 
1927598523759 -0.000870 0.004791 0.011871 
1927618360185 -0.000870 0.004791 0.011871 
1927638166093 -0.000870 0.004791 0.011871 
1927657972001 -0.000870 0.004791 0.011871 
1927677808427 -0.000870 0.004791 0.011871 
1927697614335 -0.000870 0.004791 0.011871 
1927717420243 -0.000870 0.004791 0.011871 
1927737256669 -0.000870 0.004791 0.011871 
1927757062577 -0.000870 0.004791 0.011871 
1927776868485 -0.000870 0.004791 0.011871 
1927796704911 -0.000870 0.004791 0.011871 
1927816510819 -0.000870 0.004791 0.011871 
1927836316728 -0.000870 0.004791 0.011871 
1927856153153 -0.000870 0.004791 0.011871 
1927875989579 -0.000870 0.004791 0.011871 
1927895795487 -0.000870 0.004791 0.011871 
1927915631913 -0.000870 0.004791 0.011871 
1927935437821 -0.000870 0.004791 0.011871 
1927955243730 -0.000870 0.004791 0.011871 
1927975080155 -0.000870 0.004791 0.011871 
1927994886064 -0.000870 0.004791 0.011871 
1928014722489 -0.000870 0.004791 0.011871 
1928034528398 -0.000870 0.004791 0.011871 
1928054334306 -0.000870 0.004791 0.011871 
1928074140214 -0.000870 0.004791 0.011871 
1928093976640 -0.000870 0.004791 0.011871 
1928113782548 -0.000870 0.004791 0.011871 
1928133618974 -0.000870 0.004791 0.011871 
1928153424882 -0.000870 0.004791 0.011871 
1928173261308 -0.000870 0.004791 0.011871 
1928193097733 -0.000870 0.004791 0.011871 
1928212903642 -0.000870 0.004791 0.011871 
1928232709550 -0.000870 0.004791 0.011871 
1928252545976 -0.000870 0.004791 0.011871 
1928272351884 -0.000870 0.004791 0.011871 
1928292157792 -0.000870 0.004791 0.011871 
1928311994218 -0.000870 0.004791 0.011871 
1928331800126 -0.000870 0.004791 0.011871 
1928351606034 -0.000870 0.004791 0.011871 
1928371442460 -0.000870 0.004791 0.011871 
1928391248368 -0.000870 0.004791 0.011871 
1928411054276 -0.000870 0.004791 0.011871 
1928430890702 -0.000870 0.004791 0.011871 
1928450727128 -0.000870 0.004791 0.011871 
1928470533036 -0.000870 0.004791 0.011871 
1928490369462 -0.000870 0.004791 0.011871 
1928510175370 -0.000870 0.004791 0.011871 
1928529966201 -0.000870 0.004791 0.011871 
1928549802627 -0.000870 0.004791 0.011871 
1928569608535 -0.000870 0.004791 0.011871 
1928589414444 -0.000870 0.004791 0.011871 
1928609250869 -0.000870 0.004791 0.011871 
1928629056778 -0.000870 0.004791 0.011871 
1928648862686 -0.000870 0.004791 0.011871 
1928668699112 -0.000870 0.004791 0.011871 
1928688505020 -0.000870 0.004791 0.011871 
1928708310928 -0.000870 0.004791 0.011871 
1928728147354 -0.000870 0.004791 0.011871 
1928747983780 -0.000870 0.004791 0.011871 
1928767789688 -0.000870 0.004791 0.011871 
1928787626114 -0.000870 0.004791 0.011871 
1928807432022 -0.000870 0.004791 0.011871 
1928827237930 -0.000870 0.004791 0.011871 
1928847074356 -0.000870 0.004791 0.011871 
1928866880264 -0.000870 0.004791 0.011871 
1928886686172 -0.000870 0.004791 0.011871 
1928906522598 -0.000870 0.004791 0.011871 
1928926328506 -0.000870 0.004791 0.011871 
1928946134414 -0.000870 0.004791 0.011871 
1928965970840 -0.000870 0.004791 0.011871 
1928985776748 -0.000870 0.004791 0.011871 
1929005582656 -0.000870 0.004791 0.011871 
1929025419082 -0.000870 0.004791 0.011871 
1929045255508 -0.000870 0.004791 0.011871 
1929065061416 -0.000870 0.004791 0.011871 
1929084897842 -0.000870 0.004791 0.011871 
1929104703750 -0.000870 0.004791 0.011871 
1929124509658 -0.000870 0.004791 0.011871 
1929144346084 -0.000870 0.004791 0.011871 
1929164151992 -0.000870 0.004791 0.011871 
1929183957901 -0.000870 0.004791 0.011871 
1929203794326 -0.000870 0.004791 0.011871 
1929223600235 -0.000870 0.004791 0.011871 
1929243436660 -0.000870 0.004791 0.011871 
1929263242569 -0.000870 0.004791 0.011871 
1929283048477 -0.000870 0.004791 0.011871 
1929302884903 -0.000870 0.004791 0.011871 
1929322721328 -0.000870 0.004791 0.011871 
1929342527237 -0.000870 0.004791 0.011871 
1929362333145 -0.000870 0.004791 0.011871 
1929382169571 -0.000870 0.004791 0.011871 
1929401975479 -0.000870 0.004791 0.011871 
1929421781387 -0.000870 0.004791 0.011871 
1929441617813 -0.000870 0.004791 0.011871 
1929461423721 -0.000870 0.004791 0.011871 
1929481229629 -0.000870 0.004791 0.011871 
1929501066055 -0.000870 0.004791 0.011871 
1929520871963 -0.000870 0.004791 0.011871 
1929540677871 -0.000870 0.004791 0.011871 
1929560514297 -0.000870 0.004791 0.011871 
1929580320205 -0.000870 0.004791 0.011871 
1929600156631 -0.000870 0.004791 0.011871 
1929619993057 -0.000870 0.004791 0.011871 
1929639798965 -0.000870 0.004791 0.011871 
1929659604873 -0.000870 0.004791 0.011871 
1929679441299 -0.000870 0.004791 0.011871 
1929699247207 -0.000870 0.004791 0.011871 
1929719053115 -0.000870 0.004791 0.011871 
1929738889541 -0.000870 0.004791 0.011871 
1929758695449 -0.000870 0.004791 0.011871 
1929778531875 -0.000870 0.004791 0.011871 
1929798337783 -0.000870 0.004791 0.011871 
1929818143692 -0.000870 0.004791 0.011871 
1929837980117 -0.000870 0.004791 0.011871 
1929857786026 -0.000870 0.004791 0.011871 
1929877622451 -0.000870 0.004791 0.011871 
1929897458877 -0.000870 0.004791 0.011871 
1929917264785 -0.000870 0.004791 0.011871 
1929937070694 -0.000870 0.004791 0.011871 
1929956907119 -0.000870 0.004791 0.011871 
1929976713028 -0.000870 0.004791 0.011871 
1929996518936 -0.000870 0.004791 0.011871 
1930016355362 -0.000870 0.004791 0.011871 
1930036161270 -0.000870 0.004791 0.011871 
1930055967178 -0.000870 0.004791 0.011871 
1930075803604 -0.000870 0.004791 0.011871 
1930095609512 -0.000870 0.004791 0.011871 
1930115415420 -0.000870 0.004791 0.011871 
1930135251846 -0.000870 0.004791 0.011871 
1930155057754 -0.000870 0.004791 0.011871 
1930174894180 -0.000870 0.004791 0.011871 
1930194730606 -0.000870 0.004791 0.011871 
1930214536514 -0.000870 0.004791 0.011871 
1930234372940 -0.000870 0.004791 0.011871 
1930254178848 -0.000870 0.004791 0.011871 
1930273984756 -0.000870 0.004791 0.011871 
1930293821182 -0.000870 0.004791 0.011871 
1930313627090 -0.000870 0.004791 0.011871 
1930333432998 -0.000870 0.004791 0.011871 
1930353269424 -0.000870 0.004791 0.011871 
1930373075332 -0.000870 0.004791 0.011871 
1930392881240 -0.000870 0.004791 0.011871 
1930412717666 -0.000870 0.004791 0.011871 
1930432523574 -0.000870 0.004791 0.011871 
1930452360000 -0.000870 0.004791 0.011871 
1930472196426 -0.000870 0.004791 0.011871 
1930492002334 -0.000870 0.004791 0.011871 
1930511808242 -0.000870 0.004791 0.011871 
1930531644668 -0.000870 0.004791 0.011871 
1930551450576 -0.000870 0.004791 0.011871 
1930571256485 -0.000870 0.004791 0.011871 
1930591092910 -0.000870 0.004791 0.011871 
1930610898819 -0.000870 0.004791 0.011871 
1930630704727 -0.000870 0.004791 0.011871 
1930650541153 -0.000870 0.004791 0.011871 
1930670347061 -0.000870 0.004791 0.011871 
1930690152969 -0.000870 0.004791 0.011871 
1930709989395 -0.000870 0.004791 0.011871 
1930729825821 -0.000870 0.004791 0.011871 
1930749631729 -0.000870 0.004791 0.011871 
1930769468155 -0.000870 0.004791 0.011871 
1930789274063 -0.000870 0.004791 0.011871 
1930809079971 -0.000870 0.004791 0.011871 
1930828916397 -0.000870 0.004791 0.011871 
1930848722305 -0.000870 0.004791 0.011871 
1930868528213 -0.000870 0.004791 0.011871 
1930888364639 -0.000870 0.004791 0.011871 
1930908170547 -0.000870 0.004791 0.011871 
1930927976455 -0.000870 0.004791 0.011871 
1930947812881 -0.000870 0.004791 0.011871 
1930967618789 -0.000870 0.004791 0.011871 
1930987424697 -0.000870 0.004791 0.011871 
1931007261123 -0.000870 0.004791 0.011871 
1931027097549 -0.000870 0.004791 0.011871 
1931046933975 -0.000870 0.004791 0.011871 
1931066739883 -0.000870 0.004791 0.011871 
1931086545791 -0.000870 0.004791 0.011871 
1931106382217 -0.000870 0.004791 0.011871 
1931126188125 -0.000870 0.004791 0.011871 
1931145994033 -0.000870 0.004791 0.011871 
1931165830459 -0.000870 0.004791 0.011871 
1931185636367 -0.000870 0.004791 0.011871 
1931205442276 -0.000870 0.004791 0.011871 
1931225278701 -0.000870 0.004791 0.011871 
1931245084610 -0.000870 0.004791 0.011871 
1931264890518 -0.000870 0.004791 0.011871 
1931284726944 -0.000870 0.004791 0.011871 
1931304563369 -0.000870 0.004791 0.011871 
1931324369278 -0.000870 0.004791 0.011871 
1931344205703 -0.000870 0.004791 0.011871 
1931364011612 -0.000870 0.004791 0.011871 
1931383817520 -0.000870 0.004791 0.011871 
1931403653946 -0.000870 0.004791 0.011871 
1931423459854 -0.000870 0.004791 0.011871 
1931443265762 -0.000870 0.004791 0.011871 
1931463102188 -0.000870 0.004791 0.011871 
1931482908096 -0.000870 0.004791 0.011871 
1931502714004 -0.000870 0.004791 0.011871 
1931522550430 -0.000870 0.004791 0.011871 
1931542356338 -0.000870 0.004791 0.011871 
1931562162246 -0.000870 0.004791 0.011871 
1931581998672 -0.000870 0.004791 0.011871 
1931601835098 -0.000870 0.004791 0.011871 
1931621641006 -0.000870 0.004791 0.011871 
1931641477432 -0.000870 0.004791 0.011871 
1931661283340 -0.000870 0.004791 0.011871 
1931681089248 -0.000870 0.004791 0.011871 
1931700925674 -0.000870 0.004791 0.011871 
1931720731582 -0.000870 0.004791 0.011871 
1931740537490 -0.000870 0.004791 0.011871 
1931760373916 -0.000870 0.004791 0.011871 
1931780179824 -0.000870 0.004791 0.011871 
1931799985733 -0.000870 0.004791 0.011871 
1931819822158 -0.000870 0.004791 0.011871 
1931839628067 -0.000870 0.004791 0.011871 
1931859464492 -0.000870 0.004791 0.011871 
1931879300918 -0.000870 0.004791 0.011871 
1931899106826 -0.000870 0.004791 0.011871 
1931918912735 -0.000870 0.004791 0.011871 
1931938749160 -0.000870 0.004791 0.011871 
1931958555069 -0.000870 0.004791 0.011871 
1931978391494 -0.000870 0.004791 0.011871 
1931998197403 -0.000870 0.004791 0.011871 
1932018003311 -0.000870 0.004791 0.011871 
1932037839737 -0.000870 0.004791 0.011871 
1932057645645 -0.000870 0.004791 0.011871 
1932077451553 -0.000870 0.004791 0.011871 
1932097287979 -0.000870 0.004791 0.011871 
1932117093887 -0.000870 0.004791 0.011871 
1932136899795 -0.000870 0.004791 0.011871 
1932156736221 -0.000870 0.004791 0.011871 
1932176572647 -0.000870 0.004791 0.011871 
1932196378555 -0.000870 0.004791 0.011871 
1932216214981 -0.000870 0.004791 0.011871 
1932236020889 -0.000870 0.004791 0.011871 
1932255826797 -0.000870 0.004791 0.011871 
1932275663223 -0.000870 0.004791 0.011871 
