# Created at Tue Jun 01 16:12:37 GMT+02:00 2021 in Burnaby Canada 
2959462775569 -0.001007 0.005173 0.011871 
2959482611995 -0.001007 0.005173 0.011871 
2959502417903 -0.001007 0.005173 0.011871 
2959522223811 -0.001007 0.005173 0.011871 
2959542060237 -0.001007 0.005173 0.011871 
2959561866145 -0.001007 0.005173 0.011871 
2959581702571 -0.001007 0.005173 0.011871 
2959601508479 -0.001007 0.005173 0.011871 
2959621314387 -0.001007 0.005173 0.011871 
2959641150813 -0.001007 0.005173 0.011871 
2959660956721 -0.001007 0.005173 0.011871 
2959680793147 -0.001007 0.005173 0.011871 
2959700629573 -0.001007 0.005173 0.011871 
2959720435481 -0.001007 0.005173 0.011871 
2959740241389 -0.001007 0.005173 0.011871 
2959760077815 -0.001007 0.005173 0.011871 
2959779883723 -0.001007 0.005173 0.011871 
2959799689631 -0.001007 0.005173 0.011871 
2959819526057 -0.001007 0.005173 0.011871 
2959839331965 -0.001007 0.005173 0.011871 
2959859168391 -0.001007 0.005173 0.011871 
2959878974299 -0.001007 0.005173 0.011871 
2959898780208 -0.001007 0.005173 0.011871 
2959918616633 -0.001007 0.005173 0.011871 
2959938422542 -0.001007 0.005173 0.011871 
2959958258967 -0.001007 0.005173 0.011871 
2959978095393 -0.001007 0.005173 0.011871 
2959997901301 -0.001007 0.005173 0.011871 
2960017707210 -0.001007 0.005173 0.011871 
2960037543635 -0.001007 0.005173 0.011871 
2960057349544 -0.001007 0.005173 0.011871 
2960077155452 -0.001007 0.005173 0.011871 
2960096991878 -0.001007 0.005173 0.011871 
2960116797786 -0.001007 0.005173 0.011871 
2960136634212 -0.001007 0.005173 0.011871 
2960156440120 -0.001007 0.005173 0.011871 
2960176246028 -0.001007 0.005173 0.011871 
2960196082454 -0.001007 0.005173 0.011871 
2960215888362 -0.001007 0.005173 0.011871 
2960235724788 -0.001007 0.005173 0.011871 
2960255561213 -0.001007 0.005173 0.011871 
2960275367122 -0.001007 0.005173 0.011871 
2960295173030 -0.001007 0.005173 0.011871 
2960315009456 -0.001007 0.005173 0.011871 
2960334815364 -0.001007 0.005173 0.011871 
2960354621272 -0.001007 0.005173 0.011871 
2960374457698 -0.001007 0.005173 0.011871 
2960394263606 -0.001007 0.005173 0.011871 
2960414069514 -0.001007 0.005173 0.011871 
2960433905940 -0.001007 0.005173 0.011871 
2960453711848 -0.001007 0.005173 0.011871 
2960473517756 -0.001007 0.005173 0.011871 
2960493354182 -0.001007 0.005173 0.011871 
2960513160090 -0.001007 0.005173 0.011871 
2960532996516 -0.001007 0.005173 0.011871 
2960552832942 -0.001007 0.005173 0.011871 
2960572638850 -0.001007 0.005173 0.011871 
2960592475276 -0.001007 0.005173 0.011871 
2960612281184 -0.001007 0.005173 0.011871 
2960632087092 -0.001007 0.005173 0.011871 
2960651923518 -0.001007 0.005173 0.011871 
2960671729426 -0.001007 0.005173 0.011871 
2960691565852 -0.001007 0.005173 0.011871 
2960711371760 -0.001007 0.005173 0.011871 
2960731177669 -0.001007 0.005173 0.011871 
2960751014094 -0.001007 0.005173 0.011871 
2960770820003 -0.001007 0.005173 0.011871 
2960790625911 -0.001007 0.005173 0.011871 
2960810462337 -0.001007 0.005173 0.011871 
2960830298762 -0.001007 0.005173 0.011871 
2960850104671 -0.001007 0.005173 0.011871 
2960869941096 -0.001007 0.005173 0.011871 
2960889747004 -0.001007 0.005173 0.011871 
2960909552913 -0.001007 0.005173 0.011871 
2960929389338 -0.001007 0.005173 0.011871 
2960949195247 -0.001007 0.005173 0.011871 
2960969001155 -0.001007 0.005173 0.011871 
2960988837581 -0.001007 0.005173 0.011871 
2961008643489 -0.001007 0.005173 0.011871 
2961028479915 -0.001007 0.005173 0.011871 
2961048285823 -0.001007 0.005173 0.011871 
2961068091731 -0.001007 0.005173 0.011871 
2961087928157 -0.001007 0.005173 0.011871 
2961107764583 -0.001007 0.005173 0.011871 
2961127570491 -0.001007 0.005173 0.011871 
2961147406917 -0.001007 0.005173 0.011871 
2961167212825 -0.001007 0.005173 0.011871 
2961187018733 -0.001007 0.005173 0.011871 
2961206855159 -0.001007 0.005173 0.011871 
2961226661067 -0.001007 0.005173 0.011871 
2961246466975 -0.001007 0.005173 0.011871 
2961266303401 -0.001007 0.005173 0.011871 
2961286109309 -0.001007 0.005173 0.011871 
2961305945735 -0.001007 0.005173 0.011871 
2961325751643 -0.001007 0.005173 0.011871 
2961345557551 -0.001007 0.005173 0.011871 
2961365393977 -0.001007 0.005173 0.011871 
2961385230403 -0.001007 0.005173 0.011871 
2961405036311 -0.001007 0.005173 0.011871 
2961424872737 -0.001007 0.005173 0.011871 
2961444678645 -0.001007 0.005173 0.011871 
2961464484553 -0.001007 0.005173 0.011871 
2961484320979 -0.001007 0.005173 0.011871 
2961504126887 -0.001007 0.005173 0.011871 
2961523932796 -0.001007 0.005173 0.011871 
2961543769221 -0.001007 0.005173 0.011871 
2961563575129 -0.001007 0.005173 0.011871 
2961583411555 -0.001007 0.005173 0.011871 
2961603217463 -0.001007 0.005173 0.011871 
2961623023372 -0.001007 0.005173 0.011871 
2961642859797 -0.001007 0.005173 0.011871 
2961662665706 -0.001007 0.005173 0.011871 
2961682502131 -0.001007 0.005173 0.011871 
2961702338557 -0.001007 0.005173 0.011871 
2961722144465 -0.001007 0.005173 0.011871 
2961741950374 -0.001007 0.005173 0.011871 
2961761786799 -0.001007 0.005173 0.011871 
2961781592708 -0.001007 0.005173 0.011871 
2961801398616 -0.001007 0.005173 0.011871 
2961821235042 -0.001007 0.005173 0.011871 
2961841040950 -0.001007 0.005173 0.011871 
2961860877376 -0.001007 0.005173 0.011871 
2961880683284 -0.001007 0.005173 0.011871 
2961900489192 -0.001007 0.005173 0.011871 
2961920325618 -0.001007 0.005173 0.011871 
2961940131526 -0.001007 0.005173 0.011871 
2961959967952 -0.001007 0.005173 0.011871 
2961979804378 -0.001007 0.005173 0.011871 
2961999610286 -0.001007 0.005173 0.011871 
2962019416194 -0.001007 0.005173 0.011871 
2962039252620 -0.001007 0.005173 0.011871 
2962059058528 -0.001007 0.005173 0.011871 
2962078864436 -0.001007 0.005173 0.011871 
2962098700862 -0.001007 0.005173 0.011871 
2962118506770 -0.001007 0.005173 0.011871 
2962138343196 -0.001007 0.005173 0.011871 
2962158149104 -0.001007 0.005173 0.011871 
2962177955012 -0.001007 0.005173 0.011871 
2962197791438 -0.001007 0.005173 0.011871 
2962217597346 -0.001007 0.005173 0.011871 
2962237403254 -0.001007 0.005173 0.011871 
2962257239680 -0.001007 0.005173 0.011871 
2962277076106 -0.001007 0.005173 0.011871 
2962296882014 -0.001007 0.005173 0.011871 
2962316718440 -0.001007 0.005173 0.011871 
2962336524348 -0.001007 0.005173 0.011871 
2962356330256 -0.001007 0.005173 0.011871 
2962376166682 -0.001007 0.005173 0.011871 
2962395972590 -0.001007 0.005173 0.011871 
2962415778499 -0.001007 0.005173 0.011871 
2962435614924 -0.001007 0.005173 0.011871 
2962455420833 -0.001007 0.005173 0.011871 
2962475257258 -0.001007 0.005173 0.011871 
2962495063167 -0.001007 0.005173 0.011871 
2962514869075 -0.001007 0.005173 0.011871 
2962534705501 -0.001007 0.005173 0.011871 
2962554541926 -0.001007 0.005173 0.011871 
2962574347835 -0.001007 0.005173 0.011871 
2962594184260 -0.001007 0.005173 0.011871 
2962613990169 -0.001007 0.005173 0.011871 
2962633796077 -0.001007 0.005173 0.011871 
2962653632503 -0.001007 0.005173 0.011871 
2962673438411 -0.001007 0.005173 0.011871 
2962693244319 -0.001007 0.005173 0.011871 
2962713080745 -0.001007 0.005173 0.011871 
2962732886653 -0.001007 0.005173 0.011871 
2962752692561 -0.001007 0.005173 0.011871 
2962772528987 -0.001007 0.005173 0.011871 
2962792334895 -0.001007 0.005173 0.011871 
2962812171321 -0.001007 0.005173 0.011871 
2962832007747 -0.001007 0.005173 0.011871 
2962851813655 -0.001007 0.005173 0.011871 
2962871650081 -0.001007 0.005173 0.011871 
2962891455989 -0.001007 0.005173 0.011871 
2962911261897 -0.001007 0.005173 0.011871 
2962931098323 -0.001007 0.005173 0.011871 
2962950904231 -0.001007 0.005173 0.011871 
2962970710139 -0.001007 0.005173 0.011871 
2962990546565 -0.001007 0.005173 0.011871 
2963010352473 -0.001007 0.005173 0.011871 
2963030158381 -0.001007 0.005173 0.011871 
2963049994807 -0.001007 0.005173 0.011871 
2963069800715 -0.001007 0.005173 0.011871 
2963089606624 -0.001007 0.005173 0.011871 
2963109443049 -0.001007 0.005173 0.011871 
2963129279475 -0.001007 0.005173 0.011871 
2963149085383 -0.001007 0.005173 0.011871 
2963168921809 -0.001007 0.005173 0.011871 
2963188727717 -0.001007 0.005173 0.011871 
2963208564143 -0.001007 0.005173 0.011871 
2963228370051 -0.001007 0.005173 0.011871 
2963248175960 -0.001007 0.005173 0.011871 
2963268012385 -0.001007 0.005173 0.011871 
2963287818294 -0.001007 0.005173 0.011871 
2963307624202 -0.001007 0.005173 0.011871 
2963327460628 -0.001007 0.005173 0.011871 
2963347266536 -0.001007 0.005173 0.011871 
2963367072444 -0.001007 0.005173 0.011871 
2963386908870 -0.001007 0.005173 0.011871 
2963406745296 -0.001007 0.005173 0.011871 
2963426551204 -0.001007 0.005173 0.011871 
2963446387629 -0.001007 0.005173 0.011871 
2963466193538 -0.001007 0.005173 0.011871 
2963486029963 -0.001007 0.005173 0.011871 
2963505835872 -0.001007 0.005173 0.011871 
2963525641780 -0.001007 0.005173 0.011871 
2963545478206 -0.001007 0.005173 0.011871 
2963565284114 -0.001007 0.005173 0.011871 
2963585090022 -0.001007 0.005173 0.011871 
2963604926448 -0.001007 0.005173 0.011871 
2963624732356 -0.001007 0.005173 0.011871 
2963644568782 -0.001007 0.005173 0.011871 
2963664374690 -0.001007 0.005173 0.011871 
2963684211116 -0.001007 0.005173 0.011871 
2963704047542 -0.001007 0.005173 0.011871 
2963723853450 -0.001007 0.005173 0.011871 
2963743659358 -0.001007 0.005173 0.011871 
2963763495784 -0.001007 0.005173 0.011871 
2963783301692 -0.001007 0.005173 0.011871 
2963803107600 -0.001007 0.005173 0.011871 
2963822944026 -0.001007 0.005173 0.011871 
2963842749934 -0.001007 0.005173 0.011871 
2963862555842 -0.001007 0.005173 0.011871 
2963882392268 -0.001007 0.005173 0.011871 
2963902198176 -0.001007 0.005173 0.011871 
2963922034602 -0.001007 0.005173 0.011871 
2963941840510 -0.001007 0.005173 0.011871 
2963961676936 -0.001007 0.005173 0.011871 
2963981513362 -0.001007 0.005173 0.011871 
2964001319270 -0.001007 0.005173 0.011871 
2964021125178 -0.001007 0.005173 0.011871 
2964040961604 -0.001007 0.005173 0.011871 
2964060767512 -0.001007 0.005173 0.011871 
2964080573421 -0.001007 0.005173 0.011871 
2964100409846 -0.001007 0.005173 0.011871 
2964120215754 -0.001007 0.005173 0.011871 
2964140021663 -0.001007 0.005173 0.011871 
2964159858088 -0.001007 0.005173 0.011871 
2964179663997 -0.000961 0.005157 0.011780 
2964199500422 -0.000961 0.005157 0.011780 
2964219306331 -0.000961 0.005157 0.011780 
2964239112239 -0.000961 0.005157 0.011780 
2964258948665 -0.000961 0.005157 0.011780 
2964278785090 -0.000961 0.005157 0.011780 
2964298590999 -0.000961 0.005157 0.011780 
2964318427424 -0.000961 0.005157 0.011780 
2964338233333 -0.000961 0.005157 0.011780 
2964358039241 -0.000961 0.005157 0.011780 
2964377875667 -0.000961 0.005157 0.011780 
2964397681575 -0.000961 0.005157 0.011780 
2964417487483 -0.000961 0.005157 0.011780 
2964437323909 -0.000961 0.005157 0.011780 
2964457129817 -0.000961 0.005157 0.011780 
2964476966243 -0.000961 0.005157 0.011780 
2964496772151 -0.000961 0.005157 0.011780 
2964516578059 -0.000961 0.005157 0.011780 
2964536414485 -0.000961 0.005157 0.011780 
2964556250911 -0.000961 0.005157 0.011780 
2964576056819 -0.000961 0.005157 0.011780 
2964595893245 -0.000961 0.005157 0.011780 
2964615699153 -0.000961 0.005157 0.011780 
2964635505061 -0.000961 0.005157 0.011780 
2964655341487 -0.000961 0.005157 0.011780 
2964675147395 -0.000961 0.005157 0.011780 
2964694953303 -0.000961 0.005157 0.011780 
2964714789729 -0.000961 0.005157 0.011780 
2964734595637 -0.000961 0.005157 0.011780 
2964754432063 -0.000961 0.005157 0.011780 
2964774237971 -0.000961 0.005157 0.011780 
2964794043879 -0.000961 0.005157 0.011780 
2964813880305 -0.000961 0.005157 0.011780 
2964833716731 -0.000961 0.005157 0.011780 
2964853522639 -0.000961 0.005157 0.011780 
2964873359065 -0.000961 0.005157 0.011780 
2964893164973 -0.000961 0.005157 0.011780 
2964912970881 -0.000961 0.005157 0.011780 
2964932807307 -0.000961 0.005157 0.011780 
2964952613215 -0.000961 0.005157 0.011780 
2964972419124 -0.000961 0.005157 0.011780 
2964992255549 -0.000961 0.005157 0.011780 
2965012061458 -0.000961 0.005157 0.011780 
2965031897883 -0.000961 0.005157 0.011780 
2965051703792 -0.000961 0.005157 0.011780 
2965071509700 -0.000961 0.005157 0.011780 
2965091346126 -0.000961 0.005157 0.011780 
2965111182551 -0.000961 0.005157 0.011780 
2965130988460 -0.000961 0.005157 0.011780 
2965150824885 -0.000961 0.005157 0.011780 
2965170630794 -0.000961 0.005157 0.011780 
2965190436702 -0.000961 0.005157 0.011780 
2965210273128 -0.000961 0.005157 0.011780 
2965230079036 -0.000961 0.005157 0.011780 
2965249884944 -0.000961 0.005157 0.011780 
2965269721370 -0.000961 0.005157 0.011780 
2965289527278 -0.000961 0.005157 0.011780 
2965309363704 -0.000961 0.005157 0.011780 
2965329169612 -0.000961 0.005157 0.011780 
2965348975520 -0.000961 0.005157 0.011780 
2965368781428 -0.000961 0.005157 0.011780 
2965388617854 -0.000961 0.005157 0.011780 
2965408454280 -0.000961 0.005157 0.011780 
2965428290706 -0.000961 0.005157 0.011780 
2965448096614 -0.000961 0.005157 0.011780 
2965467902522 -0.000961 0.005157 0.011780 
2965487738948 -0.000961 0.005157 0.011780 
2965507544856 -0.000961 0.005157 0.011780 
2965527350764 -0.000961 0.005157 0.011780 
2965547187190 -0.000961 0.005157 0.011780 
2965566993098 -0.000961 0.005157 0.011780 
2965586829524 -0.000961 0.005157 0.011780 
2965606635432 -0.000961 0.005157 0.011780 
2965626441340 -0.000961 0.005157 0.011780 
2965646277766 -0.000961 0.005157 0.011780 
2965666083674 -0.000961 0.005157 0.011780 
2965685920100 -0.000961 0.005157 0.011780 
2965705756526 -0.000961 0.005157 0.011780 
2965725562434 -0.000961 0.005157 0.011780 
2965745368342 -0.000961 0.005157 0.011780 
2965765204768 -0.000961 0.005157 0.011780 
2965785010676 -0.000961 0.005157 0.011780 
2965804816585 -0.000961 0.005157 0.011780 
2965824653010 -0.000961 0.005157 0.011780 
2965844458919 -0.000961 0.005157 0.011780 
2965864295344 -0.000961 0.005157 0.011780 
2965884101253 -0.000961 0.005157 0.011780 
2965903907161 -0.000961 0.005157 0.011780 
2965923743587 -0.000961 0.005157 0.011780 
2965943549495 -0.000961 0.005157 0.011780 
2965963385921 -0.000961 0.005157 0.011780 
2965983222346 -0.000961 0.005157 0.011780 
2966003028254 -0.000961 0.005157 0.011780 
2966022834163 -0.000961 0.005157 0.011780 
2966042670588 -0.000961 0.005157 0.011780 
2966062476497 -0.000961 0.005157 0.011780 
2966082282405 -0.000961 0.005157 0.011780 
2966102118831 -0.000961 0.005157 0.011780 
2966121924739 -0.000961 0.005157 0.011780 
2966141761165 -0.000961 0.005157 0.011780 
2966161567073 -0.000961 0.005157 0.011780 
2966181372981 -0.000961 0.005157 0.011780 
2966201209407 -0.000961 0.005157 0.011780 
2966221015315 -0.000961 0.005157 0.011780 
2966240821223 -0.000961 0.005157 0.011780 
