# Created at Tue Jun 01 15:59:47 GMT+02:00 2021 in Burnaby Canada 
2189784487887 -0.000946 0.004868 0.011703 
2189804293795 -0.000946 0.004868 0.011703 
2189824099703 -0.000946 0.004868 0.011703 
2189843936129 -0.000946 0.004868 0.011703 
2189863742037 -0.000946 0.004868 0.011703 
2189883547945 -0.000946 0.004868 0.011703 
2189903384371 -0.000946 0.004868 0.011703 
2189923190279 -0.000946 0.004868 0.011703 
2189943026705 -0.000946 0.004868 0.011703 
2189962832613 -0.000946 0.004868 0.011703 
2189982669039 -0.000946 0.004868 0.011703 
2190002474947 -0.000946 0.004868 0.011703 
2190022311373 -0.000946 0.004868 0.011703 
2190042117281 -0.000946 0.004868 0.011703 
2190061923189 -0.000946 0.004868 0.011703 
2190081759615 -0.000946 0.004868 0.011703 
2190101565523 -0.000946 0.004868 0.011703 
2190121401949 -0.000946 0.004868 0.011703 
2190141207857 -0.000946 0.004868 0.011703 
2190161013765 -0.000946 0.004868 0.011703 
2190180850191 -0.000946 0.004868 0.011703 
2190200656099 -0.000946 0.004868 0.011703 
2190220462008 -0.000946 0.004868 0.011703 
2190240298433 -0.000946 0.004868 0.011703 
2190260134859 -0.000946 0.004868 0.011703 
2190279940767 -0.000946 0.004868 0.011703 
2190299777193 -0.000946 0.004868 0.011703 
2190319583101 -0.000946 0.004868 0.011703 
2190339389010 -0.000946 0.004868 0.011703 
2190359225435 -0.000946 0.004868 0.011703 
2190379031344 -0.000946 0.004868 0.011703 
2190398837252 -0.000946 0.004868 0.011703 
2190418673678 -0.000946 0.004868 0.011703 
2190438479586 -0.000946 0.004868 0.011703 
2190458316012 -0.000946 0.004868 0.011703 
2190478121920 -0.000946 0.004868 0.011703 
2190497927828 -0.000946 0.004868 0.011703 
2190517764254 -0.000946 0.004868 0.011703 
2190537600680 -0.000946 0.004868 0.011703 
2190557406588 -0.000946 0.004868 0.011703 
2190577243013 -0.000946 0.004868 0.011703 
2190597048922 -0.000946 0.004868 0.011703 
2190616854830 -0.000946 0.004868 0.011703 
2190636691256 -0.000946 0.004868 0.011703 
2190656497164 -0.000946 0.004868 0.011703 
2190676303072 -0.000946 0.004868 0.011703 
2190696139498 -0.000946 0.004868 0.011703 
2190715945406 -0.000946 0.004868 0.011703 
2190735751314 -0.000946 0.004868 0.011703 
2190755587740 -0.000946 0.004868 0.011703 
2190775393648 -0.000946 0.004868 0.011703 
2190795199556 -0.000946 0.004868 0.011703 
2190815035982 -0.000946 0.004868 0.011703 
2190834872408 -0.000946 0.004868 0.011703 
2190854678316 -0.000946 0.004868 0.011703 
2190874514742 -0.000946 0.004868 0.011703 
2190894320650 -0.000946 0.004868 0.011703 
2190914126558 -0.000946 0.004868 0.011703 
2190933962984 -0.000946 0.004868 0.011703 
2190953768892 -0.000946 0.004868 0.011703 
2190973574801 -0.000946 0.004868 0.011703 
2190993411226 -0.000946 0.004868 0.011703 
2191013217135 -0.000946 0.004868 0.011703 
2191033053560 -0.000946 0.004868 0.011703 
2191052859469 -0.000946 0.004868 0.011703 
2191072665377 -0.000946 0.004868 0.011703 
2191092501803 -0.000946 0.004868 0.011703 
2191112338228 -0.000946 0.004868 0.011703 
2191132144137 -0.000946 0.004868 0.011703 
2191151980562 -0.000946 0.004868 0.011703 
2191171786471 -0.000946 0.004868 0.011703 
2191191592379 -0.000946 0.004868 0.011703 
2191211428805 -0.000946 0.004868 0.011703 
2191231234713 -0.000946 0.004868 0.011703 
2191251040621 -0.000946 0.004868 0.011703 
2191270877047 -0.000946 0.004868 0.011703 
2191290682955 -0.000946 0.004868 0.011703 
2191310488863 -0.000946 0.004868 0.011703 
2191330325289 -0.000946 0.004868 0.011703 
2191350131197 -0.000946 0.004868 0.011703 
2191369937105 -0.000946 0.004868 0.011703 
2191389773531 -0.000946 0.004868 0.011703 
2191409609957 -0.000946 0.004868 0.011703 
2191429446383 -0.000946 0.004868 0.011703 
2191449252291 -0.000946 0.004868 0.011703 
2191469058199 -0.000946 0.004868 0.011703 
2191488894625 -0.000946 0.004868 0.011703 
2191508700533 -0.000946 0.004868 0.011703 
2191528506441 -0.000946 0.004868 0.011703 
2191548342867 -0.000946 0.004868 0.011703 
2191568148775 -0.000946 0.004868 0.011703 
2191587954683 -0.000946 0.004868 0.011703 
2191607791109 -0.000946 0.004868 0.011703 
2191627597017 -0.000946 0.004868 0.011703 
2191647402926 -0.000946 0.004868 0.011703 
2191667239351 -0.000946 0.004868 0.011703 
2191687075777 -0.000946 0.004868 0.011703 
2191706881685 -0.000946 0.004868 0.011703 
2191726718111 -0.000946 0.004868 0.011703 
2191746524019 -0.000946 0.004868 0.011703 
2191766329928 -0.000946 0.004868 0.011703 
2191786166353 -0.000946 0.004868 0.011703 
2191805972262 -0.000946 0.004868 0.011703 
2191825778170 -0.000946 0.004868 0.011703 
2191845614596 -0.000946 0.004868 0.011703 
2191865420504 -0.000946 0.004868 0.011703 
2191885256930 -0.000946 0.004868 0.011703 
2191905062838 -0.000946 0.004868 0.011703 
2191924868746 -0.000946 0.004868 0.011703 
2191944705172 -0.000946 0.004868 0.011703 
2191964511080 -0.000946 0.004868 0.011703 
2191984347506 -0.000946 0.004868 0.011703 
2192004153414 -0.000946 0.004868 0.011703 
2192023989840 -0.000946 0.004868 0.011703 
2192043795748 -0.000946 0.004868 0.011703 
2192063632174 -0.000946 0.004868 0.011703 
2192083438082 -0.000946 0.004868 0.011703 
2192103243990 -0.000946 0.004868 0.011703 
2192123080416 -0.000946 0.004868 0.011703 
2192142886324 -0.000946 0.004868 0.011703 
2192162692232 -0.000946 0.004868 0.011703 
2192182528658 -0.000946 0.004868 0.011703 
2192202334566 -0.000946 0.004868 0.011703 
2192222140474 -0.000946 0.004868 0.011703 
2192241976900 -0.000946 0.004868 0.011703 
2192261813326 -0.000946 0.004868 0.011703 
2192281619234 -0.000946 0.004868 0.011703 
2192301455660 -0.000946 0.004868 0.011703 
2192321261568 -0.000946 0.004868 0.011703 
2192341067476 -0.000946 0.004868 0.011703 
2192360903902 -0.000946 0.004868 0.011703 
2192380709810 -0.000946 0.004868 0.011703 
2192400515719 -0.000946 0.004868 0.011703 
2192420352144 -0.000946 0.004868 0.011703 
2192440158053 -0.000946 0.004868 0.011703 
2192459994478 -0.000946 0.004868 0.011703 
2192479800387 -0.000946 0.004868 0.011703 
2192499606295 -0.000946 0.004868 0.011703 
2192519442721 -0.000946 0.004868 0.011703 
2192539248629 -0.000946 0.004868 0.011703 
2192559085055 -0.000946 0.004868 0.011703 
2192578921480 -0.000946 0.004868 0.011703 
2192598727388 -0.000946 0.004868 0.011703 
2192618533297 -0.000946 0.004868 0.011703 
2192638369722 -0.000946 0.004868 0.011703 
2192658175631 -0.000946 0.004868 0.011703 
2192677981539 -0.000946 0.004868 0.011703 
2192697817965 -0.000946 0.004868 0.011703 
2192717623873 -0.000946 0.004868 0.011703 
2192737429781 -0.000946 0.004868 0.011703 
2192757266207 -0.000946 0.004868 0.011703 
2192777072115 -0.000946 0.004868 0.011703 
2192796878023 -0.000946 0.004868 0.011703 
2192816714449 -0.000946 0.004868 0.011703 
2192836550875 -0.000946 0.004868 0.011703 
2192856356783 -0.000946 0.004868 0.011703 
2192876193209 -0.000946 0.004868 0.011703 
2192895999117 -0.000946 0.004868 0.011703 
2192915835543 -0.000946 0.004868 0.011703 
2192935641451 -0.000946 0.004868 0.011703 
2192955447359 -0.000946 0.004868 0.011703 
2192975253267 -0.000946 0.004868 0.011703 
2192995089693 -0.000946 0.004868 0.011703 
2193014895601 -0.000946 0.004868 0.011703 
2193034701510 -0.000946 0.004868 0.011703 
2193054537935 -0.000946 0.004868 0.011703 
2193074343844 -0.000946 0.004868 0.011703 
2193094180269 -0.000946 0.004868 0.011703 
2193114016695 -0.000946 0.004868 0.011703 
2193133822603 -0.000946 0.004868 0.011703 
2193153659029 -0.000946 0.004868 0.011703 
2193173464937 -0.000946 0.004868 0.011703 
2193193270846 -0.000946 0.004868 0.011703 
2193213107271 -0.000946 0.004868 0.011703 
2193232913180 -0.000946 0.004868 0.011703 
2193252719088 -0.000946 0.004868 0.011703 
2193272555513 -0.000946 0.004868 0.011703 
2193292361422 -0.000946 0.004868 0.011703 
2193312167330 -0.000946 0.004868 0.011703 
2193332003756 -0.000946 0.004868 0.011703 
2193351809664 -0.000946 0.004868 0.011703 
2193371615572 -0.000946 0.004868 0.011703 
2193391451998 -0.000946 0.004868 0.011703 
2193411288424 -0.000946 0.004868 0.011703 
2193431094332 -0.000946 0.004868 0.011703 
2193450930758 -0.000946 0.004868 0.011703 
2193470736666 -0.000931 0.004944 0.011841 
2193490542574 -0.000931 0.004944 0.011841 
2193510379000 -0.000931 0.004944 0.011841 
2193530184908 -0.000931 0.004944 0.011841 
2193550021334 -0.000931 0.004944 0.011841 
2193569827242 -0.000931 0.004944 0.011841 
2193589633150 -0.000931 0.004944 0.011841 
2193609469576 -0.000931 0.004944 0.011841 
2193629275484 -0.000931 0.004944 0.011841 
2193649081392 -0.000931 0.004944 0.011841 
2193668917818 -0.000931 0.004944 0.011841 
2193688754244 -0.000931 0.004944 0.011841 
2193708560152 -0.000931 0.004944 0.011841 
2193728396578 -0.000931 0.004944 0.011841 
2193748202486 -0.000931 0.004944 0.011841 
2193768008394 -0.000931 0.004944 0.011841 
2193787844820 -0.000931 0.004944 0.011841 
2193807650728 -0.000931 0.004944 0.011841 
2193827456637 -0.000931 0.004944 0.011841 
2193847293062 -0.000931 0.004944 0.011841 
2193867098971 -0.000931 0.004944 0.011841 
2193886904879 -0.000931 0.004944 0.011841 
2193906741305 -0.000931 0.004944 0.011841 
2193926547213 -0.000931 0.004944 0.011841 
2193946353121 -0.000931 0.004944 0.011841 
2193966189547 -0.000931 0.004944 0.011841 
2193986025972 -0.000931 0.004944 0.011841 
2194005831881 -0.000931 0.004944 0.011841 
2194025668306 -0.000931 0.004944 0.011841 
2194045474215 -0.000931 0.004944 0.011841 
2194065310640 -0.000931 0.004944 0.011841 
2194085116549 -0.000931 0.004944 0.011841 
2194104922457 -0.000931 0.004944 0.011841 
2194124758883 -0.000931 0.004944 0.011841 
2194144564791 -0.000931 0.004944 0.011841 
2194164370699 -0.000931 0.004944 0.011841 
2194184207125 -0.000931 0.004944 0.011841 
2194204013033 -0.000931 0.004944 0.011841 
2194223818941 -0.000931 0.004944 0.011841 
2194243655367 -0.000931 0.004944 0.011841 
2194263491793 -0.000931 0.004944 0.011841 
2194283297701 -0.000931 0.004944 0.011841 
2194303134127 -0.000931 0.004944 0.011841 
2194322940035 -0.000931 0.004944 0.011841 
2194342745943 -0.000931 0.004944 0.011841 
2194362582369 -0.000931 0.004944 0.011841 
2194382388277 -0.000931 0.004944 0.011841 
2194402194185 -0.000931 0.004944 0.011841 
2194422030611 -0.000931 0.004944 0.011841 
2194441836519 -0.000931 0.004944 0.011841 
2194461642428 -0.000931 0.004944 0.011841 
2194481478853 -0.000931 0.004944 0.011841 
2194501284762 -0.000931 0.004944 0.011841 
2194521090670 -0.000931 0.004944 0.011841 
2194540927096 -0.000931 0.004944 0.011841 
2194560763521 -0.000931 0.004944 0.011841 
2194580599947 -0.000931 0.004944 0.011841 
2194600405855 -0.000931 0.004944 0.011841 
2194620211763 -0.000931 0.004944 0.011841 
2194640048189 -0.000931 0.004944 0.011841 
2194659854097 -0.000931 0.004944 0.011841 
2194679660006 -0.000931 0.004944 0.011841 
2194699496431 -0.000931 0.004944 0.011841 
2194719302340 -0.000931 0.004944 0.011841 
2194739108248 -0.000931 0.004944 0.011841 
2194758944674 -0.000931 0.004944 0.011841 
2194778750582 -0.000931 0.004944 0.011841 
2194798556490 -0.000931 0.004944 0.011841 
2194818392916 -0.000931 0.004944 0.011841 
2194838229342 -0.000931 0.004944 0.011841 
2194858035250 -0.000931 0.004944 0.011841 
2194877871676 -0.000931 0.004944 0.011841 
2194897677584 -0.000931 0.004944 0.011841 
2194917483492 -0.000931 0.004944 0.011841 
2194937319918 -0.000931 0.004944 0.011841 
2194957125826 -0.000931 0.004944 0.011841 
2194976931734 -0.000931 0.004944 0.011841 
2194996768160 -0.000931 0.004944 0.011841 
2195016574068 -0.000931 0.004944 0.011841 
2195036410494 -0.000931 0.004944 0.011841 
2195056216402 -0.000931 0.004944 0.011841 
2195076022310 -0.000931 0.004944 0.011841 
2195095858736 -0.000931 0.004944 0.011841 
2195115695162 -0.000931 0.004944 0.011841 
2195135501070 -0.000931 0.004944 0.011841 
2195155337496 -0.000931 0.004944 0.011841 
2195175143404 -0.000931 0.004944 0.011841 
2195194949312 -0.000931 0.004944 0.011841 
2195214785738 -0.000931 0.004944 0.011841 
2195234591646 -0.000931 0.004944 0.011841 
2195254397555 -0.000931 0.004944 0.011841 
2195274233980 -0.000931 0.004944 0.011841 
2195294039888 -0.000931 0.004944 0.011841 
2195313845797 -0.000931 0.004944 0.011841 
2195333682222 -0.000931 0.004944 0.011841 
2195353488131 -0.000931 0.004944 0.011841 
2195373294039 -0.000931 0.004944 0.011841 
2195393130465 -0.000931 0.004944 0.011841 
2195412966890 -0.000931 0.004944 0.011841 
2195432772799 -0.000931 0.004944 0.011841 
2195452609224 -0.000931 0.004944 0.011841 
2195472415133 -0.000931 0.004944 0.011841 
2195492221041 -0.000931 0.004944 0.011841 
2195512057467 -0.000931 0.004944 0.011841 
2195531863375 -0.000931 0.004944 0.011841 
2195551699801 -0.000931 0.004944 0.011841 
2195571505709 -0.000931 0.004944 0.011841 
2195591311617 -0.000931 0.004944 0.011841 
2195611148043 -0.000931 0.004944 0.011841 
2195630953951 -0.000931 0.004944 0.011841 
2195650759859 -0.000931 0.004944 0.011841 
2195670596285 -0.000931 0.004944 0.011841 
2195690432711 -0.000931 0.004944 0.011841 
2195710238619 -0.000931 0.004944 0.011841 
2195730075045 -0.000931 0.004944 0.011841 
2195749880953 -0.000931 0.004944 0.011841 
2195769686861 -0.000931 0.004944 0.011841 
2195789523287 -0.000931 0.004944 0.011841 
2195809329195 -0.000931 0.004944 0.011841 
2195829135103 -0.000931 0.004944 0.011841 
2195848971529 -0.000931 0.004944 0.011841 
2195868777437 -0.000931 0.004944 0.011841 
2195888583346 -0.000931 0.004944 0.011841 
2195908419771 -0.000931 0.004944 0.011841 
2195928225680 -0.000931 0.004944 0.011841 
2195948031588 -0.000931 0.004944 0.011841 
2195967868013 -0.000931 0.004944 0.011841 
2195987704439 -0.000931 0.004944 0.011841 
2196007540865 -0.000931 0.004944 0.011841 
2196027346773 -0.000931 0.004944 0.011841 
2196047152681 -0.000931 0.004944 0.011841 
2196066989107 -0.000931 0.004944 0.011841 
2196086795015 -0.000931 0.004944 0.011841 
2196106600924 -0.000931 0.004944 0.011841 
2196126437349 -0.000931 0.004944 0.011841 
2196146243258 -0.000931 0.004944 0.011841 
2196166049166 -0.000931 0.004944 0.011841 
2196185885592 -0.000931 0.004944 0.011841 
