# Created at Tue Jun 01 16:02:14 GMT+02:00 2021 in Burnaby Canada 
2336877815392 -0.000793 0.004990 0.011963 
2336897621300 -0.000793 0.004990 0.011963 
2336917427208 -0.000793 0.004990 0.011963 
2336937263634 -0.000793 0.004990 0.011963 
2336957069542 -0.000793 0.004990 0.011963 
2336976875450 -0.000793 0.004990 0.011963 
2336996711876 -0.000793 0.004990 0.011963 
2337016517784 -0.000793 0.004990 0.011963 
2337036354210 -0.000793 0.004990 0.011963 
2337056190636 -0.000793 0.004990 0.011963 
2337075996544 -0.000793 0.004990 0.011963 
2337095832970 -0.000793 0.004990 0.011963 
2337115638878 -0.000793 0.004990 0.011963 
2337135444786 -0.000793 0.004990 0.011963 
2337155281212 -0.000793 0.004990 0.011963 
2337175087120 -0.000793 0.004990 0.011963 
2337194893029 -0.000793 0.004990 0.011963 
2337214729454 -0.000793 0.004990 0.011963 
2337234535363 -0.000793 0.004990 0.011963 
2337254341271 -0.000793 0.004990 0.011963 
2337274177697 -0.000793 0.004990 0.011963 
2337293983605 -0.000793 0.004990 0.011963 
2337313820031 -0.000793 0.004990 0.011963 
2337333656456 -0.000793 0.004990 0.011963 
2337353462365 -0.000793 0.004990 0.011963 
2337373298790 -0.000793 0.004990 0.011963 
2337393104699 -0.000793 0.004990 0.011963 
2337412910607 -0.000793 0.004990 0.011963 
2337432747032 -0.000793 0.004990 0.011963 
2337452552941 -0.000793 0.004990 0.011963 
2337472358849 -0.000793 0.004990 0.011963 
2337492195275 -0.000793 0.004990 0.011963 
2337512001183 -0.000793 0.004990 0.011963 
2337531807091 -0.000793 0.004990 0.011963 
2337551643517 -0.000793 0.004990 0.011963 
2337571449425 -0.000793 0.004990 0.011963 
2337591255333 -0.000793 0.004990 0.011963 
2337611091759 -0.000793 0.004990 0.011963 
2337630928185 -0.000793 0.004990 0.011963 
2337650764611 -0.000793 0.004990 0.011963 
2337670570519 -0.000793 0.004990 0.011963 
2337690376427 -0.000793 0.004990 0.011963 
2337710212853 -0.000793 0.004990 0.011963 
2337730018761 -0.000793 0.004990 0.011963 
2337749824669 -0.000793 0.004990 0.011963 
2337769661095 -0.000793 0.004990 0.011963 
2337789467003 -0.000793 0.004990 0.011963 
2337809272911 -0.000793 0.004990 0.011963 
2337829109337 -0.000793 0.004990 0.011963 
2337848915245 -0.000793 0.004990 0.011963 
2337868721154 -0.000793 0.004990 0.011963 
2337888557579 -0.000793 0.004990 0.011963 
2337908394005 -0.000793 0.004990 0.011963 
2337928199913 -0.000793 0.004990 0.011963 
2337948036339 -0.000793 0.004990 0.011963 
2337967842247 -0.000793 0.004990 0.011963 
2337987678673 -0.000793 0.004990 0.011963 
2338007484581 -0.000793 0.004990 0.011963 
2338027290490 -0.000793 0.004990 0.011963 
2338047126915 -0.000793 0.004990 0.011963 
2338066932824 -0.000793 0.004990 0.011963 
2338086738732 -0.000793 0.004990 0.011963 
2338106575157 -0.000793 0.004990 0.011963 
2338126381066 -0.000793 0.004990 0.011963 
2338146186974 -0.000793 0.004990 0.011963 
2338166023400 -0.000793 0.004990 0.011963 
2338185859825 -0.000793 0.004990 0.011963 
2338205665734 -0.000793 0.004990 0.011963 
2338225502159 -0.000793 0.004990 0.011963 
2338245308068 -0.000793 0.004990 0.011963 
2338265144493 -0.000793 0.004990 0.011963 
2338284950402 -0.000793 0.004990 0.011963 
2338304756310 -0.000793 0.004990 0.011963 
2338324592736 -0.000793 0.004990 0.011963 
2338344398644 -0.000793 0.004990 0.011963 
2338364204552 -0.000793 0.004990 0.011963 
2338384040978 -0.000793 0.004990 0.011963 
2338403846886 -0.000793 0.004990 0.011963 
2338423652794 -0.000793 0.004990 0.011963 
2338443489220 -0.000793 0.004990 0.011963 
2338463295128 -0.000793 0.004990 0.011963 
2338483131554 -0.000793 0.004990 0.011963 
2338502967980 -0.000793 0.004990 0.011963 
2338522773888 -0.000793 0.004990 0.011963 
2338542571570 -0.000793 0.004990 0.011963 
2338562407996 -0.000793 0.004990 0.011963 
2338582213904 -0.000793 0.004990 0.011963 
2338602050330 -0.000793 0.004990 0.011963 
2338621856238 -0.000793 0.004990 0.011963 
2338641662146 -0.000793 0.004990 0.011963 
2338661498572 -0.000793 0.004990 0.011963 
2338681304480 -0.000793 0.004990 0.011963 
2338701110389 -0.000793 0.004990 0.011963 
2338720946814 -0.000793 0.004990 0.011963 
2338740752723 -0.000793 0.004990 0.011963 
2338760589148 -0.000793 0.004990 0.011963 
2338780425574 -0.000793 0.004990 0.011963 
2338800231482 -0.000793 0.004990 0.011963 
2338820037390 -0.000793 0.004990 0.011963 
2338839873816 -0.000793 0.004990 0.011963 
2338859679724 -0.000793 0.004990 0.011963 
2338879485633 -0.000793 0.004990 0.011963 
2338899322058 -0.000793 0.004990 0.011963 
2338919127967 -0.000793 0.004990 0.011963 
2338938964392 -0.000793 0.004990 0.011963 
2338958770301 -0.000793 0.004990 0.011963 
2338978576209 -0.000793 0.004990 0.011963 
2338998412635 -0.000793 0.004990 0.011963 
2339018218543 -0.000793 0.004990 0.011963 
2339038024451 -0.000793 0.004990 0.011963 
2339057860877 -0.000793 0.004990 0.011963 
2339077697303 -0.000793 0.004990 0.011963 
2339097503211 -0.000793 0.004990 0.011963 
2339117339637 -0.000793 0.004990 0.011963 
2339137145545 -0.000793 0.004990 0.011963 
2339156951453 -0.000793 0.004990 0.011963 
2339176787879 -0.000793 0.004990 0.011963 
2339196593787 -0.000793 0.004990 0.011963 
2339216430213 -0.000793 0.004990 0.011963 
2339236236121 -0.000793 0.004990 0.011963 
2339256042029 -0.000793 0.004990 0.011963 
2339275878455 -0.000793 0.004990 0.011963 
2339295684363 -0.000793 0.004990 0.011963 
2339315490271 -0.000793 0.004990 0.011963 
2339335326697 -0.000793 0.004990 0.011963 
2339355163123 -0.000793 0.004990 0.011963 
2339374969031 -0.000793 0.004990 0.011963 
2339394805457 -0.000793 0.004990 0.011963 
2339414611365 -0.000793 0.004990 0.011963 
2339434417273 -0.000793 0.004990 0.011963 
2339454253699 -0.000793 0.004990 0.011963 
2339474059607 -0.000793 0.004990 0.011963 
2339493865515 -0.000793 0.004990 0.011963 
2339513701941 -0.000793 0.004990 0.011963 
2339533507849 -0.000793 0.004990 0.011963 
2339553344275 -0.000793 0.004990 0.011963 
2339573150183 -0.000793 0.004990 0.011963 
2339592956092 -0.000793 0.004990 0.011963 
2339612792517 -0.000793 0.004990 0.011963 
2339632628943 -0.000793 0.004990 0.011963 
2339652434851 -0.000793 0.004990 0.011963 
2339672271277 -0.000793 0.004990 0.011963 
2339692077185 -0.000793 0.004990 0.011963 
2339711883094 -0.000793 0.004990 0.011963 
2339731719519 -0.000793 0.004990 0.011963 
2339751525428 -0.000793 0.004990 0.011963 
2339771331336 -0.000793 0.004990 0.011963 
2339791167762 -0.000793 0.004990 0.011963 
2339810973670 -0.000793 0.004990 0.011963 
2339830779578 -0.000793 0.004990 0.011963 
2339850616004 -0.000793 0.004990 0.011963 
2339870421912 -0.000793 0.004990 0.011963 
2339890258338 -0.000793 0.004990 0.011963 
2339910094764 -0.000793 0.004990 0.011963 
2339929900672 -0.000793 0.004990 0.011963 
2339949737098 -0.000793 0.004990 0.011963 
2339969543006 -0.000793 0.004990 0.011963 
2339989348914 -0.000793 0.004990 0.011963 
2340009185340 -0.000793 0.004990 0.011963 
2340028991248 -0.000793 0.004990 0.011963 
2340048797156 -0.000793 0.004990 0.011963 
2340068633582 -0.000793 0.004990 0.011963 
2340088439490 -0.000793 0.004990 0.011963 
2340108245398 -0.000793 0.004990 0.011963 
2340128081824 -0.000793 0.004990 0.011963 
2340147887732 -0.000793 0.004990 0.011963 
2340167724158 -0.000793 0.004990 0.011963 
2340187560584 -0.000793 0.004990 0.011963 
2340207366492 -0.000793 0.004990 0.011963 
2340227202918 -0.000793 0.004990 0.011963 
2340247008826 -0.000793 0.004990 0.011963 
2340266814734 -0.000793 0.004990 0.011963 
2340286651160 -0.000793 0.004990 0.011963 
2340306457068 -0.000793 0.004990 0.011963 
2340326262976 -0.000793 0.004990 0.011963 
2340346099402 -0.000793 0.004990 0.011963 
2340365905310 -0.000793 0.004990 0.011963 
2340385711219 -0.000793 0.004990 0.011963 
2340405547644 -0.000793 0.004990 0.011963 
2340425353553 -0.000793 0.004990 0.011963 
2340445159461 -0.000793 0.004990 0.011963 
2340464995887 -0.000793 0.004990 0.011963 
2340484832312 -0.000793 0.004990 0.011963 
2340504668738 -0.000793 0.004990 0.011963 
2340524474646 -0.000793 0.004990 0.011963 
2340544280555 -0.000793 0.004990 0.011963 
2340564116980 -0.000793 0.004990 0.011963 
2340583922889 -0.000793 0.004990 0.011963 
2340603728797 -0.000793 0.004990 0.011963 
2340623565223 -0.000793 0.004990 0.011963 
2340643371131 -0.000793 0.004990 0.011963 
2340663177039 -0.000793 0.004990 0.011963 
2340683013465 -0.000793 0.004990 0.011963 
2340702819373 -0.000793 0.004990 0.011963 
2340722625281 -0.000793 0.004990 0.011963 
2340742461707 -0.000793 0.004990 0.011963 
2340762298133 -0.000793 0.004990 0.011963 
2340782104041 -0.000793 0.004990 0.011963 
2340801940467 -0.000793 0.004990 0.011963 
2340821746375 -0.000793 0.004990 0.011963 
2340841582801 -0.000793 0.004990 0.011963 
2340861388709 -0.000793 0.004990 0.011963 
2340881194617 -0.000793 0.004990 0.011963 
2340901031043 -0.000793 0.004990 0.011963 
2340920836951 -0.000793 0.004990 0.011963 
2340940642859 -0.000793 0.004990 0.011963 
2340960479285 -0.000793 0.004990 0.011963 
2340980285193 -0.000793 0.004990 0.011963 
2341000091101 -0.000793 0.004990 0.011963 
2341019927527 -0.000793 0.004990 0.011963 
2341039733435 -0.000793 0.004990 0.011963 
2341059569861 -0.000793 0.004990 0.011963 
2341079406287 -0.000793 0.004990 0.011963 
2341099212195 -0.000793 0.004990 0.011963 
2341119048621 -0.000793 0.004990 0.011963 
2341138854529 -0.000793 0.004990 0.011963 
2341158660437 -0.000793 0.004990 0.011963 
2341178496863 -0.000793 0.004990 0.011963 
2341198302771 -0.000793 0.004990 0.011963 
2341218108680 -0.000793 0.004990 0.011963 
2341237945105 -0.000793 0.004990 0.011963 
2341257751014 -0.000793 0.004990 0.011963 
2341277556922 -0.000793 0.004990 0.011963 
2341297393348 -0.000793 0.004990 0.011963 
2341317199256 -0.000793 0.004990 0.011963 
2341337035681 -0.000793 0.004990 0.011963 
2341356872107 -0.000793 0.004990 0.011963 
2341376678015 -0.000793 0.004990 0.011963 
2341396483924 -0.000793 0.004990 0.011963 
2341416320349 -0.000793 0.004990 0.011963 
2341436126258 -0.000793 0.004990 0.011963 
2341455962683 -0.000793 0.004990 0.011963 
2341475768592 -0.000793 0.004990 0.011963 
2341495574500 -0.000793 0.004990 0.011963 
2341515410926 -0.000793 0.004990 0.011963 
2341535216834 -0.000793 0.004990 0.011963 
2341555022742 -0.000793 0.004990 0.011963 
2341574859168 -0.000793 0.004990 0.011963 
2341594665076 -0.000793 0.004990 0.011963 
2341614470984 -0.000793 0.004990 0.011963 
2341634307410 -0.000793 0.004990 0.011963 
2341654143836 -0.000793 0.004990 0.011963 
2341673949744 -0.000793 0.004990 0.011963 
2341693786170 -0.000793 0.004990 0.011963 
2341713592078 -0.000793 0.004990 0.011963 
2341733397986 -0.000793 0.004990 0.011963 
2341753234412 -0.000793 0.004990 0.011963 
2341773040320 -0.000793 0.004990 0.011963 
2341792876746 -0.000793 0.004990 0.011963 
2341812682654 -0.000793 0.004990 0.011963 
2341832488562 -0.000793 0.004990 0.011963 
2341852324988 -0.000793 0.004990 0.011963 
2341872130896 -0.000793 0.004990 0.011963 
2341891936805 -0.000793 0.004990 0.011963 
2341911773230 -0.000793 0.004990 0.011963 
2341931609656 -0.000793 0.004990 0.011963 
2341951415564 -0.000793 0.004990 0.011963 
2341971251990 -0.000793 0.004990 0.011963 
2341991057898 -0.000793 0.004990 0.011963 
2342010863806 -0.000793 0.004990 0.011963 
2342030700232 -0.000793 0.004990 0.011963 
2342050506140 -0.000793 0.004990 0.011963 
2342070312049 -0.000793 0.004990 0.011963 
2342090148474 -0.000793 0.004990 0.011963 
2342109954383 -0.000793 0.004990 0.011963 
2342129790808 -0.000793 0.004990 0.011963 
2342149596717 -0.000793 0.004990 0.011963 
2342169402625 -0.000793 0.004990 0.011963 
2342189239051 -0.000793 0.004990 0.011963 
2342209075476 -0.000793 0.004990 0.011963 
2342228881385 -0.000793 0.004990 0.011963 
2342248717810 -0.000793 0.004990 0.011963 
2342268523719 -0.000793 0.004990 0.011963 
2342288329627 -0.000793 0.004990 0.011963 
2342308166053 -0.000793 0.004990 0.011963 
2342327971961 -0.000793 0.004990 0.011963 
2342347777869 -0.000793 0.004990 0.011963 
2342367614295 -0.000793 0.004990 0.011963 
2342387420203 -0.000793 0.004990 0.011963 
2342407256629 -0.000793 0.004990 0.011963 
2342427062537 -0.000793 0.004990 0.011963 
2342446868445 -0.000793 0.004990 0.011963 
2342466704871 -0.000793 0.004990 0.011963 
2342486541297 -0.000793 0.004990 0.011963 
2342506347205 -0.000793 0.004990 0.011963 
2342526183631 -0.000793 0.004990 0.011963 
2342545989539 -0.000793 0.004990 0.011963 
2342565795447 -0.000793 0.004990 0.011963 
2342585631873 -0.000793 0.004990 0.011963 
2342605437781 -0.000793 0.004990 0.011963 
2342625243689 -0.000793 0.004990 0.011963 
2342645080115 -0.000793 0.004990 0.011963 
2342664886023 -0.000793 0.004990 0.011963 
2342684691931 -0.000793 0.004990 0.011963 
2342704528357 -0.000793 0.004990 0.011963 
2342724334265 -0.000793 0.004990 0.011963 
2342744140174 -0.000793 0.004990 0.011963 
2342763976599 -0.000793 0.004990 0.011963 
2342783813025 -0.000793 0.004990 0.011963 
2342803649451 -0.000793 0.004990 0.011963 
2342823455359 -0.000793 0.004990 0.011963 
2342843261267 -0.000793 0.004990 0.011963 
2342863097693 -0.000793 0.004990 0.011963 
2342882903601 -0.000793 0.004990 0.011963 
2342902709510 -0.000793 0.004990 0.011963 
2342922545935 -0.000793 0.004990 0.011963 
2342942351844 -0.000793 0.004990 0.011963 
2342962157752 -0.000793 0.004990 0.011963 
2342981994178 -0.000793 0.004990 0.011963 
2343001800086 -0.000793 0.004990 0.011963 
2343021605994 -0.000793 0.004990 0.011963 
2343041442420 -0.000793 0.004990 0.011963 
2343061278846 -0.000793 0.004990 0.011963 
2343081084754 -0.000793 0.004990 0.011963 
2343100921180 -0.000793 0.004990 0.011963 
2343120727088 -0.000793 0.004990 0.011963 
2343140532996 -0.000793 0.004990 0.011963 
2343160369422 -0.000793 0.004990 0.011963 
2343180175330 -0.000793 0.004990 0.011963 
2343200011756 -0.000793 0.004990 0.011963 
2343219817664 -0.000793 0.004990 0.011963 
2343239623572 -0.000793 0.004990 0.011963 
2343259459998 -0.000793 0.004990 0.011963 
2343279265906 -0.000793 0.004990 0.011963 
2343299071814 -0.000793 0.004990 0.011963 
2343318908240 -0.000793 0.004990 0.011963 
2343338744666 -0.000793 0.004990 0.011963 
2343358550574 -0.000793 0.004990 0.011963 
2343378387000 -0.000793 0.004990 0.011963 
2343398192908 -0.000793 0.004990 0.011963 
2343417998816 -0.000793 0.004990 0.011963 
2343437835242 -0.000793 0.004990 0.011963 
2343457641150 -0.000793 0.004990 0.011963 
2343477447058 -0.000793 0.004990 0.011963 
2343497283484 -0.000793 0.004990 0.011963 
2343517089392 -0.000793 0.004990 0.011963 
2343536895301 -0.000793 0.004990 0.011963 
2343556731726 -0.000793 0.004990 0.011963 
2343576537635 -0.000793 0.004990 0.011963 
2343596374060 -0.000793 0.004990 0.011963 
2343616179969 -0.000793 0.004990 0.011963 
2343636016394 -0.000793 0.004990 0.011963 
2343655852820 -0.000793 0.004990 0.011963 
2343675658728 -0.000793 0.004990 0.011963 
2343695464637 -0.000793 0.004990 0.011963 
2343715301062 -0.000793 0.004990 0.011963 
2343735106971 -0.000793 0.004990 0.011963 
2343754943396 -0.000793 0.004990 0.011963 
2343774749305 -0.000793 0.004990 0.011963 
2343794555213 -0.000793 0.004990 0.011963 
2343814391639 -0.000793 0.004990 0.011963 
2343834197547 -0.000793 0.004990 0.011963 
2343854003455 -0.000793 0.004990 0.011963 
2343873839881 -0.000793 0.004990 0.011963 
2343893645789 -0.000793 0.004990 0.011963 
2343913482215 -0.000793 0.004990 0.011963 
2343933318640 -0.000793 0.004990 0.011963 
2343953124549 -0.000793 0.004990 0.011963 
2343972930457 -0.000793 0.004990 0.011963 
2343992766883 -0.000793 0.004990 0.011963 
2344012572791 -0.000793 0.004990 0.011963 
2344032378699 -0.000793 0.004990 0.011963 
2344052215125 -0.000793 0.004990 0.011963 
2344072021033 -0.000793 0.004990 0.011963 
2344091826941 -0.000793 0.004990 0.011963 
2344111663367 -0.000793 0.004990 0.011963 
2344131469275 -0.000793 0.004990 0.011963 
