# Created at Tue Jun 01 15:54:14 GMT+02:00 2021 in Burnaby Canada 
1856084380181 -0.000732 0.004501 0.011795 
1856104186089 -0.000732 0.004501 0.011795 
1856123991998 -0.000732 0.004501 0.011795 
1856143828423 -0.000732 0.004501 0.011795 
1856163634332 -0.000732 0.004501 0.011795 
1856183440240 -0.000732 0.004501 0.011795 
1856203276666 -0.000732 0.004501 0.011795 
1856223082574 -0.000732 0.004501 0.011795 
1856242888482 -0.000732 0.004501 0.011795 
1856262724908 -0.000732 0.004501 0.011795 
1856282530816 -0.000732 0.004501 0.011795 
1856302336724 -0.000732 0.004501 0.011795 
1856322173150 -0.000732 0.004501 0.011795 
1856342009576 -0.000732 0.004501 0.011795 
1856361815484 -0.000732 0.004501 0.011795 
1856381651910 -0.000732 0.004501 0.011795 
1856401457818 -0.000732 0.004501 0.011795 
1856421263726 -0.000732 0.004501 0.011795 
1856441100152 -0.000732 0.004501 0.011795 
1856460906060 -0.000732 0.004501 0.011795 
1856480711968 -0.000732 0.004501 0.011795 
1856500548394 -0.000732 0.004501 0.011795 
1856520354302 -0.000732 0.004501 0.011795 
1856540160210 -0.000732 0.004501 0.011795 
1856559996636 -0.000732 0.004501 0.011795 
1856579802544 -0.000732 0.004501 0.011795 
1856599608453 -0.000732 0.004501 0.011795 
1856619444878 -0.000732 0.004501 0.011795 
1856639281304 -0.000732 0.004501 0.011795 
1856659087212 -0.000732 0.004501 0.011795 
1856678923638 -0.000732 0.004501 0.011795 
1856698729546 -0.000732 0.004501 0.011795 
1856718535455 -0.000732 0.004501 0.011795 
1856738371880 -0.000732 0.004501 0.011795 
1856758177789 -0.000732 0.004501 0.011795 
1856777983697 -0.000732 0.004501 0.011795 
1856797820123 -0.000732 0.004501 0.011795 
1856817626031 -0.000732 0.004501 0.011795 
1856837431939 -0.000732 0.004501 0.011795 
1856857268365 -0.000732 0.004501 0.011795 
1856877074273 -0.000732 0.004501 0.011795 
1856896880181 -0.000732 0.004501 0.011795 
1856916716607 -0.000732 0.004501 0.011795 
1856936553033 -0.000732 0.004501 0.011795 
1856956358941 -0.000732 0.004501 0.011795 
1856976195367 -0.000732 0.004501 0.011795 
1856996001275 -0.000732 0.004501 0.011795 
1857015807183 -0.000732 0.004501 0.011795 
1857035643609 -0.000732 0.004501 0.011795 
1857055449517 -0.000732 0.004501 0.011795 
1857075255425 -0.000732 0.004501 0.011795 
1857095091851 -0.000732 0.004501 0.011795 
1857114897759 -0.000732 0.004501 0.011795 
1857134734185 -0.000732 0.004501 0.011795 
1857154540093 -0.000732 0.004501 0.011795 
1857174346002 -0.000732 0.004501 0.011795 
1857194182427 -0.000732 0.004501 0.011795 
1857214018853 -0.000732 0.004501 0.011795 
1857233824761 -0.000732 0.004501 0.011795 
1857253661187 -0.000732 0.004501 0.011795 
1857273467095 -0.000732 0.004501 0.011795 
1857293273003 -0.000732 0.004501 0.011795 
1857313109429 -0.000732 0.004501 0.011795 
1857332915337 -0.000732 0.004501 0.011795 
1857352721246 -0.000732 0.004501 0.011795 
1857372557671 -0.000732 0.004501 0.011795 
1857392363580 -0.000732 0.004501 0.011795 
1857412169488 -0.000732 0.004501 0.011795 
1857432005914 -0.000732 0.004501 0.011795 
1857451811822 -0.000732 0.004501 0.011795 
1857471617730 -0.000732 0.004501 0.011795 
1857491454156 -0.000732 0.004501 0.011795 
1857511290582 -0.000732 0.004501 0.011795 
1857531096490 -0.000732 0.004501 0.011795 
1857550932916 -0.000732 0.004501 0.011795 
1857570738824 -0.000732 0.004501 0.011795 
1857590544732 -0.000732 0.004501 0.011795 
1857610381158 -0.000732 0.004501 0.011795 
1857630187066 -0.000732 0.004501 0.011795 
1857649992974 -0.000732 0.004501 0.011795 
1857669829400 -0.000732 0.004501 0.011795 
1857689635308 -0.000732 0.004501 0.011795 
1857709441216 -0.000732 0.004501 0.011795 
1857729277642 -0.000732 0.004501 0.011795 
1857749083550 -0.000732 0.004501 0.011795 
1857768919976 -0.000732 0.004501 0.011795 
1857788756402 -0.000732 0.004501 0.011795 
1857808562310 -0.000732 0.004501 0.011795 
1857828368218 -0.000732 0.004501 0.011795 
1857848204644 -0.000732 0.004501 0.011795 
1857868010552 -0.000732 0.004501 0.011795 
1857887816460 -0.000732 0.004501 0.011795 
1857907652886 -0.000732 0.004501 0.011795 
1857927458794 -0.000732 0.004501 0.011795 
1857947264703 -0.000732 0.004501 0.011795 
1857967101128 -0.000732 0.004501 0.011795 
1857986907037 -0.000732 0.004501 0.011795 
1858006712945 -0.000732 0.004501 0.011795 
1858026549371 -0.000732 0.004501 0.011795 
1858046355279 -0.000732 0.004501 0.011795 
1858066191705 -0.000732 0.004501 0.011795 
1858086028130 -0.000732 0.004501 0.011795 
1858105834039 -0.000732 0.004501 0.011795 
1858125639947 -0.000732 0.004501 0.011795 
1858145476373 -0.000732 0.004501 0.011795 
1858165282281 -0.000732 0.004501 0.011795 
1858185088189 -0.000732 0.004501 0.011795 
1858204924615 -0.000732 0.004501 0.011795 
1858224730523 -0.000732 0.004501 0.011795 
1858244536431 -0.000732 0.004501 0.011795 
1858264372857 -0.000732 0.004501 0.011795 
1858284178765 -0.000732 0.004501 0.011795 
1858303984673 -0.000732 0.004501 0.011795 
1858323821099 -0.000732 0.004501 0.011795 
1858343657525 -0.000732 0.004501 0.011795 
1858363463433 -0.000732 0.004501 0.011795 
1858383299859 -0.000732 0.004501 0.011795 
1858403105767 -0.000732 0.004501 0.011795 
1858422911675 -0.000732 0.004501 0.011795 
1858442748101 -0.000732 0.004501 0.011795 
1858462554009 -0.000732 0.004501 0.011795 
1858482359918 -0.000732 0.004501 0.011795 
1858502196343 -0.000732 0.004501 0.011795 
1858522018966 -0.000732 0.004501 0.011795 
1858541855391 -0.000732 0.004501 0.011795 
1858561661299 -0.000732 0.004501 0.011795 
1858581467208 -0.000732 0.004501 0.011795 
1858601303633 -0.000732 0.004501 0.011795 
1858621109542 -0.000732 0.004501 0.011795 
1858640945967 -0.000732 0.004501 0.011795 
1858660782393 -0.000732 0.004501 0.011795 
1858680588301 -0.000732 0.004501 0.011795 
1858700394210 -0.000732 0.004501 0.011795 
1858720230635 -0.000732 0.004501 0.011795 
1858740036544 -0.000732 0.004501 0.011795 
1858759842452 -0.000732 0.004501 0.011795 
1858779678878 -0.000732 0.004501 0.011795 
1858799484786 -0.000732 0.004501 0.011795 
1858819290694 -0.000732 0.004501 0.011795 
1858839096602 -0.000732 0.004501 0.011795 
1858858933028 -0.000732 0.004501 0.011795 
1858878738936 -0.000732 0.004501 0.011795 
1858898575362 -0.000732 0.004501 0.011795 
1858918411788 -0.000732 0.004501 0.011795 
1858938217696 -0.000732 0.004501 0.011795 
1858958054122 -0.000732 0.004501 0.011795 
1858977860030 -0.000732 0.004501 0.011795 
1858997665938 -0.000732 0.004501 0.011795 
1859017502364 -0.000732 0.004501 0.011795 
1859037308272 -0.000732 0.004501 0.011795 
1859057114180 -0.000732 0.004501 0.011795 
1859076950606 -0.000732 0.004501 0.011795 
1859096756514 -0.000732 0.004501 0.011795 
1859116562423 -0.000732 0.004501 0.011795 
1859136398848 -0.000732 0.004501 0.011795 
1859156204757 -0.000732 0.004501 0.011795 
1859176010665 -0.000732 0.004501 0.011795 
1859195847091 -0.000732 0.004501 0.011795 
1859215683516 -0.000732 0.004501 0.011795 
1859235489424 -0.000732 0.004501 0.011795 
1859255325850 -0.000732 0.004501 0.011795 
1859275131758 -0.000732 0.004501 0.011795 
1859294937667 -0.000732 0.004501 0.011795 
1859314774092 -0.000732 0.004501 0.011795 
1859334580001 -0.000732 0.004501 0.011795 
1859354385909 -0.000732 0.004501 0.011795 
1859374222335 -0.000732 0.004501 0.011795 
1859394028243 -0.000732 0.004501 0.011795 
1859413834151 -0.000732 0.004501 0.011795 
1859433670577 -0.000732 0.004501 0.011795 
1859453476485 -0.000732 0.004501 0.011795 
1859473282393 -0.000732 0.004501 0.011795 
1859493118819 -0.000732 0.004501 0.011795 
1859512955245 -0.000732 0.004501 0.011795 
1859532761153 -0.000732 0.004501 0.011795 
1859552597579 -0.000732 0.004501 0.011795 
1859572403487 -0.000732 0.004501 0.011795 
1859592209395 -0.000732 0.004501 0.011795 
1859612045821 -0.000732 0.004501 0.011795 
1859631851729 -0.000732 0.004501 0.011795 
1859651657637 -0.000732 0.004501 0.011795 
1859671494063 -0.000732 0.004501 0.011795 
1859691299971 -0.000732 0.004501 0.011795 
1859711105880 -0.000732 0.004501 0.011795 
1859730942305 -0.000732 0.004501 0.011795 
1859750748214 -0.000732 0.004501 0.011795 
1859770584639 -0.000732 0.004501 0.011795 
1859790421065 -0.000732 0.004501 0.011795 
1859810226973 -0.000732 0.004501 0.011795 
1859830032882 -0.000732 0.004501 0.011795 
1859849869307 -0.000732 0.004501 0.011795 
1859869675216 -0.000732 0.004501 0.011795 
1859889511641 -0.000732 0.004501 0.011795 
1859909317549 -0.000732 0.004501 0.011795 
1859929123458 -0.000732 0.004501 0.011795 
1859948959883 -0.000732 0.004501 0.011795 
1859968765792 -0.000732 0.004501 0.011795 
1859988571700 -0.000732 0.004501 0.011795 
1860008408126 -0.000732 0.004501 0.011795 
1860028214034 -0.000732 0.004501 0.011795 
1860048019942 -0.000732 0.004501 0.011795 
1860067856368 -0.000732 0.004501 0.011795 
1860087692794 -0.000732 0.004501 0.011795 
1860107498702 -0.000732 0.004501 0.011795 
1860127335128 -0.000732 0.004501 0.011795 
1860147141036 -0.000732 0.004501 0.011795 
1860166946944 -0.000732 0.004501 0.011795 
1860186783370 -0.000732 0.004501 0.011795 
1860206589278 -0.000732 0.004501 0.011795 
1860226395186 -0.000732 0.004501 0.011795 
1860246231612 -0.000732 0.004501 0.011795 
1860266037520 -0.000732 0.004501 0.011795 
1860285843428 -0.000732 0.004501 0.011795 
1860305679854 -0.000732 0.004501 0.011795 
1860325485762 -0.000732 0.004501 0.011795 
1860345322188 -0.000732 0.004501 0.011795 
1860365158614 -0.000732 0.004501 0.011795 
1860384964522 -0.000732 0.004501 0.011795 
1860404770430 -0.000732 0.004501 0.011795 
1860424606856 -0.000732 0.004501 0.011795 
1860444412764 -0.000732 0.004501 0.011795 
1860464218673 -0.000732 0.004501 0.011795 
1860484055098 -0.000732 0.004501 0.011795 
1860503861007 -0.000732 0.004501 0.011795 
1860523666915 -0.000732 0.004501 0.011795 
1860543503341 -0.000732 0.004501 0.011795 
1860563309249 -0.000732 0.004501 0.011795 
1860583115157 -0.000732 0.004501 0.011795 
1860602951583 -0.000732 0.004501 0.011795 
1860622757491 -0.000732 0.004501 0.011795 
1860642593917 -0.000732 0.004501 0.011795 
1860662430342 -0.000732 0.004501 0.011795 
1860682236251 -0.000732 0.004501 0.011795 
1860702042159 -0.000732 0.004501 0.011795 
1860721878585 -0.000732 0.004501 0.011795 
1860741684493 -0.000732 0.004501 0.011795 
1860761490401 -0.000732 0.004501 0.011795 
1860781326827 -0.000732 0.004501 0.011795 
1860801132735 -0.000732 0.004501 0.011795 
1860820938643 -0.000732 0.004501 0.011795 
1860840775069 -0.000732 0.004501 0.011795 
1860860580977 -0.000732 0.004501 0.011795 
1860880386885 -0.000732 0.004501 0.011795 
1860900223311 -0.000732 0.004501 0.011795 
1860920059737 -0.000732 0.004501 0.011795 
1860939865645 -0.000732 0.004501 0.011795 
1860959702071 -0.000732 0.004501 0.011795 
1860979507979 -0.000732 0.004501 0.011795 
1860999313887 -0.000732 0.004501 0.011795 
1861019150313 -0.000732 0.004501 0.011795 
1861038956221 -0.000732 0.004501 0.011795 
1861058792647 -0.000732 0.004501 0.011795 
1861078598555 -0.000732 0.004501 0.011795 
1861098404464 -0.000732 0.004501 0.011795 
1861118240889 -0.000732 0.004501 0.011795 
1861138046798 -0.000732 0.004501 0.011795 
1861157852706 -0.000732 0.004501 0.011795 
1861177689132 -0.000732 0.004501 0.011795 
1861197495040 -0.000732 0.004501 0.011795 
1861217331466 -0.000732 0.004501 0.011795 
1861237167891 -0.000732 0.004501 0.011795 
1861256973799 -0.000732 0.004501 0.011795 
1861276779708 -0.000732 0.004501 0.011795 
1861296616133 -0.000732 0.004501 0.011795 
1861316422042 -0.000732 0.004501 0.011795 
1861336227950 -0.000732 0.004501 0.011795 
1861356064376 -0.000732 0.004501 0.011795 
1861375870284 -0.000732 0.004501 0.011795 
1861395676192 -0.000732 0.004501 0.011795 
1861415512618 -0.000732 0.004501 0.011795 
1861435318526 -0.000732 0.004501 0.011795 
1861455124434 -0.000732 0.004501 0.011795 
1861474960860 -0.000732 0.004501 0.011795 
1861494797286 -0.000732 0.004501 0.011795 
1861514603194 -0.000732 0.004501 0.011795 
1861534439620 -0.000732 0.004501 0.011795 
1861554245528 -0.000732 0.004501 0.011795 
1861574051436 -0.000732 0.004501 0.011795 
1861593887862 -0.000732 0.004501 0.011795 
1861613693770 -0.000732 0.004501 0.011795 
1861633499678 -0.000732 0.004501 0.011795 
1861653336104 -0.000732 0.004501 0.011795 
1861673142012 -0.000732 0.004501 0.011795 
1861692947921 -0.000732 0.004501 0.011795 
1861712784346 -0.000732 0.004501 0.011795 
1861732590255 -0.000732 0.004501 0.011795 
1861752396163 -0.000732 0.004501 0.011795 
1861772232589 -0.000732 0.004501 0.011795 
1861792069014 -0.000732 0.004501 0.011795 
1861811874923 -0.000732 0.004501 0.011795 
1861831711348 -0.000732 0.004501 0.011795 
1861851517257 -0.000732 0.004501 0.011795 
1861871323165 -0.000732 0.004501 0.011795 
1861891159591 -0.000732 0.004501 0.011795 
1861910965499 -0.000732 0.004501 0.011795 
1861930771407 -0.000732 0.004501 0.011795 
1861950607833 -0.000732 0.004501 0.011795 
1861970413741 -0.000732 0.004501 0.011795 
