# Created at Tue Jun 01 15:46:12 GMT+02:00 2021 in Burnaby Canada 
1374506200312 -0.000793 0.004974 0.011902 
1374526006220 -0.000793 0.004974 0.011902 
1374545842646 -0.000793 0.004974 0.011902 
1374565648554 -0.000793 0.004974 0.011902 
1374585454462 -0.000793 0.004974 0.011902 
1374605290888 -0.000793 0.004974 0.011902 
1374625096796 -0.000793 0.004974 0.011902 
1374644933222 -0.000793 0.004974 0.011902 
1374664739130 -0.000793 0.004974 0.011902 
1374684545038 -0.000793 0.004974 0.011902 
1374704381464 -0.000793 0.004974 0.011902 
1374724187372 -0.000793 0.004974 0.011902 
1374743993280 -0.000793 0.004974 0.011902 
1374763829706 -0.000793 0.004974 0.011902 
1374783666132 -0.000793 0.004974 0.011902 
1374803472040 -0.000793 0.004974 0.011902 
1374823308466 -0.000793 0.004974 0.011902 
1374843114374 -0.000793 0.004974 0.011902 
1374862920282 -0.000793 0.004974 0.011902 
1374882756708 -0.000793 0.004974 0.011902 
1374902562616 -0.000793 0.004974 0.011902 
1374922368525 -0.000793 0.004974 0.011902 
1374942204950 -0.000793 0.004974 0.011902 
1374962010858 -0.000793 0.004974 0.011902 
1374981816767 -0.000793 0.004974 0.011902 
1375001653192 -0.000793 0.004974 0.011902 
1375021459101 -0.000793 0.004974 0.011902 
1375041295526 -0.000793 0.004974 0.011902 
1375061131952 -0.000793 0.004974 0.011902 
1375080937860 -0.000793 0.004974 0.011902 
1375100774286 -0.000793 0.004974 0.011902 
1375120580194 -0.000793 0.004974 0.011902 
1375140386103 -0.000793 0.004974 0.011902 
1375160222528 -0.000793 0.004974 0.011902 
1375180028437 -0.000793 0.004974 0.011902 
1375199834345 -0.000793 0.004974 0.011902 
1375219670771 -0.000793 0.004974 0.011902 
1375239476679 -0.000793 0.004974 0.011902 
1375259282587 -0.000793 0.004974 0.011902 
1375279119013 -0.000793 0.004974 0.011902 
1375298924921 -0.000793 0.004974 0.011902 
1375318730829 -0.000793 0.004974 0.011902 
1375338567255 -0.000793 0.004974 0.011902 
1375358403681 -0.000793 0.004974 0.011902 
1375378209589 -0.000793 0.004974 0.011902 
1375398046015 -0.000793 0.004974 0.011902 
1375417851923 -0.000793 0.004974 0.011902 
1375437657831 -0.000793 0.004974 0.011902 
1375457494257 -0.000793 0.004974 0.011902 
1375477300165 -0.000793 0.004974 0.011902 
1375497106073 -0.000793 0.004974 0.011902 
1375516942499 -0.000793 0.004974 0.011902 
1375536748407 -0.000793 0.004974 0.011902 
1375556584833 -0.000793 0.004974 0.011902 
1375576390741 -0.000793 0.004974 0.011902 
1375596196650 -0.000793 0.004974 0.011902 
1375616033075 -0.000793 0.004974 0.011902 
1375635869501 -0.000793 0.004974 0.011902 
1375655675409 -0.000793 0.004974 0.011902 
1375675511835 -0.000793 0.004974 0.011902 
1375695317743 -0.000793 0.004974 0.011902 
1375715123651 -0.000793 0.004974 0.011902 
1375734960077 -0.000793 0.004974 0.011902 
1375754765985 -0.000793 0.004974 0.011902 
1375774571894 -0.000793 0.004974 0.011902 
1375794408319 -0.000793 0.004974 0.011902 
1375814214228 -0.000793 0.004974 0.011902 
1375834020136 -0.000793 0.004974 0.011902 
1375853856562 -0.000793 0.004974 0.011902 
1375873662470 -0.000793 0.004974 0.011902 
1375893468378 -0.000793 0.004974 0.011902 
1375913304804 -0.000793 0.004974 0.011902 
1375933141230 -0.000793 0.004974 0.011902 
1375952977655 -0.000793 0.004974 0.011902 
1375972783564 -0.000793 0.004974 0.011902 
1375992589472 -0.000793 0.004974 0.011902 
1376012425898 -0.000793 0.004974 0.011902 
1376032231806 -0.000793 0.004974 0.011902 
1376052037714 -0.000793 0.004974 0.011902 
1376071874140 -0.000793 0.004974 0.011902 
1376091680048 -0.000793 0.004974 0.011902 
1376111485956 -0.000793 0.004974 0.011902 
1376131322382 -0.000793 0.004974 0.011902 
1376151128290 -0.000793 0.004974 0.011902 
1376170934198 -0.000793 0.004974 0.011902 
1376190770624 -0.000793 0.004974 0.011902 
1376210607050 -0.000793 0.004974 0.011902 
1376230412958 -0.000793 0.004974 0.011902 
1376250249384 -0.000793 0.004974 0.011902 
1376270055292 -0.000793 0.004974 0.011902 
1376289861200 -0.000793 0.004974 0.011902 
1376309697626 -0.000793 0.004974 0.011902 
1376329503534 -0.000793 0.004974 0.011902 
1376349309442 -0.000793 0.004974 0.011902 
1376369145868 -0.000793 0.004974 0.011902 
1376388951776 -0.000793 0.004974 0.011902 
1376408757685 -0.000793 0.004974 0.011902 
1376428594110 -0.000793 0.004974 0.011902 
1376448400019 -0.000793 0.004974 0.011902 
1376468205927 -0.000793 0.004974 0.011902 
1376488042353 -0.000793 0.004974 0.011902 
1376507878778 -0.000793 0.004974 0.011902 
1376527715204 -0.000793 0.004974 0.011902 
1376547521112 -0.000793 0.004974 0.011902 
1376567327021 -0.000793 0.004974 0.011902 
1376587163446 -0.000793 0.004974 0.011902 
1376606969355 -0.000793 0.004974 0.011902 
1376626775263 -0.000793 0.004974 0.011902 
1376646611689 -0.000793 0.004974 0.011902 
1376666417597 -0.000793 0.004974 0.011902 
1376686223505 -0.000793 0.004974 0.011902 
1376706059931 -0.000793 0.004974 0.011902 
1376725865839 -0.000793 0.004974 0.011902 
1376745671747 -0.000793 0.004974 0.011902 
1376765508173 -0.000793 0.004974 0.011902 
1376785344599 -0.000793 0.004974 0.011902 
1376805181025 -0.000793 0.004974 0.011902 
1376824986933 -0.000793 0.004974 0.011902 
1376844792841 -0.000793 0.004974 0.011902 
1376864629267 -0.000793 0.004974 0.011902 
1376884435175 -0.000793 0.004974 0.011902 
1376904241083 -0.000793 0.004974 0.011902 
1376924077509 -0.000793 0.004974 0.011902 
1376943883417 -0.000793 0.004974 0.011902 
1376963689325 -0.000793 0.004974 0.011902 
1376983525751 -0.000793 0.004974 0.011902 
1377003331659 -0.000793 0.004974 0.011902 
1377023137567 -0.000793 0.004974 0.011902 
1377042973993 -0.000793 0.004974 0.011902 
1377062810419 -0.000793 0.004974 0.011902 
1377082616327 -0.000793 0.004974 0.011902 
1377102452753 -0.000793 0.004974 0.011902 
1377122258661 -0.000793 0.004974 0.011902 
1377142064569 -0.000793 0.004974 0.011902 
1377161900995 -0.000793 0.004974 0.011902 
1377181706903 -0.000793 0.004974 0.011902 
1377201543329 -0.000793 0.004974 0.011902 
1377221349237 -0.000793 0.004974 0.011902 
1377241155146 -0.000793 0.004974 0.011902 
1377260991571 -0.000793 0.004974 0.011902 
1377280797480 -0.000793 0.004974 0.011902 
1377300603388 -0.000793 0.004974 0.011902 
1377320439814 -0.000793 0.004974 0.011902 
1377340245722 -0.000793 0.004974 0.011902 
1377360082148 -0.000793 0.004974 0.011902 
1377379918573 -0.000793 0.004974 0.011902 
1377399724482 -0.000793 0.004974 0.011902 
1377419530390 -0.000793 0.004974 0.011902 
1377439366816 -0.000793 0.004974 0.011902 
1377459172724 -0.000793 0.004974 0.011902 
1377479009150 -0.000793 0.004974 0.011902 
1377498815058 -0.000793 0.004974 0.011902 
1377518620966 -0.000793 0.004974 0.011902 
1377538457392 -0.000793 0.004974 0.011902 
1377558263300 -0.000793 0.004974 0.011902 
1377578069208 -0.000793 0.004974 0.011902 
1377597905634 -0.000793 0.004974 0.011902 
1377617711542 -0.000793 0.004974 0.011902 
1377637547968 -0.000793 0.004974 0.011902 
1377657384394 -0.000793 0.004974 0.011902 
1377677190302 -0.000793 0.004974 0.011902 
1377696996210 -0.000793 0.004974 0.011902 
1377716832636 -0.000793 0.004974 0.011902 
1377736638544 -0.000793 0.004974 0.011902 
1377756444452 -0.000793 0.004974 0.011902 
1377776280878 -0.000793 0.004974 0.011902 
1377796086786 -0.000793 0.004974 0.011902 
1377815892694 -0.000793 0.004974 0.011902 
1377835729120 -0.000793 0.004974 0.011902 
1377855535028 -0.000793 0.004974 0.011902 
1377875371454 -0.000793 0.004974 0.011902 
1377895177362 -0.000793 0.004974 0.011902 
1377914983271 -0.000793 0.004974 0.011902 
1377934819696 -0.000793 0.004974 0.011902 
1377954656122 -0.000793 0.004974 0.011902 
1377974462030 -0.000793 0.004974 0.011902 
1377994298456 -0.000793 0.004974 0.011902 
1378014104364 -0.000793 0.004974 0.011902 
1378033910273 -0.000793 0.004974 0.011902 
1378053746698 -0.000793 0.004974 0.011902 
1378073552607 -0.000793 0.004974 0.011902 
1378093358515 -0.000793 0.004974 0.011902 
1378113194941 -0.000793 0.004974 0.011902 
1378133000849 -0.000793 0.004974 0.011902 
1378152806757 -0.000793 0.004974 0.011902 
1378172643183 -0.000793 0.004974 0.011902 
1378192449091 -0.000793 0.004974 0.011902 
1378212285517 -0.000793 0.004974 0.011902 
1378232121942 -0.000793 0.004974 0.011902 
1378251927851 -0.000793 0.004974 0.011902 
1378271764276 -0.000793 0.004974 0.011902 
1378291570185 -0.000793 0.004974 0.011902 
1378311376093 -0.000793 0.004974 0.011902 
1378331212519 -0.000793 0.004974 0.011902 
1378351018427 -0.000793 0.004974 0.011902 
1378370824335 -0.000793 0.004974 0.011902 
1378390660761 -0.000793 0.004974 0.011902 
1378410466669 -0.000793 0.004974 0.011902 
1378430272577 -0.000793 0.004974 0.011902 
1378450109003 -0.000793 0.004974 0.011902 
1378469918429 -0.000793 0.004974 0.011902 
1378489724337 -0.000793 0.004974 0.011902 
1378509560763 -0.000793 0.004974 0.011902 
1378529397189 -0.000793 0.004974 0.011902 
1378549233615 -0.000793 0.004974 0.011902 
1378569039523 -0.000793 0.004974 0.011902 
1378588845431 -0.000793 0.004974 0.011902 
1378608681857 -0.000793 0.004974 0.011902 
1378628487765 -0.000793 0.004974 0.011902 
1378648293673 -0.000793 0.004974 0.011902 
1378668130099 -0.000793 0.004974 0.011902 
1378687936007 -0.000793 0.004974 0.011902 
1378707741916 -0.000793 0.004974 0.011902 
1378727578341 -0.000793 0.004974 0.011902 
1378747384250 -0.000793 0.004974 0.011902 
1378767190158 -0.000793 0.004974 0.011902 
1378787026584 -0.000793 0.004974 0.011902 
1378806863009 -0.000793 0.004974 0.011902 
1378826668918 -0.000793 0.004974 0.011902 
1378846505343 -0.000793 0.004974 0.011902 
1378866311251 -0.000793 0.004974 0.011902 
1378886147677 -0.000793 0.004974 0.011902 
1378905953585 -0.000793 0.004974 0.011902 
1378925759494 -0.000793 0.004974 0.011902 
1378945595919 -0.000793 0.004974 0.011902 
1378965401828 -0.000793 0.004974 0.011902 
1378985207736 -0.000793 0.004974 0.011902 
1379005044162 -0.000793 0.004974 0.011902 
1379024850070 -0.000793 0.004974 0.011902 
1379044655978 -0.000793 0.004974 0.011902 
1379064492404 -0.000793 0.004974 0.011902 
1379084328830 -0.000793 0.004974 0.011902 
1379104134738 -0.000793 0.004974 0.011902 
1379123971164 -0.000793 0.004974 0.011902 
1379143777072 -0.000793 0.004974 0.011902 
1379163582980 -0.000793 0.004974 0.011902 
1379183419406 -0.000793 0.004974 0.011902 
1379203225314 -0.000793 0.004974 0.011902 
1379223031222 -0.000793 0.004974 0.011902 
1379242867648 -0.000793 0.004974 0.011902 
1379262673556 -0.000793 0.004974 0.011902 
1379282479464 -0.000793 0.004974 0.011902 
1379302315890 -0.000793 0.004974 0.011902 
1379322121798 -0.000793 0.004974 0.011902 
1379341958224 -0.000793 0.004974 0.011902 
1379361794650 -0.000793 0.004974 0.011902 
1379381600558 -0.000793 0.004974 0.011902 
1379401436984 -0.000793 0.004974 0.011902 
1379421242892 -0.000793 0.004974 0.011902 
1379441048800 -0.000793 0.004974 0.011902 
1379460885226 -0.000793 0.004974 0.011902 
1379480691134 -0.000793 0.004974 0.011902 
1379500527560 -0.000793 0.004974 0.011902 
1379520333468 -0.000793 0.004974 0.011902 
1379540139376 -0.000793 0.004974 0.011902 
1379559975802 -0.000793 0.004974 0.011902 
1379579781710 -0.000793 0.004974 0.011902 
1379599587619 -0.000793 0.004974 0.011902 
1379619424044 -0.000793 0.004974 0.011902 
1379639260470 -0.000793 0.004974 0.011902 
1379659066378 -0.000793 0.004974 0.011902 
1379678902804 -0.000793 0.004974 0.011902 
1379698708712 -0.000793 0.004974 0.011902 
1379718514621 -0.000793 0.004974 0.011902 
1379738351046 -0.000793 0.004974 0.011902 
1379758156955 -0.000793 0.004974 0.011902 
1379777962863 -0.000793 0.004974 0.011902 
1379797799289 -0.000793 0.004974 0.011902 
1379817605197 -0.000793 0.004974 0.011902 
1379837441623 -0.000793 0.004974 0.011902 
1379857247531 -0.000793 0.004974 0.011902 
1379877053439 -0.000793 0.004974 0.011902 
1379896889865 -0.000793 0.004974 0.011902 
1379916695773 -0.000793 0.004974 0.011902 
1379936532199 -0.000793 0.004974 0.011902 
1379956368625 -0.000793 0.004974 0.011902 
1379976174533 -0.000793 0.004974 0.011902 
1379995980441 -0.000793 0.004974 0.011902 
1380015816867 -0.000793 0.004974 0.011902 
1380035622775 -0.000793 0.004974 0.011902 
1380055428683 -0.000793 0.004974 0.011902 
1380075265109 -0.000793 0.004974 0.011902 
1380095071017 -0.000793 0.004974 0.011902 
1380114876925 -0.000793 0.004974 0.011902 
1380134713351 -0.000793 0.004974 0.011902 
1380154519259 -0.000793 0.004974 0.011902 
1380174355685 -0.000793 0.004974 0.011902 
1380194161593 -0.000793 0.004974 0.011902 
1380213998019 -0.000793 0.004974 0.011902 
1380233834445 -0.000793 0.004974 0.011902 
1380253640353 -0.000793 0.004974 0.011902 
