# Created at Tue Jun 01 16:21:01 GMT+02:00 2021 in Burnaby Canada 
3463528581391 -0.000870 0.005554 0.011749 
3463548417817 -0.000870 0.005554 0.011749 
3463568223725 -0.000870 0.005554 0.011749 
3463588060151 -0.000870 0.005554 0.011749 
3463607866059 -0.000870 0.005554 0.011749 
3463627671968 -0.000870 0.005554 0.011749 
3463647508393 -0.000870 0.005554 0.011749 
3463667314302 -0.000870 0.005554 0.011749 
3463687150727 -0.000870 0.005554 0.011749 
3463706956636 -0.000870 0.005554 0.011749 
3463726762544 -0.000870 0.005554 0.011749 
3463746598970 -0.000870 0.005554 0.011749 
3463766404878 -0.000870 0.005554 0.011749 
3463786210786 -0.000870 0.005554 0.011749 
3463806047212 -0.000870 0.005554 0.011749 
3463825853120 -0.000870 0.005554 0.011749 
3463845689546 -0.000870 0.005554 0.011749 
3463865525971 -0.000870 0.005554 0.011749 
3463885331880 -0.000870 0.005554 0.011749 
3463905168305 -0.000870 0.005554 0.011749 
3463924974214 -0.000870 0.005554 0.011749 
3463944780122 -0.000870 0.005554 0.011749 
3463964616548 -0.000870 0.005554 0.011749 
3463984422456 -0.000870 0.005554 0.011749 
3464004258882 -0.000870 0.005554 0.011749 
3464024064790 -0.000870 0.005554 0.011749 
3464043870698 -0.000870 0.005554 0.011749 
3464063707124 -0.000870 0.005554 0.011749 
3464083513032 -0.000870 0.005554 0.011749 
3464103318940 -0.000870 0.005554 0.011749 
3464123155366 -0.000870 0.005554 0.011749 
3464142991792 -0.000870 0.005554 0.011749 
3464162797700 -0.000870 0.005554 0.011749 
3464182634126 -0.000870 0.005554 0.011749 
3464202440034 -0.000870 0.005554 0.011749 
3464222276460 -0.000870 0.005554 0.011749 
3464242082368 -0.000870 0.005554 0.011749 
3464261888276 -0.000870 0.005554 0.011749 
3464281724702 -0.000870 0.005554 0.011749 
3464301530610 -0.000870 0.005554 0.011749 
3464321336518 -0.000870 0.005554 0.011749 
3464341172944 -0.000870 0.005554 0.011749 
3464360978852 -0.000870 0.005554 0.011749 
3464380815278 -0.000870 0.005554 0.011749 
3464400621186 -0.000870 0.005554 0.011749 
3464420457612 -0.000870 0.005554 0.011749 
3464440294038 -0.000870 0.005554 0.011749 
3464460099946 -0.000870 0.005554 0.011749 
3464479905854 -0.000870 0.005554 0.011749 
3464499742280 -0.000870 0.005554 0.011749 
3464519548188 -0.000870 0.005554 0.011749 
3464539384614 -0.000870 0.005554 0.011749 
3464559190522 -0.000870 0.005554 0.011749 
3464578996430 -0.000870 0.005554 0.011749 
3464598832856 -0.000870 0.005554 0.011749 
3464618638764 -0.000870 0.005554 0.011749 
3464638444673 -0.000870 0.005554 0.011749 
3464658281098 -0.000870 0.005554 0.011749 
3464678087007 -0.000870 0.005554 0.011749 
3464697923432 -0.000870 0.005554 0.011749 
3464717759858 -0.000870 0.005554 0.011749 
3464737565766 -0.000870 0.005554 0.011749 
3464757402192 -0.000870 0.005554 0.011749 
3464777208100 -0.000870 0.005554 0.011749 
3464797014009 -0.000870 0.005554 0.011749 
3464816850434 -0.000870 0.005554 0.011749 
3464836656343 -0.000870 0.005554 0.011749 
3464856462251 -0.000870 0.005554 0.011749 
3464876298677 -0.000870 0.005554 0.011749 
3464896104585 -0.000870 0.005554 0.011749 
3464915910493 -0.000870 0.005554 0.011749 
3464935746919 -0.000870 0.005554 0.011749 
3464955552827 -0.000870 0.005554 0.011749 
3464975389253 -0.000870 0.005554 0.011749 
3464995225678 -0.000870 0.005554 0.011749 
3465015031587 -0.000870 0.005554 0.011749 
3465034868012 -0.000870 0.005554 0.011749 
3465054673921 -0.000870 0.005554 0.011749 
3465074479829 -0.000870 0.005554 0.011749 
3465094316255 -0.000870 0.005554 0.011749 
3465114122163 -0.000870 0.005554 0.011749 
3465133958589 -0.000870 0.005554 0.011749 
3465153764497 -0.000870 0.005554 0.011749 
3465173570405 -0.000870 0.005554 0.011749 
3465193406831 -0.000870 0.005554 0.011749 
3465213212739 -0.000870 0.005554 0.011749 
3465233018647 -0.000870 0.005554 0.011749 
3465252855073 -0.000870 0.005554 0.011749 
3465272691499 -0.000870 0.005554 0.011749 
3465292497407 -0.000870 0.005554 0.011749 
3465312333833 -0.000870 0.005554 0.011749 
3465332139741 -0.000870 0.005554 0.011749 
3465351976167 -0.000870 0.005554 0.011749 
3465371782075 -0.000870 0.005554 0.011749 
3465391587983 -0.000870 0.005554 0.011749 
3465411424409 -0.000870 0.005554 0.011749 
3465431230317 -0.000870 0.005554 0.011749 
3465451036225 -0.000870 0.005554 0.011749 
3465470872651 -0.000870 0.005554 0.011749 
3465490678559 -0.000870 0.005554 0.011749 
3465510514985 -0.000870 0.005554 0.011749 
3465530320893 -0.000870 0.005554 0.011749 
3465550157319 -0.000870 0.005554 0.011749 
3465569993745 -0.000870 0.005554 0.011749 
3465589799653 -0.000870 0.005554 0.011749 
3465609605561 -0.000870 0.005554 0.011749 
3465629441987 -0.000870 0.005554 0.011749 
3465649247895 -0.000870 0.005554 0.011749 
3465669084321 -0.000870 0.005554 0.011749 
3465688890229 -0.000870 0.005554 0.011749 
3465708696137 -0.000870 0.005554 0.011749 
3465728532563 -0.000870 0.005554 0.011749 
3465748338471 -0.000870 0.005554 0.011749 
3465768144380 -0.000870 0.005554 0.011749 
3465787980805 -0.000870 0.005554 0.011749 
3465807786714 -0.000870 0.005554 0.011749 
3465827592622 -0.000870 0.005554 0.011749 
3465847429048 -0.000870 0.005554 0.011749 
3465867265473 -0.000870 0.005554 0.011749 
3465887071382 -0.000870 0.005554 0.011749 
3465906907807 -0.000870 0.005554 0.011749 
3465926713716 -0.000870 0.005554 0.011749 
3465946550141 -0.000870 0.005554 0.011749 
3465966356050 -0.000870 0.005554 0.011749 
3465986161958 -0.000870 0.005554 0.011749 
3466005998384 -0.000870 0.005554 0.011749 
3466025804292 -0.000870 0.005554 0.011749 
3466045640718 -0.000870 0.005554 0.011749 
3466065446626 -0.000870 0.005554 0.011749 
3466085252534 -0.000870 0.005554 0.011749 
3466105058442 -0.000870 0.005554 0.011749 
3466124894868 -0.000870 0.005554 0.011749 
3466144731294 -0.000870 0.005554 0.011749 
3466164567720 -0.000870 0.005554 0.011749 
3466184373628 -0.000870 0.005554 0.011749 
3466204179536 -0.000870 0.005554 0.011749 
3466224015962 -0.000870 0.005554 0.011749 
3466243821870 -0.000870 0.005554 0.011749 
3466263627778 -0.000870 0.005554 0.011749 
3466283464204 -0.000870 0.005554 0.011749 
3466303270112 -0.000870 0.005554 0.011749 
3466323106538 -0.000870 0.005554 0.011749 
3466342912446 -0.000870 0.005554 0.011749 
3466362718354 -0.000870 0.005554 0.011749 
3466382554780 -0.000870 0.005554 0.011749 
3466402360688 -0.000870 0.005554 0.011749 
3466422197114 -0.000870 0.005554 0.011749 
3466442033540 -0.000870 0.005554 0.011749 
3466461839448 -0.000870 0.005554 0.011749 
3466481645356 -0.000870 0.005554 0.011749 
3466501481782 -0.000870 0.005554 0.011749 
3466521287690 -0.000870 0.005554 0.011749 
3466541124116 -0.000870 0.005554 0.011749 
3466560930024 -0.000870 0.005554 0.011749 
3466580735932 -0.000870 0.005554 0.011749 
3466600572358 -0.000870 0.005554 0.011749 
3466620378266 -0.000870 0.005554 0.011749 
3466640184175 -0.000870 0.005554 0.011749 
3466660020600 -0.000870 0.005554 0.011749 
3466679826509 -0.000870 0.005554 0.011749 
3466699662934 -0.000870 0.005554 0.011749 
3466719499360 -0.000870 0.005554 0.011749 
3466739305268 -0.000870 0.005554 0.011749 
3466759141694 -0.000870 0.005554 0.011749 
3466778947602 -0.000870 0.005554 0.011749 
3466798784028 -0.000870 0.005554 0.011749 
3466818589936 -0.000870 0.005554 0.011749 
3466838395845 -0.000870 0.005554 0.011749 
3466858232270 -0.000870 0.005554 0.011749 
3466878038178 -0.000870 0.005554 0.011749 
3466897844087 -0.000870 0.005554 0.011749 
3466917680512 -0.000870 0.005554 0.011749 
3466937486421 -0.000870 0.005554 0.011749 
3466957292329 -0.000870 0.005554 0.011749 
3466977128755 -0.000870 0.005554 0.011749 
3466996965180 -0.000870 0.005554 0.011749 
3467016801606 -0.000870 0.005554 0.011749 
3467036607514 -0.000870 0.005554 0.011749 
3467056413423 -0.000870 0.005554 0.011749 
3467076249848 -0.000870 0.005554 0.011749 
3467096055757 -0.000870 0.005554 0.011749 
3467115861665 -0.000870 0.005554 0.011749 
3467135698091 -0.000870 0.005554 0.011749 
3467155503999 -0.000870 0.005554 0.011749 
3467175340425 -0.000870 0.005554 0.011749 
3467195146333 -0.000870 0.005554 0.011749 
3467214952241 -0.000870 0.005554 0.011749 
3467234788667 -0.000870 0.005554 0.011749 
3467254594575 -0.000870 0.005554 0.011749 
3467274431001 -0.000870 0.005554 0.011749 
3467294267427 -0.000870 0.005554 0.011749 
3467314073335 -0.000870 0.005554 0.011749 
3467333909761 -0.000870 0.005554 0.011749 
3467353715669 -0.000870 0.005554 0.011749 
3467373521577 -0.000870 0.005554 0.011749 
3467393358003 -0.000870 0.005554 0.011749 
3467413163911 -0.000870 0.005554 0.011749 
3467432969819 -0.000870 0.005554 0.011749 
3467452806245 -0.000870 0.005554 0.011749 
3467472612153 -0.000870 0.005554 0.011749 
3467492418061 -0.000870 0.005554 0.011749 
3467512254487 -0.000870 0.005554 0.011749 
3467532060395 -0.000870 0.005554 0.011749 
3467551896821 -0.000870 0.005554 0.011749 
3467571733247 -0.000870 0.005554 0.011749 
3467591539155 -0.000870 0.005554 0.011749 
3467611375581 -0.000870 0.005554 0.011749 
3467631181489 -0.000870 0.005554 0.011749 
3467650987397 -0.000870 0.005554 0.011749 
3467670823823 -0.000870 0.005554 0.011749 
3467690629731 -0.000870 0.005554 0.011749 
3467710466157 -0.000870 0.005554 0.011749 
3467730272065 -0.000870 0.005554 0.011749 
3467750077973 -0.000870 0.005554 0.011749 
3467769914399 -0.000870 0.005554 0.011749 
3467789720307 -0.000870 0.005554 0.011749 
3467809526216 -0.000870 0.005554 0.011749 
3467829362641 -0.000870 0.005554 0.011749 
3467849199067 -0.000870 0.005554 0.011749 
3467869004975 -0.000870 0.005554 0.011749 
3467888841401 -0.000870 0.005554 0.011749 
3467908647309 -0.000870 0.005554 0.011749 
3467928483735 -0.000870 0.005554 0.011749 
3467948289643 -0.000870 0.005554 0.011749 
3467968095552 -0.000870 0.005554 0.011749 
3467987931977 -0.000870 0.005554 0.011749 
3468007737886 -0.000870 0.005554 0.011749 
3468027574311 -0.000870 0.005554 0.011749 
3468047380220 -0.000870 0.005554 0.011749 
3468067186128 -0.000885 0.005585 0.012131 
3468087022553 -0.000885 0.005585 0.012131 
3468106828462 -0.000885 0.005585 0.012131 
3468126664887 -0.000885 0.005585 0.012131 
3468146501313 -0.000885 0.005585 0.012131 
3468166307221 -0.000885 0.005585 0.012131 
3468186113130 -0.000885 0.005585 0.012131 
3468205949555 -0.000885 0.005585 0.012131 
3468225755464 -0.000885 0.005585 0.012131 
3468245591889 -0.000885 0.005585 0.012131 
3468265397798 -0.000885 0.005585 0.012131 
3468285203706 -0.000885 0.005585 0.012131 
3468305040132 -0.000885 0.005585 0.012131 
3468324846040 -0.000885 0.005585 0.012131 
3468344651948 -0.000885 0.005585 0.012131 
3468364488374 -0.000885 0.005585 0.012131 
3468384294282 -0.000885 0.005585 0.012131 
3468404130708 -0.000885 0.005585 0.012131 
3468423967134 -0.000885 0.005585 0.012131 
3468443773042 -0.000885 0.005585 0.012131 
3468463609468 -0.000885 0.005585 0.012131 
3468483415376 -0.000885 0.005585 0.012131 
3468503221284 -0.000885 0.005585 0.012131 
3468523057710 -0.000885 0.005585 0.012131 
3468542863618 -0.000885 0.005585 0.012131 
3468562700044 -0.000885 0.005585 0.012131 
3468582505952 -0.000885 0.005585 0.012131 
3468602311860 -0.000885 0.005585 0.012131 
3468622163573 -0.000885 0.005585 0.012131 
3468641969481 -0.000885 0.005585 0.012131 
3468661775389 -0.000885 0.005585 0.012131 
3468681611815 -0.000885 0.005585 0.012131 
3468701448241 -0.000885 0.005585 0.012131 
3468721254149 -0.000885 0.005585 0.012131 
3468741090575 -0.000885 0.005585 0.012131 
3468760896483 -0.000885 0.005585 0.012131 
3468780732909 -0.000885 0.005585 0.012131 
3468800538817 -0.000885 0.005585 0.012131 
3468820344725 -0.000885 0.005585 0.012131 
3468840181151 -0.000885 0.005585 0.012131 
3468859987059 -0.000885 0.005585 0.012131 
3468879792967 -0.000885 0.005585 0.012131 
3468899629393 -0.000885 0.005585 0.012131 
3468919435301 -0.000885 0.005585 0.012131 
3468939271727 -0.000885 0.005585 0.012131 
3468959077635 -0.000885 0.005585 0.012131 
3468978883544 -0.000885 0.005585 0.012131 
3468998719969 -0.000885 0.005585 0.012131 
3469018556395 -0.000885 0.005585 0.012131 
3469038362303 -0.000885 0.005585 0.012131 
3469058198729 -0.000885 0.005585 0.012131 
3469078004637 -0.000885 0.005585 0.012131 
3469097841063 -0.000885 0.005585 0.012131 
3469117646971 -0.000885 0.005585 0.012131 
3469137452880 -0.000885 0.005585 0.012131 
3469157289305 -0.000885 0.005585 0.012131 
3469177095214 -0.000885 0.005585 0.012131 
3469196901122 -0.000885 0.005585 0.012131 
3469216737548 -0.000885 0.005585 0.012131 
3469236543456 -0.000885 0.005585 0.012131 
3469256349364 -0.000885 0.005585 0.012131 
3469276185790 -0.000885 0.005585 0.012131 
3469296022215 -0.000885 0.005585 0.012131 
3469315858641 -0.000885 0.005585 0.012131 
3469335664549 -0.000885 0.005585 0.012131 
3469355470458 -0.000885 0.005585 0.012131 
3469375306883 -0.000885 0.005585 0.012131 
3469395112792 -0.000885 0.005585 0.012131 
3469414918700 -0.000885 0.005585 0.012131 
3469434755126 -0.000885 0.005585 0.012131 
