# Created at Tue Jun 01 15:41:49 GMT+02:00 2021 in Burnaby Canada 
1111703987581 -0.000549 0.004913 0.011627 
1111723793490 -0.000549 0.004913 0.011627 
1111743599398 -0.000549 0.004913 0.011627 
1111763435824 -0.000549 0.004913 0.011627 
1111783241732 -0.000549 0.004913 0.011627 
1111803047640 -0.000549 0.004913 0.011627 
1111822884066 -0.000549 0.004913 0.011627 
1111842720492 -0.000549 0.004913 0.011627 
1111862526400 -0.000549 0.004913 0.011627 
1111882362826 -0.000549 0.004913 0.011627 
1111902168734 -0.000549 0.004913 0.011627 
1111921974642 -0.000549 0.004913 0.011627 
1111941811068 -0.000549 0.004913 0.011627 
1111961616976 -0.000549 0.004913 0.011627 
1111981453402 -0.000549 0.004913 0.011627 
1112001259310 -0.000549 0.004913 0.011627 
1112021065218 -0.000549 0.004913 0.011627 
1112040871126 -0.000549 0.004913 0.011627 
1112060707552 -0.000549 0.004913 0.011627 
1112080513460 -0.000549 0.004913 0.011627 
1112100319369 -0.000549 0.004913 0.011627 
1112120155794 -0.000549 0.004913 0.011627 
1112139992220 -0.000549 0.004913 0.011627 
1112159828646 -0.000549 0.004913 0.011627 
1112179634554 -0.000549 0.004913 0.011627 
1112199440462 -0.000549 0.004913 0.011627 
1112219276888 -0.000549 0.004913 0.011627 
1112239082796 -0.000549 0.004913 0.011627 
1112258888704 -0.000549 0.004913 0.011627 
1112278725130 -0.000549 0.004913 0.011627 
1112298531038 -0.000549 0.004913 0.011627 
1112318336947 -0.000549 0.004913 0.011627 
1112338173372 -0.000549 0.004913 0.011627 
1112357979281 -0.000549 0.004913 0.011627 
1112377785189 -0.000549 0.004913 0.011627 
1112397621615 -0.000549 0.004913 0.011627 
1112417458040 -0.000549 0.004913 0.011627 
1112437263949 -0.000549 0.004913 0.011627 
1112457100374 -0.000549 0.004913 0.011627 
1112476906283 -0.000549 0.004913 0.011627 
1112496712191 -0.000549 0.004913 0.011627 
1112516548617 -0.000549 0.004913 0.011627 
1112536354525 -0.000549 0.004913 0.011627 
1112556190951 -0.000549 0.004913 0.011627 
1112575996859 -0.000549 0.004913 0.011627 
1112595802767 -0.000549 0.004913 0.011627 
1112615639193 -0.000549 0.004913 0.011627 
1112635445101 -0.000549 0.004913 0.011627 
1112655251009 -0.000549 0.004913 0.011627 
1112675087435 -0.000549 0.004913 0.011627 
1112694923861 -0.000549 0.004913 0.011627 
1112714729769 -0.000549 0.004913 0.011627 
1112734566195 -0.000549 0.004913 0.011627 
1112754372103 -0.000549 0.004913 0.011627 
1112774178011 -0.000549 0.004913 0.011627 
1112794014437 -0.000549 0.004913 0.011627 
1112813820345 -0.000549 0.004913 0.011627 
1112833626253 -0.000549 0.004913 0.011627 
1112853462679 -0.000549 0.004913 0.011627 
1112873268587 -0.000549 0.004913 0.011627 
1112893074496 -0.000549 0.004913 0.011627 
1112912910921 -0.000549 0.004913 0.011627 
1112932716829 -0.000549 0.004913 0.011627 
1112952522738 -0.000549 0.004913 0.011627 
1112972359163 -0.000549 0.004913 0.011627 
1112992195589 -0.000549 0.004913 0.011627 
1113012001497 -0.000549 0.004913 0.011627 
1113031837923 -0.000549 0.004913 0.011627 
1113051643831 -0.000549 0.004913 0.011627 
1113071449740 -0.000549 0.004913 0.011627 
1113091286165 -0.000549 0.004913 0.011627 
1113111092074 -0.000549 0.004913 0.011627 
1113130928499 -0.000549 0.004913 0.011627 
1113150734408 -0.000549 0.004913 0.011627 
1113170540316 -0.000549 0.004913 0.011627 
1113190376742 -0.000549 0.004913 0.011627 
1113210182650 -0.000549 0.004913 0.011627 
1113229988558 -0.000549 0.004913 0.011627 
1113249824984 -0.000549 0.004913 0.011627 
1113269661410 -0.000549 0.004913 0.011627 
1113289467318 -0.000549 0.004913 0.011627 
1113309303744 -0.000549 0.004913 0.011627 
1113329109652 -0.000549 0.004913 0.011627 
1113348915560 -0.000549 0.004913 0.011627 
1113368751986 -0.000549 0.004913 0.011627 
1113388557894 -0.000549 0.004913 0.011627 
1113408363802 -0.000549 0.004913 0.011627 
1113428200228 -0.000549 0.004913 0.011627 
1113448006136 -0.000549 0.004913 0.011627 
1113467812044 -0.000549 0.004913 0.011627 
1113487648470 -0.000549 0.004913 0.011627 
1113507454378 -0.000549 0.004913 0.011627 
1113527260287 -0.000549 0.004913 0.011627 
1113547096712 -0.000549 0.004913 0.011627 
1113566933138 -0.000549 0.004913 0.011627 
1113586739046 -0.000549 0.004913 0.011627 
1113606575472 -0.000549 0.004913 0.011627 
1113626381380 -0.000549 0.004913 0.011627 
1113646217806 -0.000549 0.004913 0.011627 
1113666023714 -0.000549 0.004913 0.011627 
1113685829622 -0.000549 0.004913 0.011627 
1113705666048 -0.000549 0.004913 0.011627 
1113725471956 -0.000549 0.004913 0.011627 
1113745277865 -0.000549 0.004913 0.011627 
1113765114290 -0.000549 0.004913 0.011627 
1113784920199 -0.000549 0.004913 0.011627 
1113804726107 -0.000549 0.004913 0.011627 
1113824562533 -0.000549 0.004913 0.011627 
1113844398958 -0.000549 0.004913 0.011627 
1113864204867 -0.000549 0.004913 0.011627 
1113884041292 -0.000549 0.004913 0.011627 
1113903847201 -0.000549 0.004913 0.011627 
1113923653109 -0.000549 0.004913 0.011627 
1113943489535 -0.000549 0.004913 0.011627 
1113963295443 -0.000549 0.004913 0.011627 
1113983101351 -0.000549 0.004913 0.011627 
1114002937777 -0.000549 0.004913 0.011627 
1114022743685 -0.000549 0.004913 0.011627 
1114042549593 -0.000549 0.004913 0.011627 
1114062386019 -0.000549 0.004913 0.011627 
1114082191927 -0.000549 0.004913 0.011627 
1114102028353 -0.000549 0.004913 0.011627 
1114121864779 -0.000549 0.004913 0.011627 
1114141670687 -0.000549 0.004913 0.011627 
1114161507113 -0.000549 0.004913 0.011627 
1114181313021 -0.000549 0.004913 0.011627 
1114201118929 -0.000549 0.004913 0.011627 
1114220955355 -0.000549 0.004913 0.011627 
1114240761263 -0.000549 0.004913 0.011627 
1114260567171 -0.000549 0.004913 0.011627 
1114280403597 -0.000549 0.004913 0.011627 
1114300209505 -0.000549 0.004913 0.011627 
1114320015413 -0.000549 0.004913 0.011627 
1114339851839 -0.000549 0.004913 0.011627 
1114359657747 -0.000549 0.004913 0.011627 
1114379463656 -0.000549 0.004913 0.011627 
1114399300081 -0.000549 0.004913 0.011627 
1114419136507 -0.000549 0.004913 0.011627 
1114438942415 -0.000549 0.004913 0.011627 
1114458778841 -0.000549 0.004913 0.011627 
1114478584749 -0.000549 0.004913 0.011627 
1114498421175 -0.000549 0.004913 0.011627 
1114518227083 -0.000549 0.004913 0.011627 
1114538032992 -0.000549 0.004913 0.011627 
1114557869417 -0.000549 0.004913 0.011627 
1114577675326 -0.000549 0.004913 0.011627 
1114597481234 -0.000549 0.004913 0.011627 
1114617317660 -0.000549 0.004913 0.011627 
1114637123568 -0.000549 0.004913 0.011627 
1114656929476 -0.000549 0.004913 0.011627 
1114676765902 -0.000549 0.004913 0.011627 
1114696602328 -0.000549 0.004913 0.011627 
1114716408236 -0.000549 0.004913 0.011627 
1114736244662 -0.000549 0.004913 0.011627 
1114756050570 -0.000549 0.004913 0.011627 
1114775856478 -0.000549 0.004913 0.011627 
1114795692904 -0.000549 0.004913 0.011627 
1114815498812 -0.000549 0.004913 0.011627 
1114835304720 -0.000549 0.004913 0.011627 
1114855141146 -0.000549 0.004913 0.011627 
1114874947054 -0.000549 0.004913 0.011627 
1114894783480 -0.000549 0.004913 0.011627 
1114914589388 -0.000549 0.004913 0.011627 
1114934395296 -0.000549 0.004913 0.011627 
1114954231722 -0.000549 0.004913 0.011627 
1114974068148 -0.000549 0.004913 0.011627 
1114993874056 -0.000549 0.004913 0.011627 
1115013679964 -0.000549 0.004913 0.011627 
1115033516390 -0.000549 0.004913 0.011627 
1115053322298 -0.000549 0.004913 0.011627 
1115073128206 -0.000549 0.004913 0.011627 
1115092964632 -0.000549 0.004913 0.011627 
1115112770540 -0.000549 0.004913 0.011627 
1115132606966 -0.000549 0.004913 0.011627 
1115152412874 -0.000549 0.004913 0.011627 
1115172218783 -0.000549 0.004913 0.011627 
1115192055208 -0.000549 0.004913 0.011627 
1115211861117 -0.000549 0.004913 0.011627 
1115231667025 -0.000549 0.004913 0.011627 
1115251503451 -0.000549 0.004913 0.011627 
1115271339876 -0.000549 0.004913 0.011627 
1115291176302 -0.000549 0.004913 0.011627 
1115310982210 -0.000549 0.004913 0.011627 
1115330788119 -0.000549 0.004913 0.011627 
1115350624544 -0.000549 0.004913 0.011627 
1115370430453 -0.000549 0.004913 0.011627 
1115390236361 -0.000549 0.004913 0.011627 
1115410072787 -0.000549 0.004913 0.011627 
1115429878695 -0.000549 0.004913 0.011627 
1115449684603 -0.000549 0.004913 0.011627 
1115469521029 -0.000549 0.004913 0.011627 
1115489326937 -0.000549 0.004913 0.011627 
1115509132845 -0.000549 0.004913 0.011627 
1115528969271 -0.000549 0.004913 0.011627 
1115548805697 -0.000549 0.004913 0.011627 
1115568611605 -0.000549 0.004913 0.011627 
1115588448031 -0.000549 0.004913 0.011627 
1115608253939 -0.000549 0.004913 0.011627 
1115628059847 -0.000549 0.004913 0.011627 
1115647896273 -0.000549 0.004913 0.011627 
1115667702181 -0.000549 0.004913 0.011627 
1115687538607 -0.000549 0.004913 0.011627 
1115707344515 -0.000549 0.004913 0.011627 
1115727150423 -0.000549 0.004913 0.011627 
1115746986849 -0.000549 0.004913 0.011627 
1115766792757 -0.000549 0.004913 0.011627 
1115786598665 -0.000549 0.004913 0.011627 
1115806435091 -0.000549 0.004913 0.011627 
1115826271517 -0.000549 0.004913 0.011627 
1115846077425 -0.000549 0.004913 0.011627 
1115865913851 -0.000549 0.004913 0.011627 
1115885719759 -0.000549 0.004913 0.011627 
1115905525667 -0.000549 0.004913 0.011627 
1115925362093 -0.000549 0.004913 0.011627 
1115945168001 -0.000549 0.004913 0.011627 
1115964973910 -0.000549 0.004913 0.011627 
1115984810335 -0.000549 0.004913 0.011627 
1116004616244 -0.000549 0.004913 0.011627 
1116024422152 -0.000549 0.004913 0.011627 
1116044258578 -0.000549 0.004913 0.011627 
1116064064486 -0.000549 0.004913 0.011627 
1116083900912 -0.000549 0.004913 0.011627 
1116103706820 -0.000549 0.004913 0.011627 
1116123543246 -0.000549 0.004913 0.011627 
1116143379671 -0.000549 0.004913 0.011627 
1116163185579 -0.000549 0.004913 0.011627 
1116182991488 -0.000549 0.004913 0.011627 
1116202827913 -0.000549 0.004913 0.011627 
1116222633822 -0.000549 0.004913 0.011627 
1116242439730 -0.000549 0.004913 0.011627 
1116262276156 -0.000549 0.004913 0.011627 
1116282082064 -0.000549 0.004913 0.011627 
1116301887972 -0.000549 0.004913 0.011627 
1116321724398 -0.000549 0.004913 0.011627 
1116341530306 -0.000549 0.004913 0.011627 
1116361336214 -0.000549 0.004913 0.011627 
1116381172640 -0.000549 0.004913 0.011627 
1116401009066 -0.000549 0.004913 0.011627 
1116420814974 -0.000549 0.004913 0.011627 
1116440651400 -0.000549 0.004913 0.011627 
1116460457308 -0.000549 0.004913 0.011627 
1116480293734 -0.000549 0.004913 0.011627 
1116500099642 -0.000549 0.004913 0.011627 
1116519905550 -0.000549 0.004913 0.011627 
1116539741976 -0.000549 0.004913 0.011627 
1116559547884 -0.000549 0.004913 0.011627 
1116579353792 -0.000549 0.004913 0.011627 
1116599190218 -0.000549 0.004913 0.011627 
1116618996126 -0.000549 0.004913 0.011627 
1116638832552 -0.000549 0.004913 0.011627 
1116658638460 -0.000549 0.004913 0.011627 
1116678444369 -0.000549 0.004913 0.011627 
1116698280794 -0.000549 0.004913 0.011627 
1116718117220 -0.000549 0.004913 0.011627 
1116737923128 -0.000549 0.004913 0.011627 
1116757759554 -0.000549 0.004913 0.011627 
1116777565462 -0.000549 0.004913 0.011627 
1116797371371 -0.000549 0.004913 0.011627 
1116817207796 -0.000549 0.004913 0.011627 
1116837013704 -0.000549 0.004913 0.011627 
1116856819613 -0.000549 0.004913 0.011627 
1116876656038 -0.001144 0.005051 0.009399 
1116896461947 -0.001144 0.005051 0.009399 
1116916267855 -0.001144 0.005051 0.009399 
1116936104281 -0.001144 0.005051 0.009399 
1116955910189 -0.001144 0.005051 0.009399 
1116975746615 -0.001144 0.005051 0.009399 
1116995583040 -0.001144 0.005051 0.009399 
1117015388949 -0.001144 0.005051 0.009399 
1117035194857 -0.001144 0.005051 0.009399 
1117055031283 -0.001144 0.005051 0.009399 
1117074837191 -0.001144 0.005051 0.009399 
1117094673617 -0.001144 0.005051 0.009399 
1117114479525 -0.001144 0.005051 0.009399 
1117134285433 -0.001144 0.005051 0.009399 
1117154121859 -0.001144 0.005051 0.009399 
1117173927767 -0.001144 0.005051 0.009399 
1117193733675 -0.001144 0.005051 0.009399 
1117213570101 -0.001144 0.005051 0.009399 
1117233376009 -0.001144 0.005051 0.009399 
1117253181917 -0.001144 0.005051 0.009399 
1117273018343 -0.001144 0.005051 0.009399 
1117292854769 -0.001144 0.005051 0.009399 
1117312691195 -0.001144 0.005051 0.009399 
1117332497103 -0.001144 0.005051 0.009399 
1117352303011 -0.001144 0.005051 0.009399 
