# Created at Tue Jun 01 16:16:47 GMT+02:00 2021 in Burnaby Canada 
3209328813978 -0.000748 0.005463 0.012146 
3209348619886 -0.000748 0.005463 0.012146 
3209368456312 -0.000748 0.005463 0.012146 
3209388262220 -0.000748 0.005463 0.012146 
3209408068128 -0.000748 0.005463 0.012146 
3209427904554 -0.000748 0.005463 0.012146 
3209447710462 -0.000748 0.005463 0.012146 
3209467546888 -0.000748 0.005463 0.012146 
3209487383314 -0.000748 0.005463 0.012146 
3209507189222 -0.000748 0.005463 0.012146 
3209527025648 -0.000748 0.005463 0.012146 
3209546831556 -0.000748 0.005463 0.012146 
3209566637464 -0.000748 0.005463 0.012146 
3209586473890 -0.000748 0.005463 0.012146 
3209606279798 -0.000748 0.005463 0.012146 
3209626085706 -0.000748 0.005463 0.012146 
3209645922132 -0.000748 0.005463 0.012146 
3209665728040 -0.000748 0.005463 0.012146 
3209685533949 -0.000748 0.005463 0.012146 
3209705370374 -0.000748 0.005463 0.012146 
3209725176283 -0.000748 0.005463 0.012146 
3209745012708 -0.000748 0.005463 0.012146 
3209764849134 -0.000748 0.005463 0.012146 
3209784655042 -0.000748 0.005463 0.012146 
3209804491468 -0.000748 0.005463 0.012146 
3209824297376 -0.000748 0.005463 0.012146 
3209844103285 -0.000748 0.005463 0.012146 
3209863939710 -0.000748 0.005463 0.012146 
3209883745619 -0.000748 0.005463 0.012146 
3209903551527 -0.000748 0.005463 0.012146 
3209923387953 -0.000748 0.005463 0.012146 
3209943193861 -0.000748 0.005463 0.012146 
3209963030287 -0.000748 0.005463 0.012146 
3209982836195 -0.000748 0.005463 0.012146 
3210002642103 -0.000748 0.005463 0.012146 
3210022478529 -0.000748 0.005463 0.012146 
3210042314955 -0.000748 0.005463 0.012146 
3210062151380 -0.000748 0.005463 0.012146 
3210081957289 -0.000748 0.005463 0.012146 
3210101763197 -0.000748 0.005463 0.012146 
3210121599623 -0.000748 0.005463 0.012146 
3210141405531 -0.000748 0.005463 0.012146 
3210161211439 -0.000748 0.005463 0.012146 
3210181047865 -0.000748 0.005463 0.012146 
3210200853773 -0.000748 0.005463 0.012146 
3210220659681 -0.000748 0.005463 0.012146 
3210240496107 -0.000748 0.005463 0.012146 
3210260302015 -0.000748 0.005463 0.012146 
3210280138441 -0.000748 0.005463 0.012146 
3210299944349 -0.000748 0.005463 0.012146 
3210319780775 -0.000748 0.005463 0.012146 
3210339617201 -0.000748 0.005463 0.012146 
3210359423109 -0.000748 0.005463 0.012146 
3210379229017 -0.000748 0.005463 0.012146 
3210399065443 -0.000748 0.005463 0.012146 
3210418871351 -0.000748 0.005463 0.012146 
3210438707777 -0.000748 0.005463 0.012146 
3210458513685 -0.000748 0.005463 0.012146 
3210478319593 -0.000748 0.005463 0.012146 
3210498156019 -0.000748 0.005463 0.012146 
3210517961927 -0.000748 0.005463 0.012146 
3210537767835 -0.000748 0.005463 0.012146 
3210557604261 -0.000748 0.005463 0.012146 
3210577410169 -0.000748 0.005463 0.012146 
3210597216078 -0.000748 0.005463 0.012146 
3210617052503 -0.000748 0.005463 0.012146 
3210636888929 -0.000748 0.005463 0.012146 
3210656725355 -0.000748 0.005463 0.012146 
3210676531263 -0.000748 0.005463 0.012146 
3210696337171 -0.000748 0.005463 0.012146 
3210716173597 -0.000748 0.005463 0.012146 
3210735979505 -0.000748 0.005463 0.012146 
3210755785414 -0.000748 0.005463 0.012146 
3210775621839 -0.000748 0.005463 0.012146 
3210795427748 -0.000748 0.005463 0.012146 
3210815264173 -0.000748 0.005463 0.012146 
3210835070081 -0.000748 0.005463 0.012146 
3210854875990 -0.000748 0.005463 0.012146 
3210874712415 -0.000748 0.005463 0.012146 
3210894548841 -0.000748 0.005463 0.012146 
3210914354749 -0.000748 0.005463 0.012146 
3210934191175 -0.000748 0.005463 0.012146 
3210953997083 -0.000748 0.005463 0.012146 
3210973833509 -0.000748 0.005463 0.012146 
3210993639417 -0.000748 0.005463 0.012146 
3211013445326 -0.000748 0.005463 0.012146 
3211033281751 -0.000748 0.005463 0.012146 
3211053087660 -0.000748 0.005463 0.012146 
3211072893568 -0.000748 0.005463 0.012146 
3211092729994 -0.000748 0.005463 0.012146 
3211112535902 -0.000748 0.005463 0.012146 
3211132341810 -0.000748 0.005463 0.012146 
3211152178236 -0.000748 0.005463 0.012146 
3211171984144 -0.000748 0.005463 0.012146 
3211191820570 -0.000748 0.005463 0.012146 
3211211656996 -0.000748 0.005463 0.012146 
3211231462904 -0.000748 0.005463 0.012146 
3211251299330 -0.000748 0.005463 0.012146 
3211271105238 -0.000748 0.005463 0.012146 
3211290911146 -0.000748 0.005463 0.012146 
3211310747572 -0.000748 0.005463 0.012146 
3211330553480 -0.000748 0.005463 0.012146 
3211350359388 -0.000748 0.005463 0.012146 
3211370195814 -0.000748 0.005463 0.012146 
3211390001722 -0.000748 0.005463 0.012146 
3211409838148 -0.000748 0.005463 0.012146 
3211429644056 -0.000748 0.005463 0.012146 
3211449449964 -0.000748 0.005463 0.012146 
3211469286390 -0.000748 0.005463 0.012146 
3211489122816 -0.000748 0.005463 0.012146 
3211508928724 -0.000748 0.005463 0.012146 
3211528765150 -0.000748 0.005463 0.012146 
3211548571058 -0.000748 0.005463 0.012146 
3211568376966 -0.000748 0.005463 0.012146 
3211588213392 -0.000748 0.005463 0.012146 
3211608019300 -0.000748 0.005463 0.012146 
3211627855726 -0.000748 0.005463 0.012146 
3211647661634 -0.000748 0.005463 0.012146 
3211667467542 -0.000748 0.005463 0.012146 
3211687303968 -0.000748 0.005463 0.012146 
3211707109876 -0.000748 0.005463 0.012146 
3211726915785 -0.000748 0.005463 0.012146 
3211746752210 -0.000748 0.005463 0.012146 
3211766588636 -0.000748 0.005463 0.012146 
3211786425062 -0.000748 0.005463 0.012146 
3211806230970 -0.000748 0.005463 0.012146 
3211826036878 -0.000748 0.005463 0.012146 
3211845873304 -0.000748 0.005463 0.012146 
3211865679212 -0.000748 0.005463 0.012146 
3211885485121 -0.000748 0.005463 0.012146 
3211905321546 -0.000748 0.005463 0.012146 
3211925127455 -0.000748 0.005463 0.012146 
3211944963880 -0.000748 0.005463 0.012146 
3211964769789 -0.000748 0.005463 0.012146 
3211984575697 -0.000748 0.005463 0.012146 
3212004412123 -0.000748 0.005463 0.012146 
3212024218031 -0.000748 0.005463 0.012146 
3212044054456 -0.000748 0.005463 0.012146 
3212063890882 -0.000748 0.005463 0.012146 
3212083696790 -0.000748 0.005463 0.012146 
3212103533216 -0.000748 0.005463 0.012146 
3212123339124 -0.000748 0.005463 0.012146 
3212143145033 -0.000748 0.005463 0.012146 
3212162981458 -0.000748 0.005463 0.012146 
3212182787367 -0.000748 0.005463 0.012146 
3212202593275 -0.000748 0.005463 0.012146 
3212222429701 -0.000748 0.005463 0.012146 
3212242235609 -0.000748 0.005463 0.012146 
3212262041517 -0.000748 0.005463 0.012146 
3212281877943 -0.000748 0.005463 0.012146 
3212301683851 -0.000748 0.005463 0.012146 
3212321520277 -0.000748 0.005463 0.012146 
3212341356703 -0.000748 0.005463 0.012146 
3212361162611 -0.000748 0.005463 0.012146 
3212380999037 -0.000748 0.005463 0.012146 
3212400804945 -0.000748 0.005463 0.012146 
3212420610853 -0.000748 0.005463 0.012146 
3212440447279 -0.000748 0.005463 0.012146 
3212460253187 -0.000748 0.005463 0.012146 
3212480059095 -0.000748 0.005463 0.012146 
3212499895521 -0.000748 0.005463 0.012146 
3212519701429 -0.000748 0.005463 0.012146 
3212539507337 -0.000748 0.005463 0.012146 
3212559343763 -0.000748 0.005463 0.012146 
3212579149671 -0.000748 0.005463 0.012146 
3212598986097 -0.000748 0.005463 0.012146 
3212618822523 -0.000748 0.005463 0.012146 
3212638628431 -0.000748 0.005463 0.012146 
3212658464857 -0.000748 0.005463 0.012146 
3212678270765 -0.000748 0.005463 0.012146 
3212698107191 -0.000748 0.005463 0.012146 
3212717913099 -0.000748 0.005463 0.012146 
3212737719007 -0.000748 0.005463 0.012146 
3212757555433 -0.000748 0.005463 0.012146 
3212777361341 -0.000748 0.005463 0.012146 
3212797167249 -0.000748 0.005463 0.012146 
3212817003675 -0.000748 0.005463 0.012146 
3212836809583 -0.000748 0.005463 0.012146 
3212856615492 -0.000748 0.005463 0.012146 
3212876451917 -0.000748 0.005463 0.012146 
3212896288343 -0.000748 0.005463 0.012146 
3212916124769 -0.000748 0.005463 0.012146 
3212935930677 -0.000748 0.005463 0.012146 
3212955736585 -0.000748 0.005463 0.012146 
3212975573011 -0.000748 0.005463 0.012146 
3212995378919 -0.000748 0.005463 0.012146 
3213015184828 -0.000748 0.005463 0.012146 
3213035021253 -0.000748 0.005463 0.012146 
3213054827162 -0.000748 0.005463 0.012146 
3213074663587 -0.000748 0.005463 0.012146 
3213094469496 -0.000748 0.005463 0.012146 
3213114275404 -0.000748 0.005463 0.012146 
3213134111830 -0.000748 0.005463 0.012146 
3213153917738 -0.000748 0.005463 0.012146 
3213173723646 -0.000748 0.005463 0.012146 
3213193560072 -0.000748 0.005463 0.012146 
3213213396498 -0.000748 0.005463 0.012146 
3213233202406 -0.000748 0.005463 0.012146 
3213253038831 -0.000748 0.005463 0.012146 
3213272844740 -0.000748 0.005463 0.012146 
3213292681165 -0.000748 0.005463 0.012146 
3213312487074 -0.000748 0.005463 0.012146 
3213332292982 -0.000748 0.005463 0.012146 
3213352129408 -0.000748 0.005463 0.012146 
3213371935316 -0.000748 0.005463 0.012146 
3213391741224 -0.000748 0.005463 0.012146 
3213411577650 -0.000748 0.005463 0.012146 
3213431383558 -0.000748 0.005463 0.012146 
3213451189466 -0.000748 0.005463 0.012146 
3213471025892 -0.000748 0.005463 0.012146 
3213490862318 -0.000748 0.005463 0.012146 
3213510668226 -0.000748 0.005463 0.012146 
3213530504652 -0.001160 0.005432 0.012192 
3213550310560 -0.001160 0.005432 0.012192 
3213570146986 -0.001160 0.005432 0.012192 
3213589952894 -0.001160 0.005432 0.012192 
3213609758802 -0.001160 0.005432 0.012192 
3213629595228 -0.001160 0.005432 0.012192 
3213649401136 -0.001160 0.005432 0.012192 
3213669237562 -0.001160 0.005432 0.012192 
3213689043470 -0.001160 0.005432 0.012192 
3213708849378 -0.001160 0.005432 0.012192 
3213728685804 -0.001160 0.005432 0.012192 
3213748522230 -0.001160 0.005432 0.012192 
3213768328138 -0.001160 0.005432 0.012192 
3213788164564 -0.001160 0.005432 0.012192 
3213807970472 -0.001160 0.005432 0.012192 
3213827806898 -0.001160 0.005432 0.012192 
3213847612806 -0.001160 0.005432 0.012192 
3213867418714 -0.001160 0.005432 0.012192 
3213887255140 -0.001160 0.005432 0.012192 
3213907061048 -0.001160 0.005432 0.012192 
3213926866956 -0.001160 0.005432 0.012192 
3213946703382 -0.001160 0.005432 0.012192 
3213966509290 -0.001160 0.005432 0.012192 
3213986315199 -0.001160 0.005432 0.012192 
3214006151624 -0.001160 0.005432 0.012192 
3214025957533 -0.001160 0.005432 0.012192 
3214045793958 -0.001160 0.005432 0.012192 
3214065630384 -0.001160 0.005432 0.012192 
3214085436292 -0.001160 0.005432 0.012192 
3214105272718 -0.001160 0.005432 0.012192 
3214125078626 -0.001160 0.005432 0.012192 
3214144884535 -0.001160 0.005432 0.012192 
3214164720960 -0.001160 0.005432 0.012192 
3214184526869 -0.001160 0.005432 0.012192 
3214204332777 -0.001160 0.005432 0.012192 
3214224169203 -0.001160 0.005432 0.012192 
3214243975111 -0.001160 0.005432 0.012192 
3214263811537 -0.001160 0.005432 0.012192 
3214283617445 -0.001160 0.005432 0.012192 
3214303423353 -0.001160 0.005432 0.012192 
3214323259779 -0.001160 0.005432 0.012192 
3214343096205 -0.001160 0.005432 0.012192 
3214362902113 -0.001160 0.005432 0.012192 
3214382738539 -0.001160 0.005432 0.012192 
3214402544447 -0.001160 0.005432 0.012192 
3214422380873 -0.001160 0.005432 0.012192 
3214442186781 -0.001160 0.005432 0.012192 
3214461992689 -0.001160 0.005432 0.012192 
3214481829115 -0.001160 0.005432 0.012192 
3214501635023 -0.001160 0.005432 0.012192 
3214521440931 -0.001160 0.005432 0.012192 
3214541277357 -0.001160 0.005432 0.012192 
3214561083265 -0.001160 0.005432 0.012192 
3214580889173 -0.001160 0.005432 0.012192 
3214600725599 -0.001160 0.005432 0.012192 
3214620562025 -0.001160 0.005432 0.012192 
3214640398451 -0.001160 0.005432 0.012192 
3214660204359 -0.001160 0.005432 0.012192 
3214680010267 -0.001160 0.005432 0.012192 
3214699846693 -0.001160 0.005432 0.012192 
3214719652601 -0.001160 0.005432 0.012192 
3214739458509 -0.001160 0.005432 0.012192 
3214759294935 -0.001160 0.005432 0.012192 
3214779100843 -0.001160 0.005432 0.012192 
3214798937269 -0.001160 0.005432 0.012192 
3214818743177 -0.001160 0.005432 0.012192 
3214838549085 -0.001160 0.005432 0.012192 
3214858385511 -0.001160 0.005432 0.012192 
3214878191419 -0.001160 0.005432 0.012192 
3214898027845 -0.001160 0.005432 0.012192 
3214917864271 -0.001160 0.005432 0.012192 
3214937670179 -0.001160 0.005432 0.012192 
3214957476087 -0.001160 0.005432 0.012192 
3214977312513 -0.001160 0.005432 0.012192 
3214997118421 -0.001160 0.005432 0.012192 
3215016954847 -0.001160 0.005432 0.012192 
3215036760755 -0.001160 0.005432 0.012192 
3215056566664 -0.001160 0.005432 0.012192 
3215076403089 -0.001160 0.005432 0.012192 
3215096208998 -0.001160 0.005432 0.012192 
3215116014906 -0.001160 0.005432 0.012192 
3215135851331 -0.001160 0.005432 0.012192 
3215155657240 -0.001160 0.005432 0.012192 
3215175493665 -0.001160 0.005432 0.012192 
3215195330091 -0.001160 0.005432 0.012192 
3215215135999 -0.001160 0.005432 0.012192 
3215234972425 -0.001160 0.005432 0.012192 
3215254778333 -0.001160 0.005432 0.012192 
3215274584242 -0.001160 0.005432 0.012192 
3215294420667 -0.001160 0.005432 0.012192 
3215314226576 -0.001160 0.005432 0.012192 
3215334032484 -0.001160 0.005432 0.012192 
3215353868910 -0.001160 0.005432 0.012192 
3215373674818 -0.001160 0.005432 0.012192 
3215393511244 -0.001160 0.005432 0.012192 
3215413317152 -0.001160 0.005432 0.012192 
3215433123060 -0.001160 0.005432 0.012192 
3215452928968 -0.001160 0.005432 0.012192 
3215472765394 -0.001160 0.005432 0.012192 
3215492601820 -0.001160 0.005432 0.012192 
3215512438246 -0.001160 0.005432 0.012192 
