# Created at Tue Jun 01 16:17:59 GMT+02:00 2021 in Burnaby Canada 
3281689626015 -0.000778 0.004959 0.011902 
3281709431923 -0.000778 0.004959 0.011902 
3281729237832 -0.000778 0.004959 0.011902 
3281749074257 -0.000778 0.004959 0.011902 
3281768880166 -0.000778 0.004959 0.011902 
3281788686074 -0.000778 0.004959 0.011902 
3281808522500 -0.000778 0.004959 0.011902 
3281828328408 -0.000778 0.004959 0.011902 
3281848164834 -0.000778 0.004959 0.011902 
3281868001259 -0.000778 0.004959 0.011902 
3281887807167 -0.000778 0.004959 0.011902 
3281907613076 -0.000778 0.004959 0.011902 
3281927449501 -0.000778 0.004959 0.011902 
3281947255410 -0.000778 0.004959 0.011902 
3281967091835 -0.000778 0.004959 0.011902 
3281986897744 -0.000778 0.004959 0.011902 
3282006703652 -0.000778 0.004959 0.011902 
3282026540078 -0.000778 0.004959 0.011902 
3282046345986 -0.000778 0.004959 0.011902 
3282066182412 -0.000778 0.004959 0.011902 
3282085988320 -0.000778 0.004959 0.011902 
3282105794228 -0.000778 0.004959 0.011902 
3282125630654 -0.000778 0.004959 0.011902 
3282145467080 -0.000778 0.004959 0.011902 
3282165272988 -0.000778 0.004959 0.011902 
3282185109414 -0.000778 0.004959 0.011902 
3282204915322 -0.000778 0.004959 0.011902 
3282224721230 -0.000778 0.004959 0.011902 
3282244557656 -0.000778 0.004959 0.011902 
3282264363564 -0.000778 0.004959 0.011902 
3282284199990 -0.000778 0.004959 0.011902 
3282304005898 -0.000778 0.004959 0.011902 
3282323811806 -0.000778 0.004959 0.011902 
3282343648232 -0.000778 0.004959 0.011902 
3282363454140 -0.000778 0.004959 0.011902 
3282383260048 -0.000778 0.004959 0.011902 
3282403096474 -0.000778 0.004959 0.011902 
3282422932900 -0.000778 0.004959 0.011902 
3282442738808 -0.000778 0.004959 0.011902 
3282462575234 -0.000778 0.004959 0.011902 
3282482381142 -0.000778 0.004959 0.011902 
3282502217568 -0.000778 0.004959 0.011902 
3282522023476 -0.000778 0.004959 0.011902 
3282541829384 -0.000778 0.004959 0.011902 
3282561665810 -0.000778 0.004959 0.011902 
3282581471718 -0.000778 0.004959 0.011902 
3282601277626 -0.000778 0.004959 0.011902 
3282621114052 -0.000778 0.004959 0.011902 
3282640919960 -0.000778 0.004959 0.011902 
3282660725869 -0.000778 0.004959 0.011902 
3282680562294 -0.000778 0.004959 0.011902 
3282700368203 -0.000778 0.004959 0.011902 
3282720204628 -0.000778 0.004959 0.011902 
3282740041054 -0.000778 0.004959 0.011902 
3282759846962 -0.000778 0.004959 0.011902 
3282779683388 -0.000778 0.004959 0.011902 
3282799489296 -0.000778 0.004959 0.011902 
3282819295205 -0.000778 0.004959 0.011902 
3282839131630 -0.000778 0.004959 0.011902 
3282858937539 -0.000778 0.004959 0.011902 
3282878743447 -0.000778 0.004959 0.011902 
3282898579873 -0.000778 0.004959 0.011902 
3282918385781 -0.000778 0.004959 0.011902 
3282938191689 -0.000778 0.004959 0.011902 
3282958028115 -0.000778 0.004959 0.011902 
3282977834023 -0.000778 0.004959 0.011902 
3282997670449 -0.000778 0.004959 0.011902 
3283017506875 -0.000778 0.004959 0.011902 
3283037312783 -0.000778 0.004959 0.011902 
3283057149209 -0.000778 0.004959 0.011902 
3283076955117 -0.000778 0.004959 0.011902 
3283096761025 -0.000778 0.004959 0.011902 
3283116597451 -0.000778 0.004959 0.011902 
3283136403359 -0.000778 0.004959 0.011902 
3283156209267 -0.000778 0.004959 0.011902 
3283176045693 -0.000778 0.004959 0.011902 
3283195851601 -0.000778 0.004959 0.011902 
3283215688027 -0.000778 0.004959 0.011902 
3283235493935 -0.000778 0.004959 0.011902 
3283255299843 -0.000778 0.004959 0.011902 
3283275136269 -0.000778 0.004959 0.011902 
3283294972695 -0.000778 0.004959 0.011902 
3283314778603 -0.000778 0.004959 0.011902 
3283334615029 -0.000778 0.004959 0.011902 
3283354420937 -0.000778 0.004959 0.011902 
3283374257363 -0.000778 0.004959 0.011902 
3283394063271 -0.000778 0.004959 0.011902 
3283413869179 -0.000778 0.004959 0.011902 
3283433705605 -0.000778 0.004959 0.011902 
3283453511513 -0.000778 0.004959 0.011902 
3283473317421 -0.000778 0.004959 0.011902 
3283493153847 -0.000778 0.004959 0.011902 
3283512959755 -0.000778 0.004959 0.011902 
3283532765664 -0.000778 0.004959 0.011902 
3283552602089 -0.000778 0.004959 0.011902 
3283572438515 -0.000778 0.004959 0.011902 
3283592274941 -0.000778 0.004959 0.011902 
3283612080849 -0.000778 0.004959 0.011902 
3283631886757 -0.000778 0.004959 0.011902 
3283651723183 -0.000778 0.004959 0.011902 
3283671529091 -0.000778 0.004959 0.011902 
3283691335000 -0.000778 0.004959 0.011902 
3283711171425 -0.000778 0.004959 0.011902 
3283730977334 -0.000778 0.004959 0.011902 
3283750783242 -0.000778 0.004959 0.011902 
3283770619667 -0.000778 0.004959 0.011902 
3283790425576 -0.000778 0.004959 0.011902 
3283810262001 -0.000778 0.004959 0.011902 
3283830067910 -0.000778 0.004959 0.011902 
3283849873818 -0.000778 0.004959 0.011902 
3283869710244 -0.000778 0.004959 0.011902 
3283889546669 -0.000778 0.004959 0.011902 
3283909352578 -0.000778 0.004959 0.011902 
3283929189003 -0.000778 0.004959 0.011902 
3283948994912 -0.000778 0.004959 0.011902 
3283968800820 -0.000778 0.004959 0.011902 
3283988637246 -0.000778 0.004959 0.011902 
3284008443154 -0.001022 0.005203 0.012039 
3284028279580 -0.001022 0.005203 0.012039 
3284048085488 -0.001022 0.005203 0.012039 
3284067891396 -0.001022 0.005203 0.012039 
3284087727822 -0.001022 0.005203 0.012039 
3284107533730 -0.001022 0.005203 0.012039 
3284127339638 -0.001022 0.005203 0.012039 
3284147176064 -0.001022 0.005203 0.012039 
3284167012490 -0.001022 0.005203 0.012039 
3284186818398 -0.001022 0.005203 0.012039 
3284206654824 -0.001022 0.005203 0.012039 
3284226460732 -0.001022 0.005203 0.012039 
3284246297158 -0.001022 0.005203 0.012039 
3284266103066 -0.001022 0.005203 0.012039 
3284285908974 -0.001022 0.005203 0.012039 
3284305745400 -0.001022 0.005203 0.012039 
3284325551308 -0.001022 0.005203 0.012039 
3284345357216 -0.001022 0.005203 0.012039 
3284365193642 -0.001022 0.005203 0.012039 
3284384999550 -0.001022 0.005203 0.012039 
3284404805459 -0.001022 0.005203 0.012039 
3284424641884 -0.001022 0.005203 0.012039 
3284444478310 -0.001022 0.005203 0.012039 
3284464314736 -0.001022 0.005203 0.012039 
3284484120644 -0.001022 0.005203 0.012039 
3284503926552 -0.001022 0.005203 0.012039 
3284523762978 -0.001022 0.005203 0.012039 
3284543568886 -0.001022 0.005203 0.012039 
3284563374794 -0.001022 0.005203 0.012039 
3284583211220 -0.001022 0.005203 0.012039 
3284603017128 -0.001022 0.005203 0.012039 
3284622853554 -0.001022 0.005203 0.012039 
3284642659462 -0.001022 0.005203 0.012039 
3284662465371 -0.001022 0.005203 0.012039 
3284682301796 -0.001022 0.005203 0.012039 
3284702107705 -0.001022 0.005203 0.012039 
3284721944130 -0.001022 0.005203 0.012039 
3284741780556 -0.001022 0.005203 0.012039 
3284761586464 -0.001022 0.005203 0.012039 
3284781392373 -0.001022 0.005203 0.012039 
3284801228798 -0.001022 0.005203 0.012039 
3284821034707 -0.001022 0.005203 0.012039 
3284840840615 -0.001022 0.005203 0.012039 
3284860677041 -0.001022 0.005203 0.012039 
3284880482949 -0.001022 0.005203 0.012039 
3284900288857 -0.001022 0.005203 0.012039 
3284920125283 -0.001022 0.005203 0.012039 
3284939931191 -0.001022 0.005203 0.012039 
3284959767617 -0.001022 0.005203 0.012039 
3284979573525 -0.001022 0.005203 0.012039 
3284999409951 -0.001022 0.005203 0.012039 
3285019246376 -0.001022 0.005203 0.012039 
3285039052285 -0.001022 0.005203 0.012039 
3285058888710 -0.001022 0.005203 0.012039 
3285078694619 -0.001022 0.005203 0.012039 
3285098500527 -0.001022 0.005203 0.012039 
3285118336953 -0.001022 0.005203 0.012039 
3285138142861 -0.001022 0.005203 0.012039 
3285157948769 -0.001022 0.005203 0.012039 
3285177785195 -0.001022 0.005203 0.012039 
3285197591103 -0.001022 0.005203 0.012039 
3285217397011 -0.001022 0.005203 0.012039 
3285237233437 -0.001022 0.005203 0.012039 
3285257039345 -0.001022 0.005203 0.012039 
3285276875771 -0.001022 0.005203 0.012039 
3285296712197 -0.001022 0.005203 0.012039 
3285316518105 -0.001022 0.005203 0.012039 
3285336354531 -0.001022 0.005203 0.012039 
3285356160439 -0.001022 0.005203 0.012039 
3285375966347 -0.001022 0.005203 0.012039 
3285395802773 -0.001022 0.005203 0.012039 
3285415608681 -0.001022 0.005203 0.012039 
3285435414589 -0.001022 0.005203 0.012039 
3285455251015 -0.001022 0.005203 0.012039 
3285475056923 -0.001022 0.005203 0.012039 
3285494893349 -0.001022 0.005203 0.012039 
3285514699257 -0.001022 0.005203 0.012039 
3285534505166 -0.001022 0.005203 0.012039 
3285554341591 -0.001022 0.005203 0.012039 
3285574178017 -0.001022 0.005203 0.012039 
3285593983925 -0.001022 0.005203 0.012039 
3285613820351 -0.001022 0.005203 0.012039 
3285633626259 -0.001022 0.005203 0.012039 
3285653432167 -0.001022 0.005203 0.012039 
3285673268593 -0.001022 0.005203 0.012039 
3285693074501 -0.001022 0.005203 0.012039 
3285712910927 -0.001022 0.005203 0.012039 
3285732716835 -0.001022 0.005203 0.012039 
3285752522744 -0.001022 0.005203 0.012039 
3285772359169 -0.001022 0.005203 0.012039 
3285792165078 -0.001022 0.005203 0.012039 
3285811970986 -0.001022 0.005203 0.012039 
3285831807412 -0.001022 0.005203 0.012039 
3285851613320 -0.001022 0.005203 0.012039 
3285871449746 -0.001022 0.005203 0.012039 
3285891286171 -0.001022 0.005203 0.012039 
3285911092080 -0.001022 0.005203 0.012039 
3285930928505 -0.001022 0.005203 0.012039 
3285950734414 -0.001022 0.005203 0.012039 
3285970540322 -0.001022 0.005203 0.012039 
3285990376748 -0.001022 0.005203 0.012039 
3286010182656 -0.001022 0.005203 0.012039 
3286029988564 -0.001022 0.005203 0.012039 
3286049824990 -0.001022 0.005203 0.012039 
3286069630898 -0.001022 0.005203 0.012039 
3286089436806 -0.001022 0.005203 0.012039 
3286109273232 -0.001022 0.005203 0.012039 
3286129079140 -0.001022 0.005203 0.012039 
3286148915566 -0.001022 0.005203 0.012039 
3286168751992 -0.001022 0.005203 0.012039 
3286188557900 -0.001022 0.005203 0.012039 
3286208394326 -0.001022 0.005203 0.012039 
3286228200234 -0.001022 0.005203 0.012039 
3286248006142 -0.001022 0.005203 0.012039 
3286267842568 -0.001022 0.005203 0.012039 
3286287648476 -0.001022 0.005203 0.012039 
3286307454384 -0.001022 0.005203 0.012039 
3286327290810 -0.001022 0.005203 0.012039 
3286347096718 -0.001022 0.005203 0.012039 
3286366902626 -0.001022 0.005203 0.012039 
3286386739052 -0.001022 0.005203 0.012039 
3286406544960 -0.001022 0.005203 0.012039 
3286426381386 -0.001022 0.005203 0.012039 
3286446217812 -0.001022 0.005203 0.012039 
3286466023720 -0.001022 0.005203 0.012039 
3286485860146 -0.001022 0.005203 0.012039 
3286505666054 -0.001022 0.005203 0.012039 
3286525471962 -0.001022 0.005203 0.012039 
3286545308388 -0.001022 0.005203 0.012039 
3286565114296 -0.001022 0.005203 0.012039 
3286584950722 -0.001022 0.005203 0.012039 
3286604756630 -0.001022 0.005203 0.012039 
3286624562539 -0.001022 0.005203 0.012039 
3286644398964 -0.001022 0.005203 0.012039 
3286664204873 -0.001022 0.005203 0.012039 
3286684010781 -0.001022 0.005203 0.012039 
3286703847207 -0.001022 0.005203 0.012039 
3286723683632 -0.001022 0.005203 0.012039 
3286743520058 -0.001022 0.005203 0.012039 
3286763325966 -0.001022 0.005203 0.012039 
3286783131875 -0.001022 0.005203 0.012039 
3286802937783 -0.001022 0.005203 0.012039 
3286822774209 -0.001022 0.005203 0.012039 
3286842580117 -0.001022 0.005203 0.012039 
3286862416542 -0.001022 0.005203 0.012039 
3286882222451 -0.001022 0.005203 0.012039 
3286902028359 -0.001022 0.005203 0.012039 
3286921864785 -0.001022 0.005203 0.012039 
3286941670693 -0.001022 0.005203 0.012039 
3286961507119 -0.001022 0.005203 0.012039 
3286981313027 -0.001022 0.005203 0.012039 
3287001149453 -0.001022 0.005203 0.012039 
3287020985878 -0.001022 0.005203 0.012039 
3287040791787 -0.001022 0.005203 0.012039 
3287060597695 -0.001022 0.005203 0.012039 
3287080434121 -0.001022 0.005203 0.012039 
3287100240029 -0.001022 0.005203 0.012039 
3287120045937 -0.001022 0.005203 0.012039 
3287139882363 -0.001022 0.005203 0.012039 
3287159688271 -0.001022 0.005203 0.012039 
3287179524697 -0.001022 0.005203 0.012039 
3287199330605 -0.001022 0.005203 0.012039 
3287219136513 -0.001022 0.005203 0.012039 
3287238972939 -0.001022 0.005203 0.012039 
3287258778847 -0.001022 0.005203 0.012039 
3287278584755 -0.001022 0.005203 0.012039 
3287298421181 -0.001022 0.005203 0.012039 
3287318257607 -0.001022 0.005203 0.012039 
3287338063515 -0.001022 0.005203 0.012039 
3287357899941 -0.001022 0.005203 0.012039 
3287377705849 -0.001022 0.005203 0.012039 
3287397542275 -0.001022 0.005203 0.012039 
3287417348183 -0.001022 0.005203 0.012039 
3287437154091 -0.001022 0.005203 0.012039 
3287456990517 -0.001022 0.005203 0.012039 
3287476796425 -0.001022 0.005203 0.012039 
3287496602334 -0.001022 0.005203 0.012039 
3287516438759 -0.001022 0.005203 0.012039 
3287536244667 -0.001022 0.005203 0.012039 
3287556050576 -0.001022 0.005203 0.012039 
3287575887001 -0.001022 0.005203 0.012039 
3287595723427 -0.001022 0.005203 0.012039 
3287615559853 -0.001022 0.005203 0.012039 
3287635365761 -0.001022 0.005203 0.012039 
3287655171669 -0.001022 0.005203 0.012039 
3287675008095 -0.001022 0.005203 0.012039 
3287694814003 -0.001022 0.005203 0.012039 
3287714619912 -0.001022 0.005203 0.012039 
3287734456337 -0.001022 0.005203 0.012039 
3287754262246 -0.001022 0.005203 0.012039 
3287774068154 -0.001022 0.005203 0.012039 
3287793904580 -0.001022 0.005203 0.012039 
3287813710488 -0.001022 0.005203 0.012039 
3287833516396 -0.001022 0.005203 0.012039 
3287853352822 -0.001022 0.005203 0.012039 
3287873189248 -0.001022 0.005203 0.012039 
3287893025673 -0.001022 0.005203 0.012039 
3287912831582 -0.001022 0.005203 0.012039 
3287932637490 -0.001022 0.005203 0.012039 
3287952473916 -0.001022 0.005203 0.012039 
3287972279824 -0.001022 0.005203 0.012039 
3287992085732 -0.001022 0.005203 0.012039 
3288011922158 -0.001022 0.005203 0.012039 
3288031728066 -0.001022 0.005203 0.012039 
3288051564492 -0.001022 0.005203 0.012039 
3288071370400 -0.001022 0.005203 0.012039 
3288091176308 -0.001022 0.005203 0.012039 
3288111012734 -0.001022 0.005203 0.012039 
3288130818642 -0.001022 0.005203 0.012039 
3288150655068 -0.001022 0.005203 0.012039 
3288170491494 -0.001022 0.005203 0.012039 
