# Created at Tue Jun 01 16:16:58 GMT+02:00 2021 in Burnaby Canada 
3220140368961 -0.001160 0.005432 0.012192 
3220160205387 -0.001160 0.005432 0.012192 
3220180011295 -0.001160 0.005432 0.012192 
3220199817203 -0.001160 0.005432 0.012192 
3220219653629 -0.001160 0.005432 0.012192 
3220239459537 -0.001160 0.005432 0.012192 
3220259265445 -0.001160 0.005432 0.012192 
3220279101871 -0.001160 0.005432 0.012192 
3220298907779 -0.001160 0.005432 0.012192 
3220318744205 -0.001160 0.005432 0.012192 
3220338580631 -0.001160 0.005432 0.012192 
3220358386539 -0.001160 0.005432 0.012192 
3220378222965 -0.001160 0.005432 0.012192 
3220398028873 -0.001160 0.005432 0.012192 
3220417834781 -0.001160 0.005432 0.012192 
3220437671207 -0.001160 0.005432 0.012192 
3220457477115 -0.001160 0.005432 0.012192 
3220477283024 -0.001160 0.005432 0.012192 
3220497119449 -0.001160 0.005432 0.012192 
3220516925358 -0.001160 0.005432 0.012192 
3220536761783 -0.001160 0.005432 0.012192 
3220556567692 -0.001160 0.005432 0.012192 
3220576373600 -0.001160 0.005432 0.012192 
3220596210026 -0.001160 0.005432 0.012192 
3220616046451 -0.001160 0.005432 0.012192 
3220635852359 -0.001160 0.005432 0.012192 
3220655688785 -0.001160 0.005432 0.012192 
3220675494693 -0.001160 0.005432 0.012192 
3220695331119 -0.001160 0.005432 0.012192 
3220715137027 -0.001160 0.005432 0.012192 
3220734942936 -0.001160 0.005432 0.012192 
3220754779361 -0.001160 0.005432 0.012192 
3220774585270 -0.001160 0.005432 0.012192 
3220794391178 -0.001160 0.005432 0.012192 
3220814227604 -0.001160 0.005432 0.012192 
3220834033512 -0.001160 0.005432 0.012192 
3220853869938 -0.001160 0.005432 0.012192 
3220873675846 -0.001160 0.005432 0.012192 
3220893481754 -0.001160 0.005432 0.012192 
3220913318180 -0.001160 0.005432 0.012192 
3220933154606 -0.001160 0.005432 0.012192 
3220952960514 -0.001160 0.005432 0.012192 
3220972796940 -0.001160 0.005432 0.012192 
3220992602848 -0.001160 0.005432 0.012192 
3221012408756 -0.001160 0.005432 0.012192 
3221032245182 -0.001160 0.005432 0.012192 
3221052051090 -0.001160 0.005432 0.012192 
3221071887516 -0.001160 0.005432 0.012192 
3221091693424 -0.001160 0.005432 0.012192 
3221111499332 -0.001160 0.005432 0.012192 
3221131335758 -0.001160 0.005432 0.012192 
3221151141666 -0.001160 0.005432 0.012192 
3221170947574 -0.001160 0.005432 0.012192 
3221190784000 -0.001160 0.005432 0.012192 
3221210620426 -0.001160 0.005432 0.012192 
3221230456852 -0.001160 0.005432 0.012192 
3221250262760 -0.001160 0.005432 0.012192 
3221270068668 -0.001160 0.005432 0.012192 
3221289905094 -0.001160 0.005432 0.012192 
3221309711002 -0.001160 0.005432 0.012192 
3221329516910 -0.001160 0.005432 0.012192 
3221349353336 -0.001160 0.005432 0.012192 
3221369159244 -0.001160 0.005432 0.012192 
3221388965152 -0.001160 0.005432 0.012192 
3221408801578 -0.001160 0.005432 0.012192 
3221428607486 -0.001160 0.005432 0.012192 
3221448413395 -0.001160 0.005432 0.012192 
3221468249820 -0.001160 0.005432 0.012192 
3221488086246 -0.001160 0.005432 0.012192 
3221507922672 -0.001160 0.005432 0.012192 
3221527728580 -0.001160 0.005432 0.012192 
3221547534488 -0.001160 0.005432 0.012192 
3221567370914 -0.001160 0.005432 0.012192 
3221587176822 -0.001160 0.005432 0.012192 
3221607013248 -0.001160 0.005432 0.012192 
3221626819156 -0.001160 0.005432 0.012192 
3221646625065 -0.001160 0.005432 0.012192 
3221666461490 -0.001160 0.005432 0.012192 
3221686267399 -0.001160 0.005432 0.012192 
3221706073307 -0.001160 0.005432 0.012192 
3221725909733 -0.001160 0.005432 0.012192 
3221745715641 -0.001160 0.005432 0.012192 
3221765552067 -0.001160 0.005432 0.012192 
3221785388492 -0.001160 0.005432 0.012192 
3221805194401 -0.001160 0.005432 0.012192 
3221825030826 -0.001160 0.005432 0.012192 
3221844836734 -0.001160 0.005432 0.012192 
3221864642643 -0.001160 0.005432 0.012192 
3221884479068 -0.001160 0.005432 0.012192 
3221904284977 -0.001160 0.005432 0.012192 
3221924090885 -0.001160 0.005432 0.012192 
3221943927311 -0.001160 0.005432 0.012192 
3221963733219 -0.001160 0.005432 0.012192 
3221983539127 -0.001160 0.005432 0.012192 
3222003375553 -0.001160 0.005432 0.012192 
3222023181461 -0.001160 0.005432 0.012192 
3222043017887 -0.001160 0.005432 0.012192 
3222062854313 -0.001160 0.005432 0.012192 
3222082660221 -0.001160 0.005432 0.012192 
3222102496647 -0.001160 0.005432 0.012192 
3222122302555 -0.001160 0.005432 0.012192 
3222142108463 -0.001160 0.005432 0.012192 
3222161944889 -0.001160 0.005432 0.012192 
3222181750797 -0.001160 0.005432 0.012192 
3222201587223 -0.001160 0.005432 0.012192 
3222221393131 -0.001160 0.005432 0.012192 
3222241199039 -0.001160 0.005432 0.012192 
3222261035465 -0.001160 0.005432 0.012192 
3222280841373 -0.001160 0.005432 0.012192 
3222300647281 -0.001160 0.005432 0.012192 
3222320483707 -0.001160 0.005432 0.012192 
3222340320133 -0.001160 0.005432 0.012192 
3222360156559 -0.001160 0.005432 0.012192 
3222379962467 -0.001160 0.005432 0.012192 
3222399768375 -0.001160 0.005432 0.012192 
3222419604801 -0.001160 0.005432 0.012192 
3222439410709 -0.001160 0.005432 0.012192 
3222459216617 -0.001160 0.005432 0.012192 
3222479053043 -0.001160 0.005432 0.012192 
3222498858951 -0.001160 0.005432 0.012192 
3222518664859 -0.001160 0.005432 0.012192 
3222538501285 -0.001160 0.005432 0.012192 
3222558307193 -0.001160 0.005432 0.012192 
3222578143619 -0.001160 0.005432 0.012192 
3222597949527 -0.001160 0.005432 0.012192 
3222617755436 -0.001160 0.005432 0.012192 
3222637591861 -0.001160 0.005432 0.012192 
3222657428287 -0.001160 0.005432 0.012192 
3222677234195 -0.001160 0.005432 0.012192 
3222697070621 -0.001160 0.005432 0.012192 
3222716876529 -0.001160 0.005432 0.012192 
3222736712955 -0.001160 0.005432 0.012192 
3222756518863 -0.001160 0.005432 0.012192 
3222776324772 -0.001160 0.005432 0.012192 
3222796161197 -0.001160 0.005432 0.012192 
3222815967106 -0.001160 0.005432 0.012192 
3222835773014 -0.001160 0.005432 0.012192 
3222855609440 -0.001160 0.005432 0.012192 
3222875415348 -0.001160 0.005432 0.012192 
3222895221256 -0.001160 0.005432 0.012192 
3222915057682 -0.001160 0.005432 0.012192 
3222934894108 -0.001160 0.005432 0.012192 
3222954730533 -0.001160 0.005432 0.012192 
3222974536442 -0.001160 0.005432 0.012192 
3222994342350 -0.001160 0.005432 0.012192 
3223014178776 -0.001160 0.005432 0.012192 
3223033984684 -0.001160 0.005432 0.012192 
3223053790592 -0.001160 0.005432 0.012192 
3223073627018 -0.001160 0.005432 0.012192 
3223093432926 -0.001160 0.005432 0.012192 
3223113269352 -0.001160 0.005432 0.012192 
3223133075260 -0.001160 0.005432 0.012192 
3223152881168 -0.001160 0.005432 0.012192 
3223172717594 -0.001160 0.005432 0.012192 
3223192554020 -0.001160 0.005432 0.012192 
3223212359928 -0.001160 0.005432 0.012192 
3223232196354 -0.001160 0.005432 0.012192 
3223252002262 -0.001160 0.005432 0.012192 
3223271808170 -0.001160 0.005432 0.012192 
3223291644596 -0.001160 0.005432 0.012192 
3223311450504 -0.001160 0.005432 0.012192 
3223331286930 -0.001160 0.005432 0.012192 
3223351092838 -0.001160 0.005432 0.012192 
3223370898746 -0.001160 0.005432 0.012192 
3223390735172 -0.001160 0.005432 0.012192 
3223410541080 -0.001160 0.005432 0.012192 
3223430346988 -0.001160 0.005432 0.012192 
3223450183414 -0.001160 0.005432 0.012192 
3223469989322 -0.001160 0.005432 0.012192 
3223489825748 -0.001160 0.005432 0.012192 
3223509662174 -0.001160 0.005432 0.012192 
3223529468082 -0.001160 0.005432 0.012192 
3223549304508 -0.001160 0.005432 0.012192 
3223569110416 -0.001160 0.005432 0.012192 
3223588916324 -0.001160 0.005432 0.012192 
3223608752750 -0.001160 0.005432 0.012192 
3223628558658 -0.001160 0.005432 0.012192 
3223648395084 -0.001160 0.005432 0.012192 
3223668200992 -0.001160 0.005432 0.012192 
3223688006901 -0.001160 0.005432 0.012192 
3223707843326 -0.001160 0.005432 0.012192 
3223727649234 -0.001160 0.005432 0.012192 
3223747455143 -0.001160 0.005432 0.012192 
3223767291568 -0.001160 0.005432 0.012192 
3223787127994 -0.001160 0.005432 0.012192 
3223806933902 -0.001160 0.005432 0.012192 
3223826770328 -0.001160 0.005432 0.012192 
3223846576236 -0.001160 0.005432 0.012192 
3223866412662 -0.001160 0.005432 0.012192 
3223886218570 -0.001160 0.005432 0.012192 
3223906024479 -0.001160 0.005432 0.012192 
3223925860904 -0.001160 0.005432 0.012192 
3223945666813 -0.001160 0.005432 0.012192 
3223965472721 -0.001160 0.005432 0.012192 
3223985309147 -0.001160 0.005432 0.012192 
3224005115055 -0.001160 0.005432 0.012192 
3224024951481 -0.001160 0.005432 0.012192 
3224044757389 -0.001160 0.005432 0.012192 
3224064593815 -0.001160 0.005432 0.012192 
3224084430240 -0.001160 0.005432 0.012192 
3224104236149 -0.001160 0.005432 0.012192 
3224124042057 -0.001160 0.005432 0.012192 
3224143878483 -0.001160 0.005432 0.012192 
3224163684391 -0.001160 0.005432 0.012192 
3224183520817 -0.001160 0.005432 0.012192 
3224203326725 -0.001160 0.005432 0.012192 
3224223132633 -0.001160 0.005432 0.012192 
3224242969059 -0.001160 0.005432 0.012192 
3224262774967 -0.001160 0.005432 0.012192 
3224282580875 -0.001160 0.005432 0.012192 
3224302417301 -0.001160 0.005432 0.012192 
3224322223209 -0.001160 0.005432 0.012192 
3224342059635 -0.001160 0.005432 0.012192 
3224361896061 -0.001160 0.005432 0.012192 
3224381701969 -0.001160 0.005432 0.012192 
3224401507877 -0.001160 0.005432 0.012192 
3224421344303 -0.001160 0.005432 0.012192 
3224441150211 -0.001160 0.005432 0.012192 
3224460986637 -0.001160 0.005432 0.012192 
3224480792545 -0.001160 0.005432 0.012192 
3224500598453 -0.001160 0.005432 0.012192 
3224520434879 -0.001160 0.005432 0.012192 
3224540240787 -0.001160 0.005432 0.012192 
3224560077213 -0.001160 0.005432 0.012192 
3224579883121 -0.001160 0.005432 0.012192 
3224599689029 -0.001160 0.005432 0.012192 
3224619525455 -0.001160 0.005432 0.012192 
3224639361881 -0.001160 0.005432 0.012192 
3224659167789 -0.001160 0.005432 0.012192 
3224679004215 -0.001160 0.005432 0.012192 
3224698810123 -0.001160 0.005432 0.012192 
3224718616031 -0.001160 0.005432 0.012192 
3224738452457 -0.001160 0.005432 0.012192 
3224758258365 -0.001160 0.005432 0.012192 
3224778094791 -0.001160 0.005432 0.012192 
3224797900699 -0.001160 0.005432 0.012192 
3224817706608 -0.001160 0.005432 0.012192 
3224837543033 -0.001160 0.005432 0.012192 
3224857348942 -0.001160 0.005432 0.012192 
3224877154850 -0.001160 0.005432 0.012192 
3224896991276 -0.001160 0.005432 0.012192 
3224916827701 -0.001160 0.005432 0.012192 
3224936664127 -0.001160 0.005432 0.012192 
3224956470035 -0.001007 0.005524 0.012115 
3224976275943 -0.001007 0.005524 0.012115 
3224996112369 -0.001007 0.005524 0.012115 
3225015918277 -0.001007 0.005524 0.012115 
3225035724186 -0.001007 0.005524 0.012115 
3225055560611 -0.001007 0.005524 0.012115 
3225075366520 -0.001007 0.005524 0.012115 
3225095172428 -0.001007 0.005524 0.012115 
3225115008854 -0.001007 0.005524 0.012115 
3225134814762 -0.001007 0.005524 0.012115 
3225154651188 -0.001007 0.005524 0.012115 
3225174457096 -0.001007 0.005524 0.012115 
3225194293522 -0.001007 0.005524 0.012115 
3225214129947 -0.001007 0.005524 0.012115 
3225233935856 -0.001007 0.005524 0.012115 
3225253741764 -0.001007 0.005524 0.012115 
3225273578190 -0.001007 0.005524 0.012115 
3225293384098 -0.001007 0.005524 0.012115 
3225313220524 -0.001007 0.005524 0.012115 
3225333026432 -0.001007 0.005524 0.012115 
3225352832340 -0.001007 0.005524 0.012115 
3225372668766 -0.001007 0.005524 0.012115 
3225392474674 -0.001007 0.005524 0.012115 
3225412280582 -0.001007 0.005524 0.012115 
3225432117008 -0.001007 0.005524 0.012115 
3225451922916 -0.001007 0.005524 0.012115 
3225471759342 -0.001007 0.005524 0.012115 
3225491595768 -0.001007 0.005524 0.012115 
3225511401676 -0.001007 0.005524 0.012115 
3225531238102 -0.001007 0.005524 0.012115 
3225551044010 -0.001007 0.005524 0.012115 
3225570849918 -0.001007 0.005524 0.012115 
3225590686344 -0.001007 0.005524 0.012115 
3225610492252 -0.001007 0.005524 0.012115 
3225630298160 -0.001007 0.005524 0.012115 
3225650134586 -0.001007 0.005524 0.012115 
3225669940494 -0.001007 0.005524 0.012115 
3225689776920 -0.001007 0.005524 0.012115 
3225709582828 -0.001007 0.005524 0.012115 
3225729388736 -0.001007 0.005524 0.012115 
3225749225162 -0.001007 0.005524 0.012115 
3225769061588 -0.001007 0.005524 0.012115 
3225788867496 -0.001007 0.005524 0.012115 
3225808703922 -0.001007 0.005524 0.012115 
3225828509830 -0.001007 0.005524 0.012115 
3225848346256 -0.001007 0.005524 0.012115 
3225868152164 -0.001007 0.005524 0.012115 
3225887958072 -0.001007 0.005524 0.012115 
3225907794498 -0.001007 0.005524 0.012115 
3225927600406 -0.001007 0.005524 0.012115 
3225947406315 -0.001007 0.005524 0.012115 
3225967242740 -0.001007 0.005524 0.012115 
3225987048649 -0.001007 0.005524 0.012115 
3226006885074 -0.001007 0.005524 0.012115 
3226026690983 -0.001007 0.005524 0.012115 
3226046496891 -0.001007 0.005524 0.012115 
3226066333317 -0.001007 0.005524 0.012115 
3226086169742 -0.001007 0.005524 0.012115 
3226105975651 -0.001007 0.005524 0.012115 
3226125812076 -0.001007 0.005524 0.012115 
3226145617984 -0.001007 0.005524 0.012115 
3226165423893 -0.001007 0.005524 0.012115 
3226185260318 -0.001007 0.005524 0.012115 
3226205066227 -0.001007 0.005524 0.012115 
3226224902652 -0.001007 0.005524 0.012115 
3226244708561 -0.001007 0.005524 0.012115 
