# Created at Tue Jun 01 16:25:03 GMT+02:00 2021 in Burnaby Canada 
3705103001237 -0.000519 0.006042 0.013306 
3705122837663 -0.000519 0.006042 0.013306 
3705142643571 -0.000519 0.006042 0.013306 
3705162449479 -0.000519 0.006042 0.013306 
3705182285905 -0.000519 0.006042 0.013306 
3705202091813 -0.000519 0.006042 0.013306 
3705221928239 -0.000519 0.006042 0.013306 
3705241734147 -0.000519 0.006042 0.013306 
3705261540055 -0.000519 0.006042 0.013306 
3705281376481 -0.000519 0.006042 0.013306 
3705301182389 -0.000519 0.006042 0.013306 
3705320988297 -0.000519 0.006042 0.013306 
3705340824723 -0.000519 0.006042 0.013306 
3705360661149 -0.000519 0.006042 0.013306 
3705380467057 -0.000519 0.006042 0.013306 
3705400303483 -0.000519 0.006042 0.013306 
3705420109391 -0.000519 0.006042 0.013306 
3705439945817 -0.000519 0.006042 0.013306 
3705459751725 -0.000519 0.006042 0.013306 
3705479557633 -0.000519 0.006042 0.013306 
3705499394059 -0.000519 0.006042 0.013306 
3705519199967 -0.000519 0.006042 0.013306 
3705539036393 -0.000519 0.006042 0.013306 
3705558842301 -0.000519 0.006042 0.013306 
3705578648210 -0.000519 0.006042 0.013306 
3705598484635 -0.000519 0.006042 0.013306 
3705618321061 -0.000519 0.006042 0.013306 
3705638126969 -0.000519 0.006042 0.013306 
3705657963395 -0.000519 0.006042 0.013306 
3705677769303 -0.000519 0.006042 0.013306 
3705697605729 -0.000519 0.006042 0.013306 
3705717411637 -0.000519 0.006042 0.013306 
3705737217545 -0.000519 0.006042 0.013306 
3705757053971 -0.000519 0.006042 0.013306 
3705776859879 -0.000519 0.006042 0.013306 
3705796696305 -0.000519 0.006042 0.013306 
3705816502213 -0.000519 0.006042 0.013306 
3705836308122 -0.000519 0.006042 0.013306 
3705856144547 -0.000519 0.006042 0.013306 
3705875950456 -0.000519 0.006042 0.013306 
3705895756364 -0.000519 0.006042 0.013306 
3705915592790 -0.000519 0.006042 0.013306 
3705935429215 -0.000519 0.006042 0.013306 
3705955265641 -0.000519 0.006042 0.013306 
3705975071549 -0.000519 0.006042 0.013306 
3705994877458 -0.000519 0.006042 0.013306 
3706014713883 -0.000519 0.006042 0.013306 
3706034519792 -0.000519 0.006042 0.013306 
3706054356217 -0.000519 0.006042 0.013306 
3706074162126 -0.000519 0.006042 0.013306 
3706093968034 -0.000519 0.006042 0.013306 
3706113804460 -0.000519 0.006042 0.013306 
3706133610368 -0.000519 0.006042 0.013306 
3706153446793 -0.000519 0.006042 0.013306 
3706173252702 -0.000519 0.006042 0.013306 
3706193089127 -0.000519 0.006042 0.013306 
3706212925553 -0.000519 0.006042 0.013306 
3706232731461 -0.000519 0.006042 0.013306 
3706252537370 -0.000519 0.006042 0.013306 
3706272373795 -0.000519 0.006042 0.013306 
3706292179704 -0.000519 0.006042 0.013306 
3706311985612 -0.000519 0.006042 0.013306 
3706331822038 -0.000519 0.006042 0.013306 
3706351627946 -0.000519 0.006042 0.013306 
3706371464372 -0.000519 0.006042 0.013306 
3706391270280 -0.000519 0.006042 0.013306 
3706411076188 -0.000519 0.006042 0.013306 
3706430912614 -0.000519 0.006042 0.013306 
3706450718522 -0.000519 0.006042 0.013306 
3706470554948 -0.000519 0.006042 0.013306 
3706490391374 -0.000519 0.006042 0.013306 
3706510197282 -0.000519 0.006042 0.013306 
3706530033708 -0.000519 0.006042 0.013306 
3706549839616 -0.000519 0.006042 0.013306 
3706569676042 -0.000519 0.006042 0.013306 
3706589481950 -0.000519 0.006042 0.013306 
3706609287858 -0.000519 0.006042 0.013306 
3706629124284 -0.000519 0.006042 0.013306 
3706648930192 -0.000519 0.006042 0.013306 
3706668736100 -0.000519 0.006042 0.013306 
3706688572526 -0.000519 0.006042 0.013306 
3706708378434 -0.000519 0.006042 0.013306 
3706728214860 -0.000519 0.006042 0.013306 
3706748020768 -0.000519 0.006042 0.013306 
3706767857194 -0.000519 0.006042 0.013306 
3706787693620 -0.000519 0.006042 0.013306 
3706807499528 -0.000519 0.006042 0.013306 
3706827335954 -0.000519 0.006042 0.013306 
3706847141862 -0.000519 0.006042 0.013306 
3706866947770 -0.000519 0.006042 0.013306 
3706886784196 -0.000519 0.006042 0.013306 
3706906590104 -0.000519 0.006042 0.013306 
3706926396012 -0.000519 0.006042 0.013306 
3706946232438 -0.000519 0.006042 0.013306 
3706966038346 -0.000519 0.006042 0.013306 
3706985874772 -0.000519 0.006042 0.013306 
3707005680680 -0.000519 0.006042 0.013306 
3707025486588 -0.000519 0.006042 0.013306 
3707045323014 -0.000519 0.006042 0.013306 
3707065159440 -0.000519 0.006042 0.013306 
3707084995866 -0.000519 0.006042 0.013306 
3707104801774 -0.000519 0.006042 0.013306 
3707124607682 -0.000519 0.006042 0.013306 
3707144444108 -0.000519 0.006042 0.013306 
3707164250016 -0.000519 0.006042 0.013306 
3707184055924 -0.000519 0.006042 0.013306 
3707203892350 -0.000519 0.006042 0.013306 
3707223698258 -0.000519 0.006042 0.013306 
3707243534684 -0.000519 0.006042 0.013306 
3707263340592 -0.000519 0.006042 0.013306 
3707283146501 -0.000519 0.006042 0.013306 
3707302982926 -0.000519 0.006042 0.013306 
3707322788835 -0.000519 0.006042 0.013306 
3707342625260 -0.000519 0.006042 0.013306 
3707362461686 -0.000519 0.006042 0.013306 
3707382267594 -0.000519 0.006042 0.013306 
3707402104020 -0.000519 0.006042 0.013306 
3707421909928 -0.000519 0.006042 0.013306 
3707441715836 -0.000519 0.006042 0.013306 
3707461552262 -0.000519 0.006042 0.013306 
3707481358170 -0.000519 0.006042 0.013306 
3707501194596 -0.000519 0.006042 0.013306 
3707521000504 -0.000519 0.006042 0.013306 
3707540806413 -0.000519 0.006042 0.013306 
3707560642838 -0.000519 0.006042 0.013306 
3707580448747 -0.000519 0.006042 0.013306 
3707600285172 -0.000519 0.006042 0.013306 
3707620121598 -0.000519 0.006042 0.013306 
3707639927506 -0.000519 0.006042 0.013306 
3707659763932 -0.000519 0.006042 0.013306 
3707679569840 -0.000519 0.006042 0.013306 
3707699375749 -0.000519 0.006042 0.013306 
3707719212174 -0.000519 0.006042 0.013306 
3707739018083 -0.000519 0.006042 0.013306 
3707758854508 -0.000519 0.006042 0.013306 
3707778660417 -0.000519 0.006042 0.013306 
3707798466325 -0.000519 0.006042 0.013306 
3707818302751 -0.000519 0.006042 0.013306 
3707838108659 -0.000519 0.006042 0.013306 
3707857945085 -0.000519 0.006042 0.013306 
3707877750993 -0.000519 0.006042 0.013306 
3707897556901 -0.000519 0.006042 0.013306 
3707917393327 -0.000519 0.006042 0.013306 
3707937229752 -0.000519 0.006042 0.013306 
3707957066178 -0.000519 0.006042 0.013306 
3707976872086 -0.000519 0.006042 0.013306 
3707996677995 -0.000519 0.006042 0.013306 
3708016514420 -0.000519 0.006042 0.013306 
3708036320329 -0.000519 0.006042 0.013306 
3708056126237 -0.000519 0.006042 0.013306 
3708075962663 -0.000519 0.006042 0.013306 
3708095768571 -0.000519 0.006042 0.013306 
3708115604997 -0.000519 0.006042 0.013306 
3708135410905 -0.000519 0.006042 0.013306 
3708155216813 -0.000519 0.006042 0.013306 
3708175053239 -0.000519 0.006042 0.013306 
3708194889665 -0.000519 0.006042 0.013306 
3708214726090 -0.000519 0.006042 0.013306 
3708234531999 -0.000519 0.006042 0.013306 
3708254337907 -0.000519 0.006042 0.013306 
3708274174333 -0.000519 0.006042 0.013306 
3708293980241 -0.000519 0.006042 0.013306 
3708313786149 -0.000519 0.006042 0.013306 
3708333622575 -0.000519 0.006042 0.013306 
3708353428483 -0.000519 0.006042 0.013306 
3708373234391 -0.000519 0.006042 0.013306 
3708393070817 -0.000519 0.006042 0.013306 
3708412876725 -0.000519 0.006042 0.013306 
3708432713151 -0.000519 0.006042 0.013306 
3708452519059 -0.000519 0.006042 0.013306 
3708472355485 -0.000519 0.006042 0.013306 
3708492191911 -0.000519 0.006042 0.013306 
3708511997819 -0.000519 0.006042 0.013306 
3708531834245 -0.000519 0.006042 0.013306 
3708551640153 -0.000519 0.006042 0.013306 
3708571446061 -0.000519 0.006042 0.013306 
3708591282487 -0.000519 0.006042 0.013306 
3708611088395 -0.000519 0.006042 0.013306 
3708630924821 -0.000519 0.006042 0.013306 
3708650708251 -0.000519 0.006042 0.013306 
3708670514159 -0.000519 0.006042 0.013306 
3708690350585 -0.000519 0.006042 0.013306 
3708710156493 -0.000519 0.006042 0.013306 
3708729992919 -0.000519 0.006042 0.013306 
3708749798827 -0.000519 0.006042 0.013306 
3708769635253 -0.000519 0.006042 0.013306 
3708789471679 -0.000519 0.006042 0.013306 
3708809277587 -0.000519 0.006042 0.013306 
3708829083495 -0.000519 0.006042 0.013306 
3708848919921 -0.000519 0.006042 0.013306 
3708868725829 -0.000519 0.006042 0.013306 
3708888562255 -0.000519 0.006042 0.013306 
3708908368163 -0.000519 0.006042 0.013306 
3708928174071 -0.000519 0.006042 0.013306 
3708948010497 -0.000519 0.006042 0.013306 
3708967816405 -0.000519 0.006042 0.013306 
3708987652831 -0.000519 0.006042 0.013306 
3709007458739 -0.000519 0.006042 0.013306 
3709027264648 -0.000519 0.006042 0.013306 
3709047101073 -0.000519 0.006042 0.013306 
3709066937499 -0.000519 0.006042 0.013306 
3709086743407 -0.000519 0.006042 0.013306 
3709106579833 -0.000519 0.006042 0.013306 
3709126385741 -0.000519 0.006042 0.013306 
3709146222167 -0.000519 0.006042 0.013306 
3709166028075 -0.000519 0.006042 0.013306 
3709185833983 -0.000519 0.006042 0.013306 
3709205670409 -0.000519 0.006042 0.013306 
3709225476317 -0.000519 0.006042 0.013306 
3709245312743 -0.000519 0.006042 0.013306 
3709265118651 -0.000519 0.006042 0.013306 
3709284924560 -0.000519 0.006042 0.013306 
3709304760985 -0.000519 0.006042 0.013306 
3709324566894 -0.000519 0.006042 0.013306 
3709344403319 -0.000519 0.006042 0.013306 
3709364239745 -0.000519 0.006042 0.013306 
3709384045653 -0.000519 0.006042 0.013306 
3709403882079 -0.000519 0.006042 0.013306 
3709423687987 -0.000519 0.006042 0.013306 
3709443524413 -0.000519 0.006042 0.013306 
3709463330321 -0.000519 0.006042 0.013306 
3709483136230 -0.000519 0.006042 0.013306 
3709502972655 -0.000519 0.006042 0.013306 
3709522778564 -0.000519 0.006042 0.013306 
3709542584472 -0.000519 0.006042 0.013306 
3709562420898 -0.000519 0.006042 0.013306 
3709582226806 -0.000519 0.006042 0.013306 
3709602063232 -0.000519 0.006042 0.013306 
3709621899657 -0.000519 0.006042 0.013306 
3709641705565 -0.000519 0.006042 0.013306 
3709661541991 -0.000519 0.006042 0.013306 
3709681347899 -0.000519 0.006042 0.013306 
3709701184325 -0.000519 0.006042 0.013306 
3709720990233 -0.000519 0.006042 0.013306 
3709740796142 -0.000519 0.006042 0.013306 
3709760632567 -0.000519 0.006042 0.013306 
3709780438476 -0.000519 0.006042 0.013306 
3709800274901 -0.000519 0.006042 0.013306 
3709820080810 -0.000519 0.006042 0.013306 
3709839886718 -0.000519 0.006042 0.013306 
3709859723144 -0.000519 0.006042 0.013306 
3709879529052 -0.000519 0.006042 0.013306 
3709899334960 -0.000519 0.006042 0.013306 
3709919171386 -0.000519 0.006042 0.013306 
3709939007812 -0.000519 0.006042 0.013306 
3709958844237 -0.000519 0.006042 0.013306 
3709978650146 -0.000519 0.006042 0.013306 
3709998456054 -0.000519 0.006042 0.013306 
3710018292480 -0.000519 0.006042 0.013306 
3710038098388 -0.000519 0.006042 0.013306 
3710057934814 -0.000519 0.006042 0.013306 
3710077740722 -0.000519 0.006042 0.013306 
3710097546630 -0.000519 0.006042 0.013306 
3710117383056 -0.000519 0.006042 0.013306 
3710137188964 -0.000519 0.006042 0.013306 
3710157025390 -0.000519 0.006042 0.013306 
3710176831298 -0.000519 0.006042 0.013306 
3710196667724 -0.000519 0.006042 0.013306 
3710216504149 -0.000519 0.006042 0.013306 
3710236310058 -0.000519 0.006042 0.013306 
3710256115966 -0.000519 0.006042 0.013306 
3710275952392 -0.000519 0.006042 0.013306 
3710295758300 -0.000519 0.006042 0.013306 
3710315564208 -0.000519 0.006042 0.013306 
3710335400634 -0.000519 0.006042 0.013306 
3710355206542 -0.000519 0.006042 0.013306 
3710375042968 -0.000519 0.006042 0.013306 
3710394848876 -0.000519 0.006042 0.013306 
3710414685302 -0.000519 0.006042 0.013306 
3710434491210 -0.000519 0.006042 0.013306 
3710454297118 -0.000519 0.006042 0.013306 
3710474133544 -0.000519 0.006042 0.013306 
3710493969970 -0.000519 0.006042 0.013306 
3710513775878 -0.000519 0.006042 0.013306 
3710533612304 -0.000519 0.006042 0.013306 
3710553418212 -0.000519 0.006042 0.013306 
3710573254638 -0.000519 0.006042 0.013306 
3710593060546 -0.000519 0.006042 0.013306 
3710612866454 -0.000519 0.006042 0.013306 
3710632702880 -0.000519 0.006042 0.013306 
3710652508788 -0.000519 0.006042 0.013306 
3710672345214 -0.000519 0.006042 0.013306 
3710692151122 -0.000519 0.006042 0.013306 
3710711957030 -0.000519 0.006042 0.013306 
3710731793456 -0.000519 0.006042 0.013306 
3710751599364 -0.000519 0.006042 0.013306 
3710771435790 -0.000519 0.006042 0.013306 
3710791272216 -0.000519 0.006042 0.013306 
3710811078124 -0.000519 0.006042 0.013306 
3710830914550 -0.000519 0.006042 0.013306 
3710850720458 -0.000519 0.006042 0.013306 
3710870526366 -0.000519 0.006042 0.013306 
3710890362792 -0.000519 0.006042 0.013306 
3710910168700 -0.000519 0.006042 0.013306 
3710930005126 -0.000519 0.006042 0.013306 
3710949811034 -0.000519 0.006042 0.013306 
3710969616942 -0.000519 0.006042 0.013306 
3710989453368 -0.000519 0.006042 0.013306 
3711009259276 -0.000519 0.006042 0.013306 
3711029095702 -0.000519 0.006042 0.013306 
3711048932128 -0.000519 0.006042 0.013306 
3711068738036 -0.000519 0.006042 0.013306 
3711088574462 -0.000519 0.006042 0.013306 
3711108380370 -0.000519 0.006042 0.013306 
3711128186278 -0.000519 0.006042 0.013306 
3711148022704 -0.000519 0.006042 0.013306 
3711167828612 -0.000519 0.006042 0.013306 
3711187665038 -0.000519 0.006042 0.013306 
3711207470946 -0.000519 0.006042 0.013306 
3711227276855 -0.000519 0.006042 0.013306 
3711247113280 -0.000519 0.006042 0.013306 
3711266919189 -0.000519 0.006042 0.013306 
3711286725097 -0.000519 0.006042 0.013306 
3711306561523 -0.000519 0.006042 0.013306 
3711326367431 -0.000519 0.006042 0.013306 
3711346203857 -0.000519 0.006042 0.013306 
3711366040282 -0.000519 0.006042 0.013306 
3711385846190 -0.000519 0.006042 0.013306 
3711405682616 -0.000519 0.006042 0.013306 
3711425488524 -0.000519 0.006042 0.013306 
3711445324950 -0.000519 0.006042 0.013306 
3711465130858 -0.000519 0.006042 0.013306 
3711484936767 -0.000519 0.006042 0.013306 
3711504773192 -0.000519 0.006042 0.013306 
3711524579101 -0.000519 0.006042 0.013306 
3711544415526 -0.000519 0.006042 0.013306 
3711564221435 -0.000519 0.006042 0.013306 
3711584027343 -0.000519 0.006042 0.013306 
3711603863769 -0.000519 0.006042 0.013306 
3711623700194 -0.000519 0.006042 0.013306 
3711643506103 -0.000519 0.006042 0.013306 
3711663342528 -0.000519 0.006042 0.013306 
3711683148437 -0.000519 0.006042 0.013306 
3711702984862 -0.000519 0.006042 0.013306 
3711722790771 -0.000519 0.006042 0.013306 
3711742596679 -0.000519 0.006042 0.013306 
3711762433105 -0.000519 0.006042 0.013306 
3711782239013 -0.000519 0.006042 0.013306 
3711802075439 -0.000519 0.006042 0.013306 
3711821881347 -0.000519 0.006042 0.013306 
3711841687255 -0.000519 0.006042 0.013306 
3711861523681 -0.000519 0.006042 0.013306 
