# Created at Tue Jun 01 15:47:40 GMT+02:00 2021 in Burnaby Canada 
1463016793005 -0.000854 0.005371 0.011963 
1463036598913 -0.000854 0.005371 0.011963 
1463056404822 -0.000854 0.005371 0.011963 
1463076241247 -0.000854 0.005371 0.011963 
1463096047156 -0.000854 0.005371 0.011963 
1463115853064 -0.000854 0.005371 0.011963 
1463135689490 -0.000854 0.005371 0.011963 
1463155495398 -0.000854 0.005371 0.011963 
1463175301306 -0.000854 0.005371 0.011963 
1463195137732 -0.000854 0.005371 0.011963 
1463214974158 -0.000854 0.005371 0.011963 
1463234780066 -0.000854 0.005371 0.011963 
1463254616492 -0.000854 0.005371 0.011963 
1463274422400 -0.000854 0.005371 0.011963 
1463294228308 -0.000854 0.005371 0.011963 
1463314064734 -0.000854 0.005371 0.011963 
1463333870642 -0.000854 0.005371 0.011963 
1463353676550 -0.000854 0.005371 0.011963 
1463373512976 -0.000854 0.005371 0.011963 
1463393318884 -0.000854 0.005371 0.011963 
1463413124792 -0.000854 0.005371 0.011963 
1463432961218 -0.000854 0.005371 0.011963 
1463452767126 -0.000854 0.005371 0.011963 
1463472603552 -0.000854 0.005371 0.011963 
1463492439978 -0.000854 0.005371 0.011963 
1463512245886 -0.000854 0.005371 0.011963 
1463532082312 -0.000854 0.005371 0.011963 
1463551888220 -0.000854 0.005371 0.011963 
1463571694128 -0.000854 0.005371 0.011963 
1463591530554 -0.000854 0.005371 0.011963 
1463611336462 -0.000854 0.005371 0.011963 
1463631142370 -0.000854 0.005371 0.011963 
1463650978796 -0.000854 0.005371 0.011963 
1463670784704 -0.000854 0.005371 0.011963 
1463690621130 -0.000854 0.005371 0.011963 
1463710427038 -0.000854 0.005371 0.011963 
1463730232947 -0.000854 0.005371 0.011963 
1463750069372 -0.000854 0.005371 0.011963 
1463769905798 -0.000854 0.005371 0.011963 
1463789711706 -0.000854 0.005371 0.011963 
1463809548132 -0.000854 0.005371 0.011963 
1463829354040 -0.000854 0.005371 0.011963 
1463849159949 -0.000854 0.005371 0.011963 
1463868996374 -0.000854 0.005371 0.011963 
1463888802283 -0.000854 0.005371 0.011963 
1463908608191 -0.000854 0.005371 0.011963 
1463928444617 -0.000854 0.005371 0.011963 
1463948250525 -0.000854 0.005371 0.011963 
1463968056433 -0.000854 0.005371 0.011963 
1463987892859 -0.000854 0.005371 0.011963 
1464007698767 -0.000854 0.005371 0.011963 
1464027535193 -0.000854 0.005371 0.011963 
1464047371619 -0.000854 0.005371 0.011963 
1464067177527 -0.000854 0.005371 0.011963 
1464087013952 -0.000854 0.005371 0.011963 
1464106819861 -0.000854 0.005371 0.011963 
1464126625769 -0.000854 0.005371 0.011963 
1464146462195 -0.000854 0.005371 0.011963 
1464166268103 -0.000854 0.005371 0.011963 
1464186074011 -0.000854 0.005371 0.011963 
1464205910437 -0.000854 0.005371 0.011963 
1464225716345 -0.000854 0.005371 0.011963 
1464245522253 -0.000854 0.005371 0.011963 
1464265358679 -0.000854 0.005371 0.011963 
1464285164587 -0.000854 0.005371 0.011963 
1464304970495 -0.000854 0.005371 0.011963 
1464324806921 -0.000854 0.005371 0.011963 
1464344643347 -0.000854 0.005371 0.011963 
1464364449255 -0.000854 0.005371 0.011963 
1464384285681 -0.000854 0.005371 0.011963 
1464404091589 -0.000854 0.005371 0.011963 
1464423928015 -0.000854 0.005371 0.011963 
1464443733923 -0.000854 0.005371 0.011963 
1464463539831 -0.000854 0.005371 0.011963 
1464483376257 -0.000854 0.005371 0.011963 
1464503182165 -0.000854 0.005371 0.011963 
1464522988074 -0.000854 0.005371 0.011963 
1464542824499 -0.000854 0.005371 0.011963 
1464562630408 -0.000854 0.005371 0.011963 
1464582436316 -0.000854 0.005371 0.011963 
1464602272742 -0.000854 0.005371 0.011963 
1464622109167 -0.000854 0.005371 0.011963 
1464641915076 -0.000854 0.005371 0.011963 
1464661751501 -0.000854 0.005371 0.011963 
1464681557410 -0.000854 0.005371 0.011963 
1464701363318 -0.000854 0.005371 0.011963 
1464721199744 -0.000854 0.005371 0.011963 
1464741005652 -0.000854 0.005371 0.011963 
1464760811560 -0.000854 0.005371 0.011963 
1464780647986 -0.000854 0.005371 0.011963 
1464800453894 -0.000854 0.005371 0.011963 
1464820259802 -0.000854 0.005371 0.011963 
1464840096228 -0.000854 0.005371 0.011963 
1464859902136 -0.000854 0.005371 0.011963 
1464879738562 -0.000854 0.005371 0.011963 
1464899544470 -0.000854 0.005371 0.011963 
1464919380896 -0.000854 0.005371 0.011963 
1464939217322 -0.000854 0.005371 0.011963 
1464959023230 -0.000854 0.005371 0.011963 
1464978829138 -0.000854 0.005371 0.011963 
1464998665564 -0.000854 0.005371 0.011963 
1465018471472 -0.000854 0.005371 0.011963 
1465038307898 -0.000854 0.005371 0.011963 
1465058113806 -0.000854 0.005371 0.011963 
1465077919714 -0.000854 0.005371 0.011963 
1465097756140 -0.000854 0.005371 0.011963 
1465117562048 -0.000854 0.005371 0.011963 
1465137367956 -0.000854 0.005371 0.011963 
1465157204382 -0.000854 0.005371 0.011963 
1465177010290 -0.000854 0.005371 0.011963 
1465196846716 -0.000854 0.005371 0.011963 
1465216683142 -0.000854 0.005371 0.011963 
1465236489050 -0.000854 0.005371 0.011963 
1465256294958 -0.000854 0.005371 0.011963 
1465276131384 -0.000854 0.005371 0.011963 
1465295937292 -0.000854 0.005371 0.011963 
1465315743201 -0.000854 0.005371 0.011963 
1465335579626 -0.000854 0.005371 0.011963 
1465355385535 -0.000854 0.005371 0.011963 
1465375191443 -0.000854 0.005371 0.011963 
1465395027869 -0.000854 0.005371 0.011963 
1465414833777 -0.000854 0.005371 0.011963 
1465434670202 -0.000854 0.005371 0.011963 
1465454476111 -0.000854 0.005371 0.011963 
1465474282019 -0.000854 0.005371 0.011963 
1465494118445 -0.000854 0.005371 0.011963 
1465513954870 -0.000854 0.005371 0.011963 
1465533760779 -0.000854 0.005371 0.011963 
1465553597204 -0.000854 0.005371 0.011963 
1465573403113 -0.000854 0.005371 0.011963 
1465593209021 -0.000854 0.005371 0.011963 
1465613045447 -0.000854 0.005371 0.011963 
1465632851355 -0.000854 0.005371 0.011963 
1465652657263 -0.000854 0.005371 0.011963 
1465672493689 -0.000854 0.005371 0.011963 
1465692299597 -0.000854 0.005371 0.011963 
1465712136023 -0.000854 0.005371 0.011963 
1465731941931 -0.000854 0.005371 0.011963 
1465751747839 -0.000854 0.005371 0.011963 
1465771584265 -0.000854 0.005371 0.011963 
1465791420691 -0.000854 0.005371 0.011963 
1465811226599 -0.000854 0.005371 0.011963 
1465831063025 -0.000854 0.005371 0.011963 
1465850868933 -0.000854 0.005371 0.011963 
1465870674841 -0.000854 0.005371 0.011963 
1465890511267 -0.000854 0.005371 0.011963 
1465910317175 -0.000854 0.005371 0.011963 
1465930123083 -0.000854 0.005371 0.011963 
1465949959509 -0.000854 0.005371 0.011963 
1465969765417 -0.000854 0.005371 0.011963 
1465989601843 -0.000854 0.005371 0.011963 
1466009407751 -0.000854 0.005371 0.011963 
1466029213660 -0.000854 0.005371 0.011963 
1466049050085 -0.000854 0.005371 0.011963 
1466068886511 -0.000854 0.005371 0.011963 
1466088692419 -0.000854 0.005371 0.011963 
1466108528845 -0.000854 0.005371 0.011963 
1466128334753 -0.000854 0.005371 0.011963 
1466148140661 -0.000854 0.005371 0.011963 
1466167977087 -0.000854 0.005371 0.011963 
1466187782995 -0.000854 0.005371 0.011963 
1466207588904 -0.000854 0.005371 0.011963 
1466227425329 -0.000854 0.005371 0.011963 
1466247231238 -0.000854 0.005371 0.011963 
1466267037146 -0.000854 0.005371 0.011963 
1466286873572 -0.000854 0.005371 0.011963 
1466306679480 -0.000854 0.005371 0.011963 
1466326485388 -0.000854 0.005371 0.011963 
1466346321814 -0.000854 0.005371 0.011963 
1466366158240 -0.000854 0.005371 0.011963 
1466385964148 -0.000854 0.005371 0.011963 
1466405800574 -0.000854 0.005371 0.011963 
1466425606482 -0.000854 0.005371 0.011963 
1466445442908 -0.000854 0.005371 0.011963 
1466465248816 -0.000854 0.005371 0.011963 
1466485054724 -0.000854 0.005371 0.011963 
1466504891150 -0.000854 0.005371 0.011963 
1466524697058 -0.000854 0.005371 0.011963 
1466544502966 -0.000854 0.005371 0.011963 
1466564339392 -0.000854 0.005371 0.011963 
1466584145300 -0.000854 0.005371 0.011963 
1466603951208 -0.000854 0.005371 0.011963 
1466623787634 -0.000854 0.005371 0.011963 
1466643624060 -0.000854 0.005371 0.011963 
1466663460486 -0.000854 0.005371 0.011963 
1466683266394 -0.000854 0.005371 0.011963 
1466703072302 -0.000854 0.005371 0.011963 
1466722908728 -0.000854 0.005371 0.011963 
1466742714636 -0.000854 0.005371 0.011963 
1466762520544 -0.000854 0.005371 0.011963 
1466782356970 -0.000854 0.005371 0.011963 
1466802162878 -0.000854 0.005371 0.011963 
1466821968786 -0.000854 0.005371 0.011963 
1466841805212 -0.000854 0.005371 0.011963 
1466861611120 -0.000854 0.005371 0.011963 
1466881417029 -0.000854 0.005371 0.011963 
1466901253454 -0.000854 0.005371 0.011963 
1466921089880 -0.000854 0.005371 0.011963 
1466940926306 -0.000854 0.005371 0.011963 
1466960732214 -0.000854 0.005371 0.011963 
1466980538122 -0.000854 0.005371 0.011963 
1467000374548 -0.000854 0.005371 0.011963 
1467020180456 -0.000854 0.005371 0.011963 
1467039986365 -0.000854 0.005371 0.011963 
1467059822790 -0.000854 0.005371 0.011963 
1467079628699 -0.000854 0.005371 0.011963 
1467099434607 -0.000854 0.005371 0.011963 
1467119271033 -0.000854 0.005371 0.011963 
1467139076941 -0.000854 0.005371 0.011963 
1467158882849 -0.000854 0.005371 0.011963 
1467178719275 -0.000854 0.005371 0.011963 
1467198555701 -0.000854 0.005371 0.011963 
1467218361609 -0.000854 0.005371 0.011963 
1467238198035 -0.000854 0.005371 0.011963 
1467258003943 -0.000854 0.005371 0.011963 
1467277840369 -0.000854 0.005371 0.011963 
1467297646277 -0.000854 0.005371 0.011963 
1467317452185 -0.000854 0.005371 0.011963 
1467337258093 -0.000854 0.005371 0.011963 
1467357094519 -0.000854 0.005371 0.011963 
1467376900427 -0.000854 0.005371 0.011963 
1467396736853 -0.000854 0.005371 0.011963 
1467416542761 -0.000854 0.005371 0.011963 
1467436348669 -0.000854 0.005371 0.011963 
1467456185095 -0.000854 0.005371 0.011963 
1467475991003 -0.000854 0.005371 0.011963 
1467495827429 -0.000854 0.005371 0.011963 
1467515663855 -0.000854 0.005371 0.011963 
1467535469763 -0.000854 0.005371 0.011963 
1467555275671 -0.000854 0.005371 0.011963 
1467575112097 -0.000854 0.005371 0.011963 
1467594918005 -0.000854 0.005371 0.011963 
1467614754431 -0.000854 0.005371 0.011963 
1467634560339 -0.000854 0.005371 0.011963 
1467654366247 -0.000854 0.005371 0.011963 
1467674202673 -0.000854 0.005371 0.011963 
1467694008581 -0.000854 0.005371 0.011963 
1467713814490 -0.000854 0.005371 0.011963 
1467733650915 -0.000854 0.005371 0.011963 
1467753456824 -0.000854 0.005371 0.011963 
1467773293249 -0.000854 0.005371 0.011963 
1467793129675 -0.000854 0.005371 0.011963 
1467812935583 -0.000854 0.005371 0.011963 
1467832741492 -0.000854 0.005371 0.011963 
1467852577917 -0.000854 0.005371 0.011963 
1467872383826 -0.000854 0.005371 0.011963 
1467892189734 -0.000854 0.005371 0.011963 
1467912026160 -0.000854 0.005371 0.011963 
1467931832068 -0.000854 0.005371 0.011963 
1467951668494 -0.000854 0.005371 0.011963 
1467971474402 -0.000854 0.005371 0.011963 
1467991280310 -0.000854 0.005371 0.011963 
1468011116736 -0.000854 0.005371 0.011963 
1468030922644 -0.000854 0.005371 0.011963 
1468050728552 -0.000854 0.005371 0.011963 
1468070564978 -0.000854 0.005371 0.011963 
1468090401404 -0.000854 0.005371 0.011963 
1468110207312 -0.000854 0.005371 0.011963 
1468130043738 -0.000854 0.005371 0.011963 
1468149849646 -0.000854 0.005371 0.011963 
1468169655554 -0.000854 0.005371 0.011963 
1468189491980 -0.000854 0.005371 0.011963 
1468209297888 -0.000854 0.005371 0.011963 
1468229103796 -0.000854 0.005371 0.011963 
1468248940222 -0.000854 0.005371 0.011963 
1468268746130 -0.000854 0.005371 0.011963 
1468288552038 -0.000854 0.005371 0.011963 
1468308388464 -0.000854 0.005371 0.011963 
1468328194372 -0.000854 0.005371 0.011963 
1468348030798 -0.000854 0.005371 0.011963 
1468367867224 -0.000854 0.005371 0.011963 
1468387673132 -0.000854 0.005371 0.011963 
1468407509558 -0.000854 0.005371 0.011963 
1468427315466 -0.000854 0.005371 0.011963 
1468447121374 -0.000854 0.005371 0.011963 
1468466957800 -0.000854 0.005371 0.011963 
1468486802773 -0.000854 0.005371 0.011963 
1468506608682 -0.000854 0.005371 0.011963 
1468526445107 -0.000854 0.005371 0.011963 
1468546251016 -0.000854 0.005371 0.011963 
1468566056924 -0.000854 0.005371 0.011963 
1468585893350 -0.000854 0.005371 0.011963 
1468605699258 -0.000854 0.005371 0.011963 
1468625535684 -0.000854 0.005371 0.011963 
1468645372109 -0.000854 0.005371 0.011963 
1468665178017 -0.000854 0.005371 0.011963 
