# Created at Tue Jun 01 16:12:26 GMT+02:00 2021 in Burnaby Canada 
2948166008795 -0.001007 0.005173 0.011871 
2948185845220 -0.001007 0.005173 0.011871 
2948205651129 -0.001007 0.005173 0.011871 
2948225487554 -0.001007 0.005173 0.011871 
2948245323980 -0.001007 0.005173 0.011871 
2948265129888 -0.001007 0.005173 0.011871 
2948284935797 -0.001007 0.005173 0.011871 
2948304772222 -0.001007 0.005173 0.011871 
2948324578131 -0.001007 0.005173 0.011871 
2948344384039 -0.001007 0.005173 0.011871 
2948364220465 -0.001007 0.005173 0.011871 
2948384026373 -0.001007 0.005173 0.011871 
2948403832281 -0.001007 0.005173 0.011871 
2948423668707 -0.001007 0.005173 0.011871 
2948443474615 -0.001007 0.005173 0.011871 
2948463280523 -0.001007 0.005173 0.011871 
2948483116949 -0.001007 0.005173 0.011871 
2948502922857 -0.001007 0.005173 0.011871 
2948522759283 -0.001007 0.005173 0.011871 
2948542595709 -0.001007 0.005173 0.011871 
2948562401617 -0.001007 0.005173 0.011871 
2948582238043 -0.001007 0.005173 0.011871 
2948602046584 -0.001007 0.005173 0.011871 
2948621852492 -0.001007 0.005173 0.011871 
2948641688918 -0.001007 0.005173 0.011871 
2948661494826 -0.001007 0.005173 0.011871 
2948681300734 -0.001007 0.005173 0.011871 
2948701137160 -0.001007 0.005173 0.011871 
2948720943068 -0.001007 0.005173 0.011871 
2948740748977 -0.001007 0.005173 0.011871 
2948760585402 -0.001007 0.005173 0.011871 
2948780391310 -0.001007 0.005173 0.011871 
2948800227736 -0.001007 0.005173 0.011871 
2948820064162 -0.001007 0.005173 0.011871 
2948839870070 -0.001007 0.005173 0.011871 
2948859675978 -0.001007 0.005173 0.011871 
2948879512404 -0.001007 0.005173 0.011871 
2948899318312 -0.001007 0.005173 0.011871 
2948919154738 -0.001007 0.005173 0.011871 
2948938960646 -0.001007 0.005173 0.011871 
2948958766555 -0.001007 0.005173 0.011871 
2948978602980 -0.001007 0.005173 0.011871 
2948998408889 -0.001007 0.005173 0.011871 
2949018245314 -0.001007 0.005173 0.011871 
2949038051223 -0.001007 0.005173 0.011871 
2949057857131 -0.001007 0.005173 0.011871 
2949077693557 -0.001007 0.005173 0.011871 
2949097529982 -0.001007 0.005173 0.011871 
2949117335891 -0.001007 0.005173 0.011871 
2949137172316 -0.001007 0.005173 0.011871 
2949156978225 -0.001007 0.005173 0.011871 
2949176784133 -0.001007 0.005173 0.011871 
2949196620559 -0.001007 0.005173 0.011871 
2949216426467 -0.001007 0.005173 0.011871 
2949236232375 -0.001007 0.005173 0.011871 
2949256068801 -0.001007 0.005173 0.011871 
2949275874709 -0.001007 0.005173 0.011871 
2949295711135 -0.001007 0.005173 0.011871 
2949315517043 -0.001007 0.005173 0.011871 
2949335322951 -0.001007 0.005173 0.011871 
2949355159377 -0.001007 0.005173 0.011871 
2949374995803 -0.001007 0.005173 0.011871 
2949394801711 -0.001007 0.005173 0.011871 
2949414638137 -0.001007 0.005173 0.011871 
2949434444045 -0.001007 0.005173 0.011871 
2949454249953 -0.001007 0.005173 0.011871 
2949474086379 -0.001007 0.005173 0.011871 
2949493892287 -0.001007 0.005173 0.011871 
2949513698195 -0.001007 0.005173 0.011871 
2949533534621 -0.001007 0.005173 0.011871 
2949553340529 -0.001007 0.005173 0.011871 
2949573146437 -0.001007 0.005173 0.011871 
2949592982863 -0.001007 0.005173 0.011871 
2949612788771 -0.001007 0.005173 0.011871 
2949632625197 -0.001007 0.005173 0.011871 
2949652461623 -0.001007 0.005173 0.011871 
2949672267531 -0.001007 0.005173 0.011871 
2949692103957 -0.001007 0.005173 0.011871 
2949711909865 -0.001007 0.005173 0.011871 
2949731715773 -0.001007 0.005173 0.011871 
2949751552199 -0.001007 0.005173 0.011871 
2949771358107 -0.001007 0.005173 0.011871 
2949791164016 -0.001007 0.005173 0.011871 
2949811000441 -0.001007 0.005173 0.011871 
2949830806350 -0.001007 0.005173 0.011871 
2949850612258 -0.001007 0.005173 0.011871 
2949870448684 -0.001007 0.005173 0.011871 
2949890254592 -0.001007 0.005173 0.011871 
2949910091018 -0.001007 0.005173 0.011871 
2949929896926 -0.001007 0.005173 0.011871 
2949949733352 -0.001007 0.005173 0.011871 
2949969569777 -0.001007 0.005173 0.011871 
2949989375685 -0.001007 0.005173 0.011871 
2950009181594 -0.001007 0.005173 0.011871 
2950029018019 -0.001007 0.005173 0.011871 
2950048823928 -0.001007 0.005173 0.011871 
2950068629836 -0.001007 0.005173 0.011871 
2950088466262 -0.001007 0.005173 0.011871 
2950108272170 -0.001007 0.005173 0.011871 
2950128078078 -0.001007 0.005173 0.011871 
2950147914504 -0.001007 0.005173 0.011871 
2950167720412 -0.001007 0.005173 0.011871 
2950187556838 -0.001007 0.005173 0.011871 
2950207362746 -0.001007 0.005173 0.011871 
2950227199172 -0.001007 0.005173 0.011871 
2950247035598 -0.001007 0.005173 0.011871 
2950266841506 -0.001007 0.005173 0.011871 
2950286647414 -0.001007 0.005173 0.011871 
2950306483840 -0.001007 0.005173 0.011871 
2950326289748 -0.001007 0.005173 0.011871 
2950346095656 -0.001007 0.005173 0.011871 
2950365932082 -0.001007 0.005173 0.011871 
2950385737990 -0.001007 0.005173 0.011871 
2950405543898 -0.001007 0.005173 0.011871 
2950425380324 -0.001007 0.005173 0.011871 
2950445186232 -0.001007 0.005173 0.011871 
2950464992141 -0.001007 0.005173 0.011871 
2950484828566 -0.001007 0.005173 0.011871 
2950504634475 -0.001007 0.005173 0.011871 
2950524470900 -0.001007 0.005173 0.011871 
2950544307326 -0.001007 0.005173 0.011871 
2950564113234 -0.001007 0.005173 0.011871 
2950583919143 -0.001007 0.005173 0.011871 
2950603755568 -0.001007 0.005173 0.011871 
2950623561477 -0.001007 0.005173 0.011871 
2950643397902 -0.001007 0.005173 0.011871 
2950663203810 -0.001007 0.005173 0.011871 
2950683009719 -0.001007 0.005173 0.011871 
2950702846144 -0.001007 0.005173 0.011871 
2950722652053 -0.001007 0.005173 0.011871 
2950742457961 -0.001007 0.005173 0.011871 
2950762294387 -0.001007 0.005173 0.011871 
2950782100295 -0.001007 0.005173 0.011871 
2950801936721 -0.001007 0.005173 0.011871 
2950821773146 -0.001007 0.005173 0.011871 
2950841579055 -0.001007 0.005173 0.011871 
2950861415480 -0.001007 0.005173 0.011871 
2950881221389 -0.001007 0.005173 0.011871 
2950901027297 -0.001007 0.005173 0.011871 
2950920863723 -0.001007 0.005173 0.011871 
2950940669631 -0.001007 0.005173 0.011871 
2950960475539 -0.001007 0.005173 0.011871 
2950980311965 -0.001007 0.005173 0.011871 
2951000117873 -0.001007 0.005173 0.011871 
2951019923781 -0.001007 0.005173 0.011871 
2951039760207 -0.001007 0.005173 0.011871 
2951059566115 -0.001007 0.005173 0.011871 
2951079402541 -0.001007 0.005173 0.011871 
2951099238967 -0.001007 0.005173 0.011871 
2951119044875 -0.001007 0.005173 0.011871 
2951138881301 -0.001007 0.005173 0.011871 
2951158687209 -0.001007 0.005173 0.011871 
2951178493117 -0.001007 0.005173 0.011871 
2951198329543 -0.001007 0.005173 0.011871 
2951218135451 -0.001007 0.005173 0.011871 
2951237941359 -0.001007 0.005173 0.011871 
2951257777785 -0.001007 0.005173 0.011871 
2951277583693 -0.001007 0.005173 0.011871 
2951297389602 -0.001007 0.005173 0.011871 
2951317226027 -0.001007 0.005173 0.011871 
2951337031935 -0.001007 0.005173 0.011871 
2951356837844 -0.001007 0.005173 0.011871 
2951376674269 -0.001007 0.005173 0.011871 
2951396510695 -0.001007 0.005173 0.011871 
2951416347121 -0.001007 0.005173 0.011871 
2951436153029 -0.001007 0.005173 0.011871 
2951455958937 -0.001007 0.005173 0.011871 
2951475795363 -0.001007 0.005173 0.011871 
2951495601271 -0.001007 0.005173 0.011871 
2951515407180 -0.001007 0.005173 0.011871 
2951535243605 -0.001007 0.005173 0.011871 
2951555049514 -0.001007 0.005173 0.011871 
2951574855422 -0.001007 0.005173 0.011871 
2951594691848 -0.001007 0.005173 0.011871 
2951614497756 -0.001007 0.005173 0.011871 
2951634303664 -0.001007 0.005173 0.011871 
2951654140090 -0.001007 0.005173 0.011871 
2951673976516 -0.001007 0.005173 0.011871 
2951693812941 -0.001007 0.005173 0.011871 
2951713618850 -0.001007 0.005173 0.011871 
2951733424758 -0.001007 0.005173 0.011871 
2951753261184 -0.001007 0.005173 0.011871 
2951773067092 -0.001007 0.005173 0.011871 
2951792873000 -0.001007 0.005173 0.011871 
2951812709426 -0.001007 0.005173 0.011871 
2951832515334 -0.001007 0.005173 0.011871 
2951852321242 -0.001007 0.005173 0.011871 
2951872157668 -0.001007 0.005173 0.011871 
2951891963576 -0.001007 0.005173 0.011871 
2951911769484 -0.001007 0.005173 0.011871 
2951931605910 -0.001007 0.005173 0.011871 
2951951442336 -0.001007 0.005173 0.011871 
2951971278762 -0.001007 0.005173 0.011871 
2951991084670 -0.001007 0.005173 0.011871 
2952010890578 -0.001007 0.005173 0.011871 
2952030727004 -0.001007 0.005173 0.011871 
2952050532912 -0.001007 0.005173 0.011871 
2952070338820 -0.001007 0.005173 0.011871 
2952090175246 -0.001007 0.005173 0.011871 
2952109981154 -0.001007 0.005173 0.011871 
2952129787062 -0.001007 0.005173 0.011871 
2952149623488 -0.001007 0.005173 0.011871 
2952169429396 -0.001007 0.005173 0.011871 
2952189235305 -0.001007 0.005173 0.011871 
2952209071730 -0.001007 0.005173 0.011871 
2952228908156 -0.001007 0.005173 0.011871 
2952248744582 -0.001007 0.005173 0.011871 
2952268550490 -0.001007 0.005173 0.011871 
2952288356398 -0.001007 0.005173 0.011871 
2952308192824 -0.001007 0.005173 0.011871 
2952327998732 -0.001007 0.005173 0.011871 
2952347804641 -0.001007 0.005173 0.011871 
2952367641066 -0.001007 0.005173 0.011871 
2952387446975 -0.001007 0.005173 0.011871 
2952407252883 -0.001007 0.005173 0.011871 
2952427089309 -0.001007 0.005173 0.011871 
2952446895217 -0.001007 0.005173 0.011871 
2952466701125 -0.001007 0.005173 0.011871 
2952486537551 -0.001007 0.005173 0.011871 
2952506343459 -0.001007 0.005173 0.011871 
2952526179885 -0.001007 0.005173 0.011871 
2952546016310 -0.001007 0.005173 0.011871 
2952565822219 -0.001007 0.005173 0.011871 
2952585658644 -0.001007 0.005173 0.011871 
2952605464553 -0.001007 0.005173 0.011871 
2952625270461 -0.001007 0.005173 0.011871 
2952645106887 -0.001007 0.005173 0.011871 
2952664912795 -0.001007 0.005173 0.011871 
2952684718703 -0.001007 0.005173 0.011871 
2952704555129 -0.001007 0.005173 0.011871 
2952724361037 -0.001007 0.005173 0.011871 
2952744166945 -0.001007 0.005173 0.011871 
2952764003371 -0.001007 0.005173 0.011871 
2952783809279 -0.001007 0.005173 0.011871 
2952803645705 -0.001007 0.005173 0.011871 
2952823482131 -0.001007 0.005173 0.011871 
2952843288039 -0.001007 0.005173 0.011871 
2952863124465 -0.001007 0.005173 0.011871 
2952882930373 -0.001007 0.005173 0.011871 
2952902736281 -0.001007 0.005173 0.011871 
2952922572707 -0.001007 0.005173 0.011871 
2952942378615 -0.001007 0.005173 0.011871 
2952962184523 -0.001007 0.005173 0.011871 
2952982020949 -0.001007 0.005173 0.011871 
2953001826857 -0.001007 0.005173 0.011871 
2953021632766 -0.001007 0.005173 0.011871 
2953041469191 -0.001007 0.005173 0.011871 
2953061275100 -0.001007 0.005173 0.011871 
2953081111525 -0.001007 0.005173 0.011871 
2953100947951 -0.001007 0.005173 0.011871 
2953120753859 -0.001007 0.005173 0.011871 
2953140590285 -0.001007 0.005173 0.011871 
2953160396193 -0.001007 0.005173 0.011871 
2953180202102 -0.001007 0.005173 0.011871 
2953200038527 -0.001007 0.005173 0.011871 
2953219844435 -0.001007 0.005173 0.011871 
2953239650344 -0.001007 0.005173 0.011871 
2953259486769 -0.001007 0.005173 0.011871 
2953279292678 -0.001007 0.005173 0.011871 
2953299098586 -0.001007 0.005173 0.011871 
2953318935012 -0.001007 0.005173 0.011871 
2953338740920 -0.001007 0.005173 0.011871 
2953358577346 -0.001007 0.005173 0.011871 
2953378413771 -0.001007 0.005173 0.011871 
2953398219680 -0.001007 0.005173 0.011871 
2953418056105 -0.001007 0.005173 0.011871 
2953437862014 -0.001007 0.005173 0.011871 
2953457667922 -0.001007 0.005173 0.011871 
2953477504348 -0.001007 0.005173 0.011871 
2953497310256 -0.001007 0.005173 0.011871 
2953517116164 -0.001007 0.005173 0.011871 
2953536952590 -0.001007 0.005173 0.011871 
2953556758498 -0.001007 0.005173 0.011871 
2953576564406 -0.001007 0.005173 0.011871 
2953596400832 -0.001007 0.005173 0.011871 
2953616206740 -0.001007 0.005173 0.011871 
2953636043166 -0.001007 0.005173 0.011871 
2953655879592 -0.001007 0.005173 0.011871 
2953675685500 -0.001007 0.005173 0.011871 
2953695521926 -0.001007 0.005173 0.011871 
2953715327834 -0.001007 0.005173 0.011871 
2953735133742 -0.001007 0.005173 0.011871 
2953754970168 -0.001007 0.005173 0.011871 
2953774776076 -0.001007 0.005173 0.011871 
2953794581984 -0.001007 0.005173 0.011871 
2953814418410 -0.001007 0.005173 0.011871 
2953834224318 -0.001007 0.005173 0.011871 
2953854030227 -0.001007 0.005173 0.011871 
2953873866652 -0.001007 0.005173 0.011871 
2953893672560 -0.001007 0.005173 0.011871 
2953913508986 -0.001007 0.005173 0.011871 
2953933314894 -0.001007 0.005173 0.011871 
2953953151320 -0.001007 0.005173 0.011871 
2953972987746 -0.001007 0.005173 0.011871 
2953992793654 -0.001007 0.005173 0.011871 
2954012599562 -0.001007 0.005173 0.011871 
2954032435988 -0.001007 0.005173 0.011871 
2954052241896 -0.001007 0.005173 0.011871 
2954072047805 -0.001007 0.005173 0.011871 
2954091884230 -0.001007 0.005173 0.011871 
2954111690139 -0.001007 0.005173 0.011871 
2954131496047 -0.001007 0.005173 0.011871 
2954151332473 -0.001007 0.005173 0.011871 
2954171138381 -0.001007 0.005173 0.011871 
2954190974807 -0.001007 0.005173 0.011871 
2954210780715 -0.001007 0.005173 0.011871 
2954230617141 -0.001007 0.005173 0.011871 
2954250453566 -0.001007 0.005173 0.011871 
2954270259475 -0.001007 0.005173 0.011871 
2954290065383 -0.001007 0.005173 0.011871 
2954309901809 -0.001007 0.005173 0.011871 
2954329707717 -0.001007 0.005173 0.011871 
2954349513625 -0.001007 0.005173 0.011871 
2954369350051 -0.001007 0.005173 0.011871 
2954389155959 -0.001007 0.005173 0.011871 
2954408961867 -0.001007 0.005173 0.011871 
2954428798293 -0.001007 0.005173 0.011871 
2954448604201 -0.001007 0.005173 0.011871 
2954468410109 -0.001007 0.005173 0.011871 
2954488246535 -0.001007 0.005173 0.011871 
2954508052443 -0.001007 0.005173 0.011871 
2954527888869 -0.001007 0.005173 0.011871 
2954547725295 -0.001007 0.005173 0.011871 
2954567531203 -0.001007 0.005173 0.011871 
2954587367629 -0.001007 0.005173 0.011871 
2954607173537 -0.001007 0.005173 0.011871 
2954626979445 -0.001007 0.005173 0.011871 
2954646815871 -0.001007 0.005173 0.011871 
2954666621779 -0.001007 0.005173 0.011871 
2954686458205 -0.001007 0.005173 0.011871 
2954706264113 -0.001007 0.005173 0.011871 
2954726070021 -0.001007 0.005173 0.011871 
2954745906447 -0.001007 0.005173 0.011871 
2954765712355 -0.001007 0.005173 0.011871 
2954785518264 -0.001007 0.005173 0.011871 
2954805354689 -0.001007 0.005173 0.011871 
2954825191115 -0.001007 0.005173 0.011871 
2954844997023 -0.001007 0.005173 0.011871 
2954864833449 -0.001007 0.005173 0.011871 
2954884639357 -0.001007 0.005173 0.011871 
2954904445266 -0.001007 0.005173 0.011871 
2954924281691 -0.001007 0.005173 0.011871 
2954944087600 -0.001007 0.005173 0.011871 
2954963893508 -0.001007 0.005173 0.011871 
2954983729934 -0.001007 0.005173 0.011871 
2955003535842 -0.001007 0.005173 0.011871 
2955023372268 -0.001007 0.005173 0.011871 
2955043178176 -0.001007 0.005173 0.011871 
2955062984084 -0.001007 0.005173 0.011871 
2955082820510 -0.001007 0.005173 0.011871 
2955102656935 -0.001007 0.005173 0.011871 
2955122462844 -0.001007 0.005173 0.011871 
2955142299269 -0.001007 0.005173 0.011871 
2955162105178 -0.001007 0.005173 0.011871 
2955181911086 -0.001007 0.005173 0.011871 
2955201747512 -0.001007 0.005173 0.011871 
2955221553420 -0.001007 0.005173 0.011871 
2955241359328 -0.001007 0.005173 0.011871 
2955261195754 -0.001007 0.005173 0.011871 
2955281001662 -0.001007 0.005173 0.011871 
2955300807570 -0.001007 0.005173 0.011871 
2955320643996 -0.001007 0.005173 0.011871 
2955340449904 -0.001007 0.005173 0.011871 
2955360255812 -0.001007 0.005173 0.011871 
2955380092238 -0.001007 0.005173 0.011871 
2955399928664 -0.001007 0.005173 0.011871 
2955419765090 -0.001007 0.005173 0.011871 
2955439570998 -0.001007 0.005173 0.011871 
2955459376906 -0.001007 0.005173 0.011871 
2955479213332 -0.001007 0.005173 0.011871 
2955499019240 -0.001007 0.005173 0.011871 
2955518825148 -0.001007 0.005173 0.011871 
2955538661574 -0.001007 0.005173 0.011871 
2955558467482 -0.001007 0.005173 0.011871 
2955578303908 -0.001007 0.005173 0.011871 
2955598109816 -0.001007 0.005173 0.011871 
2955617915725 -0.001007 0.005173 0.011871 
2955637752150 -0.001007 0.005173 0.011871 
2955657588576 -0.001007 0.005173 0.011871 
2955677394484 -0.001007 0.005173 0.011871 
2955697230910 -0.001007 0.005173 0.011871 
2955717036818 -0.001007 0.005173 0.011871 
2955736842727 -0.001007 0.005173 0.011871 
2955756679152 -0.001007 0.005173 0.011871 
2955776485060 -0.001007 0.005173 0.011871 
2955796290969 -0.001007 0.005173 0.011871 
2955816127394 -0.001007 0.005173 0.011871 
